<?xml version="1.0"?>
<opencv_storage>
<stage0>
  <maxWeakCount>5</maxWeakCount>
  <stageThreshold>-1.3727372884750366e+00</stageThreshold>
  <weakClassifiers>
    <_>
      <internalNodes>
        0 -1 1059 -1.0461657047271729e+00</internalNodes>
      <leafValues>
        -9.3486130237579346e-01 -1.2787723913788795e-02</leafValues></_>
    <_>
      <internalNodes>
        0 -1 71366 2.0147643983364105e-02</internalNodes>
      <leafValues>
        -6.3420408964157104e-01 6.4025884866714478e-01</leafValues></_>
    <_>
      <internalNodes>
        0 -1 23260 -4.7768916934728622e-02</internalNodes>
      <leafValues>
        -8.5102319717407227e-01 3.1245845556259155e-01</leafValues></_>
    <_>
      <internalNodes>
        0 -1 18841 2.5163062382489443e-03</internalNodes>
      <leafValues>
        -4.7554251551628113e-01 4.6419289708137512e-01</leafValues></_>
    <_>
      <internalNodes>
        0 -1 158837 -2.2563599050045013e-03</internalNodes>
      <leafValues>
        5.8315837383270264e-01 -3.9089408516883850e-01</leafValues></_></weakClassifiers></stage0>
</opencv_storage>
