<?xml version="1.0"?>
<opencv_storage>
<stage5>
  <maxWeakCount>20</maxWeakCount>
  <stageThreshold>-1.4203653335571289e+00</stageThreshold>
  <weakClassifiers>
    <_>
      <internalNodes>
        0 -1 81273 2.1537002176046371e-02</internalNodes>
      <leafValues>
        -6.7911714315414429e-01 4.7619047760963440e-01</leafValues></_>
    <_>
      <internalNodes>
        0 -1 70145 -1.4486560598015785e-02</internalNodes>
      <leafValues>
        2.5327342748641968e-01 -3.5139980912208557e-01</leafValues></_>
    <_>
      <internalNodes>
        0 -1 120422 -1.6366636846214533e-03</internalNodes>
      <leafValues>
        2.0976281166076660e-01 -3.7411257624626160e-01</leafValues></_>
    <_>
      <internalNodes>
        0 -1 159573 1.1691495310515165e-03</internalNodes>
      <leafValues>
        -1.9071301817893982e-01 4.1998726129531860e-01</leafValues></_>
    <_>
      <internalNodes>
        0 -1 113086 -6.4598908647894859e-04</internalNodes>
      <leafValues>
        -4.8889723420143127e-01 1.7409242689609528e-01</leafValues></_>
    <_>
      <internalNodes>
        0 -1 105763 -6.4290881156921387e-02</internalNodes>
      <leafValues>
        -4.1062894463539124e-01 1.9837830960750580e-01</leafValues></_>
    <_>
      <internalNodes>
        0 -1 38069 4.2157727293670177e-03</internalNodes>
      <leafValues>
        -1.8087373673915863e-01 4.0861850976943970e-01</leafValues></_>
    <_>
      <internalNodes>
        0 -1 127314 -4.0746806189417839e-04</internalNodes>
      <leafValues>
        -5.1161372661590576e-01 1.3489125669002533e-01</leafValues></_>
    <_>
      <internalNodes>
        0 -1 121316 3.1143778469413519e-03</internalNodes>
      <leafValues>
        -1.4219927787780762e-01 5.1924437284469604e-01</leafValues></_>
    <_>
      <internalNodes>
        0 -1 95305 5.8105033822357655e-03</internalNodes>
      <leafValues>
        1.3999234139919281e-01 -5.2311646938323975e-01</leafValues></_>
    <_>
      <internalNodes>
        0 -1 17194 4.4534197077155113e-03</internalNodes>
      <leafValues>
        -1.4272749423980713e-01 5.2152645587921143e-01</leafValues></_>
    <_>
      <internalNodes>
        0 -1 162074 1.2696167686954141e-03</internalNodes>
      <leafValues>
        -9.0491607785224915e-02 7.1520310640335083e-01</leafValues></_>
    <_>
      <internalNodes>
        0 -1 141901 5.7943724095821381e-04</internalNodes>
      <leafValues>
        1.4383356273174286e-01 -5.0363314151763916e-01</leafValues></_>
    <_>
      <internalNodes>
        0 -1 155959 3.2498908694833517e-04</internalNodes>
      <leafValues>
        -2.0187759399414063e-01 3.3282750844955444e-01</leafValues></_>
    <_>
      <internalNodes>
        0 -1 58936 -7.5502013787627220e-03</internalNodes>
      <leafValues>
        7.6645001769065857e-02 -9.3586021661758423e-01</leafValues></_>
    <_>
      <internalNodes>
        0 -1 79362 7.4544234666973352e-04</internalNodes>
      <leafValues>
        9.2096306383609772e-02 -5.9871459007263184e-01</leafValues></_>
    <_>
      <internalNodes>
        0 -1 12261 -1.8073778599500656e-02</internalNodes>
      <leafValues>
        -2.7612820267677307e-01 2.3696723580360413e-01</leafValues></_>
    <_>
      <internalNodes>
        0 -1 70529 -3.7503607571125031e-02</internalNodes>
      <leafValues>
        6.9859850406646729e-01 -1.0201881080865860e-01</leafValues></_>
    <_>
      <internalNodes>
        0 -1 161951 -2.6043469551950693e-03</internalNodes>
      <leafValues>
        5.0447642803192139e-01 -1.2237833440303802e-01</leafValues></_>
    <_>
      <internalNodes>
        0 -1 126673 3.3057690598070621e-03</internalNodes>
      <leafValues>
        1.2853513658046722e-01 -6.2351262569427490e-01</leafValues></_></weakClassifiers></stage5>
</opencv_storage>
