<?xml version="1.0"?>
<opencv_storage>
<stage2>
  <maxWeakCount>12</maxWeakCount>
  <stageThreshold>-1.5377873182296753e+00</stageThreshold>
  <weakClassifiers>
    <_>
      <internalNodes>
        0 -1 25842 -1.6917679458856583e-02</internalNodes>
      <leafValues>
        -7.5238096714019775e-01 5.8823529630899429e-02</leafValues></_>
    <_>
      <internalNodes>
        0 -1 98739 -3.7134744226932526e-02</internalNodes>
      <leafValues>
        -9.5095443725585938e-01 9.7909867763519287e-03</leafValues></_>
    <_>
      <internalNodes>
        0 -1 5926 1.6420889645814896e-02</internalNodes>
      <leafValues>
        -2.9984998703002930e-01 5.1983511447906494e-01</leafValues></_>
    <_>
      <internalNodes>
        0 -1 145518 -7.4183717370033264e-03</internalNodes>
      <leafValues>
        4.0997019410133362e-01 -3.0646863579750061e-01</leafValues></_>
    <_>
      <internalNodes>
        0 -1 70676 -2.2616961505264044e-03</internalNodes>
      <leafValues>
        5.7259595394134521e-01 -1.8630611896514893e-01</leafValues></_>
    <_>
      <internalNodes>
        0 -1 50129 1.3120569288730621e-02</internalNodes>
      <leafValues>
        -3.1703245639801025e-01 3.9705759286880493e-01</leafValues></_>
    <_>
      <internalNodes>
        0 -1 110144 -5.4861307144165039e-02</internalNodes>
      <leafValues>
        -8.6933207511901855e-01 1.2137903273105621e-01</leafValues></_>
    <_>
      <internalNodes>
        0 -1 160939 -1.8364706775173545e-03</internalNodes>
      <leafValues>
        5.8367866277694702e-01 -1.9162672758102417e-01</leafValues></_>
    <_>
      <internalNodes>
        0 -1 160992 -2.1979168523102999e-03</internalNodes>
      <leafValues>
        6.4704269170761108e-01 -1.7214696109294891e-01</leafValues></_>
    <_>
      <internalNodes>
        0 -1 23637 -1.9464255310595036e-03</internalNodes>
      <leafValues>
        4.5335832238197327e-01 -2.1776129305362701e-01</leafValues></_>
    <_>
      <internalNodes>
        0 -1 137637 1.7691873945295811e-03</internalNodes>
      <leafValues>
        1.4269530773162842e-01 -7.6993179321289063e-01</leafValues></_>
    <_>
      <internalNodes>
        0 -1 137858 -2.7910980861634016e-04</internalNodes>
      <leafValues>
        2.0745620131492615e-01 -4.4045779109001160e-01</leafValues></_></weakClassifiers></stage2>
</opencv_storage>
