<?xml version="1.0"?>
<opencv_storage>
<stage6>
  <maxWeakCount>19</maxWeakCount>
  <stageThreshold>-1.4814339876174927e+00</stageThreshold>
  <weakClassifiers>
    <_>
      <internalNodes>
        0 -1 6697 1.8847659230232239e-02</internalNodes>
      <leafValues>
        -6.8510639667510986e-01 5.5555558204650879e-01</leafValues></_>
    <_>
      <internalNodes>
        0 -1 26694 6.0262460261583328e-02</internalNodes>
      <leafValues>
        -4.6808651089668274e-01 1.3534276187419891e-01</leafValues></_>
    <_>
      <internalNodes>
        0 -1 19585 -1.3104648329317570e-02</internalNodes>
      <leafValues>
        -2.1712186932563782e-01 3.8839358091354370e-01</leafValues></_>
    <_>
      <internalNodes>
        0 -1 126866 -4.4200339470990002e-04</internalNodes>
      <leafValues>
        2.1105428040027618e-01 -3.5894787311553955e-01</leafValues></_>
    <_>
      <internalNodes>
        0 -1 70564 -1.7403652891516685e-03</internalNodes>
      <leafValues>
        5.4132616519927979e-01 -1.0861265659332275e-01</leafValues></_>
    <_>
      <internalNodes>
        0 -1 1165 -5.2647572010755539e-03</internalNodes>
      <leafValues>
        5.7860261201858521e-01 -1.2344106286764145e-01</leafValues></_>
    <_>
      <internalNodes>
        0 -1 161433 -7.4401516467332840e-03</internalNodes>
      <leafValues>
        5.3007811307907104e-01 -1.5321734547615051e-01</leafValues></_>
    <_>
      <internalNodes>
        0 -1 162280 -1.9631213508546352e-03</internalNodes>
      <leafValues>
        4.3262651562690735e-01 -1.3373659551143646e-01</leafValues></_>
    <_>
      <internalNodes>
        0 -1 89836 -2.3416470736265182e-02</internalNodes>
      <leafValues>
        -5.8203697204589844e-01 1.1783052980899811e-01</leafValues></_>
    <_>
      <internalNodes>
        0 -1 84198 1.0205029975622892e-03</internalNodes>
      <leafValues>
        1.2849766016006470e-01 -6.3153642416000366e-01</leafValues></_>
    <_>
      <internalNodes>
        0 -1 133840 -1.8690139986574650e-03</internalNodes>
      <leafValues>
        4.4034600257873535e-01 -1.5327657759189606e-01</leafValues></_>
    <_>
      <internalNodes>
        0 -1 150116 -3.8199829868972301e-03</internalNodes>
      <leafValues>
        -7.4325519800186157e-01 9.2861883342266083e-02</leafValues></_>
    <_>
      <internalNodes>
        0 -1 161853 2.0088842138648033e-03</internalNodes>
      <leafValues>
        -1.8637399375438690e-01 3.6698719859123230e-01</leafValues></_>
    <_>
      <internalNodes>
        0 -1 14471 1.0058482177555561e-02</internalNodes>
      <leafValues>
        -1.4416857063770294e-01 4.9179899692535400e-01</leafValues></_>
    <_>
      <internalNodes>
        0 -1 35477 -2.1985846105962992e-03</internalNodes>
      <leafValues>
        -8.1193530559539795e-01 8.6945652961730957e-02</leafValues></_>
    <_>
      <internalNodes>
        0 -1 59975 -1.6009687678888440e-03</internalNodes>
      <leafValues>
        5.1510649919509888e-01 -1.4978496730327606e-01</leafValues></_>
    <_>
      <internalNodes>
        0 -1 157138 5.4729788098484278e-04</internalNodes>
      <leafValues>
        1.1315890401601791e-01 -6.6653221845626831e-01</leafValues></_>
    <_>
      <internalNodes>
        0 -1 40678 1.5362021513283253e-03</internalNodes>
      <leafValues>
        -1.6066500544548035e-01 4.9225476384162903e-01</leafValues></_>
    <_>
      <internalNodes>
        0 -1 161545 -3.2229765783995390e-03</internalNodes>
      <leafValues>
        4.2452332377433777e-01 -1.5162059664726257e-01</leafValues></_></weakClassifiers></stage6>
</opencv_storage>
