<?xml version="1.0"?>
<opencv_storage>
<stage3>
  <maxWeakCount>13</maxWeakCount>
  <stageThreshold>-1.3451812267303467e+00</stageThreshold>
  <weakClassifiers>
    <_>
      <internalNodes>
        0 -1 1641 -8.1069618463516235e-02</internalNodes>
      <leafValues>
        -7.8505629301071167e-01 -5.3497944027185440e-02</leafValues></_>
    <_>
      <internalNodes>
        0 -1 21533 -2.4684283137321472e-01</internalNodes>
      <leafValues>
        3.4421983361244202e-01 -4.2678382992744446e-01</leafValues></_>
    <_>
      <internalNodes>
        0 -1 26061 -7.7638342976570129e-02</internalNodes>
      <leafValues>
        -2.7552521228790283e-01 3.5329484939575195e-01</leafValues></_>
    <_>
      <internalNodes>
        0 -1 70631 -7.1808770298957825e-03</internalNodes>
      <leafValues>
        5.2914363145828247e-01 -1.8555088341236115e-01</leafValues></_>
    <_>
      <internalNodes>
        0 -1 131617 -1.7094813520088792e-03</internalNodes>
      <leafValues>
        -8.2842743396759033e-01 1.3024851679801941e-01</leafValues></_>
    <_>
      <internalNodes>
        0 -1 97919 1.5374759677797556e-03</internalNodes>
      <leafValues>
        1.6685353219509125e-01 -6.4166295528411865e-01</leafValues></_>
    <_>
      <internalNodes>
        0 -1 89639 8.9920088648796082e-03</internalNodes>
      <leafValues>
        -1.8517501652240753e-01 5.7401084899902344e-01</leafValues></_>
    <_>
      <internalNodes>
        0 -1 137384 -2.2929492406547070e-03</internalNodes>
      <leafValues>
        -7.1222931146621704e-01 1.3082347810268402e-01</leafValues></_>
    <_>
      <internalNodes>
        0 -1 158023 -5.1804985851049423e-03</internalNodes>
      <leafValues>
        4.1274219751358032e-01 -2.1993085741996765e-01</leafValues></_>
    <_>
      <internalNodes>
        0 -1 110008 -1.8176653981208801e-01</internalNodes>
      <leafValues>
        5.2358829975128174e-01 -1.6346818208694458e-01</leafValues></_>
    <_>
      <internalNodes>
        0 -1 8136 1.5422552824020386e-03</internalNodes>
      <leafValues>
        -1.1453972756862640e-01 6.2205785512924194e-01</leafValues></_>
    <_>
      <internalNodes>
        0 -1 126861 2.9944608104415238e-04</internalNodes>
      <leafValues>
        1.1800889670848846e-01 -7.1966934204101563e-01</leafValues></_>
    <_>
      <internalNodes>
        0 -1 89871 3.4532730933278799e-03</internalNodes>
      <leafValues>
        1.1507426202297211e-01 -5.9123688936233521e-01</leafValues></_></weakClassifiers></stage3>
</opencv_storage>
