<?xml version="1.0"?>
<opencv_storage>
<stage13>
  <maxWeakCount>12</maxWeakCount>
  <stageThreshold>-1.6842399835586548e+00</stageThreshold>
  <weakClassifiers>
    <_>
      <internalNodes>
        0 -1 72513 -2.0248498767614365e-02</internalNodes>
      <leafValues>
        1. -7.1673822402954102e-01</leafValues></_>
    <_>
      <internalNodes>
        0 -1 33323 -4.9479939043521881e-02</internalNodes>
      <leafValues>
        -3.2116556167602539e-01 6.8387258052825928e-01</leafValues></_>
    <_>
      <internalNodes>
        0 -1 8850 -1.5027025947347283e-03</internalNodes>
      <leafValues>
        6.6191732883453369e-01 -1.7010402679443359e-01</leafValues></_>
    <_>
      <internalNodes>
        0 -1 52247 1.5382461715489626e-03</internalNodes>
      <leafValues>
        -3.9428022503852844e-01 3.5960468649864197e-01</leafValues></_>
    <_>
      <internalNodes>
        0 -1 135750 1.7791181802749634e-02</internalNodes>
      <leafValues>
        1.9261457026004791e-01 -6.9334214925765991e-01</leafValues></_>
    <_>
      <internalNodes>
        0 -1 52049 -1.7665761988610029e-03</internalNodes>
      <leafValues>
        7.5489634275436401e-01 -1.8030521273612976e-01</leafValues></_>
    <_>
      <internalNodes>
        0 -1 108160 -5.0274550449103117e-04</internalNodes>
      <leafValues>
        -3.9513581991195679e-01 3.1946280598640442e-01</leafValues></_>
    <_>
      <internalNodes>
        0 -1 36926 5.6384282652288675e-04</internalNodes>
      <leafValues>
        -2.7433809638023376e-01 4.9389412999153137e-01</leafValues></_>
    <_>
      <internalNodes>
        0 -1 106279 -5.6646727898623794e-05</internalNodes>
      <leafValues>
        -3.8427245616912842e-01 3.4387472271919250e-01</leafValues></_>
    <_>
      <internalNodes>
        0 -1 60440 -1.6632026017759927e-05</internalNodes>
      <leafValues>
        5.5473434925079346e-01 -2.6816052198410034e-01</leafValues></_>
    <_>
      <internalNodes>
        0 -1 12245 7.5868540443480015e-04</internalNodes>
      <leafValues>
        -2.0575866103172302e-01 6.8505918979644775e-01</leafValues></_>
    <_>
      <internalNodes>
        0 -1 113015 3.0955098569393158e-02</internalNodes>
      <leafValues>
        -1.8205656111240387e-01 7.6953184604644775e-01</leafValues></_></weakClassifiers></stage13>
</opencv_storage>
