<?xml version="1.0"?>
<opencv_storage>
<stage11>
  <maxWeakCount>19</maxWeakCount>
  <stageThreshold>-1.3204668760299683e+00</stageThreshold>
  <weakClassifiers>
    <_>
      <internalNodes>
        0 -1 155859 -2.3909374140202999e-03</internalNodes>
      <leafValues>
        -2.1290323138237000e-01 -7.3397129774093628e-01</leafValues></_>
    <_>
      <internalNodes>
        0 -1 18803 1.1165174655616283e-03</internalNodes>
      <leafValues>
        -2.8297954797744751e-01 4.2475116252899170e-01</leafValues></_>
    <_>
      <internalNodes>
        0 -1 61389 2.0841188728809357e-02</internalNodes>
      <leafValues>
        8.6759060621261597e-02 -7.3800641298294067e-01</leafValues></_>
    <_>
      <internalNodes>
        0 -1 50534 2.5324421003460884e-03</internalNodes>
      <leafValues>
        -1.2816663086414337e-01 4.1660600900650024e-01</leafValues></_>
    <_>
      <internalNodes>
        0 -1 48975 -6.1887651681900024e-03</internalNodes>
      <leafValues>
        -4.5907673239707947e-01 1.2984898686408997e-01</leafValues></_>
    <_>
      <internalNodes>
        0 -1 159643 -2.3204050376079977e-04</internalNodes>
      <leafValues>
        3.2654935121536255e-01 -1.8547526001930237e-01</leafValues></_>
    <_>
      <internalNodes>
        0 -1 159329 -1.0751575231552124e-02</internalNodes>
      <leafValues>
        4.3916460871696472e-01 -1.3294726610183716e-01</leafValues></_>
    <_>
      <internalNodes>
        0 -1 120577 9.5403462182730436e-04</internalNodes>
      <leafValues>
        1.0233448445796967e-01 -5.4486429691314697e-01</leafValues></_>
    <_>
      <internalNodes>
        0 -1 46578 -6.1974133132025599e-04</internalNodes>
      <leafValues>
        2.6537668704986572e-01 -2.4429911375045776e-01</leafValues></_>
    <_>
      <internalNodes>
        0 -1 162105 -5.9626256115734577e-03</internalNodes>
      <leafValues>
        -1.0063771158456802e-01 5.6138533353805542e-01</leafValues></_>
    <_>
      <internalNodes>
        0 -1 106757 1.1927457526326180e-03</internalNodes>
      <leafValues>
        -1.5019769966602325e-01 3.9540293812751770e-01</leafValues></_>
    <_>
      <internalNodes>
        0 -1 72342 8.4757106378674507e-04</internalNodes>
      <leafValues>
        -2.6476311683654785e-01 2.2666025161743164e-01</leafValues></_>
    <_>
      <internalNodes>
        0 -1 648 6.7325100302696228e-02</internalNodes>
      <leafValues>
        1.0347411781549454e-01 -5.5698400735855103e-01</leafValues></_>
    <_>
      <internalNodes>
        0 -1 116119 -4.0771178901195526e-03</internalNodes>
      <leafValues>
        3.7257194519042969e-01 -1.6880124807357788e-01</leafValues></_>
    <_>
      <internalNodes>
        0 -1 117242 -1.0569028090685606e-03</internalNodes>
      <leafValues>
        -4.9964678287506104e-01 1.3522629439830780e-01</leafValues></_>
    <_>
      <internalNodes>
        0 -1 48993 2.7810183819383383e-03</internalNodes>
      <leafValues>
        -1.3939718902111053e-01 4.4865703582763672e-01</leafValues></_>
    <_>
      <internalNodes>
        0 -1 68134 1.0173503542318940e-03</internalNodes>
      <leafValues>
        1.1504745483398438e-01 -5.0494980812072754e-01</leafValues></_>
    <_>
      <internalNodes>
        0 -1 70606 -6.2187076546251774e-03</internalNodes>
      <leafValues>
        4.4243943691253662e-01 -1.3192276656627655e-01</leafValues></_>
    <_>
      <internalNodes>
        0 -1 89683 1.6917067114263773e-04</internalNodes>
      <leafValues>
        -1.7705139517784119e-01 3.2862234115600586e-01</leafValues></_></weakClassifiers></stage11>
</opencv_storage>
