<?xml version="1.0"?>
<opencv_storage>
<stage10>
  <maxWeakCount>24</maxWeakCount>
  <stageThreshold>-1.2969653606414795e+00</stageThreshold>
  <weakClassifiers>
    <_>
      <internalNodes>
        0 -1 98653 2.6044547557830811e-03</internalNodes>
      <leafValues>
        -7.1797233819961548e-01 -1.8260869383811951e-01</leafValues></_>
    <_>
      <internalNodes>
        0 -1 48600 1.3116259127855301e-02</internalNodes>
      <leafValues>
        -7.8996419906616211e-02 -7.8933149576187134e-01</leafValues></_>
    <_>
      <internalNodes>
        0 -1 59756 -6.3493694178760052e-03</internalNodes>
      <leafValues>
        4.9669560790061951e-01 -9.8963864147663116e-02</leafValues></_>
    <_>
      <internalNodes>
        0 -1 131671 -1.3054985553026199e-02</internalNodes>
      <leafValues>
        3.5710608959197998e-01 -1.5343055129051208e-01</leafValues></_>
    <_>
      <internalNodes>
        0 -1 148600 -5.5886735208332539e-04</internalNodes>
      <leafValues>
        3.5371440649032593e-01 -1.2159619480371475e-01</leafValues></_>
    <_>
      <internalNodes>
        0 -1 158269 -4.8202918842434883e-03</internalNodes>
      <leafValues>
        5.4275971651077271e-01 -9.6960052847862244e-02</leafValues></_>
    <_>
      <internalNodes>
        0 -1 147234 -1.0781532910186797e-04</internalNodes>
      <leafValues>
        1.6841657459735870e-01 -2.7487573027610779e-01</leafValues></_>
    <_>
      <internalNodes>
        0 -1 1106 -2.9498555231839418e-03</internalNodes>
      <leafValues>
        -1.6969285905361176e-01 2.7039828896522522e-01</leafValues></_>
    <_>
      <internalNodes>
        0 -1 46127 -3.7024635821580887e-04</internalNodes>
      <leafValues>
        -3.4380662441253662e-01 1.7447446286678314e-01</leafValues></_>
    <_>
      <internalNodes>
        0 -1 24757 -1.8402703572064638e-03</internalNodes>
      <leafValues>
        3.9555355906486511e-01 -1.2506416440010071e-01</leafValues></_>
    <_>
      <internalNodes>
        0 -1 48642 1.7237219959497452e-02</internalNodes>
      <leafValues>
        6.8654313683509827e-02 -7.7025324106216431e-01</leafValues></_>
    <_>
      <internalNodes>
        0 -1 23628 7.1623036637902260e-04</internalNodes>
      <leafValues>
        -1.5068249404430389e-01 3.4092429280281067e-01</leafValues></_>
    <_>
      <internalNodes>
        0 -1 157624 3.3405912108719349e-03</internalNodes>
      <leafValues>
        -1.1131514608860016e-01 4.4978079199790955e-01</leafValues></_>
    <_>
      <internalNodes>
        0 -1 154643 -7.2051705501507968e-05</internalNodes>
      <leafValues>
        1.8845315277576447e-01 -2.9028064012527466e-01</leafValues></_>
    <_>
      <internalNodes>
        0 -1 101334 5.7555740932002664e-04</internalNodes>
      <leafValues>
        -2.1812072396278381e-01 2.4715816974639893e-01</leafValues></_>
    <_>
      <internalNodes>
        0 -1 50422 -4.6719411329831928e-05</internalNodes>
      <leafValues>
        1.5351548790931702e-01 -3.1541347503662109e-01</leafValues></_>
    <_>
      <internalNodes>
        0 -1 97561 -4.6997619792819023e-03</internalNodes>
      <leafValues>
        -7.4474555253982544e-01 7.3305100202560425e-02</leafValues></_>
    <_>
      <internalNodes>
        0 -1 127993 -1.4011620078235865e-03</internalNodes>
      <leafValues>
        5.3428292274475098e-01 -1.0569654405117035e-01</leafValues></_>
    <_>
      <internalNodes>
        0 -1 114194 2.3149023763835430e-04</internalNodes>
      <leafValues>
        1.1103435605764389e-01 -4.7258907556533813e-01</leafValues></_>
    <_>
      <internalNodes>
        0 -1 139167 1.3246133457869291e-03</internalNodes>
      <leafValues>
        -1.1791943013668060e-01 4.6817246079444885e-01</leafValues></_>
    <_>
      <internalNodes>
        0 -1 75161 1.1858206707984209e-03</internalNodes>
      <leafValues>
        -1.7152005434036255e-01 3.1850248575210571e-01</leafValues></_>
    <_>
      <internalNodes>
        0 -1 6685 9.9109597504138947e-03</internalNodes>
      <leafValues>
        -1.0669948905706406e-01 5.0469350814819336e-01</leafValues></_>
    <_>
      <internalNodes>
        0 -1 23256 1.0606872383505106e-03</internalNodes>
      <leafValues>
        1.2570928037166595e-01 -4.6471419930458069e-01</leafValues></_>
    <_>
      <internalNodes>
        0 -1 148273 4.9146421952173114e-04</internalNodes>
      <leafValues>
        -1.4784348011016846e-01 3.6806315183639526e-01</leafValues></_></weakClassifiers></stage10>
</opencv_storage>
