<?xml version="1.0"?>
<opencv_storage>
<stage7>
  <maxWeakCount>19</maxWeakCount>
  <stageThreshold>-1.2601736783981323e+00</stageThreshold>
  <weakClassifiers>
    <_>
      <internalNodes>
        0 -1 107288 1.2292152270674706e-02</internalNodes>
      <leafValues>
        -7.1043163537979126e-01 9.2592589557170868e-02</leafValues></_>
    <_>
      <internalNodes>
        0 -1 7471 4.1136885993182659e-03</internalNodes>
      <leafValues>
        -4.2392155528068542e-01 1.6640555858612061e-01</leafValues></_>
    <_>
      <internalNodes>
        0 -1 35547 1.5893607633188367e-04</internalNodes>
      <leafValues>
        1.6893905401229858e-01 -4.2282286286354065e-01</leafValues></_>
    <_>
      <internalNodes>
        0 -1 157419 -2.2578863427042961e-03</internalNodes>
      <leafValues>
        4.2680487036705017e-01 -1.7868444323539734e-01</leafValues></_>
    <_>
      <internalNodes>
        0 -1 24052 -2.1123371552675962e-03</internalNodes>
      <leafValues>
        3.4957301616668701e-01 -1.7434531450271606e-01</leafValues></_>
    <_>
      <internalNodes>
        0 -1 137542 -1.3823464512825012e-02</internalNodes>
      <leafValues>
        -7.1422272920608521e-01 1.2230092287063599e-01</leafValues></_>
    <_>
      <internalNodes>
        0 -1 6693 -2.6227714261040092e-04</internalNodes>
      <leafValues>
        3.4301635622978210e-01 -2.0301650464534760e-01</leafValues></_>
    <_>
      <internalNodes>
        0 -1 133693 -2.0359526388347149e-03</internalNodes>
      <leafValues>
        3.7306368350982666e-01 -1.6922235488891602e-01</leafValues></_>
    <_>
      <internalNodes>
        0 -1 7964 -9.0195462107658386e-02</internalNodes>
      <leafValues>
        3.2496348023414612e-01 -2.1348920464515686e-01</leafValues></_>
    <_>
      <internalNodes>
        0 -1 121395 5.0599565729498863e-03</internalNodes>
      <leafValues>
        1.0254736989736557e-01 -7.0247203111648560e-01</leafValues></_>
    <_>
      <internalNodes>
        0 -1 61464 1.2246726080775261e-02</internalNodes>
      <leafValues>
        -2.3328471183776855e-01 2.6510044932365417e-01</leafValues></_>
    <_>
      <internalNodes>
        0 -1 17255 -6.5137026831507683e-03</internalNodes>
      <leafValues>
        4.5159736275672913e-01 -1.5777893364429474e-01</leafValues></_>
    <_>
      <internalNodes>
        0 -1 108583 -5.5966284126043320e-03</internalNodes>
      <leafValues>
        -2.2065639495849609e-01 2.8425884246826172e-01</leafValues></_>
    <_>
      <internalNodes>
        0 -1 147932 1.2478593271225691e-04</internalNodes>
      <leafValues>
        1.3919347524642944e-01 -4.1510814428329468e-01</leafValues></_>
    <_>
      <internalNodes>
        0 -1 161742 -1.2407816248014569e-03</internalNodes>
      <leafValues>
        4.4198989868164063e-01 -1.4201657474040985e-01</leafValues></_>
    <_>
      <internalNodes>
        0 -1 151831 -4.4528016587719321e-04</internalNodes>
      <leafValues>
        4.5957994461059570e-01 -1.1805239319801331e-01</leafValues></_>
    <_>
      <internalNodes>
        0 -1 94712 -1.5824259025976062e-04</internalNodes>
      <leafValues>
        -3.8765418529510498e-01 1.5500776469707489e-01</leafValues></_>
    <_>
      <internalNodes>
        0 -1 23644 5.1859710365533829e-03</internalNodes>
      <leafValues>
        -1.4323413372039795e-01 4.1981697082519531e-01</leafValues></_>
    <_>
      <internalNodes>
        0 -1 66124 -4.5876755029894412e-04</internalNodes>
      <leafValues>
        -6.4814883470535278e-01 9.9300719797611237e-02</leafValues></_></weakClassifiers></stage7>
</opencv_storage>
