<?xml version="1.0"?>
<opencv_storage>
<stage9>
  <maxWeakCount>21</maxWeakCount>
  <stageThreshold>-1.2858958244323730e+00</stageThreshold>
  <weakClassifiers>
    <_>
      <internalNodes>
        0 -1 162038 -2.7762698009610176e-03</internalNodes>
      <leafValues>
        -7.0740407705307007e-01 -8.8607594370841980e-02</leafValues></_>
    <_>
      <internalNodes>
        0 -1 121800 3.8619019091129303e-02</internalNodes>
      <leafValues>
        -3.3393362164497375e-01 1.5986999869346619e-01</leafValues></_>
    <_>
      <internalNodes>
        0 -1 65551 -2.6134995277971029e-04</internalNodes>
      <leafValues>
        -4.0811628103256226e-01 1.0737993568181992e-01</leafValues></_>
    <_>
      <internalNodes>
        0 -1 141037 9.7204383928328753e-04</internalNodes>
      <leafValues>
        9.3033611774444580e-02 -4.7997015714645386e-01</leafValues></_>
    <_>
      <internalNodes>
        0 -1 60462 2.4489622563123703e-02</internalNodes>
      <leafValues>
        6.3976369798183441e-02 -8.7654578685760498e-01</leafValues></_>
    <_>
      <internalNodes>
        0 -1 6834 -2.4879532866179943e-03</internalNodes>
      <leafValues>
        2.4776752293109894e-01 -2.2765646874904633e-01</leafValues></_>
    <_>
      <internalNodes>
        0 -1 60134 1.3189780293032527e-03</internalNodes>
      <leafValues>
        -1.7751261591911316e-01 2.5386172533035278e-01</leafValues></_>
    <_>
      <internalNodes>
        0 -1 80726 -2.8171420563012362e-03</internalNodes>
      <leafValues>
        3.7303107976913452e-01 -1.5758834779262543e-01</leafValues></_>
    <_>
      <internalNodes>
        0 -1 151258 -3.6013065255247056e-04</internalNodes>
      <leafValues>
        -5.6902831792831421e-01 8.0469280481338501e-02</leafValues></_>
    <_>
      <internalNodes>
        0 -1 98592 -3.9308064151555300e-04</internalNodes>
      <leafValues>
        3.4230598807334900e-01 -1.6384238004684448e-01</leafValues></_>
    <_>
      <internalNodes>
        0 -1 156192 9.2501398175954819e-03</internalNodes>
      <leafValues>
        -1.3200177252292633e-01 3.9787006378173828e-01</leafValues></_>
    <_>
      <internalNodes>
        0 -1 159371 1.4496608637273312e-03</internalNodes>
      <leafValues>
        -1.8374599516391754e-01 3.4823501110076904e-01</leafValues></_>
    <_>
      <internalNodes>
        0 -1 161954 4.5873634517192841e-03</internalNodes>
      <leafValues>
        -1.1473169922828674e-01 4.3589854240417480e-01</leafValues></_>
    <_>
      <internalNodes>
        0 -1 119345 -1.8576040747575462e-04</internalNodes>
      <leafValues>
        2.2725208103656769e-01 -2.3047785460948944e-01</leafValues></_>
    <_>
      <internalNodes>
        0 -1 133398 2.3514599888585508e-04</internalNodes>
      <leafValues>
        1.7826624214649200e-01 -3.3939811587333679e-01</leafValues></_>
    <_>
      <internalNodes>
        0 -1 145138 5.2745575085282326e-03</internalNodes>
      <leafValues>
        -1.1921174824237823e-01 5.1981621980667114e-01</leafValues></_>
    <_>
      <internalNodes>
        0 -1 127675 -4.6559579670429230e-02</internalNodes>
      <leafValues>
        -3.9245766401290894e-01 1.4603158831596375e-01</leafValues></_>
    <_>
      <internalNodes>
        0 -1 98094 -1.6744686290621758e-03</internalNodes>
      <leafValues>
        2.0027926564216614e-01 -2.8223836421966553e-01</leafValues></_>
    <_>
      <internalNodes>
        0 -1 121041 -4.2913219658657908e-04</internalNodes>
      <leafValues>
        -6.2856870889663696e-01 7.5569711625576019e-02</leafValues></_>
    <_>
      <internalNodes>
        0 -1 157362 -2.2156881168484688e-03</internalNodes>
      <leafValues>
        -7.8688806295394897e-01 5.6939560920000076e-02</leafValues></_>
    <_>
      <internalNodes>
        0 -1 60680 4.0574390441179276e-03</internalNodes>
      <leafValues>
        -1.4912360906600952e-01 3.4670662879943848e-01</leafValues></_></weakClassifiers></stage9>
</opencv_storage>
