<?xml version="1.0"?>
<opencv_storage>
<stage1>
  <maxWeakCount>12</maxWeakCount>
  <stageThreshold>-1.6811794042587280e+00</stageThreshold>
  <weakClassifiers>
    <_>
      <internalNodes>
        0 -1 38792 5.9399615973234177e-02</internalNodes>
      <leafValues>
        -8.1599998474121094e-01 1.6363635659217834e-01</leafValues></_>
    <_>
      <internalNodes>
        0 -1 119900 -2.6916649658232927e-03</internalNodes>
      <leafValues>
        1.5006689727306366e-01 -6.5740561485290527e-01</leafValues></_>
    <_>
      <internalNodes>
        0 -1 161718 -6.4735664054751396e-03</internalNodes>
      <leafValues>
        7.2739559412002563e-01 -2.3627898097038269e-01</leafValues></_>
    <_>
      <internalNodes>
        0 -1 35841 -6.6682073520496488e-04</internalNodes>
      <leafValues>
        3.9365148544311523e-01 -3.5696977376937866e-01</leafValues></_>
    <_>
      <internalNodes>
        0 -1 71770 3.4844984766095877e-03</internalNodes>
      <leafValues>
        -1.8595832586288452e-01 6.2719869613647461e-01</leafValues></_>
    <_>
      <internalNodes>
        0 -1 161768 3.0817096121609211e-03</internalNodes>
      <leafValues>
        -1.7489063739776611e-01 5.7673299312591553e-01</leafValues></_>
    <_>
      <internalNodes>
        0 -1 55833 3.1998053193092346e-02</internalNodes>
      <leafValues>
        2.2797814011573792e-01 -6.2935793399810791e-01</leafValues></_>
    <_>
      <internalNodes>
        0 -1 26875 5.4488503374159336e-03</internalNodes>
      <leafValues>
        -2.7746540307998657e-01 4.2432016134262085e-01</leafValues></_>
    <_>
      <internalNodes>
        0 -1 159369 -1.8960293382406235e-02</internalNodes>
      <leafValues>
        -4.7882351279258728e-01 2.3609822988510132e-01</leafValues></_>
    <_>
      <internalNodes>
        0 -1 148057 -9.2583708465099335e-03</internalNodes>
      <leafValues>
        5.7515811920166016e-01 -1.9077503681182861e-01</leafValues></_>
    <_>
      <internalNodes>
        0 -1 132323 -4.9951049732044339e-04</internalNodes>
      <leafValues>
        -6.8934583663940430e-01 1.6614904999732971e-01</leafValues></_>
    <_>
      <internalNodes>
        0 -1 158816 5.4599186405539513e-03</internalNodes>
      <leafValues>
        -2.1729367971420288e-01 5.3411859273910522e-01</leafValues></_></weakClassifiers></stage1>
</opencv_storage>
