<?xml version="1.0"?>
<opencv_storage>
<stage8>
  <maxWeakCount>28</maxWeakCount>
  <stageThreshold>-1.3854665756225586e+00</stageThreshold>
  <weakClassifiers>
    <_>
      <internalNodes>
        0 -1 80752 -7.3702093213796616e-03</internalNodes>
      <leafValues>
        -7.1075165271759033e-01 -1.9526627659797668e-01</leafValues></_>
    <_>
      <internalNodes>
        0 -1 62147 -1.3419573660939932e-03</internalNodes>
      <leafValues>
        2.9023215174674988e-01 -3.0803689360618591e-01</leafValues></_>
    <_>
      <internalNodes>
        0 -1 138644 -1.6240044496953487e-03</internalNodes>
      <leafValues>
        -6.1703199148178101e-01 8.9587137103080750e-02</leafValues></_>
    <_>
      <internalNodes>
        0 -1 151831 5.7831080630421638e-04</internalNodes>
      <leafValues>
        -1.0896979272365570e-01 4.4552105665206909e-01</leafValues></_>
    <_>
      <internalNodes>
        0 -1 144389 7.9999747686088085e-04</internalNodes>
      <leafValues>
        -1.5977798402309418e-01 3.1865599751472473e-01</leafValues></_>
    <_>
      <internalNodes>
        0 -1 113862 -3.7916144356131554e-03</internalNodes>
      <leafValues>
        1.8862539529800415e-01 -2.5445604324340820e-01</leafValues></_>
    <_>
      <internalNodes>
        0 -1 68544 4.7145184362307191e-04</internalNodes>
      <leafValues>
        7.5985573232173920e-02 -5.4408007860183716e-01</leafValues></_>
    <_>
      <internalNodes>
        0 -1 161891 -5.4022413678467274e-03</internalNodes>
      <leafValues>
        5.0115960836410522e-01 -9.9185697734355927e-02</leafValues></_>
    <_>
      <internalNodes>
        0 -1 68545 -4.2113655945286155e-04</internalNodes>
      <leafValues>
        -4.2647805809974670e-01 1.2726701796054840e-01</leafValues></_>
    <_>
      <internalNodes>
        0 -1 115596 -3.4606200642883778e-03</internalNodes>
      <leafValues>
        -6.7492222785949707e-01 6.2681719660758972e-02</leafValues></_>
    <_>
      <internalNodes>
        0 -1 161852 5.7529141195118427e-03</internalNodes>
      <leafValues>
        -1.5030249953269958e-01 3.8057655096054077e-01</leafValues></_>
    <_>
      <internalNodes>
        0 -1 60137 5.2025904878973961e-03</internalNodes>
      <leafValues>
        -8.8543660938739777e-02 5.5960935354232788e-01</leafValues></_>
    <_>
      <internalNodes>
        0 -1 37658 -1.8956258427351713e-03</internalNodes>
      <leafValues>
        2.7376613020896912e-01 -2.0265603065490723e-01</leafValues></_>
    <_>
      <internalNodes>
        0 -1 81817 -1.9432012923061848e-03</internalNodes>
      <leafValues>
        2.5648322701454163e-01 -2.1141824126243591e-01</leafValues></_>
    <_>
      <internalNodes>
        0 -1 66998 -9.6605814993381500e-02</internalNodes>
      <leafValues>
        4.6488696336746216e-01 -1.0954398661851883e-01</leafValues></_>
    <_>
      <internalNodes>
        0 -1 132554 -2.6723276823759079e-04</internalNodes>
      <leafValues>
        -5.5950850248336792e-01 9.1203927993774414e-02</leafValues></_>
    <_>
      <internalNodes>
        0 -1 108105 -9.3870252370834351e-02</internalNodes>
      <leafValues>
        -6.8177086114883423e-01 5.7987712323665619e-02</leafValues></_>
    <_>
      <internalNodes>
        0 -1 38020 -2.3927234578877687e-03</internalNodes>
      <leafValues>
        4.2851459980010986e-01 -1.3032679259777069e-01</leafValues></_>
    <_>
      <internalNodes>
        0 -1 50410 2.1998191368766129e-04</internalNodes>
      <leafValues>
        -3.5634043812751770e-01 1.6706430912017822e-01</leafValues></_>
    <_>
      <internalNodes>
        0 -1 157540 1.8072463572025299e-03</internalNodes>
      <leafValues>
        -1.1637210100889206e-01 4.3989691138267517e-01</leafValues></_>
    <_>
      <internalNodes>
        0 -1 161381 2.3507216246798635e-04</internalNodes>
      <leafValues>
        1.5229363739490509e-01 -3.2306912541389465e-01</leafValues></_>
    <_>
      <internalNodes>
        0 -1 162045 -6.4057367853820324e-04</internalNodes>
      <leafValues>
        4.5109274983406067e-01 -1.0895860195159912e-01</leafValues></_>
    <_>
      <internalNodes>
        0 -1 152681 8.9156033936887980e-04</internalNodes>
      <leafValues>
        -1.7733630537986755e-01 2.8325259685516357e-01</leafValues></_>
    <_>
      <internalNodes>
        0 -1 23624 8.2333630416542292e-04</internalNodes>
      <leafValues>
        -2.2242149710655212e-01 2.3234541714191437e-01</leafValues></_>
    <_>
      <internalNodes>
        0 -1 150878 1.4011480379849672e-03</internalNodes>
      <leafValues>
        1.1621326208114624e-01 -4.7772219777107239e-01</leafValues></_>
    <_>
      <internalNodes>
        0 -1 87200 1.3224782887846231e-03</internalNodes>
      <leafValues>
        9.0281277894973755e-02 -5.2356082201004028e-01</leafValues></_>
    <_>
      <internalNodes>
        0 -1 159573 -3.1940191984176636e-03</internalNodes>
      <leafValues>
        7.0434564352035522e-01 -8.2749135792255402e-02</leafValues></_>
    <_>
      <internalNodes>
        0 -1 153555 -2.2020537871867418e-03</internalNodes>
      <leafValues>
        -8.5219627618789673e-01 8.2071565091609955e-02</leafValues></_></weakClassifiers></stage8>
</opencv_storage>
