<?xml version="1.0"?>
<opencv_storage>
<stage4>
  <maxWeakCount>32</maxWeakCount>
  <stageThreshold>-1.4696905612945557e+00</stageThreshold>
  <weakClassifiers>
    <_>
      <internalNodes>
        0 -1 161439 -1.9102532416582108e-02</internalNodes>
      <leafValues>
        -1.0638298094272614e-01 -7.4879229068756104e-01</leafValues></_>
    <_>
      <internalNodes>
        0 -1 18845 9.5828119665384293e-03</internalNodes>
      <leafValues>
        -3.2555481791496277e-01 2.2811256349086761e-01</leafValues></_>
    <_>
      <internalNodes>
        0 -1 123388 -3.8816590677015483e-04</internalNodes>
      <leafValues>
        -5.4938828945159912e-01 9.0879894793033600e-02</leafValues></_>
    <_>
      <internalNodes>
        0 -1 119680 -1.9312072545289993e-03</internalNodes>
      <leafValues>
        2.3650358617305756e-01 -1.9710555672645569e-01</leafValues></_>
    <_>
      <internalNodes>
        0 -1 23197 -1.5654559247195721e-03</internalNodes>
      <leafValues>
        3.1119975447654724e-01 -1.6635595262050629e-01</leafValues></_>
    <_>
      <internalNodes>
        0 -1 70197 -4.5353092253208160e-02</internalNodes>
      <leafValues>
        5.7399523258209229e-01 -7.6354026794433594e-02</leafValues></_>
    <_>
      <internalNodes>
        0 -1 61307 -3.3034533262252808e-02</internalNodes>
      <leafValues>
        -2.8665283322334290e-01 1.7586192488670349e-01</leafValues></_>
    <_>
      <internalNodes>
        0 -1 18818 3.6833705380558968e-03</internalNodes>
      <leafValues>
        -1.1341907083988190e-01 4.1701909899711609e-01</leafValues></_>
    <_>
      <internalNodes>
        0 -1 47455 5.3667445899918675e-04</internalNodes>
      <leafValues>
        7.9290300607681274e-02 -6.0594230890274048e-01</leafValues></_>
    <_>
      <internalNodes>
        0 -1 37989 1.9431805703788996e-03</internalNodes>
      <leafValues>
        -1.2078715115785599e-01 4.0481847524642944e-01</leafValues></_>
    <_>
      <internalNodes>
        0 -1 60137 -3.5162456333637238e-03</internalNodes>
      <leafValues>
        3.9761209487915039e-01 -1.1442890763282776e-01</leafValues></_>
    <_>
      <internalNodes>
        0 -1 94499 -1.2282948940992355e-02</internalNodes>
      <leafValues>
        2.5647839903831482e-01 -1.7484857141971588e-01</leafValues></_>
    <_>
      <internalNodes>
        0 -1 157348 7.6900311978533864e-04</internalNodes>
      <leafValues>
        -1.8548153340816498e-01 2.8296846151351929e-01</leafValues></_>
    <_>
      <internalNodes>
        0 -1 155105 -4.2160376906394958e-03</internalNodes>
      <leafValues>
        4.0299642086029053e-01 -1.2884481251239777e-01</leafValues></_>
    <_>
      <internalNodes>
        0 -1 1966 -1.3540077954530716e-02</internalNodes>
      <leafValues>
        6.2850654125213623e-01 -5.4476354271173477e-02</leafValues></_>
    <_>
      <internalNodes>
        0 -1 138457 2.0673971448559314e-04</internalNodes>
      <leafValues>
        8.8054150342941284e-02 -5.4419440031051636e-01</leafValues></_>
    <_>
      <internalNodes>
        0 -1 97660 2.5763991288840771e-04</internalNodes>
      <leafValues>
        8.4474757313728333e-02 -4.4722709059715271e-01</leafValues></_>
    <_>
      <internalNodes>
        0 -1 8817 7.9216610174626112e-04</internalNodes>
      <leafValues>
        -1.4444608986377716e-01 2.8569319844245911e-01</leafValues></_>
    <_>
      <internalNodes>
        0 -1 10172 -3.4530111588537693e-03</internalNodes>
      <leafValues>
        -5.5837333202362061e-01 7.8111365437507629e-02</leafValues></_>
    <_>
      <internalNodes>
        0 -1 11074 4.8597855493426323e-03</internalNodes>
      <leafValues>
        -1.0603847354650497e-01 4.1861167550086975e-01</leafValues></_>
    <_>
      <internalNodes>
        0 -1 131816 -1.4352942816913128e-03</internalNodes>
      <leafValues>
        -5.8348882198333740e-01 7.2560943663120270e-02</leafValues></_>
    <_>
      <internalNodes>
        0 -1 69928 -7.6495213434100151e-03</internalNodes>
      <leafValues>
        2.7523335814476013e-01 -1.5491552650928497e-01</leafValues></_>
    <_>
      <internalNodes>
        0 -1 106573 -1.8893888918682933e-03</internalNodes>
      <leafValues>
        -5.7374686002731323e-01 8.0529674887657166e-02</leafValues></_>
    <_>
      <internalNodes>
        0 -1 162221 1.2380935950204730e-03</internalNodes>
      <leafValues>
        -1.4436653256416321e-01 3.2607334852218628e-01</leafValues></_>
    <_>
      <internalNodes>
        0 -1 6669 1.8395937513560057e-03</internalNodes>
      <leafValues>
        -1.0388384759426117e-01 3.8382017612457275e-01</leafValues></_>
    <_>
      <internalNodes>
        0 -1 75715 1.6363048052880913e-04</internalNodes>
      <leafValues>
        1.2452017515897751e-01 -3.4595879912376404e-01</leafValues></_>
    <_>
      <internalNodes>
        0 -1 139057 -1.3279987499117851e-02</internalNodes>
      <leafValues>
        4.3071296811103821e-01 -9.3801341950893402e-02</leafValues></_>
    <_>
      <internalNodes>
        0 -1 141197 -2.1475251764059067e-02</internalNodes>
      <leafValues>
        2.4354320764541626e-01 -1.8037834763526917e-01</leafValues></_>
    <_>
      <internalNodes>
        0 -1 118483 2.8108015656471252e-02</internalNodes>
      <leafValues>
        -1.1984477192163467e-01 4.3830764293670654e-01</leafValues></_>
    <_>
      <internalNodes>
        0 -1 104743 -3.9573613321408629e-05</internalNodes>
      <leafValues>
        1.5429003536701202e-01 -2.8093466162681580e-01</leafValues></_>
    <_>
      <internalNodes>
        0 -1 4465 -3.5963830351829529e-01</internalNodes>
      <leafValues>
        -8.9313581585884094e-02 5.1834946870803833e-01</leafValues></_>
    <_>
      <internalNodes>
        0 -1 139864 1.4224173501133919e-02</internalNodes>
      <leafValues>
        -7.5025156140327454e-02 5.9291148185729980e-01</leafValues></_></weakClassifiers></stage4>
</opencv_storage>
