<?xml version="1.0"?>
<opencv_storage>
<cascade>
  <stageType>BOOST</stageType>
  <featureType>HAAR</featureType>
  <height>24</height>
  <width>24</width>
  <stageParams>
    <boostType>GAB</boostType>
    <minHitRate>9.9900001287460327e-01</minHitRate>
    <maxFalseAlarm>3.0000001192092896e-01</maxFalseAlarm>
    <weightTrimRate>9.4999999999999996e-01</weightTrimRate>
    <maxDepth>1</maxDepth>
    <maxWeakCount>100</maxWeakCount></stageParams>
  <featureParams>
    <maxCatCount>0</maxCatCount>
    <featSize>1</featSize>
    <mode>BASIC</mode></featureParams>
  <stageNum>13</stageNum>
  <stages>
    <!-- stage 0 -->
    <_>
      <maxWeakCount>10</maxWeakCount>
      <stageThreshold>-9.7741317749023438e-01</stageThreshold>
      <weakClassifiers>
        <_>
          <internalNodes>
            0 -1 111 2.9260683804750443e-02</internalNodes>
          <leafValues>
            -5.9012347459793091e-01 3.6326530575752258e-01</leafValues></_>
        <_>
          <internalNodes>
            0 -1 4 -1.0206145048141479e-01</internalNodes>
          <leafValues>
            1.6320964694023132e-01 -8.8633877038955688e-01</leafValues></_>
        <_>
          <internalNodes>
            0 -1 202 -1.8111120909452438e-02</internalNodes>
          <leafValues>
            -8.9295339584350586e-01 1.6434293985366821e-01</leafValues></_>
        <_>
          <internalNodes>
            0 -1 161 -4.0978379547595978e-02</internalNodes>
          <leafValues>
            2.8095722198486328e-01 -5.3601038455963135e-01</leafValues></_>
        <_>
          <internalNodes>
            0 -1 14 -1.1435698717832565e-02</internalNodes>
          <leafValues>
            7.5745183229446411e-01 -2.3798152804374695e-01</leafValues></_>
        <_>
          <internalNodes>
            0 -1 220 7.4215270578861237e-03</internalNodes>
          <leafValues>
            -2.1857209503650665e-01 5.6611919403076172e-01</leafValues></_>
        <_>
          <internalNodes>
            0 -1 205 4.6030869707465172e-03</internalNodes>
          <leafValues>
            -1.7908580601215363e-01 7.2993129491806030e-01</leafValues></_>
        <_>
          <internalNodes>
            0 -1 151 -1.1638779938220978e-01</internalNodes>
          <leafValues>
            4.1924962401390076e-01 -3.2305777072906494e-01</leafValues></_>
        <_>
          <internalNodes>
            0 -1 172 -3.1774491071701050e-04</internalNodes>
          <leafValues>
            -6.9503706693649292e-01 2.2631689906120300e-01</leafValues></_>
        <_>
          <internalNodes>
            0 -1 234 8.9719593524932861e-03</internalNodes>
          <leafValues>
            -2.6341924071311951e-01 6.2377607822418213e-01</leafValues></_></weakClassifiers></_>
    <!-- stage 1 -->
    <_>
      <maxWeakCount>14</maxWeakCount>
      <stageThreshold>-1.1265760660171509e+00</stageThreshold>
      <weakClassifiers>
        <_>
          <internalNodes>
            0 -1 137 -4.5276679098606110e-02</internalNodes>
          <leafValues>
            -6.5968585014343262e-01 3.8059702515602112e-01</leafValues></_>
        <_>
          <internalNodes>
            0 -1 257 -3.1235085334628820e-03</internalNodes>
          <leafValues>
            5.3788107633590698e-01 -3.8202294707298279e-01</leafValues></_>
        <_>
          <internalNodes>
            0 -1 8 -8.8760420680046082e-02</internalNodes>
          <leafValues>
            -6.7860382795333862e-01 2.5443026423454285e-01</leafValues></_>
        <_>
          <internalNodes>
            0 -1 106 5.9523656964302063e-03</internalNodes>
          <leafValues>
            -2.5054731965065002e-01 6.4509439468383789e-01</leafValues></_>
        <_>
          <internalNodes>
            0 -1 40 -1.3996402267366648e-03</internalNodes>
          <leafValues>
            6.2764251232147217e-01 -2.6898667216300964e-01</leafValues></_>
        <_>
          <internalNodes>
            0 -1 184 -2.5656248908489943e-03</internalNodes>
          <leafValues>
            6.9657790660858154e-01 -2.1283754706382751e-01</leafValues></_>
        <_>
          <internalNodes>
            0 -1 188 7.9812798649072647e-03</internalNodes>
          <leafValues>
            -3.1902951002120972e-01 4.2473030090332031e-01</leafValues></_>
        <_>
          <internalNodes>
            0 -1 28 5.8790594339370728e-03</internalNodes>
          <leafValues>
            -2.4898429214954376e-01 4.8572725057601929e-01</leafValues></_>
        <_>
          <internalNodes>
            0 -1 29 -1.2091115349903703e-03</internalNodes>
          <leafValues>
            6.7471665143966675e-01 -2.2860886156558990e-01</leafValues></_>
        <_>
          <internalNodes>
            0 -1 134 -2.8654113411903381e-02</internalNodes>
          <leafValues>
            -4.4785091280937195e-01 3.3166012167930603e-01</leafValues></_>
        <_>
          <internalNodes>
            0 -1 150 -7.0454161614179611e-03</internalNodes>
          <leafValues>
            9.0217596292495728e-01 -2.0734545588493347e-01</leafValues></_>
        <_>
          <internalNodes>
            0 -1 249 2.1129143424332142e-03</internalNodes>
          <leafValues>
            -1.3847766816616058e-01 8.1175309419631958e-01</leafValues></_>
        <_>
          <internalNodes>
            0 -1 244 -4.6401465078815818e-04</internalNodes>
          <leafValues>
            6.9818830490112305e-01 -1.3116483390331268e-01</leafValues></_>
        <_>
          <internalNodes>
            0 -1 73 1.6061760485172272e-02</internalNodes>
          <leafValues>
            -2.6461848616600037e-01 4.6745026111602783e-01</leafValues></_></weakClassifiers></_>
    <!-- stage 2 -->
    <_>
      <maxWeakCount>13</maxWeakCount>
      <stageThreshold>-1.2747246026992798e+00</stageThreshold>
      <weakClassifiers>
        <_>
          <internalNodes>
            0 -1 34 5.9819202870130539e-03</internalNodes>
          <leafValues>
            -4.7474747896194458e-01 5.4838711023330688e-01</leafValues></_>
        <_>
          <internalNodes>
            0 -1 222 -5.5400994606316090e-03</internalNodes>
          <leafValues>
            4.2725393176078796e-01 -3.6593729257583618e-01</leafValues></_>
        <_>
          <internalNodes>
            0 -1 63 -6.0654582921415567e-04</internalNodes>
          <leafValues>
            8.0685913562774658e-01 -1.7269706726074219e-01</leafValues></_>
        <_>
          <internalNodes>
            0 -1 46 1.2324007693678141e-03</internalNodes>
          <leafValues>
            -1.7568290233612061e-01 7.7645862102508545e-01</leafValues></_>
        <_>
          <internalNodes>
            0 -1 32 -5.5960408644750714e-04</internalNodes>
          <leafValues>
            7.2323018312454224e-01 -1.6127380728721619e-01</leafValues></_>
        <_>
          <internalNodes>
            0 -1 262 -2.7025225572288036e-03</internalNodes>
          <leafValues>
            6.8796920776367188e-01 -1.8690565228462219e-01</leafValues></_>
        <_>
          <internalNodes>
            0 -1 113 9.5641351072117686e-04</internalNodes>
          <leafValues>
            -1.4247150719165802e-01 6.2293642759323120e-01</leafValues></_>
        <_>
          <internalNodes>
            0 -1 97 -2.0868335850536823e-03</internalNodes>
          <leafValues>
            6.4026606082916260e-01 -1.6084626317024231e-01</leafValues></_>
        <_>
          <internalNodes>
            0 -1 269 3.7434539990499616e-04</internalNodes>
          <leafValues>
            -1.7646479606628418e-01 5.4462885856628418e-01</leafValues></_>
        <_>
          <internalNodes>
            0 -1 197 -2.0205201581120491e-03</internalNodes>
          <leafValues>
            3.6373770236968994e-01 -3.3279913663864136e-01</leafValues></_>
        <_>
          <internalNodes>
            0 -1 43 1.7588592600077391e-03</internalNodes>
          <leafValues>
            -2.0198640227317810e-01 5.8176612854003906e-01</leafValues></_>
        <_>
          <internalNodes>
            0 -1 25 1.0716564720496535e-03</internalNodes>
          <leafValues>
            -9.8172605037689209e-02 9.2058324813842773e-01</leafValues></_>
        <_>
          <internalNodes>
            0 -1 12 1.0180344106629491e-03</internalNodes>
          <leafValues>
            -2.0168350636959076e-01 5.3555011749267578e-01</leafValues></_></weakClassifiers></_>
    <!-- stage 3 -->
    <_>
      <maxWeakCount>17</maxWeakCount>
      <stageThreshold>-9.8268359899520874e-01</stageThreshold>
      <weakClassifiers>
        <_>
          <internalNodes>
            0 -1 248 -7.0397313684225082e-03</internalNodes>
          <leafValues>
            4.3421053886413574e-01 -4.3373495340347290e-01</leafValues></_>
        <_>
          <internalNodes>
            0 -1 189 -2.0165678113698959e-02</internalNodes>
          <leafValues>
            3.4376493096351624e-01 -3.2400754094123840e-01</leafValues></_>
        <_>
          <internalNodes>
            0 -1 70 3.5031824372708797e-03</internalNodes>
          <leafValues>
            -1.8680556118488312e-01 5.8143687248229980e-01</leafValues></_>
        <_>
          <internalNodes>
            0 -1 258 1.4348162338137627e-02</internalNodes>
          <leafValues>
            -2.1810688078403473e-01 4.5410376787185669e-01</leafValues></_>
        <_>
          <internalNodes>
            0 -1 2 9.3821231275796890e-03</internalNodes>
          <leafValues>
            1.4628393948078156e-01 -7.5068229436874390e-01</leafValues></_>
        <_>
          <internalNodes>
            0 -1 229 2.8759208507835865e-03</internalNodes>
          <leafValues>
            -1.3677537441253662e-01 8.5678911209106445e-01</leafValues></_>
        <_>
          <internalNodes>
            0 -1 173 -5.4215192794799805e-02</internalNodes>
          <leafValues>
            -9.5429676771163940e-01 1.4710588753223419e-01</leafValues></_>
        <_>
          <internalNodes>
            0 -1 272 -1.1420617811381817e-03</internalNodes>
          <leafValues>
            5.6514108180999756e-01 -2.0763313770294189e-01</leafValues></_>
        <_>
          <internalNodes>
            0 -1 179 -8.2162616308778524e-04</internalNodes>
          <leafValues>
            -6.4701688289642334e-01 1.6917669773101807e-01</leafValues></_>
        <_>
          <internalNodes>
            0 -1 48 2.1691145375370979e-03</internalNodes>
          <leafValues>
            -1.6066537797451019e-01 7.3826289176940918e-01</leafValues></_>
        <_>
          <internalNodes>
            0 -1 21 -1.4601105358451605e-03</internalNodes>
          <leafValues>
            9.3294775485992432e-01 -9.7824998199939728e-02</leafValues></_>
        <_>
          <internalNodes>
            0 -1 6 -5.4198778234422207e-03</internalNodes>
          <leafValues>
            5.9029835462570190e-01 -1.3493670523166656e-01</leafValues></_>
        <_>
          <internalNodes>
            0 -1 51 4.7838441096246243e-03</internalNodes>
          <leafValues>
            -2.5487920641899109e-01 4.3253785371780396e-01</leafValues></_>
        <_>
          <internalNodes>
            0 -1 254 -4.3115494772791862e-03</internalNodes>
          <leafValues>
            5.2936512231826782e-01 -1.7018817365169525e-01</leafValues></_>
        <_>
          <internalNodes>
            0 -1 243 -4.3682288378477097e-04</internalNodes>
          <leafValues>
            -8.2195222377777100e-01 1.2358743697404861e-01</leafValues></_>
        <_>
          <internalNodes>
            0 -1 203 -1.0331902652978897e-02</internalNodes>
          <leafValues>
            7.1320420503616333e-01 -1.6133227944374084e-01</leafValues></_>
        <_>
          <internalNodes>
            0 -1 238 -2.9544350691139698e-03</internalNodes>
          <leafValues>
            4.0037915110588074e-01 -2.6880967617034912e-01</leafValues></_></weakClassifiers></_>
    <!-- stage 4 -->
    <_>
      <maxWeakCount>22</maxWeakCount>
      <stageThreshold>-8.8166105747222900e-01</stageThreshold>
      <weakClassifiers>
        <_>
          <internalNodes>
            0 -1 68 7.6403319835662842e-03</internalNodes>
          <leafValues>
            -4.6948355436325073e-01 2.2321428358554840e-01</leafValues></_>
        <_>
          <internalNodes>
            0 -1 142 -6.8622499704360962e-02</internalNodes>
          <leafValues>
            -9.3258213996887207e-01 9.9667362868785858e-02</leafValues></_>
        <_>
          <internalNodes>
            0 -1 110 -9.7292847931385040e-03</internalNodes>
          <leafValues>
            1.6810086369514465e-01 -7.4352294206619263e-01</leafValues></_>
        <_>
          <internalNodes>
            0 -1 104 -4.1764695197343826e-05</internalNodes>
          <leafValues>
            1.7879539728164673e-01 -4.7979205846786499e-01</leafValues></_>
        <_>
          <internalNodes>
            0 -1 268 -2.5536194443702698e-03</internalNodes>
          <leafValues>
            4.7457024455070496e-01 -2.3589819669723511e-01</leafValues></_>
        <_>
          <internalNodes>
            0 -1 119 3.0572835821658373e-03</internalNodes>
          <leafValues>
            1.5262961387634277e-01 -6.1955392360687256e-01</leafValues></_>
        <_>
          <internalNodes>
            0 -1 62 6.5955761820077896e-03</internalNodes>
          <leafValues>
            -1.7723900079727173e-01 7.4507337808609009e-01</leafValues></_>
        <_>
          <internalNodes>
            0 -1 95 -2.1501768380403519e-02</internalNodes>
          <leafValues>
            5.7711416482925415e-01 -1.3799227774143219e-01</leafValues></_>
        <_>
          <internalNodes>
            0 -1 125 1.1573089286684990e-03</internalNodes>
          <leafValues>
            1.4695183932781219e-01 -6.9752478599548340e-01</leafValues></_>
        <_>
          <internalNodes>
            0 -1 18 -6.6323434002697468e-03</internalNodes>
          <leafValues>
            6.7484092712402344e-01 -1.5530811250209808e-01</leafValues></_>
        <_>
          <internalNodes>
            0 -1 19 1.5609378460794687e-03</internalNodes>
          <leafValues>
            -2.2127066552639008e-01 4.0082529187202454e-01</leafValues></_>
        <_>
          <internalNodes>
            0 -1 50 -3.2005213201045990e-02</internalNodes>
          <leafValues>
            -2.7531293034553528e-01 3.4100121259689331e-01</leafValues></_>
        <_>
          <internalNodes>
            0 -1 187 4.2348899878561497e-03</internalNodes>
          <leafValues>
            -1.2680546939373016e-01 6.9308441877365112e-01</leafValues></_>
        <_>
          <internalNodes>
            0 -1 199 3.8821989437565207e-04</internalNodes>
          <leafValues>
            1.5438945591449738e-01 -6.0719442367553711e-01</leafValues></_>
        <_>
          <internalNodes>
            0 -1 65 1.3140075607225299e-03</internalNodes>
          <leafValues>
            -1.8498803675174713e-01 5.1264268159866333e-01</leafValues></_>
        <_>
          <internalNodes>
            0 -1 22 -1.7473936313763261e-03</internalNodes>
          <leafValues>
            4.5116490125656128e-01 -1.9338887929916382e-01</leafValues></_>
        <_>
          <internalNodes>
            0 -1 163 -3.0744925606995821e-04</internalNodes>
          <leafValues>
            -6.5438044071197510e-01 1.3211654126644135e-01</leafValues></_>
        <_>
          <internalNodes>
            0 -1 147 -4.1900471842382103e-05</internalNodes>
          <leafValues>
            1.9974519312381744e-01 -4.4462087750434875e-01</leafValues></_>
        <_>
          <internalNodes>
            0 -1 88 3.6375137278810143e-04</internalNodes>
          <leafValues>
            1.2927399575710297e-01 -6.6186594963073730e-01</leafValues></_>
        <_>
          <internalNodes>
            0 -1 31 5.6188637390732765e-03</internalNodes>
          <leafValues>
            -1.3926091790199280e-01 6.9767367839813232e-01</leafValues></_>
        <_>
          <internalNodes>
            0 -1 265 -5.6356694549322128e-03</internalNodes>
          <leafValues>
            5.3618723154067993e-01 -1.5252958238124847e-01</leafValues></_>
        <_>
          <internalNodes>
            0 -1 192 -5.7110022753477097e-03</internalNodes>
          <leafValues>
            3.7273243069648743e-01 -2.3480193316936493e-01</leafValues></_></weakClassifiers></_>
    <!-- stage 5 -->
    <_>
      <maxWeakCount>23</maxWeakCount>
      <stageThreshold>-1.0761584043502808e+00</stageThreshold>
      <weakClassifiers>
        <_>
          <internalNodes>
            0 -1 279 1.2252213433384895e-02</internalNodes>
          <leafValues>
            -3.4256055951118469e-01 6.6666668653488159e-01</leafValues></_>
        <_>
          <internalNodes>
            0 -1 255 -1.8092587124556303e-03</internalNodes>
          <leafValues>
            5.5650061368942261e-01 -1.6129162907600403e-01</leafValues></_>
        <_>
          <internalNodes>
            0 -1 20 -2.8056971728801727e-02</internalNodes>
          <leafValues>
            -5.2040785551071167e-01 1.4842088520526886e-01</leafValues></_>
        <_>
          <internalNodes>
            0 -1 33 -4.3510477989912033e-03</internalNodes>
          <leafValues>
            7.3469376564025879e-01 -9.4768486917018890e-02</leafValues></_>
        <_>
          <internalNodes>
            0 -1 168 9.7525113960728049e-04</internalNodes>
          <leafValues>
            1.5237559378147125e-01 -6.0201227664947510e-01</leafValues></_>
        <_>
          <internalNodes>
            0 -1 138 -5.4008141160011292e-03</internalNodes>
          <leafValues>
            6.1646449565887451e-01 -1.3620847463607788e-01</leafValues></_>
        <_>
          <internalNodes>
            0 -1 10 4.7431238926947117e-03</internalNodes>
          <leafValues>
            -1.2132728844881058e-01 5.9617745876312256e-01</leafValues></_>
        <_>
          <internalNodes>
            0 -1 39 2.4953600950539112e-03</internalNodes>
          <leafValues>
            1.9360801577568054e-01 -5.3976142406463623e-01</leafValues></_>
        <_>
          <internalNodes>
            0 -1 201 -8.4704093751497567e-05</internalNodes>
          <leafValues>
            2.1577747166156769e-01 -3.9198005199432373e-01</leafValues></_>
        <_>
          <internalNodes>
            0 -1 228 1.0093169286847115e-02</internalNodes>
          <leafValues>
            -1.4630062878131866e-01 5.5432176589965820e-01</leafValues></_>
        <_>
          <internalNodes>
            0 -1 180 -1.4054469065740705e-03</internalNodes>
          <leafValues>
            -6.5584558248519897e-01 1.3370355963706970e-01</leafValues></_>
        <_>
          <internalNodes>
            0 -1 159 -3.7780422717332840e-03</internalNodes>
          <leafValues>
            7.1640086174011230e-01 -1.3925452530384064e-01</leafValues></_>
        <_>
          <internalNodes>
            0 -1 213 8.3629961591213942e-04</internalNodes>
          <leafValues>
            1.4650028944015503e-01 -6.1173129081726074e-01</leafValues></_>
        <_>
          <internalNodes>
            0 -1 112 -5.9230672195553780e-04</internalNodes>
          <leafValues>
            6.2556904554367065e-01 -1.6945455968379974e-01</leafValues></_>
        <_>
          <internalNodes>
            0 -1 63 -7.4802950257435441e-04</internalNodes>
          <leafValues>
            6.4510709047317505e-01 -1.2569004297256470e-01</leafValues></_>
        <_>
          <internalNodes>
            0 -1 87 -3.9556096307933331e-03</internalNodes>
          <leafValues>
            -6.3132607936859131e-01 1.2877058982849121e-01</leafValues></_>
        <_>
          <internalNodes>
            0 -1 45 1.2077660113573074e-01</internalNodes>
          <leafValues>
            1.1007095128297806e-01 -6.6989338397979736e-01</leafValues></_>
        <_>
          <internalNodes>
            0 -1 127 -6.5932993311434984e-04</internalNodes>
          <leafValues>
            4.4491213560104370e-01 -2.1782767772674561e-01</leafValues></_>
        <_>
          <internalNodes>
            0 -1 133 3.7037231959402561e-03</internalNodes>
          <leafValues>
            1.3826753199100494e-01 -6.8172568082809448e-01</leafValues></_>
        <_>
          <internalNodes>
            0 -1 81 4.8935655504465103e-03</internalNodes>
          <leafValues>
            -2.8417053818702698e-01 2.7729251980781555e-01</leafValues></_>
        <_>
          <internalNodes>
            0 -1 239 -1.1843747925013304e-03</internalNodes>
          <leafValues>
            -9.1897124052047729e-01 1.0856322944164276e-01</leafValues></_>
        <_>
          <internalNodes>
            0 -1 247 2.1340856328606606e-03</internalNodes>
          <leafValues>
            -1.3983233273029327e-01 7.7773034572601318e-01</leafValues></_>
        <_>
          <internalNodes>
            0 -1 120 -1.8799181561917067e-03</internalNodes>
          <leafValues>
            -3.3849558234214783e-01 2.5983971357345581e-01</leafValues></_></weakClassifiers></_>
    <!-- stage 6 -->
    <_>
      <maxWeakCount>24</maxWeakCount>
      <stageThreshold>-8.6499679088592529e-01</stageThreshold>
      <weakClassifiers>
        <_>
          <internalNodes>
            0 -1 36 -3.3834081888198853e-01</internalNodes>
          <leafValues>
            2.7891156077384949e-01 -3.7972167134284973e-01</leafValues></_>
        <_>
          <internalNodes>
            0 -1 241 -9.5967594534158707e-03</internalNodes>
          <leafValues>
            1.0007395595312119e-01 -6.8284195661544800e-01</leafValues></_>
        <_>
          <internalNodes>
            0 -1 260 1.0583525523543358e-02</internalNodes>
          <leafValues>
            -1.7099279165267944e-01 4.6241918206214905e-01</leafValues></_>
        <_>
          <internalNodes>
            0 -1 274 -1.9299800624139607e-04</internalNodes>
          <leafValues>
            3.9737978577613831e-01 -1.6459818184375763e-01</leafValues></_>
        <_>
          <internalNodes>
            0 -1 233 4.9246642738580704e-03</internalNodes>
          <leafValues>
            -2.1523897349834442e-01 3.7422165274620056e-01</leafValues></_>
        <_>
          <internalNodes>
            0 -1 67 -9.5311403274536133e-03</internalNodes>
          <leafValues>
            4.2090886831283569e-01 -1.8704192340373993e-01</leafValues></_>
        <_>
          <internalNodes>
            0 -1 105 6.1188568361103535e-04</internalNodes>
          <leafValues>
            1.0990652441978455e-01 -7.3263710737228394e-01</leafValues></_>
        <_>
          <internalNodes>
            0 -1 204 2.0390371792018414e-03</internalNodes>
          <leafValues>
            -1.4948008954524994e-01 4.3887129426002502e-01</leafValues></_>
        <_>
          <internalNodes>
            0 -1 64 -1.0380791500210762e-02</internalNodes>
          <leafValues>
            8.1702399253845215e-01 -8.4289409220218658e-02</leafValues></_>
        <_>
          <internalNodes>
            0 -1 216 5.2941311150789261e-04</internalNodes>
          <leafValues>
            1.2690797448158264e-01 -6.6659861803054810e-01</leafValues></_>
        <_>
          <internalNodes>
            0 -1 83 4.1683018207550049e-03</internalNodes>
          <leafValues>
            -2.7324160933494568e-01 2.4268850684165955e-01</leafValues></_>
        <_>
          <internalNodes>
            0 -1 101 3.9209790527820587e-02</internalNodes>
          <leafValues>
            7.0627830922603607e-02 -9.3676924705505371e-01</leafValues></_>
        <_>
          <internalNodes>
            0 -1 251 -3.9458442479372025e-03</internalNodes>
          <leafValues>
            4.5865213871002197e-01 -1.4113624393939972e-01</leafValues></_>
        <_>
          <internalNodes>
            0 -1 121 -3.8851660065120086e-05</internalNodes>
          <leafValues>
            1.8731510639190674e-01 -3.6297419667243958e-01</leafValues></_>
        <_>
          <internalNodes>
            0 -1 24 1.6829509288072586e-02</internalNodes>
          <leafValues>
            -1.5471780300140381e-01 4.7870928049087524e-01</leafValues></_>
        <_>
          <internalNodes>
            0 -1 93 -3.3096759580075741e-03</internalNodes>
          <leafValues>
            3.6448311805725098e-01 -1.8951658904552460e-01</leafValues></_>
        <_>
          <internalNodes>
            0 -1 37 1.0872682323679328e-03</internalNodes>
          <leafValues>
            -1.8570367991924286e-01 3.6079648137092590e-01</leafValues></_>
        <_>
          <internalNodes>
            0 -1 131 -3.7257306277751923e-02</internalNodes>
          <leafValues>
            -3.4070602059364319e-01 2.3059506714344025e-01</leafValues></_>
        <_>
          <internalNodes>
            0 -1 0 -1.8261190271005034e-03</internalNodes>
          <leafValues>
            1.2002822756767273e-01 -7.1708965301513672e-01</leafValues></_>
        <_>
          <internalNodes>
            0 -1 176 4.8542686272412539e-04</internalNodes>
          <leafValues>
            -2.7059265971183777e-01 2.7407166361808777e-01</leafValues></_>
        <_>
          <internalNodes>
            0 -1 245 -6.8949325941503048e-03</internalNodes>
          <leafValues>
            5.5213296413421631e-01 -1.3109685480594635e-01</leafValues></_>
        <_>
          <internalNodes>
            0 -1 232 2.5206755846738815e-02</internalNodes>
          <leafValues>
            -7.4533537030220032e-02 6.9862163066864014e-01</leafValues></_>
        <_>
          <internalNodes>
            0 -1 90 1.0297161061316729e-03</internalNodes>
          <leafValues>
            1.6949002444744110e-01 -4.2761760950088501e-01</leafValues></_>
        <_>
          <internalNodes>
            0 -1 175 4.9028010107576847e-03</internalNodes>
          <leafValues>
            -3.2905218005180359e-01 2.2231887280941010e-01</leafValues></_></weakClassifiers></_>
    <!-- stage 7 -->
    <_>
      <maxWeakCount>31</maxWeakCount>
      <stageThreshold>-1.0160344839096069e+00</stageThreshold>
      <weakClassifiers>
        <_>
          <internalNodes>
            0 -1 11 2.6293078437447548e-02</internalNodes>
          <leafValues>
            -3.8613861799240112e-01 3.1034481525421143e-01</leafValues></_>
        <_>
          <internalNodes>
            0 -1 140 -1.0547971352934837e-02</internalNodes>
          <leafValues>
            5.2270585298538208e-01 -1.5058945119380951e-01</leafValues></_>
        <_>
          <internalNodes>
            0 -1 209 -5.6411563418805599e-03</internalNodes>
          <leafValues>
            -6.9155150651931763e-01 8.1498458981513977e-02</leafValues></_>
        <_>
          <internalNodes>
            0 -1 283 -2.8799804858863354e-03</internalNodes>
          <leafValues>
            7.4150621891021729e-01 -7.1920588612556458e-02</leafValues></_>
        <_>
          <internalNodes>
            0 -1 198 -6.0549232875928283e-04</internalNodes>
          <leafValues>
            -8.0859446525573730e-01 1.0991928726434708e-01</leafValues></_>
        <_>
          <internalNodes>
            0 -1 155 -2.7147813234478235e-03</internalNodes>
          <leafValues>
            8.7677344679832458e-02 -8.0799949169158936e-01</leafValues></_>
        <_>
          <internalNodes>
            0 -1 27 -1.9546577241271734e-03</internalNodes>
          <leafValues>
            6.1441290378570557e-01 -1.2325219064950943e-01</leafValues></_>
        <_>
          <internalNodes>
            0 -1 130 5.1138421986252069e-04</internalNodes>
          <leafValues>
            2.0693726837635040e-01 -3.3449628949165344e-01</leafValues></_>
        <_>
          <internalNodes>
            0 -1 226 -7.8275112900882959e-04</internalNodes>
          <leafValues>
            -4.8521271347999573e-01 1.1071153730154037e-01</leafValues></_>
        <_>
          <internalNodes>
            0 -1 122 7.1389559889212251e-04</internalNodes>
          <leafValues>
            -2.8460952639579773e-01 2.5503271818161011e-01</leafValues></_>
        <_>
          <internalNodes>
            0 -1 129 -2.2964116185903549e-02</internalNodes>
          <leafValues>
            3.6710146069526672e-01 -1.8281087279319763e-01</leafValues></_>
        <_>
          <internalNodes>
            0 -1 259 -7.2681782767176628e-03</internalNodes>
          <leafValues>
            6.6936582326889038e-01 -8.4435358643531799e-02</leafValues></_>
        <_>
          <internalNodes>
            0 -1 259 5.3725522011518478e-03</internalNodes>
          <leafValues>
            -1.5521121025085449e-01 4.1919502615928650e-01</leafValues></_>
        <_>
          <internalNodes>
            0 -1 207 7.4943230720236897e-04</internalNodes>
          <leafValues>
            -1.7051084339618683e-01 3.5238364338874817e-01</leafValues></_>
        <_>
          <internalNodes>
            0 -1 230 -4.6727870358154178e-04</internalNodes>
          <leafValues>
            4.4481196999549866e-01 -1.5250308811664581e-01</leafValues></_>
        <_>
          <internalNodes>
            0 -1 211 -2.5943294167518616e-04</internalNodes>
          <leafValues>
            -4.7954851388931274e-01 1.4515025913715363e-01</leafValues></_>
        <_>
          <internalNodes>
            0 -1 78 6.7733963951468468e-03</internalNodes>
          <leafValues>
            -1.1980520933866501e-01 6.0470861196517944e-01</leafValues></_>
        <_>
          <internalNodes>
            0 -1 243 -4.5546417823061347e-04</internalNodes>
          <leafValues>
            -7.7599781751632690e-01 9.6704222261905670e-02</leafValues></_>
        <_>
          <internalNodes>
            0 -1 15 9.5981772756204009e-04</internalNodes>
          <leafValues>
            -1.1904542148113251e-01 6.4706885814666748e-01</leafValues></_>
        <_>
          <internalNodes>
            0 -1 124 -1.3918992772232741e-04</internalNodes>
          <leafValues>
            2.9444378614425659e-01 -2.4219201505184174e-01</leafValues></_>
        <_>
          <internalNodes>
            0 -1 196 9.2462758766487241e-04</internalNodes>
          <leafValues>
            1.0395809262990952e-01 -7.0803087949752808e-01</leafValues></_>
        <_>
          <internalNodes>
            0 -1 253 -3.0616412404924631e-03</internalNodes>
          <leafValues>
            6.6170978546142578e-01 -1.2102366238832474e-01</leafValues></_>
        <_>
          <internalNodes>
            0 -1 278 -8.3388597704470158e-04</internalNodes>
          <leafValues>
            6.2671542167663574e-01 -8.9687660336494446e-02</leafValues></_>
        <_>
          <internalNodes>
            0 -1 116 -1.4132197247818112e-04</internalNodes>
          <leafValues>
            -4.0110558271408081e-01 1.8022836744785309e-01</leafValues></_>
        <_>
          <internalNodes>
            0 -1 177 -2.9424324631690979e-02</internalNodes>
          <leafValues>
            3.2334840297698975e-01 -2.5574973225593567e-01</leafValues></_>
        <_>
          <internalNodes>
            0 -1 194 2.9040116816759109e-02</internalNodes>
          <leafValues>
            -1.6790781915187836e-01 4.5826855301856995e-01</leafValues></_>
        <_>
          <internalNodes>
            0 -1 252 -4.0965987136587501e-04</internalNodes>
          <leafValues>
            -5.6755590438842773e-01 1.2329956144094467e-01</leafValues></_>
        <_>
          <internalNodes>
            0 -1 72 -2.7553155086934566e-03</internalNodes>
          <leafValues>
            6.1378818750381470e-01 -1.3849583268165588e-01</leafValues></_>
        <_>
          <internalNodes>
            0 -1 157 1.0178807424381375e-03</internalNodes>
          <leafValues>
            -1.5323020517826080e-01 4.3912208080291748e-01</leafValues></_>
        <_>
          <internalNodes>
            0 -1 246 1.3048955588601530e-04</internalNodes>
          <leafValues>
            -2.0563608407974243e-01 3.3608347177505493e-01</leafValues></_>
        <_>
          <internalNodes>
            0 -1 219 1.5719633665867150e-05</internalNodes>
          <leafValues>
            -2.6905354857444763e-01 2.4569851160049438e-01</leafValues></_></weakClassifiers></_>
    <!-- stage 8 -->
    <_>
      <maxWeakCount>23</maxWeakCount>
      <stageThreshold>-7.3773604631423950e-01</stageThreshold>
      <weakClassifiers>
        <_>
          <internalNodes>
            0 -1 80 7.5491762254387140e-04</internalNodes>
          <leafValues>
            -3.4177213907241821e-01 4.0206184983253479e-01</leafValues></_>
        <_>
          <internalNodes>
            0 -1 103 -3.4755092859268188e-01</internalNodes>
          <leafValues>
            3.7817046046257019e-01 -1.9676952064037323e-01</leafValues></_>
        <_>
          <internalNodes>
            0 -1 186 1.3619920937344432e-03</internalNodes>
          <leafValues>
            -1.5901543200016022e-01 4.4543060660362244e-01</leafValues></_>
        <_>
          <internalNodes>
            0 -1 215 -2.4082020390778780e-03</internalNodes>
          <leafValues>
            -7.6339834928512573e-01 8.9865356683731079e-02</leafValues></_>
        <_>
          <internalNodes>
            0 -1 277 -7.8760250471532345e-04</internalNodes>
          <leafValues>
            5.6536626815795898e-01 -1.1720546334981918e-01</leafValues></_>
        <_>
          <internalNodes>
            0 -1 195 -3.5066076088696718e-04</internalNodes>
          <leafValues>
            -5.9565126895904541e-01 1.0349214822053909e-01</leafValues></_>
        <_>
          <internalNodes>
            0 -1 182 1.2240790529176593e-03</internalNodes>
          <leafValues>
            -7.1958005428314209e-02 7.4329310655593872e-01</leafValues></_>
        <_>
          <internalNodes>
            0 -1 26 -3.0002148821949959e-02</internalNodes>
          <leafValues>
            5.9704810380935669e-01 -9.7803965210914612e-02</leafValues></_>
        <_>
          <internalNodes>
            0 -1 139 3.8097905926406384e-03</internalNodes>
          <leafValues>
            -1.1627383530139923e-01 5.6994873285293579e-01</leafValues></_>
        <_>
          <internalNodes>
            0 -1 227 1.2035225518047810e-04</internalNodes>
          <leafValues>
            -2.5082698464393616e-01 2.5417873263359070e-01</leafValues></_>
        <_>
          <internalNodes>
            0 -1 5 4.8139348626136780e-02</internalNodes>
          <leafValues>
            7.3482520878314972e-02 -1.</leafValues></_>
        <_>
          <internalNodes>
            0 -1 71 2.0915953442454338e-02</internalNodes>
          <leafValues>
            -2.4580414593219757e-01 2.6604408025741577e-01</leafValues></_>
        <_>
          <internalNodes>
            0 -1 143 -1.3415576890110970e-02</internalNodes>
          <leafValues>
            4.8397165536880493e-01 -1.4127708971500397e-01</leafValues></_>
        <_>
          <internalNodes>
            0 -1 31 2.5081695057451725e-03</internalNodes>
          <leafValues>
            -1.3228020071983337e-01 4.2072618007659912e-01</leafValues></_>
        <_>
          <internalNodes>
            0 -1 261 -2.1475320681929588e-02</internalNodes>
          <leafValues>
            -3.9100894331932068e-01 1.5675279498100281e-01</leafValues></_>
        <_>
          <internalNodes>
            0 -1 171 -4.1090468876063824e-03</internalNodes>
          <leafValues>
            -8.1265121698379517e-01 6.3420481979846954e-02</leafValues></_>
        <_>
          <internalNodes>
            0 -1 217 -9.5459877047687769e-04</internalNodes>
          <leafValues>
            6.5965467691421509e-01 -1.1928591877222061e-01</leafValues></_>
        <_>
          <internalNodes>
            0 -1 170 -3.5041131079196930e-02</internalNodes>
          <leafValues>
            -5.6697481870651245e-01 1.2232272326946259e-01</leafValues></_>
        <_>
          <internalNodes>
            0 -1 153 -8.8766766712069511e-03</internalNodes>
          <leafValues>
            2.4904732406139374e-01 -2.2983019053936005e-01</leafValues></_>
        <_>
          <internalNodes>
            0 -1 47 -6.3537582755088806e-02</internalNodes>
          <leafValues>
            6.0080844163894653e-01 -9.8416022956371307e-02</leafValues></_>
        <_>
          <internalNodes>
            0 -1 56 3.5945437848567963e-02</internalNodes>
          <leafValues>
            -1.7579905688762665e-01 4.3505865335464478e-01</leafValues></_>
        <_>
          <internalNodes>
            0 -1 141 -1.3187259435653687e-02</internalNodes>
          <leafValues>
            6.3855361938476563e-01 -1.0441094636917114e-01</leafValues></_>
        <_>
          <internalNodes>
            0 -1 85 -3.9568198844790459e-03</internalNodes>
          <leafValues>
            -4.5165199041366577e-01 1.4753060042858124e-01</leafValues></_></weakClassifiers></_>
    <!-- stage 9 -->
    <_>
      <maxWeakCount>26</maxWeakCount>
      <stageThreshold>-9.8480385541915894e-01</stageThreshold>
      <weakClassifiers>
        <_>
          <internalNodes>
            0 -1 13 3.2056062482297421e-03</internalNodes>
          <leafValues>
            -4.0243902802467346e-01 3.0379745364189148e-01</leafValues></_>
        <_>
          <internalNodes>
            0 -1 280 2.6813335716724396e-03</internalNodes>
          <leafValues>
            -1.6406005620956421e-01 5.4999005794525146e-01</leafValues></_>
        <_>
          <internalNodes>
            0 -1 30 -2.7878996916115284e-03</internalNodes>
          <leafValues>
            6.2376266717910767e-01 -1.1606848984956741e-01</leafValues></_>
        <_>
          <internalNodes>
            0 -1 100 1.1157607659697533e-02</internalNodes>
          <leafValues>
            -1.8296827375888824e-01 3.7619742751121521e-01</leafValues></_>
        <_>
          <internalNodes>
            0 -1 123 6.1396422097459435e-04</internalNodes>
          <leafValues>
            1.1057632416486740e-01 -8.1077396869659424e-01</leafValues></_>
        <_>
          <internalNodes>
            0 -1 275 1.8619801849126816e-03</internalNodes>
          <leafValues>
            -1.2407393008470535e-01 5.4646790027618408e-01</leafValues></_>
        <_>
          <internalNodes>
            0 -1 82 -7.3124342598021030e-03</internalNodes>
          <leafValues>
            6.8232429027557373e-01 -1.0771347582340240e-01</leafValues></_>
        <_>
          <internalNodes>
            0 -1 61 1.0643363930284977e-04</internalNodes>
          <leafValues>
            -2.0131257176399231e-01 3.1397467851638794e-01</leafValues></_>
        <_>
          <internalNodes>
            0 -1 3 -5.3976392745971680e-01</internalNodes>
          <leafValues>
            -1.0432967543601990e-01 6.6594082117080688e-01</leafValues></_>
        <_>
          <internalNodes>
            0 -1 118 -1.1510415934026241e-03</internalNodes>
          <leafValues>
            -9.3171578645706177e-01 8.1375755369663239e-02</leafValues></_>
        <_>
          <internalNodes>
            0 -1 41 1.3909565750509501e-03</internalNodes>
          <leafValues>
            -1.4910836517810822e-01 4.8639741539955139e-01</leafValues></_>
        <_>
          <internalNodes>
            0 -1 210 6.5144809195771813e-04</internalNodes>
          <leafValues>
            1.5968103706836700e-01 -4.5101514458656311e-01</leafValues></_>
        <_>
          <internalNodes>
            0 -1 263 -5.7119247503578663e-04</internalNodes>
          <leafValues>
            5.3034883737564087e-01 -1.2617060542106628e-01</leafValues></_>
        <_>
          <internalNodes>
            0 -1 218 -6.5214396454393864e-03</internalNodes>
          <leafValues>
            3.8951021432876587e-01 -1.5872737765312195e-01</leafValues></_>
        <_>
          <internalNodes>
            0 -1 165 3.7582247750833631e-04</internalNodes>
          <leafValues>
            1.1048819869756699e-01 -5.3356486558914185e-01</leafValues></_>
        <_>
          <internalNodes>
            0 -1 42 2.6360480114817619e-03</internalNodes>
          <leafValues>
            -1.2973102927207947e-01 4.4920721650123596e-01</leafValues></_>
        <_>
          <internalNodes>
            0 -1 91 -5.9088259004056454e-03</internalNodes>
          <leafValues>
            3.3351907134056091e-01 -2.3882333934307098e-01</leafValues></_>
        <_>
          <internalNodes>
            0 -1 108 -4.3715229257941246e-03</internalNodes>
          <leafValues>
            5.9963792562484741e-01 -1.1012835800647736e-01</leafValues></_>
        <_>
          <internalNodes>
            0 -1 146 -6.6078896634280682e-04</internalNodes>
          <leafValues>
            -5.6583935022354126e-01 1.2779526412487030e-01</leafValues></_>
        <_>
          <internalNodes>
            0 -1 128 -1.6311772633343935e-03</internalNodes>
          <leafValues>
            5.7630258798599243e-01 -1.2355373799800873e-01</leafValues></_>
        <_>
          <internalNodes>
            0 -1 271 7.6308683492243290e-04</internalNodes>
          <leafValues>
            -1.2331268191337585e-01 5.6593710184097290e-01</leafValues></_>
        <_>
          <internalNodes>
            0 -1 167 3.4304689615964890e-03</internalNodes>
          <leafValues>
            -1.4959812164306641e-01 3.9796239137649536e-01</leafValues></_>
        <_>
          <internalNodes>
            0 -1 160 -1.2400187551975250e-01</internalNodes>
          <leafValues>
            4.5522764325141907e-01 -1.5838888287544250e-01</leafValues></_>
        <_>
          <internalNodes>
            0 -1 236 -9.1890955809503794e-04</internalNodes>
          <leafValues>
            -6.8961358070373535e-01 9.3047238886356354e-02</leafValues></_>
        <_>
          <internalNodes>
            0 -1 52 -1.3035871088504791e-03</internalNodes>
          <leafValues>
            2.5389021635055542e-01 -2.3802275955677032e-01</leafValues></_>
        <_>
          <internalNodes>
            0 -1 38 1.6039039110182784e-05</internalNodes>
          <leafValues>
            -2.4859777092933655e-01 2.6798087358474731e-01</leafValues></_></weakClassifiers></_>
    <!-- stage 10 -->
    <_>
      <maxWeakCount>29</maxWeakCount>
      <stageThreshold>-7.1460372209548950e-01</stageThreshold>
      <weakClassifiers>
        <_>
          <internalNodes>
            0 -1 149 1.3506396673619747e-02</internalNodes>
          <leafValues>
            -3.0743244290351868e-01 5.5172413587570190e-01</leafValues></_>
        <_>
          <internalNodes>
            0 -1 185 -5.5772773921489716e-02</internalNodes>
          <leafValues>
            -6.8070381879806519e-01 7.1965128183364868e-02</leafValues></_>
        <_>
          <internalNodes>
            0 -1 99 -6.3434513285756111e-03</internalNodes>
          <leafValues>
            -3.4262323379516602e-01 1.9068665802478790e-01</leafValues></_>
        <_>
          <internalNodes>
            0 -1 181 2.3580756969749928e-03</internalNodes>
          <leafValues>
            -1.2374461442232132e-01 4.8652464151382446e-01</leafValues></_>
        <_>
          <internalNodes>
            0 -1 148 4.1069267317652702e-03</internalNodes>
          <leafValues>
            -9.7526691854000092e-02 5.2070933580398560e-01</leafValues></_>
        <_>
          <internalNodes>
            0 -1 264 6.3635758124291897e-04</internalNodes>
          <leafValues>
            -2.3309609293937683e-01 2.2649998962879181e-01</leafValues></_>
        <_>
          <internalNodes>
            0 -1 191 -1.2281110510230064e-02</internalNodes>
          <leafValues>
            4.3224772810935974e-01 -1.2439613789319992e-01</leafValues></_>
        <_>
          <internalNodes>
            0 -1 240 -5.5606436217203736e-04</internalNodes>
          <leafValues>
            -4.4736170768737793e-01 1.2571932375431061e-01</leafValues></_>
        <_>
          <internalNodes>
            0 -1 156 -9.7705167718231678e-04</internalNodes>
          <leafValues>
            4.0904653072357178e-01 -1.4119699597358704e-01</leafValues></_>
        <_>
          <internalNodes>
            0 -1 69 -4.4628968462347984e-03</internalNodes>
          <leafValues>
            6.2571215629577637e-01 -1.0176522284746170e-01</leafValues></_>
        <_>
          <internalNodes>
            0 -1 144 1.6175087075680494e-03</internalNodes>
          <leafValues>
            1.0510192066431046e-01 -5.8666706085205078e-01</leafValues></_>
        <_>
          <internalNodes>
            0 -1 162 -2.9728719964623451e-03</internalNodes>
          <leafValues>
            -5.1925057172775269e-01 1.0392335057258606e-01</leafValues></_>
        <_>
          <internalNodes>
            0 -1 242 1.6758831916376948e-03</internalNodes>
          <leafValues>
            -9.4254113733768463e-02 6.9623851776123047e-01</leafValues></_>
        <_>
          <internalNodes>
            0 -1 1 -2.1474903915077448e-03</internalNodes>
          <leafValues>
            4.5149311423301697e-01 -1.2276308238506317e-01</leafValues></_>
        <_>
          <internalNodes>
            0 -1 49 2.8209153097122908e-03</internalNodes>
          <leafValues>
            -1.8313877284526825e-01 3.1646490097045898e-01</leafValues></_>
        <_>
          <internalNodes>
            0 -1 16 -3.1590531580150127e-03</internalNodes>
          <leafValues>
            4.6318879723548889e-01 -1.2633728981018066e-01</leafValues></_>
        <_>
          <internalNodes>
            0 -1 57 -9.0664962772279978e-04</internalNodes>
          <leafValues>
            -3.9830031991004944e-01 1.7635458707809448e-01</leafValues></_>
        <_>
          <internalNodes>
            0 -1 224 -2.4980120360851288e-03</internalNodes>
          <leafValues>
            -4.8954704403877258e-01 1.1128991097211838e-01</leafValues></_>
        <_>
          <internalNodes>
            0 -1 145 1.1750176781788468e-03</internalNodes>
          <leafValues>
            1.0946805775165558e-01 -4.6523806452751160e-01</leafValues></_>
        <_>
          <internalNodes>
            0 -1 206 1.5115933492779732e-03</internalNodes>
          <leafValues>
            -1.5479858219623566e-01 3.6555302143096924e-01</leafValues></_>
        <_>
          <internalNodes>
            0 -1 135 -1.5458046982530504e-04</internalNodes>
          <leafValues>
            -3.0783861875534058e-01 1.8222540616989136e-01</leafValues></_>
        <_>
          <internalNodes>
            0 -1 79 2.6649021310731769e-04</internalNodes>
          <leafValues>
            -1.6281740367412567e-01 3.6640745401382446e-01</leafValues></_>
        <_>
          <internalNodes>
            0 -1 126 3.0834029894322157e-03</internalNodes>
          <leafValues>
            -9.1533765196800232e-02 7.5515514612197876e-01</leafValues></_>
        <_>
          <internalNodes>
            0 -1 212 1.0425464715808630e-03</internalNodes>
          <leafValues>
            1.9031088054180145e-01 -3.1360068917274475e-01</leafValues></_>
        <_>
          <internalNodes>
            0 -1 115 1.7797212302684784e-01</internalNodes>
          <leafValues>
            -8.5434891283512115e-02 7.5247025489807129e-01</leafValues></_>
        <_>
          <internalNodes>
            0 -1 221 -6.8760499358177185e-02</internalNodes>
          <leafValues>
            7.8668850660324097e-01 -6.8140313029289246e-02</leafValues></_>
        <_>
          <internalNodes>
            0 -1 169 -7.1882182965055108e-04</internalNodes>
          <leafValues>
            -6.7337125539779663e-01 1.2235353887081146e-01</leafValues></_>
        <_>
          <internalNodes>
            0 -1 267 1.9415258429944515e-03</internalNodes>
          <leafValues>
            -1.0987906903028488e-01 6.5233045816421509e-01</leafValues></_>
        <_>
          <internalNodes>
            0 -1 154 -5.2207428961992264e-03</internalNodes>
          <leafValues>
            3.7756139039993286e-01 -1.9620628654956818e-01</leafValues></_></weakClassifiers></_>
    <!-- stage 11 -->
    <_>
      <maxWeakCount>31</maxWeakCount>
      <stageThreshold>-8.6878895759582520e-01</stageThreshold>
      <weakClassifiers>
        <_>
          <internalNodes>
            0 -1 77 -1.3311240077018738e-01</internalNodes>
          <leafValues>
            6.8421053886413574e-01 -2.8758171200752258e-01</leafValues></_>
        <_>
          <internalNodes>
            0 -1 35 -5.6523936986923218e-01</internalNodes>
          <leafValues>
            2.0194944739341736e-01 -3.5876578092575073e-01</leafValues></_>
        <_>
          <internalNodes>
            0 -1 200 -3.5389378899708390e-04</internalNodes>
          <leafValues>
            -5.4780775308609009e-01 1.2797211110591888e-01</leafValues></_>
        <_>
          <internalNodes>
            0 -1 98 7.9012073576450348e-02</internalNodes>
          <leafValues>
            7.4132189154624939e-02 -1.</leafValues></_>
        <_>
          <internalNodes>
            0 -1 84 -5.5289613083004951e-03</internalNodes>
          <leafValues>
            2.6072379946708679e-01 -2.2652667760848999e-01</leafValues></_>
        <_>
          <internalNodes>
            0 -1 44 -3.0659819021821022e-03</internalNodes>
          <leafValues>
            3.2678422331809998e-01 -1.7302832007408142e-01</leafValues></_>
        <_>
          <internalNodes>
            0 -1 225 -5.8327359147369862e-04</internalNodes>
          <leafValues>
            -7.4355453252792358e-01 8.2867033779621124e-02</leafValues></_>
        <_>
          <internalNodes>
            0 -1 60 -1.1904279235750437e-03</internalNodes>
          <leafValues>
            4.7339349985122681e-01 -1.2567676603794098e-01</leafValues></_>
        <_>
          <internalNodes>
            0 -1 193 1.4242559671401978e-02</internalNodes>
          <leafValues>
            -7.8346736729145050e-02 7.1774315834045410e-01</leafValues></_>
        <_>
          <internalNodes>
            0 -1 183 2.2893068380653858e-03</internalNodes>
          <leafValues>
            -2.9110762476921082e-01 2.0042175054550171e-01</leafValues></_>
        <_>
          <internalNodes>
            0 -1 9 -2.9519968666136265e-03</internalNodes>
          <leafValues>
            1.4260670542716980e-01 -4.1913264989852905e-01</leafValues></_>
        <_>
          <internalNodes>
            0 -1 107 -1.0757076740264893e-01</internalNodes>
          <leafValues>
            -2.0026731491088867e-01 2.9726231098175049e-01</leafValues></_>
        <_>
          <internalNodes>
            0 -1 231 4.9951317487284541e-04</internalNodes>
          <leafValues>
            -1.5155330300331116e-01 3.6753714084625244e-01</leafValues></_>
        <_>
          <internalNodes>
            0 -1 214 -5.9304828755557537e-04</internalNodes>
          <leafValues>
            -4.7482568025588989e-01 1.2088035047054291e-01</leafValues></_>
        <_>
          <internalNodes>
            0 -1 23 -1.0524665936827660e-02</internalNodes>
          <leafValues>
            4.8308148980140686e-01 -1.2878529727458954e-01</leafValues></_>
        <_>
          <internalNodes>
            0 -1 96 2.9121036641299725e-03</internalNodes>
          <leafValues>
            -1.7570433020591736e-01 3.2678419351577759e-01</leafValues></_>
        <_>
          <internalNodes>
            0 -1 92 -5.3216665983200073e-03</internalNodes>
          <leafValues>
            6.4299672842025757e-01 -9.5444858074188232e-02</leafValues></_>
        <_>
          <internalNodes>
            0 -1 190 6.6912053152918816e-03</internalNodes>
          <leafValues>
            8.5622452199459076e-02 -8.6895173788070679e-01</leafValues></_>
        <_>
          <internalNodes>
            0 -1 94 -4.4866889715194702e-02</internalNodes>
          <leafValues>
            7.0260685682296753e-01 -9.3644842505455017e-02</leafValues></_>
        <_>
          <internalNodes>
            0 -1 7 8.1648200750350952e-02</internalNodes>
          <leafValues>
            6.9294050335884094e-02 -9.2949062585830688e-01</leafValues></_>
        <_>
          <internalNodes>
            0 -1 250 -2.1329557057470083e-03</internalNodes>
          <leafValues>
            -6.3095843791961670e-01 7.2393424808979034e-02</leafValues></_>
        <_>
          <internalNodes>
            0 -1 75 5.3593423217535019e-03</internalNodes>
          <leafValues>
            5.8250300586223602e-02 -8.8133156299591064e-01</leafValues></_>
        <_>
          <internalNodes>
            0 -1 174 -1.5300174709409475e-03</internalNodes>
          <leafValues>
            5.1567632704973221e-02 -8.9729243516921997e-01</leafValues></_>
        <_>
          <internalNodes>
            0 -1 86 -2.8163853567093611e-03</internalNodes>
          <leafValues>
            2.7859550714492798e-01 -2.2128681838512421e-01</leafValues></_>
        <_>
          <internalNodes>
            0 -1 74 5.9620634419843554e-04</internalNodes>
          <leafValues>
            1.4330755174160004e-01 -4.5901569724082947e-01</leafValues></_>
        <_>
          <internalNodes>
            0 -1 152 2.0626080222427845e-03</internalNodes>
          <leafValues>
            -2.0501418411731720e-01 3.0552634596824646e-01</leafValues></_>
        <_>
          <internalNodes>
            0 -1 55 -1.1039681732654572e-02</internalNodes>
          <leafValues>
            4.2329552769660950e-01 -1.3564895093441010e-01</leafValues></_>
        <_>
          <internalNodes>
            0 -1 54 -7.7216927893459797e-03</internalNodes>
          <leafValues>
            6.9823253154754639e-01 -8.1772580742835999e-02</leafValues></_>
        <_>
          <internalNodes>
            0 -1 223 3.2957017538137734e-04</internalNodes>
          <leafValues>
            1.7768163979053497e-01 -3.3755049109458923e-01</leafValues></_>
        <_>
          <internalNodes>
            0 -1 282 1.7428533174097538e-03</internalNodes>
          <leafValues>
            -1.1364042758941650e-01 5.7942855358123779e-01</leafValues></_>
        <_>
          <internalNodes>
            0 -1 89 -4.1864675586111844e-04</internalNodes>
          <leafValues>
            -4.4780766963958740e-01 1.4890313148498535e-01</leafValues></_></weakClassifiers></_>
    <!-- stage 12 -->
    <_>
      <maxWeakCount>26</maxWeakCount>
      <stageThreshold>-9.2046999931335449e-01</stageThreshold>
      <weakClassifiers>
        <_>
          <internalNodes>
            0 -1 102 -3.5367280244827271e-01</internalNodes>
          <leafValues>
            2.0000000298023224e-01 -3.6565655469894409e-01</leafValues></_>
        <_>
          <internalNodes>
            0 -1 76 4.3100694892928004e-04</internalNodes>
          <leafValues>
            1.3087618350982666e-01 -4.2653161287307739e-01</leafValues></_>
        <_>
          <internalNodes>
            0 -1 17 1.9863012712448835e-03</internalNodes>
          <leafValues>
            -1.4503331482410431e-01 4.2251303791999817e-01</leafValues></_>
        <_>
          <internalNodes>
            0 -1 59 -9.6049839630723000e-03</internalNodes>
          <leafValues>
            3.0542096495628357e-01 -1.6852355003356934e-01</leafValues></_>
        <_>
          <internalNodes>
            0 -1 53 -5.0347950309514999e-03</internalNodes>
          <leafValues>
            6.6791445016860962e-01 -5.3481183946132660e-02</leafValues></_>
        <_>
          <internalNodes>
            0 -1 256 2.8695625951513648e-04</internalNodes>
          <leafValues>
            -2.6408180594444275e-01 2.4417163431644440e-01</leafValues></_>
        <_>
          <internalNodes>
            0 -1 66 -1.0743962973356247e-01</internalNodes>
          <leafValues>
            -7.9333639144897461e-01 7.7041156589984894e-02</leafValues></_>
        <_>
          <internalNodes>
            0 -1 117 -3.1902797054499388e-03</internalNodes>
          <leafValues>
            3.4635007381439209e-01 -2.1525914967060089e-01</leafValues></_>
        <_>
          <internalNodes>
            0 -1 266 5.5634095333516598e-03</internalNodes>
          <leafValues>
            -7.9429343342781067e-02 9.5525568723678589e-01</leafValues></_>
        <_>
          <internalNodes>
            0 -1 276 -1.0177862131968141e-03</internalNodes>
          <leafValues>
            -2.9597952961921692e-01 2.3011101782321930e-01</leafValues></_>
        <_>
          <internalNodes>
            0 -1 178 -5.5647356202825904e-04</internalNodes>
          <leafValues>
            -7.4535745382308960e-01 8.1933520734310150e-02</leafValues></_>
        <_>
          <internalNodes>
            0 -1 281 8.5436052177101374e-04</internalNodes>
          <leafValues>
            -1.5359365940093994e-01 4.9850693345069885e-01</leafValues></_>
        <_>
          <internalNodes>
            0 -1 235 5.0152428448200226e-02</internalNodes>
          <leafValues>
            9.2081308364868164e-02 -8.3933842182159424e-01</leafValues></_>
        <_>
          <internalNodes>
            0 -1 273 -9.1170897940173745e-04</internalNodes>
          <leafValues>
            2.5478306412696838e-01 -2.4801380932331085e-01</leafValues></_>
        <_>
          <internalNodes>
            0 -1 284 9.5544639043509960e-04</internalNodes>
          <leafValues>
            -9.2008158564567566e-02 6.0046106576919556e-01</leafValues></_>
        <_>
          <internalNodes>
            0 -1 58 -5.3917076438665390e-03</internalNodes>
          <leafValues>
            7.5575506687164307e-01 -6.5387174487113953e-02</leafValues></_>
        <_>
          <internalNodes>
            0 -1 164 -1.0893070138990879e-02</internalNodes>
          <leafValues>
            4.0806964039802551e-01 -1.3840311765670776e-01</leafValues></_>
        <_>
          <internalNodes>
            0 -1 208 -1.6229049651883543e-04</internalNodes>
          <leafValues>
            -3.5273700952529907e-01 1.5791347622871399e-01</leafValues></_>
        <_>
          <internalNodes>
            0 -1 158 -2.7861772105097771e-03</internalNodes>
          <leafValues>
            5.6677687168121338e-01 -1.0043212026357651e-01</leafValues></_>
        <_>
          <internalNodes>
            0 -1 132 6.6851265728473663e-05</internalNodes>
          <leafValues>
            1.7745837569236755e-01 -3.6163997650146484e-01</leafValues></_>
        <_>
          <internalNodes>
            0 -1 270 -1.1444899719208479e-03</internalNodes>
          <leafValues>
            6.8994075059890747e-01 -7.6803043484687805e-02</leafValues></_>
        <_>
          <internalNodes>
            0 -1 166 -6.5585494041442871e-02</internalNodes>
          <leafValues>
            4.8149219155311584e-01 -1.2642270326614380e-01</leafValues></_>
        <_>
          <internalNodes>
            0 -1 114 1.9142888486385345e-02</internalNodes>
          <leafValues>
            -1.2999825179576874e-01 5.0391483306884766e-01</leafValues></_>
        <_>
          <internalNodes>
            0 -1 237 -3.0122743919491768e-04</internalNodes>
          <leafValues>
            -4.0665361285209656e-01 1.5853166580200195e-01</leafValues></_>
        <_>
          <internalNodes>
            0 -1 136 8.9790101628750563e-04</internalNodes>
          <leafValues>
            -1.6331684589385986e-01 4.1363251209259033e-01</leafValues></_>
        <_>
          <internalNodes>
            0 -1 109 -1.3216421008110046e-02</internalNodes>
          <leafValues>
            7.4422365427017212e-01 -7.6349668204784393e-02</leafValues></_></weakClassifiers></_></stages>
  <features>
    <_>
      <rects>
        <_>
          0 0 3 1 -1.</_>
        <_>
          1 0 1 1 2.</_></rects>
      <tilted>0</tilted></_>
    <_>
      <rects>
        <_>
          0 0 1 4 -1.</_>
        <_>
          0 2 1 2 2.</_></rects>
      <tilted>0</tilted></_>
    <_>
      <rects>
        <_>
          0 0 2 7 -1.</_>
        <_>
          1 0 1 7 2.</_></rects>
      <tilted>0</tilted></_>
    <_>
      <rects>
        <_>
          0 0 24 23 -1.</_>
        <_>
          8 0 8 23 2.</_></rects>
      <tilted>0</tilted></_>
    <_>
      <rects>
        <_>
          0 0 15 6 -1.</_>
        <_>
          0 2 15 2 2.</_></rects>
      <tilted>0</tilted></_>
    <_>
      <rects>
        <_>
          0 0 21 2 -1.</_>
        <_>
          0 1 21 1 2.</_></rects>
      <tilted>0</tilted></_>
    <_>
      <rects>
        <_>
          0 1 13 2 -1.</_>
        <_>
          0 2 13 1 2.</_></rects>
      <tilted>0</tilted></_>
    <_>
      <rects>
        <_>
          0 2 24 4 -1.</_>
        <_>
          0 4 24 2 2.</_></rects>
      <tilted>0</tilted></_>
    <_>
      <rects>
        <_>
          0 3 5 6 -1.</_>
        <_>
          0 5 5 2 2.</_></rects>
      <tilted>0</tilted></_>
    <_>
      <rects>
        <_>
          0 4 1 3 -1.</_>
        <_>
          0 5 1 1 2.</_></rects>
      <tilted>0</tilted></_>
    <_>
      <rects>
        <_>
          0 5 2 8 -1.</_>
        <_>
          0 5 1 4 2.</_>
        <_>
          1 9 1 4 2.</_></rects>
      <tilted>0</tilted></_>
    <_>
      <rects>
        <_>
          0 6 4 9 -1.</_>
        <_>
          2 6 2 9 2.</_></rects>
      <tilted>0</tilted></_>
    <_>
      <rects>
        <_>
          0 7 2 6 -1.</_>
        <_>
          0 7 1 3 2.</_>
        <_>
          1 10 1 3 2.</_></rects>
      <tilted>0</tilted></_>
    <_>
      <rects>
        <_>
          0 7 4 1 -1.</_>
        <_>
          2 7 2 1 2.</_></rects>
      <tilted>0</tilted></_>
    <_>
      <rects>
        <_>
          0 10 4 9 -1.</_>
        <_>
          2 10 2 9 2.</_></rects>
      <tilted>0</tilted></_>
    <_>
      <rects>
        <_>
          0 11 2 2 -1.</_>
        <_>
          0 11 1 1 2.</_>
        <_>
          1 12 1 1 2.</_></rects>
      <tilted>0</tilted></_>
    <_>
      <rects>
        <_>
          0 11 2 6 -1.</_>
        <_>
          0 11 1 3 2.</_>
        <_>
          1 14 1 3 2.</_></rects>
      <tilted>0</tilted></_>
    <_>
      <rects>
        <_>
          0 12 2 2 -1.</_>
        <_>
          1 12 1 2 2.</_></rects>
      <tilted>0</tilted></_>
    <_>
      <rects>
        <_>
          0 12 1 8 -1.</_>
        <_>
          0 16 1 4 2.</_></rects>
      <tilted>0</tilted></_>
    <_>
      <rects>
        <_>
          0 12 1 10 -1.</_>
        <_>
          0 17 1 5 2.</_></rects>
      <tilted>0</tilted></_>
    <_>
      <rects>
        <_>
          0 12 6 2 -1.</_>
        <_>
          2 12 2 2 2.</_></rects>
      <tilted>0</tilted></_>
    <_>
      <rects>
        <_>
          0 14 2 2 -1.</_>
        <_>
          0 14 1 1 2.</_>
        <_>
          1 15 1 1 2.</_></rects>
      <tilted>0</tilted></_>
    <_>
      <rects>
        <_>
          0 15 2 4 -1.</_>
        <_>
          0 17 2 2 2.</_></rects>
      <tilted>0</tilted></_>
    <_>
      <rects>
        <_>
          0 15 6 3 -1.</_>
        <_>
          3 15 3 3 2.</_></rects>
      <tilted>0</tilted></_>
    <_>
      <rects>
        <_>
          0 18 14 6 -1.</_>
        <_>
          0 18 7 3 2.</_>
        <_>
          7 21 7 3 2.</_></rects>
      <tilted>0</tilted></_>
    <_>
      <rects>
        <_>
          0 19 2 2 -1.</_>
        <_>
          0 19 1 1 2.</_>
        <_>
          1 20 1 1 2.</_></rects>
      <tilted>0</tilted></_>
    <_>
      <rects>
        <_>
          0 20 17 4 -1.</_>
        <_>
          0 22 17 2 2.</_></rects>
      <tilted>0</tilted></_>
    <_>
      <rects>
        <_>
          1 0 2 2 -1.</_>
        <_>
          1 1 2 1 2.</_></rects>
      <tilted>0</tilted></_>
    <_>
      <rects>
        <_>
          1 0 4 10 -1.</_>
        <_>
          1 0 2 5 2.</_>
        <_>
          3 5 2 5 2.</_></rects>
      <tilted>0</tilted></_>
    <_>
      <rects>
        <_>
          1 3 2 4 -1.</_>
        <_>
          1 3 1 2 2.</_>
        <_>
          2 5 1 2 2.</_></rects>
      <tilted>0</tilted></_>
    <_>
      <rects>
        <_>
          1 4 2 4 -1.</_>
        <_>
          1 4 1 2 2.</_>
        <_>
          2 6 1 2 2.</_></rects>
      <tilted>0</tilted></_>
    <_>
      <rects>
        <_>
          1 5 2 10 -1.</_>
        <_>
          1 5 1 5 2.</_>
        <_>
          2 10 1 5 2.</_></rects>
      <tilted>0</tilted></_>
    <_>
      <rects>
        <_>
          1 6 2 2 -1.</_>
        <_>
          1 6 1 1 2.</_>
        <_>
          2 7 1 1 2.</_></rects>
      <tilted>0</tilted></_>
    <_>
      <rects>
        <_>
          1 6 2 8 -1.</_>
        <_>
          1 6 1 4 2.</_>
        <_>
          2 10 1 4 2.</_></rects>
      <tilted>0</tilted></_>
    <_>
      <rects>
        <_>
          1 6 2 12 -1.</_>
        <_>
          2 6 1 12 2.</_></rects>
      <tilted>0</tilted></_>
    <_>
      <rects>
        <_>
          1 6 18 18 -1.</_>
        <_>
          1 12 18 6 2.</_></rects>
      <tilted>0</tilted></_>
    <_>
      <rects>
        <_>
          1 6 21 16 -1.</_>
        <_>
          1 14 21 8 2.</_></rects>
      <tilted>0</tilted></_>
    <_>
      <rects>
        <_>
          1 8 2 2 -1.</_>
        <_>
          2 8 1 2 2.</_></rects>
      <tilted>0</tilted></_>
    <_>
      <rects>
        <_>
          1 12 2 2 -1.</_>
        <_>
          1 12 1 1 2.</_>
        <_>
          2 13 1 1 2.</_></rects>
      <tilted>0</tilted></_>
    <_>
      <rects>
        <_>
          1 12 16 2 -1.</_>
        <_>
          1 12 8 1 2.</_>
        <_>
          9 13 8 1 2.</_></rects>
      <tilted>0</tilted></_>
    <_>
      <rects>
        <_>
          1 13 2 10 -1.</_>
        <_>
          1 13 1 5 2.</_>
        <_>
          2 18 1 5 2.</_></rects>
      <tilted>0</tilted></_>
    <_>
      <rects>
        <_>
          1 14 2 4 -1.</_>
        <_>
          1 14 1 2 2.</_>
        <_>
          2 16 1 2 2.</_></rects>
      <tilted>0</tilted></_>
    <_>
      <rects>
        <_>
          1 14 2 3 -1.</_>
        <_>
          2 14 1 3 2.</_></rects>
      <tilted>0</tilted></_>
    <_>
      <rects>
        <_>
          1 14 2 6 -1.</_>
        <_>
          1 14 1 3 2.</_>
        <_>
          2 17 1 3 2.</_></rects>
      <tilted>0</tilted></_>
    <_>
      <rects>
        <_>
          1 14 2 10 -1.</_>
        <_>
          1 14 1 5 2.</_>
        <_>
          2 19 1 5 2.</_></rects>
      <tilted>0</tilted></_>
    <_>
      <rects>
        <_>
          1 15 20 9 -1.</_>
        <_>
          11 15 10 9 2.</_></rects>
      <tilted>0</tilted></_>
    <_>
      <rects>
        <_>
          1 19 4 2 -1.</_>
        <_>
          1 19 2 1 2.</_>
        <_>
          3 20 2 1 2.</_></rects>
      <tilted>0</tilted></_>
    <_>
      <rects>
        <_>
          2 1 8 19 -1.</_>
        <_>
          6 1 4 19 2.</_></rects>
      <tilted>0</tilted></_>
    <_>
      <rects>
        <_>
          2 2 2 4 -1.</_>
        <_>
          2 2 1 2 2.</_>
        <_>
          3 4 1 2 2.</_></rects>
      <tilted>0</tilted></_>
    <_>
      <rects>
        <_>
          2 2 4 6 -1.</_>
        <_>
          2 2 2 3 2.</_>
        <_>
          4 5 2 3 2.</_></rects>
      <tilted>0</tilted></_>
    <_>
      <rects>
        <_>
          2 2 18 1 -1.</_>
        <_>
          8 2 6 1 2.</_></rects>
      <tilted>0</tilted></_>
    <_>
      <rects>
        <_>
          2 2 21 2 -1.</_>
        <_>
          2 3 21 1 2.</_></rects>
      <tilted>0</tilted></_>
    <_>
      <rects>
        <_>
          2 3 2 14 -1.</_>
        <_>
          2 3 1 7 2.</_>
        <_>
          3 10 1 7 2.</_></rects>
      <tilted>0</tilted></_>
    <_>
      <rects>
        <_>
          2 3 18 2 -1.</_>
        <_>
          2 4 18 1 2.</_></rects>
      <tilted>0</tilted></_>
    <_>
      <rects>
        <_>
          2 4 2 10 -1.</_>
        <_>
          2 4 1 5 2.</_>
        <_>
          3 9 1 5 2.</_></rects>
      <tilted>0</tilted></_>
    <_>
      <rects>
        <_>
          2 7 6 8 -1.</_>
        <_>
          2 7 3 4 2.</_>
        <_>
          5 11 3 4 2.</_></rects>
      <tilted>0</tilted></_>
    <_>
      <rects>
        <_>
          2 8 8 10 -1.</_>
        <_>
          6 8 4 10 2.</_></rects>
      <tilted>0</tilted></_>
    <_>
      <rects>
        <_>
          2 10 2 4 -1.</_>
        <_>
          2 10 1 2 2.</_>
        <_>
          3 12 1 2 2.</_></rects>
      <tilted>0</tilted></_>
    <_>
      <rects>
        <_>
          2 12 2 8 -1.</_>
        <_>
          2 12 1 4 2.</_>
        <_>
          3 16 1 4 2.</_></rects>
      <tilted>0</tilted></_>
    <_>
      <rects>
        <_>
          2 14 6 10 -1.</_>
        <_>
          2 14 3 5 2.</_>
        <_>
          5 19 3 5 2.</_></rects>
      <tilted>0</tilted></_>
    <_>
      <rects>
        <_>
          2 16 2 4 -1.</_>
        <_>
          2 16 1 2 2.</_>
        <_>
          3 18 1 2 2.</_></rects>
      <tilted>0</tilted></_>
    <_>
      <rects>
        <_>
          2 17 2 2 -1.</_>
        <_>
          2 17 1 1 2.</_>
        <_>
          3 18 1 1 2.</_></rects>
      <tilted>0</tilted></_>
    <_>
      <rects>
        <_>
          2 18 4 4 -1.</_>
        <_>
          2 18 2 2 2.</_>
        <_>
          4 20 2 2 2.</_></rects>
      <tilted>0</tilted></_>
    <_>
      <rects>
        <_>
          2 19 2 2 -1.</_>
        <_>
          2 19 1 1 2.</_>
        <_>
          3 20 1 1 2.</_></rects>
      <tilted>0</tilted></_>
    <_>
      <rects>
        <_>
          2 22 12 2 -1.</_>
        <_>
          2 22 6 1 2.</_>
        <_>
          8 23 6 1 2.</_></rects>
      <tilted>0</tilted></_>
    <_>
      <rects>
        <_>
          3 0 2 4 -1.</_>
        <_>
          3 0 1 2 2.</_>
        <_>
          4 2 1 2 2.</_></rects>
      <tilted>0</tilted></_>
    <_>
      <rects>
        <_>
          3 0 20 4 -1.</_>
        <_>
          13 0 10 4 2.</_></rects>
      <tilted>0</tilted></_>
    <_>
      <rects>
        <_>
          3 1 12 4 -1.</_>
        <_>
          3 1 6 2 2.</_>
        <_>
          9 3 6 2 2.</_></rects>
      <tilted>0</tilted></_>
    <_>
      <rects>
        <_>
          3 1 15 2 -1.</_>
        <_>
          3 2 15 1 2.</_></rects>
      <tilted>0</tilted></_>
    <_>
      <rects>
        <_>
          3 2 2 6 -1.</_>
        <_>
          3 2 1 3 2.</_>
        <_>
          4 5 1 3 2.</_></rects>
      <tilted>0</tilted></_>
    <_>
      <rects>
        <_>
          3 2 5 2 -1.</_>
        <_>
          3 3 5 1 2.</_></rects>
      <tilted>0</tilted></_>
    <_>
      <rects>
        <_>
          3 2 19 4 -1.</_>
        <_>
          3 4 19 2 2.</_></rects>
      <tilted>0</tilted></_>
    <_>
      <rects>
        <_>
          3 3 2 4 -1.</_>
        <_>
          3 3 1 2 2.</_>
        <_>
          4 5 1 2 2.</_></rects>
      <tilted>0</tilted></_>
    <_>
      <rects>
        <_>
          3 4 6 12 -1.</_>
        <_>
          6 4 3 12 2.</_></rects>
      <tilted>0</tilted></_>
    <_>
      <rects>
        <_>
          3 8 2 1 -1.</_>
        <_>
          4 8 1 1 2.</_></rects>
      <tilted>0</tilted></_>
    <_>
      <rects>
        <_>
          3 12 18 2 -1.</_>
        <_>
          3 12 9 1 2.</_>
        <_>
          12 13 9 1 2.</_></rects>
      <tilted>0</tilted></_>
    <_>
      <rects>
        <_>
          3 14 4 2 -1.</_>
        <_>
          3 14 2 1 2.</_>
        <_>
          5 15 2 1 2.</_></rects>
      <tilted>0</tilted></_>
    <_>
      <rects>
        <_>
          3 14 10 10 -1.</_>
        <_>
          3 19 10 5 2.</_></rects>
      <tilted>0</tilted></_>
    <_>
      <rects>
        <_>
          3 14 15 4 -1.</_>
        <_>
          3 16 15 2 2.</_></rects>
      <tilted>0</tilted></_>
    <_>
      <rects>
        <_>
          3 18 2 2 -1.</_>
        <_>
          3 18 1 1 2.</_>
        <_>
          4 19 1 1 2.</_></rects>
      <tilted>0</tilted></_>
    <_>
      <rects>
        <_>
          3 19 2 1 -1.</_>
        <_>
          4 19 1 1 2.</_></rects>
      <tilted>0</tilted></_>
    <_>
      <rects>
        <_>
          4 0 12 4 -1.</_>
        <_>
          4 0 6 2 2.</_>
        <_>
          10 2 6 2 2.</_></rects>
      <tilted>0</tilted></_>
    <_>
      <rects>
        <_>
          4 1 12 2 -1.</_>
        <_>
          4 2 12 1 2.</_></rects>
      <tilted>0</tilted></_>
    <_>
      <rects>
        <_>
          4 4 4 6 -1.</_>
        <_>
          6 4 2 6 2.</_></rects>
      <tilted>0</tilted></_>
    <_>
      <rects>
        <_>
          4 7 4 16 -1.</_>
        <_>
          4 7 2 8 2.</_>
        <_>
          6 15 2 8 2.</_></rects>
      <tilted>0</tilted></_>
    <_>
      <rects>
        <_>
          4 9 2 12 -1.</_>
        <_>
          4 9 1 6 2.</_>
        <_>
          5 15 1 6 2.</_></rects>
      <tilted>0</tilted></_>
    <_>
      <rects>
        <_>
          4 10 3 4 -1.</_>
        <_>
          4 12 3 2 2.</_></rects>
      <tilted>0</tilted></_>
    <_>
      <rects>
        <_>
          4 11 18 2 -1.</_>
        <_>
          4 11 9 1 2.</_>
        <_>
          13 12 9 1 2.</_></rects>
      <tilted>0</tilted></_>
    <_>
      <rects>
        <_>
          4 12 1 2 -1.</_>
        <_>
          4 13 1 1 2.</_></rects>
      <tilted>0</tilted></_>
    <_>
      <rects>
        <_>
          4 13 1 2 -1.</_>
        <_>
          4 14 1 1 2.</_></rects>
      <tilted>0</tilted></_>
    <_>
      <rects>
        <_>
          4 15 12 2 -1.</_>
        <_>
          4 15 6 1 2.</_>
        <_>
          10 16 6 1 2.</_></rects>
      <tilted>0</tilted></_>
    <_>
      <rects>
        <_>
          4 16 10 6 -1.</_>
        <_>
          4 16 5 3 2.</_>
        <_>
          9 19 5 3 2.</_></rects>
      <tilted>0</tilted></_>
    <_>
      <rects>
        <_>
          4 17 2 7 -1.</_>
        <_>
          5 17 1 7 2.</_></rects>
      <tilted>0</tilted></_>
    <_>
      <rects>
        <_>
          4 18 4 6 -1.</_>
        <_>
          4 18 2 3 2.</_>
        <_>
          6 21 2 3 2.</_></rects>
      <tilted>0</tilted></_>
    <_>
      <rects>
        <_>
          4 19 16 4 -1.</_>
        <_>
          4 21 16 2 2.</_></rects>
      <tilted>0</tilted></_>
    <_>
      <rects>
        <_>
          4 19 17 4 -1.</_>
        <_>
          4 21 17 2 2.</_></rects>
      <tilted>0</tilted></_>
    <_>
      <rects>
        <_>
          4 20 6 3 -1.</_>
        <_>
          7 20 3 3 2.</_></rects>
      <tilted>0</tilted></_>
    <_>
      <rects>
        <_>
          4 22 4 1 -1.</_>
        <_>
          6 22 2 1 2.</_></rects>
      <tilted>0</tilted></_>
    <_>
      <rects>
        <_>
          5 0 6 17 -1.</_>
        <_>
          8 0 3 17 2.</_></rects>
      <tilted>0</tilted></_>
    <_>
      <rects>
        <_>
          5 1 1 12 -1.</_>
        <_>
          5 7 1 6 2.</_></rects>
      <tilted>0</tilted></_>
    <_>
      <rects>
        <_>
          5 1 19 2 -1.</_>
        <_>
          5 2 19 1 2.</_></rects>
      <tilted>0</tilted></_>
    <_>
      <rects>
        <_>
          5 2 8 4 -1.</_>
        <_>
          5 4 8 2 2.</_></rects>
      <tilted>0</tilted></_>
    <_>
      <rects>
        <_>
          5 4 13 20 -1.</_>
        <_>
          5 14 13 10 2.</_></rects>
      <tilted>0</tilted></_>
    <_>
      <rects>
        <_>
          5 6 17 18 -1.</_>
        <_>
          5 15 17 9 2.</_></rects>
      <tilted>0</tilted></_>
    <_>
      <rects>
        <_>
          5 12 2 4 -1.</_>
        <_>
          5 14 2 2 2.</_></rects>
      <tilted>0</tilted></_>
    <_>
      <rects>
        <_>
          5 13 2 2 -1.</_>
        <_>
          5 13 1 1 2.</_>
        <_>
          6 14 1 1 2.</_></rects>
      <tilted>0</tilted></_>
    <_>
      <rects>
        <_>
          5 19 5 4 -1.</_>
        <_>
          5 21 5 2 2.</_></rects>
      <tilted>0</tilted></_>
    <_>
      <rects>
        <_>
          5 19 15 5 -1.</_>
        <_>
          10 19 5 5 2.</_></rects>
      <tilted>0</tilted></_>
    <_>
      <rects>
        <_>
          5 21 8 2 -1.</_>
        <_>
          5 21 4 1 2.</_>
        <_>
          9 22 4 1 2.</_></rects>
      <tilted>0</tilted></_>
    <_>
      <rects>
        <_>
          6 0 2 8 -1.</_>
        <_>
          6 4 2 4 2.</_></rects>
      <tilted>0</tilted></_>
    <_>
      <rects>
        <_>
          6 0 15 1 -1.</_>
        <_>
          11 0 5 1 2.</_></rects>
      <tilted>0</tilted></_>
    <_>
      <rects>
        <_>
          6 0 13 6 -1.</_>
        <_>
          6 3 13 3 2.</_></rects>
      <tilted>0</tilted></_>
    <_>
      <rects>
        <_>
          6 1 2 2 -1.</_>
        <_>
          6 1 1 1 2.</_>
        <_>
          7 2 1 1 2.</_></rects>
      <tilted>0</tilted></_>
    <_>
      <rects>
        <_>
          6 1 4 2 -1.</_>
        <_>
          6 1 2 1 2.</_>
        <_>
          8 2 2 1 2.</_></rects>
      <tilted>0</tilted></_>
    <_>
      <rects>
        <_>
          6 4 10 6 -1.</_>
        <_>
          6 7 10 3 2.</_></rects>
      <tilted>0</tilted></_>
    <_>
      <rects>
        <_>
          6 8 18 12 -1.</_>
        <_>
          15 8 9 12 2.</_></rects>
      <tilted>0</tilted></_>
    <_>
      <rects>
        <_>
          6 9 2 2 -1.</_>
        <_>
          6 9 1 1 2.</_>
        <_>
          7 10 1 1 2.</_></rects>
      <tilted>0</tilted></_>
    <_>
      <rects>
        <_>
          6 9 14 2 -1.</_>
        <_>
          6 10 14 1 2.</_></rects>
      <tilted>0</tilted></_>
    <_>
      <rects>
        <_>
          6 10 1 2 -1.</_>
        <_>
          6 11 1 1 2.</_></rects>
      <tilted>0</tilted></_>
    <_>
      <rects>
        <_>
          6 12 6 4 -1.</_>
        <_>
          6 12 3 2 2.</_>
        <_>
          9 14 3 2 2.</_></rects>
      <tilted>0</tilted></_>
    <_>
      <rects>
        <_>
          6 13 6 6 -1.</_>
        <_>
          6 13 3 3 2.</_>
        <_>
          9 16 3 3 2.</_></rects>
      <tilted>0</tilted></_>
    <_>
      <rects>
        <_>
          6 15 1 2 -1.</_>
        <_>
          6 16 1 1 2.</_></rects>
      <tilted>0</tilted></_>
    <_>
      <rects>
        <_>
          6 15 6 4 -1.</_>
        <_>
          9 15 3 4 2.</_></rects>
      <tilted>0</tilted></_>
    <_>
      <rects>
        <_>
          6 16 1 2 -1.</_>
        <_>
          6 17 1 1 2.</_></rects>
      <tilted>0</tilted></_>
    <_>
      <rects>
        <_>
          6 17 1 2 -1.</_>
        <_>
          6 18 1 1 2.</_></rects>
      <tilted>0</tilted></_>
    <_>
      <rects>
        <_>
          6 18 4 2 -1.</_>
        <_>
          6 18 2 1 2.</_>
        <_>
          8 19 2 1 2.</_></rects>
      <tilted>0</tilted></_>
    <_>
      <rects>
        <_>
          6 21 4 2 -1.</_>
        <_>
          6 21 2 1 2.</_>
        <_>
          8 22 2 1 2.</_></rects>
      <tilted>0</tilted></_>
    <_>
      <rects>
        <_>
          6 22 4 2 -1.</_>
        <_>
          6 22 2 1 2.</_>
        <_>
          8 23 2 1 2.</_></rects>
      <tilted>0</tilted></_>
    <_>
      <rects>
        <_>
          7 1 4 2 -1.</_>
        <_>
          7 1 2 1 2.</_>
        <_>
          9 2 2 1 2.</_></rects>
      <tilted>0</tilted></_>
    <_>
      <rects>
        <_>
          7 1 3 14 -1.</_>
        <_>
          7 8 3 7 2.</_></rects>
      <tilted>0</tilted></_>
    <_>
      <rects>
        <_>
          7 3 2 16 -1.</_>
        <_>
          7 3 1 8 2.</_>
        <_>
          8 11 1 8 2.</_></rects>
      <tilted>0</tilted></_>
    <_>
      <rects>
        <_>
          7 10 2 9 -1.</_>
        <_>
          7 13 2 3 2.</_></rects>
      <tilted>0</tilted></_>
    <_>
      <rects>
        <_>
          7 12 2 2 -1.</_>
        <_>
          7 12 1 1 2.</_>
        <_>
          8 13 1 1 2.</_></rects>
      <tilted>0</tilted></_>
    <_>
      <rects>
        <_>
          7 12 4 8 -1.</_>
        <_>
          7 12 2 4 2.</_>
        <_>
          9 16 2 4 2.</_></rects>
      <tilted>0</tilted></_>
    <_>
      <rects>
        <_>
          7 16 6 2 -1.</_>
        <_>
          9 16 2 2 2.</_></rects>
      <tilted>0</tilted></_>
    <_>
      <rects>
        <_>
          7 19 2 1 -1.</_>
        <_>
          8 19 1 1 2.</_></rects>
      <tilted>0</tilted></_>
    <_>
      <rects>
        <_>
          7 20 2 4 -1.</_>
        <_>
          7 20 1 2 2.</_>
        <_>
          8 22 1 2 2.</_></rects>
      <tilted>0</tilted></_>
    <_>
      <rects>
        <_>
          7 21 8 3 -1.</_>
        <_>
          7 22 8 1 2.</_></rects>
      <tilted>0</tilted></_>
    <_>
      <rects>
        <_>
          7 21 9 2 -1.</_>
        <_>
          7 22 9 1 2.</_></rects>
      <tilted>0</tilted></_>
    <_>
      <rects>
        <_>
          8 0 6 2 -1.</_>
        <_>
          8 0 3 1 2.</_>
        <_>
          11 1 3 1 2.</_></rects>
      <tilted>0</tilted></_>
    <_>
      <rects>
        <_>
          8 0 14 2 -1.</_>
        <_>
          8 0 7 1 2.</_>
        <_>
          15 1 7 1 2.</_></rects>
      <tilted>0</tilted></_>
    <_>
      <rects>
        <_>
          8 1 10 4 -1.</_>
        <_>
          8 1 5 2 2.</_>
        <_>
          13 3 5 2 2.</_></rects>
      <tilted>0</tilted></_>
    <_>
      <rects>
        <_>
          8 2 6 3 -1.</_>
        <_>
          10 2 2 3 2.</_></rects>
      <tilted>0</tilted></_>
    <_>
      <rects>
        <_>
          8 2 2 10 -1.</_>
        <_>
          8 7 2 5 2.</_></rects>
      <tilted>0</tilted></_>
    <_>
      <rects>
        <_>
          8 12 2 3 -1.</_>
        <_>
          9 12 1 3 2.</_></rects>
      <tilted>0</tilted></_>
    <_>
      <rects>
        <_>
          8 13 2 8 -1.</_>
        <_>
          8 13 1 4 2.</_>
        <_>
          9 17 1 4 2.</_></rects>
      <tilted>0</tilted></_>
    <_>
      <rects>
        <_>
          8 13 4 2 -1.</_>
        <_>
          8 13 2 1 2.</_>
        <_>
          10 14 2 1 2.</_></rects>
      <tilted>0</tilted></_>
    <_>
      <rects>
        <_>
          8 15 2 2 -1.</_>
        <_>
          8 16 2 1 2.</_></rects>
      <tilted>0</tilted></_>
    <_>
      <rects>
        <_>
          8 22 6 2 -1.</_>
        <_>
          8 23 6 1 2.</_></rects>
      <tilted>0</tilted></_>
    <_>
      <rects>
        <_>
          9 0 5 2 -1.</_>
        <_>
          9 1 5 1 2.</_></rects>
      <tilted>0</tilted></_>
    <_>
      <rects>
        <_>
          9 1 12 2 -1.</_>
        <_>
          9 1 6 1 2.</_>
        <_>
          15 2 6 1 2.</_></rects>
      <tilted>0</tilted></_>
    <_>
      <rects>
        <_>
          9 6 12 16 -1.</_>
        <_>
          9 14 12 8 2.</_></rects>
      <tilted>0</tilted></_>
    <_>
      <rects>
        <_>
          9 8 6 4 -1.</_>
        <_>
          12 8 3 4 2.</_></rects>
      <tilted>0</tilted></_>
    <_>
      <rects>
        <_>
          9 9 5 6 -1.</_>
        <_>
          9 12 5 3 2.</_></rects>
      <tilted>0</tilted></_>
    <_>
      <rects>
        <_>
          9 10 10 2 -1.</_>
        <_>
          14 10 5 2 2.</_></rects>
      <tilted>0</tilted></_>
    <_>
      <rects>
        <_>
          9 14 3 1 -1.</_>
        <_>
          10 14 1 1 2.</_></rects>
      <tilted>0</tilted></_>
    <_>
      <rects>
        <_>
          9 22 2 2 -1.</_>
        <_>
          9 23 2 1 2.</_></rects>
      <tilted>0</tilted></_>
    <_>
      <rects>
        <_>
          9 22 4 2 -1.</_>
        <_>
          9 22 2 1 2.</_>
        <_>
          11 23 2 1 2.</_></rects>
      <tilted>0</tilted></_>
    <_>
      <rects>
        <_>
          9 22 8 2 -1.</_>
        <_>
          9 22 4 1 2.</_>
        <_>
          13 23 4 1 2.</_></rects>
      <tilted>0</tilted></_>
    <_>
      <rects>
        <_>
          10 0 6 2 -1.</_>
        <_>
          10 0 3 1 2.</_>
        <_>
          13 1 3 1 2.</_></rects>
      <tilted>0</tilted></_>
    <_>
      <rects>
        <_>
          10 2 14 8 -1.</_>
        <_>
          17 2 7 8 2.</_></rects>
      <tilted>0</tilted></_>
    <_>
      <rects>
        <_>
          10 6 3 7 -1.</_>
        <_>
          11 6 1 7 2.</_></rects>
      <tilted>0</tilted></_>
    <_>
      <rects>
        <_>
          10 8 5 2 -1.</_>
        <_>
          10 9 5 1 2.</_></rects>
      <tilted>0</tilted></_>
    <_>
      <rects>
        <_>
          10 11 2 2 -1.</_>
        <_>
          10 11 1 1 2.</_>
        <_>
          11 12 1 1 2.</_></rects>
      <tilted>0</tilted></_>
    <_>
      <rects>
        <_>
          10 17 10 3 -1.</_>
        <_>
          15 17 5 3 2.</_></rects>
      <tilted>0</tilted></_>
    <_>
      <rects>
        <_>
          10 20 2 1 -1.</_>
        <_>
          11 20 1 1 2.</_></rects>
      <tilted>0</tilted></_>
    <_>
      <rects>
        <_>
          11 0 6 16 -1.</_>
        <_>
          11 8 6 8 2.</_></rects>
      <tilted>0</tilted></_>
    <_>
      <rects>
        <_>
          11 3 4 7 -1.</_>
        <_>
          13 3 2 7 2.</_></rects>
      <tilted>0</tilted></_>
    <_>
      <rects>
        <_>
          11 9 1 4 -1.</_>
        <_>
          11 11 1 2 2.</_></rects>
      <tilted>0</tilted></_>
    <_>
      <rects>
        <_>
          11 10 4 2 -1.</_>
        <_>
          11 10 2 1 2.</_>
        <_>
          13 11 2 1 2.</_></rects>
      <tilted>0</tilted></_>
    <_>
      <rects>
        <_>
          11 10 8 6 -1.</_>
        <_>
          11 13 8 3 2.</_></rects>
      <tilted>0</tilted></_>
    <_>
      <rects>
        <_>
          11 11 12 2 -1.</_>
        <_>
          11 11 6 1 2.</_>
        <_>
          17 12 6 1 2.</_></rects>
      <tilted>0</tilted></_>
    <_>
      <rects>
        <_>
          11 15 2 2 -1.</_>
        <_>
          11 15 1 1 2.</_>
        <_>
          12 16 1 1 2.</_></rects>
      <tilted>0</tilted></_>
    <_>
      <rects>
        <_>
          11 18 6 3 -1.</_>
        <_>
          13 18 2 3 2.</_></rects>
      <tilted>0</tilted></_>
    <_>
      <rects>
        <_>
          11 21 3 1 -1.</_>
        <_>
          12 21 1 1 2.</_></rects>
      <tilted>0</tilted></_>
    <_>
      <rects>
        <_>
          12 0 6 4 -1.</_>
        <_>
          12 2 6 2 2.</_></rects>
      <tilted>0</tilted></_>
    <_>
      <rects>
        <_>
          12 4 3 2 -1.</_>
        <_>
          12 5 3 1 2.</_></rects>
      <tilted>0</tilted></_>
    <_>
      <rects>
        <_>
          12 6 12 4 -1.</_>
        <_>
          18 6 6 4 2.</_></rects>
      <tilted>0</tilted></_>
    <_>
      <rects>
        <_>
          12 12 2 2 -1.</_>
        <_>
          12 12 1 1 2.</_>
        <_>
          13 13 1 1 2.</_></rects>
      <tilted>0</tilted></_>
    <_>
      <rects>
        <_>
          12 15 4 2 -1.</_>
        <_>
          12 15 2 1 2.</_>
        <_>
          14 16 2 1 2.</_></rects>
      <tilted>0</tilted></_>
    <_>
      <rects>
        <_>
          12 19 2 4 -1.</_>
        <_>
          13 19 1 4 2.</_></rects>
      <tilted>0</tilted></_>
    <_>
      <rects>
        <_>
          12 22 6 2 -1.</_>
        <_>
          12 22 3 1 2.</_>
        <_>
          15 23 3 1 2.</_></rects>
      <tilted>0</tilted></_>
    <_>
      <rects>
        <_>
          13 0 2 1 -1.</_>
        <_>
          14 0 1 1 2.</_></rects>
      <tilted>0</tilted></_>
    <_>
      <rects>
        <_>
          13 0 1 6 -1.</_>
        <_>
          13 3 1 3 2.</_></rects>
      <tilted>0</tilted></_>
    <_>
      <rects>
        <_>
          13 0 6 2 -1.</_>
        <_>
          13 0 3 1 2.</_>
        <_>
          16 1 3 1 2.</_></rects>
      <tilted>0</tilted></_>
    <_>
      <rects>
        <_>
          13 1 1 21 -1.</_>
        <_>
          13 8 1 7 2.</_></rects>
      <tilted>0</tilted></_>
    <_>
      <rects>
        <_>
          13 1 4 2 -1.</_>
        <_>
          13 1 2 1 2.</_>
        <_>
          15 2 2 1 2.</_></rects>
      <tilted>0</tilted></_>
    <_>
      <rects>
        <_>
          13 1 6 2 -1.</_>
        <_>
          13 1 3 1 2.</_>
        <_>
          16 2 3 1 2.</_></rects>
      <tilted>0</tilted></_>
    <_>
      <rects>
        <_>
          13 3 11 6 -1.</_>
        <_>
          13 6 11 3 2.</_></rects>
      <tilted>0</tilted></_>
    <_>
      <rects>
        <_>
          13 4 1 20 -1.</_>
        <_>
          13 14 1 10 2.</_></rects>
      <tilted>0</tilted></_>
    <_>
      <rects>
        <_>
          13 4 8 2 -1.</_>
        <_>
          13 4 4 1 2.</_>
        <_>
          17 5 4 1 2.</_></rects>
      <tilted>0</tilted></_>
    <_>
      <rects>
        <_>
          13 4 10 1 -1.</_>
        <_>
          18 4 5 1 2.</_></rects>
      <tilted>0</tilted></_>
    <_>
      <rects>
        <_>
          13 5 2 8 -1.</_>
        <_>
          13 9 2 4 2.</_></rects>
      <tilted>0</tilted></_>
    <_>
      <rects>
        <_>
          13 7 10 2 -1.</_>
        <_>
          18 7 5 2 2.</_></rects>
      <tilted>0</tilted></_>
    <_>
      <rects>
        <_>
          13 7 10 11 -1.</_>
        <_>
          18 7 5 11 2.</_></rects>
      <tilted>0</tilted></_>
    <_>
      <rects>
        <_>
          13 8 2 2 -1.</_>
        <_>
          13 8 1 1 2.</_>
        <_>
          14 9 1 1 2.</_></rects>
      <tilted>0</tilted></_>
    <_>
      <rects>
        <_>
          13 9 2 4 -1.</_>
        <_>
          13 9 1 2 2.</_>
        <_>
          14 11 1 2 2.</_></rects>
      <tilted>0</tilted></_>
    <_>
      <rects>
        <_>
          13 14 3 4 -1.</_>
        <_>
          13 16 3 2 2.</_></rects>
      <tilted>0</tilted></_>
    <_>
      <rects>
        <_>
          13 15 2 1 -1.</_>
        <_>
          14 15 1 1 2.</_></rects>
      <tilted>0</tilted></_>
    <_>
      <rects>
        <_>
          13 17 2 2 -1.</_>
        <_>
          13 17 1 1 2.</_>
        <_>
          14 18 1 1 2.</_></rects>
      <tilted>0</tilted></_>
    <_>
      <rects>
        <_>
          13 18 2 1 -1.</_>
        <_>
          14 18 1 1 2.</_></rects>
      <tilted>0</tilted></_>
    <_>
      <rects>
        <_>
          13 18 1 2 -1.</_>
        <_>
          13 19 1 1 2.</_></rects>
      <tilted>0</tilted></_>
    <_>
      <rects>
        <_>
          13 19 3 2 -1.</_>
        <_>
          14 19 1 2 2.</_></rects>
      <tilted>0</tilted></_>
    <_>
      <rects>
        <_>
          13 20 8 4 -1.</_>
        <_>
          13 20 4 2 2.</_>
        <_>
          17 22 4 2 2.</_></rects>
      <tilted>0</tilted></_>
    <_>
      <rects>
        <_>
          13 21 4 2 -1.</_>
        <_>
          13 22 4 1 2.</_></rects>
      <tilted>0</tilted></_>
    <_>
      <rects>
        <_>
          13 21 11 2 -1.</_>
        <_>
          13 22 11 1 2.</_></rects>
      <tilted>0</tilted></_>
    <_>
      <rects>
        <_>
          13 22 3 2 -1.</_>
        <_>
          13 23 3 1 2.</_></rects>
      <tilted>0</tilted></_>
    <_>
      <rects>
        <_>
          14 0 6 2 -1.</_>
        <_>
          14 0 3 1 2.</_>
        <_>
          17 1 3 1 2.</_></rects>
      <tilted>0</tilted></_>
    <_>
      <rects>
        <_>
          14 5 2 2 -1.</_>
        <_>
          14 5 1 1 2.</_>
        <_>
          15 6 1 1 2.</_></rects>
      <tilted>0</tilted></_>
    <_>
      <rects>
        <_>
          14 8 10 2 -1.</_>
        <_>
          14 9 10 1 2.</_></rects>
      <tilted>0</tilted></_>
    <_>
      <rects>
        <_>
          14 11 8 2 -1.</_>
        <_>
          14 12 8 1 2.</_></rects>
      <tilted>0</tilted></_>
    <_>
      <rects>
        <_>
          14 12 2 2 -1.</_>
        <_>
          14 12 1 1 2.</_>
        <_>
          15 13 1 1 2.</_></rects>
      <tilted>0</tilted></_>
    <_>
      <rects>
        <_>
          14 12 2 9 -1.</_>
        <_>
          15 12 1 9 2.</_></rects>
      <tilted>0</tilted></_>
    <_>
      <rects>
        <_>
          14 12 4 2 -1.</_>
        <_>
          14 12 2 1 2.</_>
        <_>
          16 13 2 1 2.</_></rects>
      <tilted>0</tilted></_>
    <_>
      <rects>
        <_>
          14 16 4 2 -1.</_>
        <_>
          14 16 2 1 2.</_>
        <_>
          16 17 2 1 2.</_></rects>
      <tilted>0</tilted></_>
    <_>
      <rects>
        <_>
          14 17 2 4 -1.</_>
        <_>
          15 17 1 4 2.</_></rects>
      <tilted>0</tilted></_>
    <_>
      <rects>
        <_>
          14 18 2 1 -1.</_>
        <_>
          15 18 1 1 2.</_></rects>
      <tilted>0</tilted></_>
    <_>
      <rects>
        <_>
          14 22 2 2 -1.</_>
        <_>
          14 22 1 1 2.</_>
        <_>
          15 23 1 1 2.</_></rects>
      <tilted>0</tilted></_>
    <_>
      <rects>
        <_>
          15 0 6 4 -1.</_>
        <_>
          15 0 3 2 2.</_>
        <_>
          18 2 3 2 2.</_></rects>
      <tilted>0</tilted></_>
    <_>
      <rects>
        <_>
          15 2 2 2 -1.</_>
        <_>
          15 2 1 1 2.</_>
        <_>
          16 3 1 1 2.</_></rects>
      <tilted>0</tilted></_>
    <_>
      <rects>
        <_>
          15 2 5 4 -1.</_>
        <_>
          15 4 5 2 2.</_></rects>
      <tilted>0</tilted></_>
    <_>
      <rects>
        <_>
          15 3 2 20 -1.</_>
        <_>
          15 13 2 10 2.</_></rects>
      <tilted>0</tilted></_>
    <_>
      <rects>
        <_>
          15 4 8 2 -1.</_>
        <_>
          19 4 4 2 2.</_></rects>
      <tilted>0</tilted></_>
    <_>
      <rects>
        <_>
          15 6 2 4 -1.</_>
        <_>
          15 6 1 2 2.</_>
        <_>
          16 8 1 2 2.</_></rects>
      <tilted>0</tilted></_>
    <_>
      <rects>
        <_>
          15 7 4 6 -1.</_>
        <_>
          15 7 2 3 2.</_>
        <_>
          17 10 2 3 2.</_></rects>
      <tilted>0</tilted></_>
    <_>
      <rects>
        <_>
          15 8 2 2 -1.</_>
        <_>
          15 8 1 1 2.</_>
        <_>
          16 9 1 1 2.</_></rects>
      <tilted>0</tilted></_>
    <_>
      <rects>
        <_>
          15 11 2 6 -1.</_>
        <_>
          15 11 1 3 2.</_>
        <_>
          16 14 1 3 2.</_></rects>
      <tilted>0</tilted></_>
    <_>
      <rects>
        <_>
          15 15 2 8 -1.</_>
        <_>
          15 15 1 4 2.</_>
        <_>
          16 19 1 4 2.</_></rects>
      <tilted>0</tilted></_>
    <_>
      <rects>
        <_>
          15 18 3 6 -1.</_>
        <_>
          15 21 3 3 2.</_></rects>
      <tilted>0</tilted></_>
    <_>
      <rects>
        <_>
          15 21 4 2 -1.</_>
        <_>
          15 21 2 1 2.</_>
        <_>
          17 22 2 1 2.</_></rects>
      <tilted>0</tilted></_>
    <_>
      <rects>
        <_>
          16 0 2 2 -1.</_>
        <_>
          16 0 1 1 2.</_>
        <_>
          17 1 1 1 2.</_></rects>
      <tilted>0</tilted></_>
    <_>
      <rects>
        <_>
          16 0 4 4 -1.</_>
        <_>
          16 0 2 2 2.</_>
        <_>
          18 2 2 2 2.</_></rects>
      <tilted>0</tilted></_>
    <_>
      <rects>
        <_>
          16 0 8 8 -1.</_>
        <_>
          16 0 4 4 2.</_>
        <_>
          20 4 4 4 2.</_></rects>
      <tilted>0</tilted></_>
    <_>
      <rects>
        <_>
          16 3 4 4 -1.</_>
        <_>
          16 5 4 2 2.</_></rects>
      <tilted>0</tilted></_>
    <_>
      <rects>
        <_>
          16 3 8 4 -1.</_>
        <_>
          16 3 4 2 2.</_>
        <_>
          20 5 4 2 2.</_></rects>
      <tilted>0</tilted></_>
    <_>
      <rects>
        <_>
          16 3 8 6 -1.</_>
        <_>
          16 6 8 3 2.</_></rects>
      <tilted>0</tilted></_>
    <_>
      <rects>
        <_>
          16 6 2 1 -1.</_>
        <_>
          17 6 1 1 2.</_></rects>
      <tilted>0</tilted></_>
    <_>
      <rects>
        <_>
          16 12 4 2 -1.</_>
        <_>
          16 12 2 1 2.</_>
        <_>
          18 13 2 1 2.</_></rects>
      <tilted>0</tilted></_>
    <_>
      <rects>
        <_>
          16 15 8 2 -1.</_>
        <_>
          20 15 4 2 2.</_></rects>
      <tilted>0</tilted></_>
    <_>
      <rects>
        <_>
          16 16 1 2 -1.</_>
        <_>
          16 17 1 1 2.</_></rects>
      <tilted>0</tilted></_>
    <_>
      <rects>
        <_>
          16 16 2 4 -1.</_>
        <_>
          16 16 1 2 2.</_>
        <_>
          17 18 1 2 2.</_></rects>
      <tilted>0</tilted></_>
    <_>
      <rects>
        <_>
          17 0 4 3 -1.</_>
        <_>
          17 1 4 1 2.</_></rects>
      <tilted>0</tilted></_>
    <_>
      <rects>
        <_>
          17 2 2 2 -1.</_>
        <_>
          17 2 1 1 2.</_>
        <_>
          18 3 1 1 2.</_></rects>
      <tilted>0</tilted></_>
    <_>
      <rects>
        <_>
          17 15 2 2 -1.</_>
        <_>
          17 15 1 1 2.</_>
        <_>
          18 16 1 1 2.</_></rects>
      <tilted>0</tilted></_>
    <_>
      <rects>
        <_>
          17 20 2 2 -1.</_>
        <_>
          17 20 1 1 2.</_>
        <_>
          18 21 1 1 2.</_></rects>
      <tilted>0</tilted></_>
    <_>
      <rects>
        <_>
          17 20 6 4 -1.</_>
        <_>
          17 20 3 2 2.</_>
        <_>
          20 22 3 2 2.</_></rects>
      <tilted>0</tilted></_>
    <_>
      <rects>
        <_>
          17 21 2 2 -1.</_>
        <_>
          17 21 1 1 2.</_>
        <_>
          18 22 1 1 2.</_></rects>
      <tilted>0</tilted></_>
    <_>
      <rects>
        <_>
          17 21 4 2 -1.</_>
        <_>
          17 21 2 1 2.</_>
        <_>
          19 22 2 1 2.</_></rects>
      <tilted>0</tilted></_>
    <_>
      <rects>
        <_>
          18 2 6 4 -1.</_>
        <_>
          18 2 3 2 2.</_>
        <_>
          21 4 3 2 2.</_></rects>
      <tilted>0</tilted></_>
    <_>
      <rects>
        <_>
          18 3 4 2 -1.</_>
        <_>
          18 3 2 1 2.</_>
        <_>
          20 4 2 1 2.</_></rects>
      <tilted>0</tilted></_>
    <_>
      <rects>
        <_>
          18 10 2 3 -1.</_>
        <_>
          19 10 1 3 2.</_></rects>
      <tilted>0</tilted></_>
    <_>
      <rects>
        <_>
          18 19 4 2 -1.</_>
        <_>
          20 19 2 2 2.</_></rects>
      <tilted>0</tilted></_>
    <_>
      <rects>
        <_>
          19 14 2 2 -1.</_>
        <_>
          19 14 1 1 2.</_>
        <_>
          20 15 1 1 2.</_></rects>
      <tilted>0</tilted></_>
    <_>
      <rects>
        <_>
          20 0 4 1 -1.</_>
        <_>
          22 0 2 1 2.</_></rects>
      <tilted>0</tilted></_>
    <_>
      <rects>
        <_>
          20 0 3 4 -1.</_>
        <_>
          20 2 3 2 2.</_></rects>
      <tilted>0</tilted></_>
    <_>
      <rects>
        <_>
          20 3 2 4 -1.</_>
        <_>
          20 3 1 2 2.</_>
        <_>
          21 5 1 2 2.</_></rects>
      <tilted>0</tilted></_>
    <_>
      <rects>
        <_>
          20 4 1 4 -1.</_>
        <_>
          20 6 1 2 2.</_></rects>
      <tilted>0</tilted></_>
    <_>
      <rects>
        <_>
          20 7 4 2 -1.</_>
        <_>
          22 7 2 2 2.</_></rects>
      <tilted>0</tilted></_>
    <_>
      <rects>
        <_>
          20 9 4 14 -1.</_>
        <_>
          20 9 2 7 2.</_>
        <_>
          22 16 2 7 2.</_></rects>
      <tilted>0</tilted></_>
    <_>
      <rects>
        <_>
          20 11 4 6 -1.</_>
        <_>
          20 11 2 3 2.</_>
        <_>
          22 14 2 3 2.</_></rects>
      <tilted>0</tilted></_>
    <_>
      <rects>
        <_>
          20 13 4 8 -1.</_>
        <_>
          20 13 2 4 2.</_>
        <_>
          22 17 2 4 2.</_></rects>
      <tilted>0</tilted></_>
    <_>
