<?xml version="1.0"?>
<opencv_storage>
<cascade>
  <stageType>BOOST</stageType>
  <featureType>HAAR</featureType>
  <height>24</height>
  <width>24</width>
  <stageParams>
    <boostType>GAB</boostType>
    <minHitRate>9.9900001287460327e-01</minHitRate>
    <maxFalseAlarm>3.0000001192092896e-01</maxFalseAlarm>
    <weightTrimRate>9.4999999999999996e-01</weightTrimRate>
    <maxDepth>1</maxDepth>
    <maxWeakCount>100</maxWeakCount></stageParams>
  <featureParams>
    <maxCatCount>0</maxCatCount>
    <featSize>1</featSize>
    <mode>BASIC</mode></featureParams>
  <stageNum>15</stageNum>
  <stages>
    <!-- stage 0 -->
    <_>
      <maxWeakCount>5</maxWeakCount>
      <stageThreshold>-5.1878166198730469e-01</stageThreshold>
      <weakClassifiers>
        <_>
          <internalNodes>
            0 -1 5 1.3581125997006893e-02</internalNodes>
          <leafValues>
            -7.2815531492233276e-01 6.9444441795349121e-01</leafValues></_>
        <_>
          <internalNodes>
            0 -1 89 -1.2845478951931000e-02</internalNodes>
          <leafValues>
            7.9040396213531494e-01 -4.6162506937980652e-01</leafValues></_>
        <_>
          <internalNodes>
            0 -1 2 -5.9241259098052979e-01</internalNodes>
          <leafValues>
            -7.1528726816177368e-01 5.7295078039169312e-01</leafValues></_>
        <_>
          <internalNodes>
            0 -1 13 -1.0090292198583484e-03</internalNodes>
          <leafValues>
            6.2973791360855103e-01 -5.8367103338241577e-01</leafValues></_>
        <_>
          <internalNodes>
            0 -1 30 2.2621475160121918e-02</internalNodes>
          <leafValues>
            -4.9548098444938660e-01 7.1031695604324341e-01</leafValues></_></weakClassifiers></_>
    <!-- stage 1 -->
    <_>
      <maxWeakCount>5</maxWeakCount>
      <stageThreshold>-3.7994599342346191e-01</stageThreshold>
      <weakClassifiers>
        <_>
          <internalNodes>
            0 -1 10 -3.0038672685623169e-01</internalNodes>
          <leafValues>
            -7.0370370149612427e-01 7.6119405031204224e-01</leafValues></_>
        <_>
          <internalNodes>
            0 -1 101 -1.3498360291123390e-02</internalNodes>
          <leafValues>
            -4.0464594960212708e-01 9.4306129217147827e-01</leafValues></_>
        <_>
          <internalNodes>
            0 -1 66 7.5189457274973392e-03</internalNodes>
          <leafValues>
            -4.4121757149696350e-01 7.1546113491058350e-01</leafValues></_>
        <_>
          <internalNodes>
            0 -1 23 -3.8463231176137924e-03</internalNodes>
          <leafValues>
            7.7221041917800903e-01 -4.7268241643905640e-01</leafValues></_>
        <_>
          <internalNodes>
            0 -1 69 -1.6309250146150589e-02</internalNodes>
          <leafValues>
            -1. 4.8562493920326233e-01</leafValues></_></weakClassifiers></_>
    <!-- stage 2 -->
    <_>
      <maxWeakCount>5</maxWeakCount>
      <stageThreshold>-1.2962341308593750e+00</stageThreshold>
      <weakClassifiers>
        <_>
          <internalNodes>
            0 -1 4 2.6811607182025909e-02</internalNodes>
          <leafValues>
            -5.3333336114883423e-01 7.0909088850021362e-01</leafValues></_>
        <_>
          <internalNodes>
            0 -1 83 -1.2200674042105675e-02</internalNodes>
          <leafValues>
            7.4870783090591431e-01 -3.6367014050483704e-01</leafValues></_>
        <_>
          <internalNodes>
            0 -1 57 -1.6273884475231171e-01</internalNodes>
          <leafValues>
            3.4151262044906616e-01 -7.9721999168395996e-01</leafValues></_>
        <_>
          <internalNodes>
            0 -1 75 -3.7716585211455822e-04</internalNodes>
          <leafValues>
            7.2815126180648804e-01 -4.8589241504669189e-01</leafValues></_>
        <_>
          <internalNodes>
            0 -1 1 4.3845074251294136e-03</internalNodes>
          <leafValues>
            -3.3016195893287659e-01 8.2848662137985229e-01</leafValues></_></weakClassifiers></_>
    <!-- stage 3 -->
    <_>
      <maxWeakCount>7</maxWeakCount>
      <stageThreshold>-7.4059730768203735e-01</stageThreshold>
      <weakClassifiers>
        <_>
          <internalNodes>
            0 -1 0 1.4480130746960640e-02</internalNodes>
          <leafValues>
            -4.5864662528038025e-01 8.5714286565780640e-01</leafValues></_>
        <_>
          <internalNodes>
            0 -1 12 1.5868287300691009e-03</internalNodes>
          <leafValues>
            -2.5591769814491272e-01 8.9465409517288208e-01</leafValues></_>
        <_>
          <internalNodes>
            0 -1 6 8.5662596393376589e-04</internalNodes>
          <leafValues>
            -3.4063088893890381e-01 7.4549418687820435e-01</leafValues></_>
        <_>
          <internalNodes>
            0 -1 71 -5.0675095990300179e-03</internalNodes>
          <leafValues>
            6.2100505828857422e-01 -5.1345634460449219e-01</leafValues></_>
        <_>
          <internalNodes>
            0 -1 100 -3.7370943464338779e-03</internalNodes>
          <leafValues>
            6.4172172546386719e-01 -4.9126461148262024e-01</leafValues></_>
        <_>
          <internalNodes>
            0 -1 51 -3.6808107979595661e-03</internalNodes>
          <leafValues>
            6.4788436889648438e-01 -3.7815433740615845e-01</leafValues></_>
        <_>
          <internalNodes>
            0 -1 85 -7.0914637763053179e-04</internalNodes>
          <leafValues>
            7.1779507398605347e-01 -4.1469064354896545e-01</leafValues></_></weakClassifiers></_>
    <!-- stage 4 -->
    <_>
      <maxWeakCount>5</maxWeakCount>
      <stageThreshold>-8.2312816381454468e-01</stageThreshold>
      <weakClassifiers>
        <_>
          <internalNodes>
            0 -1 34 6.6338434815406799e-02</internalNodes>
          <leafValues>
            -4.7692307829856873e-01 8.2222223281860352e-01</leafValues></_>
        <_>
          <internalNodes>
            0 -1 32 -3.3724997192621231e-02</internalNodes>
          <leafValues>
            6.6777878999710083e-01 -3.7480106949806213e-01</leafValues></_>
        <_>
          <internalNodes>
            0 -1 68 -8.7265262845903635e-04</internalNodes>
          <leafValues>
            8.1472688913345337e-01 -4.8246338963508606e-01</leafValues></_>
        <_>
          <internalNodes>
            0 -1 39 -2.4774292251095176e-04</internalNodes>
          <leafValues>
            5.8537143468856812e-01 -5.2341008186340332e-01</leafValues></_>
        <_>
          <internalNodes>
            0 -1 11 7.1006333455443382e-03</internalNodes>
          <leafValues>
            -2.6272082328796387e-01 9.2271262407302856e-01</leafValues></_></weakClassifiers></_>
    <!-- stage 5 -->
    <_>
      <maxWeakCount>7</maxWeakCount>
      <stageThreshold>-2.4849759042263031e-01</stageThreshold>
      <weakClassifiers>
        <_>
          <internalNodes>
            0 -1 14 7.2397072799503803e-03</internalNodes>
          <leafValues>
            -4.2857143282890320e-01 5.9183675050735474e-01</leafValues></_>
        <_>
          <internalNodes>
            0 -1 87 -1.2009458616375923e-02</internalNodes>
          <leafValues>
            6.7205017805099487e-01 -3.3926379680633545e-01</leafValues></_>
        <_>
          <internalNodes>
            0 -1 70 7.4716183007694781e-05</internalNodes>
          <leafValues>
            2.7997905015945435e-01 -8.1517678499221802e-01</leafValues></_>
        <_>
          <internalNodes>
            0 -1 29 -2.4695537984371185e-02</internalNodes>
          <leafValues>
            7.8539574146270752e-01 -2.8586274385452271e-01</leafValues></_>
        <_>
          <internalNodes>
            0 -1 55 -6.0864603146910667e-03</internalNodes>
          <leafValues>
            -7.6785331964492798e-01 3.4788489341735840e-01</leafValues></_>
        <_>
          <internalNodes>
            0 -1 96 -2.1820384426973760e-04</internalNodes>
          <leafValues>
            6.3276243209838867e-01 -4.6309328079223633e-01</leafValues></_>
        <_>
          <internalNodes>
            0 -1 33 -4.0375796379521489e-04</internalNodes>
          <leafValues>
            7.7523195743560791e-01 -2.9613658785820007e-01</leafValues></_></weakClassifiers></_>
    <!-- stage 6 -->
    <_>
      <maxWeakCount>9</maxWeakCount>
      <stageThreshold>-3.8616162538528442e-01</stageThreshold>
      <weakClassifiers>
        <_>
          <internalNodes>
            0 -1 65 -6.5186128020286560e-02</internalNodes>
          <leafValues>
            5.9259259700775146e-01 -4.7107437252998352e-01</leafValues></_>
        <_>
          <internalNodes>
            0 -1 74 7.2379235643893480e-04</internalNodes>
          <leafValues>
            2.3277097940444946e-01 -8.6328738927841187e-01</leafValues></_>
        <_>
          <internalNodes>
            0 -1 94 -7.3065883480012417e-03</internalNodes>
          <leafValues>
            7.9440951347351074e-01 -3.0415743589401245e-01</leafValues></_>
        <_>
          <internalNodes>
            0 -1 40 5.5830843746662140e-02</internalNodes>
          <leafValues>
            2.8584042191505432e-01 -8.6013108491897583e-01</leafValues></_>
        <_>
          <internalNodes>
            0 -1 93 3.0181999318301678e-03</internalNodes>
          <leafValues>
            -2.8522470593452454e-01 8.7483358383178711e-01</leafValues></_>
        <_>
          <internalNodes>
            0 -1 76 -7.2004832327365875e-04</internalNodes>
          <leafValues>
            4.3543741106987000e-01 -4.4910484552383423e-01</leafValues></_>
        <_>
          <internalNodes>
            0 -1 73 6.1054504476487637e-04</internalNodes>
          <leafValues>
            3.2929614186286926e-01 -6.7020291090011597e-01</leafValues></_>
        <_>
          <internalNodes>
            0 -1 64 1.3122314121574163e-03</internalNodes>
          <leafValues>
            -3.0139398574829102e-01 8.7630355358123779e-01</leafValues></_>
        <_>
          <internalNodes>
            0 -1 52 1.5564407221972942e-03</internalNodes>
          <leafValues>
            -3.0765604972839355e-01 8.0802154541015625e-01</leafValues></_></weakClassifiers></_>
    <!-- stage 7 -->
    <_>
      <maxWeakCount>6</maxWeakCount>
      <stageThreshold>-2.1932233870029449e-01</stageThreshold>
      <weakClassifiers>
        <_>
          <internalNodes>
            0 -1 41 4.0619014180265367e-04</internalNodes>
          <leafValues>
            -4.3076923489570618e-01 6.8888890743255615e-01</leafValues></_>
        <_>
          <internalNodes>
            0 -1 53 4.9413675442337990e-03</internalNodes>
          <leafValues>
            -2.6665824651718140e-01 8.0046766996383667e-01</leafValues></_>
        <_>
          <internalNodes>
            0 -1 58 -2.2913151979446411e-01</internalNodes>
          <leafValues>
            -4.5111832022666931e-01 5.2693557739257813e-01</leafValues></_>
        <_>
          <internalNodes>
            0 -1 36 -1.0500904172658920e-03</internalNodes>
          <leafValues>
            -8.2871091365814209e-01 3.0329242348670959e-01</leafValues></_>
        <_>
          <internalNodes>
            0 -1 63 -2.8262089472264051e-04</internalNodes>
          <leafValues>
            3.7849360704421997e-01 -6.8395751714706421e-01</leafValues></_>
        <_>
          <internalNodes>
            0 -1 37 2.7375293429940939e-03</internalNodes>
          <leafValues>
            -6.1773395538330078e-01 3.3183467388153076e-01</leafValues></_></weakClassifiers></_>
    <!-- stage 8 -->
    <_>
      <maxWeakCount>7</maxWeakCount>
      <stageThreshold>-4.6259319782257080e-01</stageThreshold>
      <weakClassifiers>
        <_>
          <internalNodes>
            0 -1 49 1.1787300929427147e-02</internalNodes>
          <leafValues>
            -3.3783784508705139e-01 9.2592591047286987e-01</leafValues></_>
        <_>
          <internalNodes>
            0 -1 77 1.0693906806409359e-03</internalNodes>
          <leafValues>
            2.8825154900550842e-01 -6.1882185935974121e-01</leafValues></_>
        <_>
          <internalNodes>
            0 -1 8 -9.4755403697490692e-03</internalNodes>
          <leafValues>
            9.5964729785919189e-01 -2.3542493581771851e-01</leafValues></_>
        <_>
          <internalNodes>
            0 -1 79 1.3797741848975420e-03</internalNodes>
          <leafValues>
            2.5451701879501343e-01 -9.5407629013061523e-01</leafValues></_>
        <_>
          <internalNodes>
            0 -1 99 2.2090740967541933e-03</internalNodes>
          <leafValues>
            -3.5398772358894348e-01 6.1396872997283936e-01</leafValues></_>
        <_>
          <internalNodes>
            0 -1 43 -1.1400130577385426e-02</internalNodes>
          <leafValues>
            8.4825611114501953e-01 -3.0077323317527771e-01</leafValues></_>
        <_>
          <internalNodes>
            0 -1 60 -2.4582010228186846e-03</internalNodes>
          <leafValues>
            -7.4529451131820679e-01 3.7050914764404297e-01</leafValues></_></weakClassifiers></_>
    <!-- stage 9 -->
    <_>
      <maxWeakCount>6</maxWeakCount>
      <stageThreshold>-9.7182017564773560e-01</stageThreshold>
      <weakClassifiers>
        <_>
          <internalNodes>
            0 -1 81 -7.6698972843587399e-03</internalNodes>
          <leafValues>
            4.1538462042808533e-01 -4.7272726893424988e-01</leafValues></_>
        <_>
          <internalNodes>
            0 -1 50 -1.7868641589302570e-04</internalNodes>
          <leafValues>
            4.6883645653724670e-01 -4.0604496002197266e-01</leafValues></_>
        <_>
          <internalNodes>
            0 -1 21 -1.6964497044682503e-03</internalNodes>
          <leafValues>
            8.4996163845062256e-01 -2.5822404026985168e-01</leafValues></_>
        <_>
          <internalNodes>
            0 -1 20 5.2748830057680607e-04</internalNodes>
          <leafValues>
            -2.7427512407302856e-01 7.8985327482223511e-01</leafValues></_>
        <_>
          <internalNodes>
            0 -1 59 -1.8143653869628906e-01</internalNodes>
          <leafValues>
            8.4177559614181519e-01 -1.7672207951545715e-01</leafValues></_>
        <_>
          <internalNodes>
            0 -1 46 8.0296059604734182e-04</internalNodes>
          <leafValues>
            -4.4795516133308411e-01 4.7599279880523682e-01</leafValues></_></weakClassifiers></_>
    <!-- stage 10 -->
    <_>
      <maxWeakCount>9</maxWeakCount>
      <stageThreshold>-3.9960482716560364e-01</stageThreshold>
      <weakClassifiers>
        <_>
          <internalNodes>
            0 -1 35 -2.1674531698226929e-01</internalNodes>
          <leafValues>
            5.6521737575531006e-01 -3.9534884691238403e-01</leafValues></_>
        <_>
          <internalNodes>
            0 -1 3 -3.5182316787540913e-04</internalNodes>
          <leafValues>
            4.7033494710922241e-01 -3.5624420642852783e-01</leafValues></_>
        <_>
          <internalNodes>
            0 -1 88 1.8815372604876757e-03</internalNodes>
          <leafValues>
            -2.3333983123302460e-01 8.4844815731048584e-01</leafValues></_>
        <_>
          <internalNodes>
            0 -1 31 5.1253515994176269e-04</internalNodes>
          <leafValues>
            2.5307929515838623e-01 -9.5780360698699951e-01</leafValues></_>
        <_>
          <internalNodes>
            0 -1 92 -1.1299550533294678e-02</internalNodes>
          <leafValues>
            9.1240650415420532e-01 -2.5392016768455505e-01</leafValues></_>
        <_>
          <internalNodes>
            0 -1 56 -8.2256790483370423e-04</internalNodes>
          <leafValues>
            9.6544724702835083e-01 -1.3830031454563141e-01</leafValues></_>
        <_>
          <internalNodes>
            0 -1 27 -1.0837383568286896e-02</internalNodes>
          <leafValues>
            -2.9468315839767456e-01 7.0196545124053955e-01</leafValues></_>
        <_>
          <internalNodes>
            0 -1 61 -3.3745713531970978e-02</internalNodes>
          <leafValues>
            6.3709568977355957e-01 -3.1756362318992615e-01</leafValues></_>
        <_>
          <internalNodes>
            0 -1 24 -6.0945774748688564e-05</internalNodes>
          <leafValues>
            5.4269927740097046e-01 -4.5042935013771057e-01</leafValues></_></weakClassifiers></_>
    <!-- stage 11 -->
    <_>
      <maxWeakCount>8</maxWeakCount>
      <stageThreshold>-3.3852836489677429e-01</stageThreshold>
      <weakClassifiers>
        <_>
          <internalNodes>
            0 -1 15 9.5736561343073845e-04</internalNodes>
          <leafValues>
            -3.2413792610168457e-01 7.3333334922790527e-01</leafValues></_>
        <_>
          <internalNodes>
            0 -1 82 1.0780344018712640e-04</internalNodes>
          <leafValues>
            2.8556698560714722e-01 -6.2322390079498291e-01</leafValues></_>
        <_>
          <internalNodes>
            0 -1 99 2.3815431632101536e-03</internalNodes>
          <leafValues>
            -3.4119051694869995e-01 5.2095365524291992e-01</leafValues></_>
        <_>
          <internalNodes>
            0 -1 26 -1.4834421453997493e-03</internalNodes>
          <leafValues>
            7.2660732269287109e-01 -2.3620904982089996e-01</leafValues></_>
        <_>
          <internalNodes>
            0 -1 80 6.7244004458189011e-04</internalNodes>
          <leafValues>
            2.4727407097816467e-01 -8.4077697992324829e-01</leafValues></_>
        <_>
          <internalNodes>
            0 -1 22 -5.2492571994662285e-03</internalNodes>
          <leafValues>
            4.7818633913993835e-01 -4.1915717720985413e-01</leafValues></_>
        <_>
          <internalNodes>
            0 -1 45 7.8653095988556743e-04</internalNodes>
          <leafValues>
            -4.6934658288955688e-01 4.3528741598129272e-01</leafValues></_>
        <_>
          <internalNodes>
            0 -1 54 -2.5162412784993649e-03</internalNodes>
          <leafValues>
            -8.4065037965774536e-01 2.4723523855209351e-01</leafValues></_></weakClassifiers></_>
    <!-- stage 12 -->
    <_>
      <maxWeakCount>9</maxWeakCount>
      <stageThreshold>-3.4361827373504639e-01</stageThreshold>
      <weakClassifiers>
        <_>
          <internalNodes>
            0 -1 25 3.2535274513065815e-03</internalNodes>
          <leafValues>
            -3.6231884360313416e-01 6.7567569017410278e-01</leafValues></_>
        <_>
          <internalNodes>
            0 -1 48 1.0049100965261459e-03</internalNodes>
          <leafValues>
            -2.8196984529495239e-01 6.0186004638671875e-01</leafValues></_>
        <_>
          <internalNodes>
            0 -1 84 -3.1305788434110582e-04</internalNodes>
          <leafValues>
            -5.3477936983108521e-01 3.3290845155715942e-01</leafValues></_>
        <_>
          <internalNodes>
            0 -1 78 2.2552744485437870e-04</internalNodes>
          <leafValues>
            -2.4837030470371246e-01 6.8536269664764404e-01</leafValues></_>
        <_>
          <internalNodes>
            0 -1 62 -1.4166934415698051e-03</internalNodes>
          <leafValues>
            5.4365020990371704e-01 -3.3713212609291077e-01</leafValues></_>
        <_>
          <internalNodes>
            0 -1 44 -3.6687958054244518e-03</internalNodes>
          <leafValues>
            7.1914446353912354e-01 -2.6546591520309448e-01</leafValues></_>
        <_>
          <internalNodes>
            0 -1 38 -9.2331191990524530e-04</internalNodes>
          <leafValues>
            6.3993245363235474e-01 -3.6384063959121704e-01</leafValues></_>
        <_>
          <internalNodes>
            0 -1 47 1.1495231592562050e-04</internalNodes>
          <leafValues>
            -3.2755675911903381e-01 5.9395968914031982e-01</leafValues></_>
        <_>
          <internalNodes>
            0 -1 67 3.1935258302837610e-03</internalNodes>
          <leafValues>
            -2.5448450446128845e-01 7.6069629192352295e-01</leafValues></_></weakClassifiers></_>
    <!-- stage 13 -->
    <_>
      <maxWeakCount>7</maxWeakCount>
      <stageThreshold>-4.1390684247016907e-01</stageThreshold>
      <weakClassifiers>
        <_>
          <internalNodes>
            0 -1 7 1.0076539590954781e-02</internalNodes>
          <leafValues>
            -2.9411765933036804e-01 9.0909093618392944e-01</leafValues></_>
        <_>
          <internalNodes>
            0 -1 17 2.1543987095355988e-03</internalNodes>
          <leafValues>
            2.7305993437767029e-01 -7.2643887996673584e-01</leafValues></_>
        <_>
          <internalNodes>
            0 -1 90 -8.8271027198061347e-04</internalNodes>
          <leafValues>
            6.8385922908782959e-01 -3.0253395438194275e-01</leafValues></_>
        <_>
          <internalNodes>
            0 -1 42 -1.4220465905964375e-02</internalNodes>
          <leafValues>
            -7.4983227252960205e-01 2.6863330602645874e-01</leafValues></_>
        <_>
          <internalNodes>
            0 -1 16 4.8950267955660820e-03</internalNodes>
          <leafValues>
            -3.0538550019264221e-01 7.4984180927276611e-01</leafValues></_>
        <_>
          <internalNodes>
            0 -1 18 2.2086859680712223e-03</internalNodes>
          <leafValues>
            2.8952217102050781e-01 -8.5178619623184204e-01</leafValues></_>
        <_>
          <internalNodes>
            0 -1 19 2.0298822782933712e-03</internalNodes>
          <leafValues>
            -3.2997944951057434e-01 5.9535872936248779e-01</leafValues></_></weakClassifiers></_>
    <!-- stage 14 -->
    <_>
      <maxWeakCount>8</maxWeakCount>
      <stageThreshold>-6.4493346214294434e-01</stageThreshold>
      <weakClassifiers>
        <_>
          <internalNodes>
            0 -1 95 -1.1839520186185837e-02</internalNodes>
          <leafValues>
            8.3999997377395630e-01 -3.0666667222976685e-01</leafValues></_>
        <_>
          <internalNodes>
            0 -1 28 7.0376535877585411e-03</internalNodes>
          <leafValues>
            2.9956555366516113e-01 -6.4849305152893066e-01</leafValues></_>
        <_>
          <internalNodes>
            0 -1 97 1.2038376880809665e-03</internalNodes>
          <leafValues>
            -2.9971033334732056e-01 7.8702467679977417e-01</leafValues></_>
        <_>
          <internalNodes>
            0 -1 86 -6.0466164723038673e-04</internalNodes>
          <leafValues>
            9.1892141103744507e-01 -1.4402171969413757e-01</leafValues></_>
        <_>
          <internalNodes>
            0 -1 9 -6.6696288995444775e-03</internalNodes>
          <leafValues>
            8.7660461664199829e-01 -1.9725191593170166e-01</leafValues></_>
        <_>
          <internalNodes>
            0 -1 91 -1.9294497324153781e-03</internalNodes>
          <leafValues>
            8.0117624998092651e-01 -1.6334442794322968e-01</leafValues></_>
        <_>
          <internalNodes>
            0 -1 72 1.6490379493916407e-05</internalNodes>
          <leafValues>
            3.3522596955299377e-01 -6.1537176370620728e-01</leafValues></_>
        <_>
          <internalNodes>
            0 -1 98 -1.9760706345550716e-04</internalNodes>
          <leafValues>
            6.8987619876861572e-01 -2.8361445665359497e-01</leafValues></_></weakClassifiers></_></stages>
  <features>
    <_>
      <rects>
        <_>
          0 0 4 10 -1.</_>
        <_>
          0 0 2 5 2.</_>
        <_>
          2 5 2 5 2.</_></rects>
      <tilted>0</tilted></_>
    <_>
      <rects>
        <_>
          0 0 14 2 -1.</_>
        <_>
          0 0 7 1 2.</_>
        <_>
          7 1 7 1 2.</_></rects>
      <tilted>0</tilted></_>
    <_>
      <rects>
        <_>
          0 1 13 21 -1.</_>
        <_>
          0 8 13 7 2.</_></rects>
      <tilted>0</tilted></_>
    <_>
      <rects>
        <_>
          0 2 4 2 -1.</_>
        <_>
          0 3 4 1 2.</_></rects>
      <tilted>0</tilted></_>
    <_>
      <rects>
        <_>
          0 3 4 15 -1.</_>
        <_>
          2 3 2 15 2.</_></rects>
      <tilted>0</tilted></_>
    <_>
      <rects>
        <_>
          0 3 6 10 -1.</_>
        <_>
          3 3 3 10 2.</_></rects>
      <tilted>0</tilted></_>
    <_>
      <rects>
        <_>
          0 7 2 6 -1.</_>
        <_>
          0 7 1 3 2.</_>
        <_>
          1 10 1 3 2.</_></rects>
      <tilted>0</tilted></_>
    <_>
      <rects>
        <_>
          0 8 2 6 -1.</_>
        <_>
          1 8 1 6 2.</_></rects>
      <tilted>0</tilted></_>
    <_>
      <rects>
        <_>
          0 8 2 12 -1.</_>
        <_>
          0 8 1 6 2.</_>
        <_>
          1 14 1 6 2.</_></rects>
      <tilted>0</tilted></_>
    <_>
      <rects>
        <_>
          0 11 2 10 -1.</_>
        <_>
          0 11 1 5 2.</_>
        <_>
          1 16 1 5 2.</_></rects>
      <tilted>0</tilted></_>
    <_>
      <rects>
        <_>
          0 13 15 10 -1.</_>
        <_>
          5 13 5 10 2.</_></rects>
      <tilted>0</tilted></_>
    <_>
      <rects>
        <_>
          0 21 24 2 -1.</_>
        <_>
          0 22 24 1 2.</_></rects>
      <tilted>0</tilted></_>
    <_>
      <rects>
        <_>
          0 22 7 2 -1.</_>
        <_>
          0 23 7 1 2.</_></rects>
      <tilted>0</tilted></_>
    <_>
      <rects>
        <_>
          1 0 2 4 -1.</_>
        <_>
          1 2 2 2 2.</_></rects>
      <tilted>0</tilted></_>
    <_>
      <rects>
        <_>
          1 3 2 9 -1.</_>
        <_>
          2 3 1 9 2.</_></rects>
      <tilted>0</tilted></_>
    <_>
      <rects>
        <_>
          1 5 2 2 -1.</_>
        <_>
          1 5 1 1 2.</_>
        <_>
          2 6 1 1 2.</_></rects>
      <tilted>0</tilted></_>
    <_>
      <rects>
        <_>
          1 9 1 14 -1.</_>
        <_>
          1 16 1 7 2.</_></rects>
      <tilted>0</tilted></_>
    <_>
      <rects>
        <_>
          1 10 16 2 -1.</_>
        <_>
          1 10 8 1 2.</_>
        <_>
          9 11 8 1 2.</_></rects>
      <tilted>0</tilted></_>
    <_>
      <rects>
        <_>
          1 11 3 4 -1.</_>
        <_>
          1 13 3 2 2.</_></rects>
      <tilted>0</tilted></_>
    <_>
      <rects>
        <_>
          1 12 2 3 -1.</_>
        <_>
          2 12 1 3 2.</_></rects>
      <tilted>0</tilted></_>
    <_>
      <rects>
        <_>
          1 14 2 4 -1.</_>
        <_>
          1 14 1 2 2.</_>
        <_>
          2 16 1 2 2.</_></rects>
      <tilted>0</tilted></_>
    <_>
      <rects>
        <_>
          1 15 2 4 -1.</_>
        <_>
          1 15 1 2 2.</_>
        <_>
          2 17 1 2 2.</_></rects>
      <tilted>0</tilted></_>
    <_>
      <rects>
        <_>
          1 19 10 4 -1.</_>
        <_>
          1 19 5 2 2.</_>
        <_>
          6 21 5 2 2.</_></rects>
      <tilted>0</tilted></_>
    <_>
      <rects>
        <_>
          1 20 4 4 -1.</_>
        <_>
          3 20 2 4 2.</_></rects>
      <tilted>0</tilted></_>
    <_>
      <rects>
        <_>
          1 21 2 2 -1.</_>
        <_>
          1 21 1 1 2.</_>
        <_>
          2 22 1 1 2.</_></rects>
      <tilted>0</tilted></_>
    <_>
      <rects>
        <_>
          2 1 2 6 -1.</_>
        <_>
          2 1 1 3 2.</_>
        <_>
          3 4 1 3 2.</_></rects>
      <tilted>0</tilted></_>
    <_>
      <rects>
        <_>
          2 1 6 2 -1.</_>
        <_>
          2 1 3 1 2.</_>
        <_>
          5 2 3 1 2.</_></rects>
      <tilted>0</tilted></_>
    <_>
      <rects>
        <_>
          2 6 1 9 -1.</_>
        <_>
          2 9 1 3 2.</_></rects>
      <tilted>0</tilted></_>
    <_>
      <rects>
        <_>
          2 12 10 4 -1.</_>
        <_>
          2 12 5 2 2.</_>
        <_>
          7 14 5 2 2.</_></rects>
      <tilted>0</tilted></_>
    <_>
      <rects>
        <_>
          2 20 22 4 -1.</_>
        <_>
          2 22 22 2 2.</_></rects>
      <tilted>0</tilted></_>
    <_>
      <rects>
        <_>
          3 0 14 8 -1.</_>
        <_>
          3 4 14 4 2.</_></rects>
      <tilted>0</tilted></_>
    <_>
      <rects>
        <_>
          3 13 3 2 -1.</_>
        <_>
          3 14 3 1 2.</_></rects>
      <tilted>0</tilted></_>
    <_>
      <rects>
        <_>
          3 18 17 6 -1.</_>
        <_>
          3 21 17 3 2.</_></rects>
      <tilted>0</tilted></_>
    <_>
      <rects>
        <_>
          3 19 2 2 -1.</_>
        <_>
          3 19 1 1 2.</_>
        <_>
          4 20 1 1 2.</_></rects>
      <tilted>0</tilted></_>
    <_>
      <rects>
        <_>
          4 0 16 6 -1.</_>
        <_>
          4 3 16 3 2.</_></rects>
      <tilted>0</tilted></_>
    <_>
      <rects>
        <_>
          4 6 10 18 -1.</_>
        <_>
          4 15 10 9 2.</_></rects>
      <tilted>0</tilted></_>
    <_>
      <rects>
        <_>
          4 12 2 6 -1.</_>
        <_>
          4 12 1 3 2.</_>
        <_>
          5 15 1 3 2.</_></rects>
      <tilted>0</tilted></_>
    <_>
      <rects>
        <_>
          4 16 6 7 -1.</_>
        <_>
          7 16 3 7 2.</_></rects>
      <tilted>0</tilted></_>
    <_>
      <rects>
        <_>
          4 19 2 2 -1.</_>
        <_>
          4 20 2 1 2.</_></rects>
      <tilted>0</tilted></_>
    <_>
      <rects>
        <_>
          5 13 1 4 -1.</_>
        <_>
          5 15 1 2 2.</_></rects>
      <tilted>0</tilted></_>
    <_>
      <rects>
        <_>
          5 14 12 10 -1.</_>
        <_>
          11 14 6 10 2.</_></rects>
      <tilted>0</tilted></_>
    <_>
      <rects>
        <_>
          6 0 2 2 -1.</_>
        <_>
          6 0 1 1 2.</_>
        <_>
          7 1 1 1 2.</_></rects>
      <tilted>0</tilted></_>
    <_>
      <rects>
        <_>
          6 1 4 14 -1.</_>
        <_>
          6 1 2 7 2.</_>
        <_>
          8 8 2 7 2.</_></rects>
      <tilted>0</tilted></_>
    <_>
      <rects>
        <_>
          6 5 10 4 -1.</_>
        <_>
          6 7 10 2 2.</_></rects>
      <tilted>0</tilted></_>
    <_>
      <rects>
        <_>
          6 20 8 4 -1.</_>
        <_>
          6 20 4 2 2.</_>
        <_>
          10 22 4 2 2.</_></rects>
      <tilted>0</tilted></_>
    <_>
      <rects>
        <_>
          7 0 2 8 -1.</_>
        <_>
          8 0 1 8 2.</_></rects>
      <tilted>0</tilted></_>
    <_>
      <rects>
        <_>
          7 4 8 2 -1.</_>
        <_>
          7 5 8 1 2.</_></rects>
      <tilted>0</tilted></_>
    <_>
      <rects>
        <_>
          7 22 2 2 -1.</_>
        <_>
          7 22 1 1 2.</_>
        <_>
          8 23 1 1 2.</_></rects>
      <tilted>0</tilted></_>
    <_>
      <rects>
        <_>
          8 0 4 2 -1.</_>
        <_>
          8 0 2 1 2.</_>
        <_>
          10 1 2 1 2.</_></rects>
      <tilted>0</tilted></_>
    <_>
      <rects>
        <_>
          8 0 8 2 -1.</_>
        <_>
          8 1 8 1 2.</_></rects>
      <tilted>0</tilted></_>
    <_>
      <rects>
        <_>
          8 10 1 2 -1.</_>
        <_>
          8 11 1 1 2.</_></rects>
      <tilted>0</tilted></_>
    <_>
      <rects>
        <_>
          8 18 2 6 -1.</_>
        <_>
          8 21 2 3 2.</_></rects>
      <tilted>0</tilted></_>
    <_>
      <rects>
        <_>
          8 22 6 2 -1.</_>
        <_>
          8 22 3 1 2.</_>
        <_>
          11 23 3 1 2.</_></rects>
      <tilted>0</tilted></_>
    <_>
      <rects>
        <_>
          9 0 4 2 -1.</_>
        <_>
          9 1 4 1 2.</_></rects>
      <tilted>0</tilted></_>
    <_>
      <rects>
        <_>
          9 7 2 16 -1.</_>
        <_>
          9 7 1 8 2.</_>
        <_>
          10 15 1 8 2.</_></rects>
      <tilted>0</tilted></_>
    <_>
      <rects>
        <_>
          9 9 4 14 -1.</_>
        <_>
          9 9 2 7 2.</_>
        <_>
          11 16 2 7 2.</_></rects>
      <tilted>0</tilted></_>
    <_>
      <rects>
        <_>
          9 22 1 2 -1.</_>
        <_>
          9 23 1 1 2.</_></rects>
      <tilted>0</tilted></_>
    <_>
      <rects>
        <_>
          10 5 9 12 -1.</_>
        <_>
          10 9 9 4 2.</_></rects>
      <tilted>0</tilted></_>
    <_>
      <rects>
        <_>
          11 0 6 18 -1.</_>
        <_>
          13 0 2 18 2.</_></rects>
      <tilted>0</tilted></_>
    <_>
      <rects>
        <_>
          11 1 7 20 -1.</_>
        <_>
          11 11 7 10 2.</_></rects>
      <tilted>0</tilted></_>
    <_>
      <rects>
        <_>
          11 2 2 10 -1.</_>
        <_>
          11 2 1 5 2.</_>
        <_>
          12 7 1 5 2.</_></rects>
      <tilted>0</tilted></_>
    <_>
      <rects>
        <_>
          11 4 8 15 -1.</_>
        <_>
          15 4 4 15 2.</_></rects>
      <tilted>0</tilted></_>
    <_>
      <rects>
        <_>
          11 12 6 2 -1.</_>
        <_>
          11 13 6 1 2.</_></rects>
      <tilted>0</tilted></_>
    <_>
      <rects>
        <_>
          11 15 5 2 -1.</_>
        <_>
          11 16 5 1 2.</_></rects>
      <tilted>0</tilted></_>
    <_>
      <rects>
        <_>
          12 0 1 2 -1.</_>
        <_>
          12 1 1 1 2.</_></rects>
      <tilted>0</tilted></_>
    <_>
      <rects>
        <_>
          12 1 10 12 -1.</_>
        <_>
          17 1 5 12 2.</_></rects>
      <tilted>0</tilted></_>
    <_>
      <rects>
        <_>
          12 3 10 4 -1.</_>
        <_>
          12 5 10 2 2.</_></rects>
      <tilted>0</tilted></_>
    <_>
      <rects>
        <_>
          13 0 2 2 -1.</_>
        <_>
          13 1 2 1 2.</_></rects>
      <tilted>0</tilted></_>
    <_>
      <rects>
        <_>
          13 1 3 2 -1.</_>
        <_>
          13 2 3 1 2.</_></rects>
      <tilted>0</tilted></_>
    <_>
      <rects>
        <_>
          13 22 3 2 -1.</_>
        <_>
          14 22 1 2 2.</_></rects>
      <tilted>0</tilted></_>
    <_>
      <rects>
        <_>
          14 9 1 2 -1.</_>
        <_>
          14 10 1 1 2.</_></rects>
      <tilted>0</tilted></_>
    <_>
      <rects>
        <_>
          14 12 9 4 -1.</_>
        <_>
          14 14 9 2 2.</_></rects>
      <tilted>0</tilted></_>
    <_>
      <rects>
        <_>
          14 16 8 2 -1.</_>
        <_>
          14 17 8 1 2.</_></rects>
      <tilted>0</tilted></_>
    <_>
      <rects>
        <_>
          15 9 2 6 -1.</_>
        <_>
          15 9 1 3 2.</_>
        <_>
          16 12 1 3 2.</_></rects>
      <tilted>0</tilted></_>
    <_>
      <rects>
        <_>
          15 10 2 4 -1.</_>
        <_>
          15 10 1 2 2.</_>
        <_>
          16 12 1 2 2.</_></rects>
      <tilted>0</tilted></_>
    <_>
      <rects>
        <_>
          16 2 2 2 -1.</_>
        <_>
          16 2 1 1 2.</_>
        <_>
          17 3 1 1 2.</_></rects>
      <tilted>0</tilted></_>
    <_>
      <rects>
        <_>
          16 8 4 2 -1.</_>
        <_>
          18 8 2 2 2.</_></rects>
      <tilted>0</tilted></_>
    <_>
      <rects>
        <_>
          16 11 4 4 -1.</_>
        <_>
          16 11 2 2 2.</_>
        <_>
          18 13 2 2 2.</_></rects>
      <tilted>0</tilted></_>
    <_>
      <rects>
        <_>
          17 0 2 2 -1.</_>
        <_>
          17 0 1 1 2.</_>
        <_>
          18 1 1 1 2.</_></rects>
      <tilted>0</tilted></_>
    <_>
      <rects>
        <_>
          17 7 2 2 -1.</_>
        <_>
          17 8 2 1 2.</_></rects>
      <tilted>0</tilted></_>
    <_>
      <rects>
        <_>
          17 12 4 2 -1.</_>
        <_>
          17 12 2 1 2.</_>
        <_>
          19 13 2 1 2.</_></rects>
      <tilted>0</tilted></_>
    <_>
      <rects>
        <_>
          17 13 6 7 -1.</_>
        <_>
          20 13 3 7 2.</_></rects>
      <tilted>0</tilted></_>
    <_>
      <rects>
        <_>
          18 14 1 4 -1.</_>
        <_>
          18 16 1 2 2.</_></rects>
      <tilted>0</tilted></_>
    <_>
      <rects>
        <_>
          19 2 4 10 -1.</_>
        <_>
          21 2 2 10 2.</_></rects>
      <tilted>0</tilted></_>
    <_>
      <rects>
        <_>
          19 15 1 2 -1.</_>
        <_>
          19 16 1 1 2.</_></rects>
      <tilted>0</tilted></_>
    <_>
      <rects>
        <_>
          19 15 2 6 -1.</_>
        <_>
          19 15 1 3 2.</_>
        <_>
          20 18 1 3 2.</_></rects>
      <tilted>0</tilted></_>
    <_>
      <rects>
        <_>
          20 0 2 2 -1.</_>
        <_>
          20 0 1 1 2.</_>
        <_>
          21 1 1 1 2.</_></rects>
      <tilted>0</tilted></_>
    <_>
      <rects>
        <_>
          20 0 4 12 -1.</_>
        <_>
          20 0 2 6 2.</_>
        <_>
          22 6 2 6 2.</_></rects>
      <tilted>0</tilted></_>
    <_>
      <rects>
        <_>
          20 4 2 4 -1.</_>
        <_>
          20 4 1 2 2.</_>
        <_>
          21 6 1 2 2.</_></rects>
      <tilted>0</tilted></_>
    <_>
      <rects>
        <_>
          20 4 4 13 -1.</_>
        <_>
          22 4 2 13 2.</_></rects>
      <tilted>0</tilted></_>
    <_>
      <rects>
        <_>
          21 4 2 2 -1.</_>
        <_>
          21 4 1 1 2.</_>
        <_>
          22 5 1 1 2.</_></rects>
      <tilted>0</tilted></_>
    <_>
      <rects>
        <_>
          21 7 2 6 -1.</_>
        <_>
          21 7 1 3 2.</_>
        <_>
          22 10 1 3 2.</_></rects>
      <tilted>0</tilted></_>
    <_>
      <rects>
        <_>
          21 7 2 14 -1.</_>
        <_>
          22 7 1 14 2.</_></rects>
      <tilted>0</tilted></_>
    <_>
      <rects>
        <_>
          21 14 2 6 -1.</_>
        <_>
          21 14 1 3 2.</_>
        <_>
          22 17 1 3 2.</_></rects>
      <tilted>0</tilted></_>
    <_>
      <rects>
        <_>
          22 1 2 12 -1.</_>
        <_>
          22 1 1 6 2.</_>
        <_>
          23 7 1 6 2.</_></rects>
      <tilted>0</tilted></_>
    <_>
      <rects>
        <_>
          22 4 2 12 -1.</_>
        <_>
          23 4 1 12 2.</_></rects>
      <tilted>0</tilted></_>
    <_>
      <rects>
        <_>
          22 8 2 2 -1.</_>
        <_>
          22 8 1 1 2.</_>
        <_>
          23 9 1 1 2.</_></rects>
      <tilted>0</tilted></_>
    <_>
      <rects>
        <_>
          22 9 2 4 -1.</_>
        <_>
          23 9 1 4 2.</_></rects>
      <tilted>0</tilted></_>
    <_>
      <rects>
        <_>
          22 11 2 2 -1.</_>
        <_>
          22 11 1 1 2.</_>
        <_>
          23 12 1 1 2.</_></rects>
      <tilted>0</tilted></_>
    <_>
      <rects>
        <_>
          22 13 2 8 -1.</_>
        <_>
          22 13 1 4 2.</_>
        <_>
          23 17 1 4 2.</_></rects>
      <tilted>0</tilted></_>
    <_>
      <rects>
        <_>
          23 0 1 10 -1.</_>
        <_>
          23 5 1 5 2.</_></rects>
      <tilted>0</tilted></_>
    <_>
      <rects>
        <_>
          23 14 1 9 -1.</_>
        <_>
          23 17 1 3 2.</_></rects>
      <tilted>0</tilted></_></features></cascade>
</opencv_storage>
