<?xml version="1.0"?>
<opencv_storage>
<cascade>
  <stageType>BOOST</stageType>
  <featureType>HAAR</featureType>
  <height>24</height>
  <width>24</width>
  <stageParams>
    <boostType>GAB</boostType>
    <minHitRate>9.9500000476837158e-01</minHitRate>
    <maxFalseAlarm>5.0000000000000000e-01</maxFalseAlarm>
    <weightTrimRate>9.4999999999999996e-01</weightTrimRate>
    <maxDepth>1</maxDepth>
    <maxWeakCount>100</maxWeakCount></stageParams>
  <featureParams>
    <maxCatCount>0</maxCatCount>
    <featSize>1</featSize>
    <mode>BASIC</mode></featureParams>
  <stageNum>17</stageNum>
  <stages>
    <!-- stage 0 -->
    <_>
      <maxWeakCount>3</maxWeakCount>
      <stageThreshold>-7.5815123319625854e-01</stageThreshold>
      <weakClassifiers>
        <_>
          <internalNodes>
            0 -1 65 -2.1446567028760910e-02</internalNodes>
          <leafValues>
            7.6470589637756348e-01 -8.1481480598449707e-01</leafValues></_>
        <_>
          <internalNodes>
            0 -1 1 2.3792162537574768e-02</internalNodes>
          <leafValues>
            -6.7640483379364014e-01 8.6049097776412964e-01</leafValues></_>
        <_>
          <internalNodes>
            0 -1 9 -2.3617738485336304e-01</internalNodes>
          <leafValues>
            -7.0062738656997681e-01 7.3306846618652344e-01</leafValues></_></weakClassifiers></_>
    <!-- stage 1 -->
    <_>
      <maxWeakCount>2</maxWeakCount>
      <stageThreshold>-6.4004999399185181e-01</stageThreshold>
      <weakClassifiers>
        <_>
          <internalNodes>
            0 -1 33 4.7093749046325684e-02</internalNodes>
          <leafValues>
            -8.3084577322006226e-01 3.4693878889083862e-01</leafValues></_>
        <_>
          <internalNodes>
            0 -1 30 -3.9515668153762817e-01</internalNodes>
          <leafValues>
            -8.9349889755249023e-01 1.9079579412937164e-01</leafValues></_></weakClassifiers></_>
    <!-- stage 2 -->
    <_>
      <maxWeakCount>4</maxWeakCount>
      <stageThreshold>-1.4385229349136353e+00</stageThreshold>
      <weakClassifiers>
        <_>
          <internalNodes>
            0 -1 27 2.8618816286325455e-02</internalNodes>
          <leafValues>
            -7.9279279708862305e-01 9.2857140302658081e-01</leafValues></_>
        <_>
          <internalNodes>
            0 -1 64 -1.5063133090734482e-02</internalNodes>
          <leafValues>
            6.9383645057678223e-01 -6.7445331811904907e-01</leafValues></_>
        <_>
          <internalNodes>
            0 -1 3 1.0335094993934035e-03</internalNodes>
          <leafValues>
            -5.3221428394317627e-01 7.8403550386428833e-01</leafValues></_>
        <_>
          <internalNodes>
            0 -1 32 -1.6262996196746826e-01</internalNodes>
          <leafValues>
            5.6291085481643677e-01 -8.0735236406326294e-01</leafValues></_></weakClassifiers></_>
    <!-- stage 3 -->
    <_>
      <maxWeakCount>4</maxWeakCount>
      <stageThreshold>-1.2397297620773315e+00</stageThreshold>
      <weakClassifiers>
        <_>
          <internalNodes>
            0 -1 44 9.9684030283242464e-04</internalNodes>
          <leafValues>
            -7.8082191944122314e-01 6.7741936445236206e-01</leafValues></_>
        <_>
          <internalNodes>
            0 -1 63 -3.4145181998610497e-03</internalNodes>
          <leafValues>
            7.9148411750793457e-01 -5.6547152996063232e-01</leafValues></_>
        <_>
          <internalNodes>
            0 -1 40 -1.3335503637790680e-02</internalNodes>
          <leafValues>
            6.4587229490280151e-01 -5.9703278541564941e-01</leafValues></_>
        <_>
          <internalNodes>
            0 -1 29 1.9709779007826000e-04</internalNodes>
          <leafValues>
            -5.3930860757827759e-01 7.2847872972488403e-01</leafValues></_></weakClassifiers></_>
    <!-- stage 4 -->
    <_>
      <maxWeakCount>6</maxWeakCount>
      <stageThreshold>-1.0107703208923340e+00</stageThreshold>
      <weakClassifiers>
        <_>
          <internalNodes>
            0 -1 31 4.5910682529211044e-03</internalNodes>
          <leafValues>
            -7.4774771928787231e-01 5.7142859697341919e-01</leafValues></_>
        <_>
          <internalNodes>
            0 -1 24 -4.5520633459091187e-02</internalNodes>
          <leafValues>
            4.7131767868995667e-01 -5.2680301666259766e-01</leafValues></_>
        <_>
          <internalNodes>
            0 -1 26 3.1161927618086338e-03</internalNodes>
          <leafValues>
            -3.1856590509414673e-01 8.3931171894073486e-01</leafValues></_>
        <_>
          <internalNodes>
            0 -1 54 -7.3325092671439052e-04</internalNodes>
          <leafValues>
            3.2195147871971130e-01 -8.6096942424774170e-01</leafValues></_>
        <_>
          <internalNodes>
            0 -1 74 2.3794351145625114e-03</internalNodes>
          <leafValues>
            -3.3584013581275940e-01 8.5717195272445679e-01</leafValues></_>
        <_>
          <internalNodes>
            0 -1 0 1.4533332549035549e-02</internalNodes>
          <leafValues>
            -4.0188562870025635e-01 6.5765702724456787e-01</leafValues></_></weakClassifiers></_>
    <!-- stage 5 -->
    <_>
      <maxWeakCount>6</maxWeakCount>
      <stageThreshold>-9.1109275817871094e-01</stageThreshold>
      <weakClassifiers>
        <_>
          <internalNodes>
            0 -1 53 -5.5139228701591492e-02</internalNodes>
          <leafValues>
            6.6666668653488159e-01 -7.3451328277587891e-01</leafValues></_>
        <_>
          <internalNodes>
            0 -1 71 1.0525856167078018e-02</internalNodes>
          <leafValues>
            -4.4877660274505615e-01 7.6417005062103271e-01</leafValues></_>
        <_>
          <internalNodes>
            0 -1 15 8.3311053458601236e-04</internalNodes>
          <leafValues>
            -3.0877435207366943e-01 8.4257906675338745e-01</leafValues></_>
        <_>
          <internalNodes>
            0 -1 22 1.4676919090561569e-04</internalNodes>
          <leafValues>
            2.9469197988510132e-01 -9.6943610906600952e-01</leafValues></_>
        <_>
          <internalNodes>
            0 -1 49 -1.9107874482870102e-02</internalNodes>
          <leafValues>
            5.9218639135360718e-01 -3.8703858852386475e-01</leafValues></_>
        <_>
          <internalNodes>
            0 -1 52 1.1096710804849863e-03</internalNodes>
          <leafValues>
            -3.0590692162513733e-01 9.4752722978591919e-01</leafValues></_></weakClassifiers></_>
    <!-- stage 6 -->
    <_>
      <maxWeakCount>3</maxWeakCount>
      <stageThreshold>-8.7257570028305054e-01</stageThreshold>
      <weakClassifiers>
        <_>
          <internalNodes>
            0 -1 7 2.6716195046901703e-02</internalNodes>
          <leafValues>
            -7.6923078298568726e-01 2.3809523880481720e-01</leafValues></_>
        <_>
          <internalNodes>
            0 -1 2 -1.1638115346431732e-01</internalNodes>
          <leafValues>
            -6.9096076488494873e-01 2.0295830070972443e-01</leafValues></_>
        <_>
          <internalNodes>
            0 -1 70 -1.6243994235992432e-02</internalNodes>
          <leafValues>
            9.0645325183868408e-01 -3.0630326271057129e-01</leafValues></_></weakClassifiers></_>
    <!-- stage 7 -->
    <_>
      <maxWeakCount>4</maxWeakCount>
      <stageThreshold>-6.9043523073196411e-01</stageThreshold>
      <weakClassifiers>
        <_>
          <internalNodes>
            0 -1 39 -1.9065274391323328e-03</internalNodes>
          <leafValues>
            4.3750000000000000e-01 -7.5229358673095703e-01</leafValues></_>
        <_>
          <internalNodes>
            0 -1 18 -4.6841996908187866e-01</internalNodes>
          <leafValues>
            6.3361227512359619e-01 -4.7119221091270447e-01</leafValues></_>
        <_>
          <internalNodes>
            0 -1 34 6.4329849556088448e-04</internalNodes>
          <leafValues>
            2.1837824583053589e-01 -1.</leafValues></_>
        <_>
          <internalNodes>
            0 -1 59 -8.5907347965985537e-05</internalNodes>
          <leafValues>
            3.1467232108116150e-01 -7.1337461471557617e-01</leafValues></_></weakClassifiers></_>
    <!-- stage 8 -->
    <_>
      <maxWeakCount>6</maxWeakCount>
      <stageThreshold>-1.0498547554016113e+00</stageThreshold>
      <weakClassifiers>
        <_>
          <internalNodes>
            0 -1 29 8.0829148646444082e-04</internalNodes>
          <leafValues>
            -7.2850680351257324e-01 3.7931033968925476e-01</leafValues></_>
        <_>
          <internalNodes>
            0 -1 19 -1.6828303923830390e-03</internalNodes>
          <leafValues>
            2.7366760373115540e-01 -6.2404763698577881e-01</leafValues></_>
        <_>
          <internalNodes>
            0 -1 46 1.2613642029464245e-02</internalNodes>
          <leafValues>
            -3.7873834371566772e-01 5.8306938409805298e-01</leafValues></_>
        <_>
          <internalNodes>
            0 -1 60 -3.9056730456650257e-03</internalNodes>
          <leafValues>
            7.2622472047805786e-01 -2.9750987887382507e-01</leafValues></_>
        <_>
          <internalNodes>
            0 -1 66 7.8858283814042807e-04</internalNodes>
          <leafValues>
            -4.9069166183471680e-01 4.5106306672096252e-01</leafValues></_>
        <_>
          <internalNodes>
            0 -1 35 -5.2581075578927994e-03</internalNodes>
          <leafValues>
            6.3404297828674316e-01 -3.6983045935630798e-01</leafValues></_></weakClassifiers></_>
    <!-- stage 9 -->
    <_>
      <maxWeakCount>6</maxWeakCount>
      <stageThreshold>-8.8028287887573242e-01</stageThreshold>
      <weakClassifiers>
        <_>
          <internalNodes>
            0 -1 36 1.2579885311424732e-02</internalNodes>
          <leafValues>
            -7.0085471868515015e-01 8.7500000000000000e-01</leafValues></_>
        <_>
          <internalNodes>
            0 -1 62 1.3887553941458464e-03</internalNodes>
          <leafValues>
            -4.8746392130851746e-01 5.0112134218215942e-01</leafValues></_>
        <_>
          <internalNodes>
            0 -1 13 -1.3567138463258743e-02</internalNodes>
          <leafValues>
            6.1874788999557495e-01 -3.0390086770057678e-01</leafValues></_>
        <_>
          <internalNodes>
            0 -1 25 8.1716629210859537e-04</internalNodes>
          <leafValues>
            -5.5098241567611694e-01 3.9983305335044861e-01</leafValues></_>
        <_>
          <internalNodes>
            0 -1 12 5.5062345927581191e-04</internalNodes>
          <leafValues>
            -2.6484411954879761e-01 7.2700238227844238e-01</leafValues></_>
        <_>
          <internalNodes>
            0 -1 55 7.0908875204622746e-04</internalNodes>
          <leafValues>
            -4.8673209547996521e-01 4.8009592294692993e-01</leafValues></_></weakClassifiers></_>
    <!-- stage 10 -->
    <_>
      <maxWeakCount>6</maxWeakCount>
      <stageThreshold>-1.4866394996643066e+00</stageThreshold>
      <weakClassifiers>
        <_>
          <internalNodes>
            0 -1 8 -3.7620363291352987e-03</internalNodes>
          <leafValues>
            8.7500000000000000e-01 -7.0085471868515015e-01</leafValues></_>
        <_>
          <internalNodes>
            0 -1 41 2.7659889310598373e-02</internalNodes>
          <leafValues>
            -6.6001087427139282e-01 2.7268600463867188e-01</leafValues></_>
        <_>
          <internalNodes>
            0 -1 67 -8.8658015010878444e-04</internalNodes>
          <leafValues>
            7.9352813959121704e-01 -2.4739652872085571e-01</leafValues></_>
        <_>
          <internalNodes>
            0 -1 57 8.1097125075757504e-04</internalNodes>
          <leafValues>
            3.1617119908332825e-01 -7.3685193061828613e-01</leafValues></_>
        <_>
          <internalNodes>
            0 -1 75 6.1672348529100418e-03</internalNodes>
          <leafValues>
            2.2734370827674866e-01 -8.7479031085968018e-01</leafValues></_>
        <_>
          <internalNodes>
            0 -1 21 1.9469923572614789e-03</internalNodes>
          <leafValues>
            -4.2189228534698486e-01 5.8485960960388184e-01</leafValues></_></weakClassifiers></_>
    <!-- stage 11 -->
    <_>
      <maxWeakCount>6</maxWeakCount>
      <stageThreshold>-1.2219064235687256e+00</stageThreshold>
      <weakClassifiers>
        <_>
          <internalNodes>
            0 -1 68 -5.7332953438162804e-03</internalNodes>
          <leafValues>
            1.9047619402408600e-01 -7.5961536169052124e-01</leafValues></_>
        <_>
          <internalNodes>
            0 -1 5 2.0477981306612492e-03</internalNodes>
          <leafValues>
            -3.9795756340026855e-01 8.0186319351196289e-01</leafValues></_>
        <_>
          <internalNodes>
            0 -1 48 -7.8887399286031723e-03</internalNodes>
          <leafValues>
            -1. 2.1837401390075684e-01</leafValues></_>
        <_>
          <internalNodes>
            0 -1 61 1.0119619546458125e-03</internalNodes>
          <leafValues>
            -3.2058009505271912e-01 7.3810631036758423e-01</leafValues></_>
        <_>
          <internalNodes>
            0 -1 16 -1.7248556017875671e-02</internalNodes>
          <leafValues>
            7.5907301902770996e-01 -2.7126377820968628e-01</leafValues></_>
        <_>
          <internalNodes>
            0 -1 50 -6.4204551745206118e-04</internalNodes>
          <leafValues>
            -9.0681236982345581e-01 3.0913639068603516e-01</leafValues></_></weakClassifiers></_>
    <!-- stage 12 -->
    <_>
      <maxWeakCount>5</maxWeakCount>
      <stageThreshold>-7.8282910585403442e-01</stageThreshold>
      <weakClassifiers>
        <_>
          <internalNodes>
            0 -1 72 2.0332741551101208e-03</internalNodes>
          <leafValues>
            -7.2197312116622925e-01 4.0740740299224854e-01</leafValues></_>
        <_>
          <internalNodes>
            0 -1 42 -6.1933504184707999e-04</internalNodes>
          <leafValues>
            2.7014079689979553e-01 -6.8426835536956787e-01</leafValues></_>
        <_>
          <internalNodes>
            0 -1 11 -4.1050285100936890e-02</internalNodes>
          <leafValues>
            4.6843227744102478e-01 -4.4003531336784363e-01</leafValues></_>
        <_>
          <internalNodes>
            0 -1 56 3.8188134785741568e-03</internalNodes>
          <leafValues>
            -5.0267291069030762e-01 4.2977350950241089e-01</leafValues></_>
        <_>
          <internalNodes>
            0 -1 58 -2.4550501257181168e-03</internalNodes>
          <leafValues>
            7.4111127853393555e-01 -2.7479350566864014e-01</leafValues></_></weakClassifiers></_>
    <!-- stage 13 -->
    <_>
      <maxWeakCount>3</maxWeakCount>
      <stageThreshold>-4.9214324355125427e-01</stageThreshold>
      <weakClassifiers>
        <_>
          <internalNodes>
            0 -1 37 1.5386458486318588e-02</internalNodes>
          <leafValues>
            -6.9230771064758301e-01 7.5000000000000000e-01</leafValues></_>
        <_>
          <internalNodes>
            0 -1 43 2.4451597710140049e-04</internalNodes>
          <leafValues>
            5.3218223154544830e-02 -1.</leafValues></_>
        <_>
          <internalNodes>
            0 -1 38 1.4667543582618237e-03</internalNodes>
          <leafValues>
            1.4694623649120331e-01 -1.</leafValues></_></weakClassifiers></_>
    <!-- stage 14 -->
    <_>
      <maxWeakCount>5</maxWeakCount>
      <stageThreshold>-1.0468040704727173e+00</stageThreshold>
      <weakClassifiers>
        <_>
          <internalNodes>
            0 -1 17 -3.4371207002550364e-03</internalNodes>
          <leafValues>
            5.0000000000000000e-01 -6.9565218687057495e-01</leafValues></_>
        <_>
          <internalNodes>
            0 -1 51 -2.6211475487798452e-03</internalNodes>
          <leafValues>
            -6.5968161821365356e-01 2.5603589415550232e-01</leafValues></_>
        <_>
          <internalNodes>
            0 -1 10 2.8270012699067593e-03</internalNodes>
          <leafValues>
            -3.8658732175827026e-01 5.3302568197250366e-01</leafValues></_>
        <_>
          <internalNodes>
            0 -1 47 -1.3939568772912025e-02</internalNodes>
          <leafValues>
            2.8729113936424255e-01 -6.3312548398971558e-01</leafValues></_>
        <_>
          <internalNodes>
            0 -1 45 1.0979477316141129e-02</internalNodes>
          <leafValues>
            -4.7069847583770752e-01 4.0862959623336792e-01</leafValues></_></weakClassifiers></_>
    <!-- stage 15 -->
    <_>
      <maxWeakCount>5</maxWeakCount>
      <stageThreshold>-7.9036283493041992e-01</stageThreshold>
      <weakClassifiers>
        <_>
          <internalNodes>
            0 -1 20 -1.7128218896687031e-03</internalNodes>
          <leafValues>
            6.0000002384185791e-01 -7.3333334922790527e-01</leafValues></_>
        <_>
          <internalNodes>
            0 -1 69 -4.8838173970580101e-03</internalNodes>
          <leafValues>
            7.1083939075469971e-01 -4.8107245564460754e-01</leafValues></_>
        <_>
          <internalNodes>
            0 -1 6 -8.2045682938769460e-04</internalNodes>
          <leafValues>
            5.3029978275299072e-01 -4.7194501757621765e-01</leafValues></_>
        <_>
          <internalNodes>
            0 -1 23 -1.7095837974920869e-03</internalNodes>
          <leafValues>
            -9.6392393112182617e-01 2.5555896759033203e-01</leafValues></_>
        <_>
          <internalNodes>
            0 -1 14 -1.6027236357331276e-02</internalNodes>
          <leafValues>
            6.8682765960693359e-01 -3.6181581020355225e-01</leafValues></_></weakClassifiers></_>
    <!-- stage 16 -->
    <_>
      <maxWeakCount>3</maxWeakCount>
      <stageThreshold>-7.4202954769134521e-01</stageThreshold>
      <weakClassifiers>
        <_>
          <internalNodes>
            0 -1 4 -9.2716608196496964e-03</internalNodes>
          <leafValues>
            -7.6211452484130859e-01 1.</leafValues></_>
        <_>
          <internalNodes>
            0 -1 73 3.0981449526734650e-04</internalNodes>
          <leafValues>
            -7.7060753107070923e-01 4.6115157008171082e-01</leafValues></_>
        <_>
          <internalNodes>
            0 -1 28 -1.0764175385702401e-04</internalNodes>
          <leafValues>
            1. -4.4106659293174744e-01</leafValues></_></weakClassifiers></_></stages>
  <features>
    <_>
      <rects>
        <_>
          0 0 8 8 -1.</_>
        <_>
          0 0 4 4 2.</_>
        <_>
          4 4 4 4 2.</_></rects>
      <tilted>0</tilted></_>
    <_>
      <rects>
        <_>
          0 4 4 12 -1.</_>
        <_>
          2 4 2 12 2.</_></rects>
      <tilted>0</tilted></_>
    <_>
      <rects>
        <_>
          0 6 6 9 -1.</_>
        <_>
          2 6 2 9 2.</_></rects>
      <tilted>0</tilted></_>
    <_>
      <rects>
        <_>
          0 7 2 6 -1.</_>
        <_>
          0 7 1 3 2.</_>
        <_>
          1 10 1 3 2.</_></rects>
      <tilted>0</tilted></_>
    <_>
      <rects>
        <_>
          0 7 24 16 -1.</_>
        <_>
          0 7 12 8 2.</_>
        <_>
          12 15 12 8 2.</_></rects>
      <tilted>0</tilted></_>
    <_>
      <rects>
        <_>
          0 8 2 4 -1.</_>
        <_>
          0 8 1 2 2.</_>
        <_>
          1 10 1 2 2.</_></rects>
      <tilted>0</tilted></_>
    <_>
      <rects>
        <_>
          0 8 2 4 -1.</_>
        <_>
          0 10 2 2 2.</_></rects>
      <tilted>0</tilted></_>
    <_>
      <rects>
        <_>
          0 8 4 10 -1.</_>
        <_>
          2 8 2 10 2.</_></rects>
      <tilted>0</tilted></_>
    <_>
      <rects>
        <_>
          0 13 2 4 -1.</_>
        <_>
          0 13 1 2 2.</_>
        <_>
          1 15 1 2 2.</_></rects>
      <tilted>0</tilted></_>
    <_>
      <rects>
        <_>
          0 13 20 6 -1.</_>
        <_>
          0 15 20 2 2.</_></rects>
      <tilted>0</tilted></_>
    <_>
      <rects>
        <_>
          1 2 2 8 -1.</_>
        <_>
          1 2 1 4 2.</_>
        <_>
          2 6 1 4 2.</_></rects>
      <tilted>0</tilted></_>
    <_>
      <rects>
        <_>
          1 8 6 3 -1.</_>
        <_>
          1 9 6 1 2.</_></rects>
      <tilted>0</tilted></_>
    <_>
      <rects>
        <_>
          1 15 2 2 -1.</_>
        <_>
          1 15 1 1 2.</_>
        <_>
          2 16 1 1 2.</_></rects>
      <tilted>0</tilted></_>
    <_>
      <rects>
        <_>
          1 17 6 7 -1.</_>
        <_>
          4 17 3 7 2.</_></rects>
      <tilted>0</tilted></_>
    <_>
      <rects>
        <_>
          1 20 15 4 -1.</_>
        <_>
          1 22 15 2 2.</_></rects>
      <tilted>0</tilted></_>
    <_>
      <rects>
        <_>
          2 1 2 2 -1.</_>
        <_>
          2 1 1 1 2.</_>
        <_>
          3 2 1 1 2.</_></rects>
      <tilted>0</tilted></_>
    <_>
      <rects>
        <_>
          2 2 6 10 -1.</_>
        <_>
          2 2 3 5 2.</_>
        <_>
          5 7 3 5 2.</_></rects>
      <tilted>0</tilted></_>
    <_>
      <rects>
        <_>
          2 3 2 6 -1.</_>
        <_>
          2 3 1 3 2.</_>
        <_>
          3 6 1 3 2.</_></rects>
      <tilted>0</tilted></_>
    <_>
      <rects>
        <_>
          2 6 21 18 -1.</_>
        <_>
          2 15 21 9 2.</_></rects>
      <tilted>0</tilted></_>
    <_>
      <rects>
        <_>
          2 14 3 4 -1.</_>
        <_>
          2 16 3 2 2.</_></rects>
      <tilted>0</tilted></_>
    <_>
      <rects>
        <_>
          2 18 2 4 -1.</_>
        <_>
          2 18 1 2 2.</_>
        <_>
          3 20 1 2 2.</_></rects>
      <tilted>0</tilted></_>
    <_>
      <rects>
        <_>
          3 0 2 6 -1.</_>
        <_>
          3 0 1 3 2.</_>
        <_>
          4 3 1 3 2.</_></rects>
      <tilted>0</tilted></_>
    <_>
      <rects>
        <_>
          3 13 1 2 -1.</_>
        <_>
          3 14 1 1 2.</_></rects>
      <tilted>0</tilted></_>
    <_>
      <rects>
        <_>
          4 14 3 2 -1.</_>
        <_>
          4 15 3 1 2.</_></rects>
      <tilted>0</tilted></_>
    <_>
      <rects>
        <_>
          4 17 16 6 -1.</_>
        <_>
          4 20 16 3 2.</_></rects>
      <tilted>0</tilted></_>
    <_>
      <rects>
        <_>
          4 18 6 3 -1.</_>
        <_>
          7 18 3 3 2.</_></rects>
      <tilted>0</tilted></_>
    <_>
      <rects>
        <_>
          4 21 10 2 -1.</_>
        <_>
          4 22 10 1 2.</_></rects>
      <tilted>0</tilted></_>
    <_>
      <rects>
        <_>
          5 0 10 4 -1.</_>
        <_>
          5 2 10 2 2.</_></rects>
      <tilted>0</tilted></_>
    <_>
      <rects>
        <_>
          5 1 2 2 -1.</_>
        <_>
          5 1 1 1 2.</_>
        <_>
          6 2 1 1 2.</_></rects>
      <tilted>0</tilted></_>
    <_>
      <rects>
        <_>
          6 0 2 2 -1.</_>
        <_>
          6 0 1 1 2.</_>
        <_>
          7 1 1 1 2.</_></rects>
      <tilted>0</tilted></_>
    <_>
      <rects>
        <_>
          6 0 7 24 -1.</_>
        <_>
          6 8 7 8 2.</_></rects>
      <tilted>0</tilted></_>
    <_>
      <rects>
        <_>
          6 1 3 2 -1.</_>
        <_>
          6 2 3 1 2.</_></rects>
      <tilted>0</tilted></_>
    <_>
      <rects>
        <_>
          6 9 15 6 -1.</_>
        <_>
          11 9 5 6 2.</_></rects>
      <tilted>0</tilted></_>
    <_>
      <rects>
        <_>
          7 1 15 6 -1.</_>
        <_>
          7 4 15 3 2.</_></rects>
      <tilted>0</tilted></_>
    <_>
      <rects>
        <_>
          7 16 2 2 -1.</_>
        <_>
          8 16 1 2 2.</_></rects>
      <tilted>0</tilted></_>
    <_>
      <rects>
        <_>
          7 16 4 4 -1.</_>
        <_>
          7 18 4 2 2.</_></rects>
      <tilted>0</tilted></_>
    <_>
      <rects>
        <_>
          8 0 6 2 -1.</_>
        <_>
          8 1 6 1 2.</_></rects>
      <tilted>0</tilted></_>
    <_>
      <rects>
        <_>
          8 0 7 2 -1.</_>
        <_>
          8 1 7 1 2.</_></rects>
      <tilted>0</tilted></_>
    <_>
      <rects>
        <_>
          8 10 2 8 -1.</_>
        <_>
          8 10 1 4 2.</_>
        <_>
          9 14 1 4 2.</_></rects>
      <tilted>0</tilted></_>
    <_>
      <rects>
        <_>
          8 22 3 2 -1.</_>
        <_>
          8 23 3 1 2.</_></rects>
      <tilted>0</tilted></_>
    <_>
      <rects>
        <_>
          9 18 6 6 -1.</_>
        <_>
          9 21 6 3 2.</_></rects>
      <tilted>0</tilted></_>
    <_>
      <rects>
        <_>
          10 3 14 18 -1.</_>
        <_>
          10 3 7 9 2.</_>
        <_>
          17 12 7 9 2.</_></rects>
      <tilted>0</tilted></_>
    <_>
      <rects>
        <_>
          10 12 8 2 -1.</_>
        <_>
          10 13 8 1 2.</_></rects>
      <tilted>0</tilted></_>
    <_>
      <rects>
        <_>
          11 14 2 2 -1.</_>
        <_>
          11 14 1 1 2.</_>
        <_>
          12 15 1 1 2.</_></rects>
      <tilted>0</tilted></_>
    <_>
      <rects>
        <_>
          12 0 1 2 -1.</_>
        <_>
          12 1 1 1 2.</_></rects>
      <tilted>0</tilted></_>
    <_>
      <rects>
        <_>
          12 3 10 4 -1.</_>
        <_>
          12 5 10 2 2.</_></rects>
      <tilted>0</tilted></_>
    <_>
      <rects>
        <_>
          13 3 8 6 -1.</_>
        <_>
          13 3 4 3 2.</_>
        <_>
          17 6 4 3 2.</_></rects>
      <tilted>0</tilted></_>
    <_>
      <rects>
        <_>
          13 11 11 6 -1.</_>
        <_>
          13 14 11 3 2.</_></rects>
      <tilted>0</tilted></_>
    <_>
      <rects>
        <_>
          13 23 3 1 -1.</_>
        <_>
          14 23 1 1 2.</_></rects>
      <tilted>0</tilted></_>
    <_>
      <rects>
        <_>
          14 0 10 8 -1.</_>
        <_>
          14 0 5 4 2.</_>
        <_>
          19 4 5 4 2.</_></rects>
      <tilted>0</tilted></_>
    <_>
      <rects>
        <_>
          14 6 2 6 -1.</_>
        <_>
          14 6 1 3 2.</_>
        <_>
          15 9 1 3 2.</_></rects>
      <tilted>0</tilted></_>
    <_>
      <rects>
        <_>
          14 9 6 8 -1.</_>
        <_>
          14 9 3 4 2.</_>
        <_>
          17 13 3 4 2.</_></rects>
      <tilted>0</tilted></_>
    <_>
      <rects>
        <_>
          15 1 2 2 -1.</_>
        <_>
          15 1 1 1 2.</_>
        <_>
          16 2 1 1 2.</_></rects>
      <tilted>0</tilted></_>
    <_>
      <rects>
        <_>
          15 2 8 6 -1.</_>
        <_>
          19 2 4 6 2.</_></rects>
      <tilted>0</tilted></_>
    <_>
      <rects>
        <_>
          15 13 8 4 -1.</_>
        <_>
          15 15 8 2 2.</_></rects>
      <tilted>0</tilted></_>
    <_>
      <rects>
        <_>
          15 17 4 6 -1.</_>
        <_>
          15 17 2 3 2.</_>
        <_>
          17 20 2 3 2.</_></rects>
      <tilted>0</tilted></_>
    <_>
      <rects>
        <_>
          16 1 4 14 -1.</_>
        <_>
          16 1 2 7 2.</_>
        <_>
          18 8 2 7 2.</_></rects>
      <tilted>0</tilted></_>
    <_>
      <rects>
        <_>
          17 11 4 4 -1.</_>
        <_>
          17 11 2 2 2.</_>
        <_>
          19 13 2 2 2.</_></rects>
      <tilted>0</tilted></_>
    <_>
      <rects>
        <_>
          17 19 4 4 -1.</_>
        <_>
          17 19 2 2 2.</_>
        <_>
          19 21 2 2 2.</_></rects>
      <tilted>0</tilted></_>
    <_>
      <rects>
        <_>
          18 11 6 2 -1.</_>
        <_>
          18 12 6 1 2.</_></rects>
      <tilted>0</tilted></_>
    <_>
      <rects>
        <_>
          18 19 4 2 -1.</_>
        <_>
          20 19 2 2 2.</_></rects>
      <tilted>0</tilted></_>
    <_>
      <rects>
        <_>
          20 1 2 6 -1.</_>
        <_>
          20 1 1 3 2.</_>
        <_>
          21 4 1 3 2.</_></rects>
      <tilted>0</tilted></_>
    <_>
      <rects>
        <_>
          20 4 2 8 -1.</_>
        <_>
          20 4 1 4 2.</_>
        <_>
          21 8 1 4 2.</_></rects>
      <tilted>0</tilted></_>
    <_>
      <rects>
        <_>
          20 4 4 4 -1.</_>
        <_>
          20 4 2 2 2.</_>
        <_>
          22 6 2 2 2.</_></rects>
      <tilted>0</tilted></_>
    <_>
      <rects>
        <_>
          20 4 4 12 -1.</_>
        <_>
          22 4 2 12 2.</_></rects>
      <tilted>0</tilted></_>
    <_>
      <rects>
        <_>
          20 8 4 10 -1.</_>
        <_>
          22 8 2 10 2.</_></rects>
      <tilted>0</tilted></_>
    <_>
      <rects>
        <_>
          20 21 4 3 -1.</_>
        <_>
          22 21 2 3 2.</_></rects>
      <tilted>0</tilted></_>
    <_>
      <rects>
        <_>
          21 4 2 2 -1.</_>
        <_>
          21 4 1 1 2.</_>
        <_>
          22 5 1 1 2.</_></rects>
      <tilted>0</tilted></_>
    <_>
      <rects>
        <_>
          21 12 2 8 -1.</_>
        <_>
          22 12 1 8 2.</_></rects>
      <tilted>0</tilted></_>
    <_>
      <rects>
        <_>
          21 13 2 7 -1.</_>
        <_>
          22 13 1 7 2.</_></rects>
      <tilted>0</tilted></_>
    <_>
      <rects>
        <_>
          22 8 2 8 -1.</_>
        <_>
          23 8 1 8 2.</_></rects>
      <tilted>0</tilted></_>
    <_>
      <rects>
        <_>
          22 10 2 14 -1.</_>
        <_>
          22 10 1 7 2.</_>
        <_>
          23 17 1 7 2.</_></rects>
      <tilted>0</tilted></_>
    <_>
      <rects>
        <_>
          22 13 2 4 -1.</_>
        <_>
          22 13 1 2 2.</_>
        <_>
          23 15 1 2 2.</_></rects>
      <tilted>0</tilted></_>
    <_>
      <rects>
        <_>
          22 14 2 6 -1.</_>
        <_>
          22 14 1 3 2.</_>
        <_>
          23 17 1 3 2.</_></rects>
      <tilted>0</tilted></_>
    <_>
      <rects>
        <_>
          22 15 2 6 -1.</_>
        <_>
          22 15 1 3 2.</_>
        <_>
          23 18 1 3 2.</_></rects>
      <tilted>0</tilted></_>
    <_>
      <rects>
        <_>
          23 2 1 10 -1.</_>
        <_>
          23 7 1 5 2.</_></rects>
      <tilted>0</tilted></_></features></cascade>
</opencv_storage>
