<?xml version="1.0"?>
<opencv_storage>
<cascade>
  <stageType>BOOST</stageType>
  <featureType>HAAR</featureType>
  <height>24</height>
  <width>24</width>
  <stageParams>
    <boostType>GAB</boostType>
    <minHitRate>9.9900001287460327e-01</minHitRate>
    <maxFalseAlarm>3.0000001192092896e-01</maxFalseAlarm>
    <weightTrimRate>9.4999999999999996e-01</weightTrimRate>
    <maxDepth>1</maxDepth>
    <maxWeakCount>100</maxWeakCount></stageParams>
  <featureParams>
    <maxCatCount>0</maxCatCount>
    <featSize>1</featSize>
    <mode>BASIC</mode></featureParams>
  <stageNum>13</stageNum>
  <stages>
    <!-- stage 0 -->
    <_>
      <maxWeakCount>3</maxWeakCount>
      <stageThreshold>-6.7322415113449097e-01</stageThreshold>
      <weakClassifiers>
        <_>
          <internalNodes>
            0 -1 3 2.2975988686084747e-02</internalNodes>
          <leafValues>
            -7.6036864519119263e-01 6.8965518474578857e-01</leafValues></_>
        <_>
          <internalNodes>
            0 -1 2 -5.5273091793060303e-01</internalNodes>
          <leafValues>
            -7.6126605272293091e-01 5.6155157089233398e-01</leafValues></_>
        <_>
          <internalNodes>
            0 -1 82 -2.7221521362662315e-02</internalNodes>
          <leafValues>
            9.1312646865844727e-01 -4.7440707683563232e-01</leafValues></_></weakClassifiers></_>
    <!-- stage 1 -->
    <_>
      <maxWeakCount>7</maxWeakCount>
      <stageThreshold>-6.7444115877151489e-01</stageThreshold>
      <weakClassifiers>
        <_>
          <internalNodes>
            0 -1 36 -5.3723908960819244e-02</internalNodes>
          <leafValues>
            -8.6335402727127075e-01 1.2280701845884323e-01</leafValues></_>
        <_>
          <internalNodes>
            0 -1 33 3.6377772688865662e-02</internalNodes>
          <leafValues>
            -5.6204289197921753e-01 4.6945467591285706e-01</leafValues></_>
        <_>
          <internalNodes>
            0 -1 8 -7.9921558499336243e-03</internalNodes>
          <leafValues>
            -8.2938742637634277e-01 3.2527178525924683e-01</leafValues></_>
        <_>
          <internalNodes>
            0 -1 67 -1.1252323165535927e-03</internalNodes>
          <leafValues>
            4.4033882021903992e-01 -5.7817262411117554e-01</leafValues></_>
        <_>
          <internalNodes>
            0 -1 17 2.5048083625733852e-03</internalNodes>
          <leafValues>
            -3.3768162131309509e-01 8.2749295234680176e-01</leafValues></_>
        <_>
          <internalNodes>
            0 -1 6 -2.8037060052156448e-02</internalNodes>
          <leafValues>
            8.8740438222885132e-01 -3.1960114836692810e-01</leafValues></_>
        <_>
          <internalNodes>
            0 -1 87 1.9965787942055613e-04</internalNodes>
          <leafValues>
            -2.5724148750305176e-01 7.6578962802886963e-01</leafValues></_></weakClassifiers></_>
    <!-- stage 2 -->
    <_>
      <maxWeakCount>4</maxWeakCount>
      <stageThreshold>-7.7670657634735107e-01</stageThreshold>
      <weakClassifiers>
        <_>
          <internalNodes>
            0 -1 39 5.7743312790989876e-03</internalNodes>
          <leafValues>
            -7.0305675268173218e-01 7.8260868787765503e-01</leafValues></_>
        <_>
          <internalNodes>
            0 -1 12 6.1977664008736610e-03</internalNodes>
          <leafValues>
            -4.8435014486312866e-01 6.4712184667587280e-01</leafValues></_>
        <_>
          <internalNodes>
            0 -1 69 -7.9698860645294189e-04</internalNodes>
          <leafValues>
            9.1595166921615601e-01 -4.1510933637619019e-01</leafValues></_>
        <_>
          <internalNodes>
            0 -1 5 7.5693416874855757e-04</internalNodes>
          <leafValues>
            -3.0566233396530151e-01 8.3922320604324341e-01</leafValues></_></weakClassifiers></_>
    <!-- stage 3 -->
    <_>
      <maxWeakCount>8</maxWeakCount>
      <stageThreshold>-9.1090756654739380e-01</stageThreshold>
      <weakClassifiers>
        <_>
          <internalNodes>
            0 -1 38 -3.2717518508434296e-02</internalNodes>
          <leafValues>
            2.8000000119209290e-01 -7.3000001907348633e-01</leafValues></_>
        <_>
          <internalNodes>
            0 -1 65 -4.2791445739567280e-03</internalNodes>
          <leafValues>
            4.8249989748001099e-01 -5.2665323019027710e-01</leafValues></_>
        <_>
          <internalNodes>
            0 -1 26 -2.2852318361401558e-03</internalNodes>
          <leafValues>
            3.9997810125350952e-01 -5.7741308212280273e-01</leafValues></_>
        <_>
          <internalNodes>
            0 -1 19 -1.9605117267929018e-04</internalNodes>
          <leafValues>
            5.5084401369094849e-01 -4.4836223125457764e-01</leafValues></_>
        <_>
          <internalNodes>
            0 -1 71 -2.9212590306997299e-03</internalNodes>
          <leafValues>
            4.6972116827964783e-01 -5.6071561574935913e-01</leafValues></_>
        <_>
          <internalNodes>
            0 -1 92 2.1468652412295341e-03</internalNodes>
          <leafValues>
            -3.6170652508735657e-01 6.9552671909332275e-01</leafValues></_>
        <_>
          <internalNodes>
            0 -1 91 7.8396406024694443e-04</internalNodes>
          <leafValues>
            -3.0194532871246338e-01 7.3389834165573120e-01</leafValues></_>
        <_>
          <internalNodes>
            0 -1 94 -3.0757561326026917e-03</internalNodes>
          <leafValues>
            5.8752906322479248e-01 -4.2019319534301758e-01</leafValues></_></weakClassifiers></_>
    <!-- stage 4 -->
    <_>
      <maxWeakCount>7</maxWeakCount>
      <stageThreshold>-8.2463520765304565e-01</stageThreshold>
      <weakClassifiers>
        <_>
          <internalNodes>
            0 -1 90 -9.7968000918626785e-03</internalNodes>
          <leafValues>
            8.3333331346511841e-01 -5.7768923044204712e-01</leafValues></_>
        <_>
          <internalNodes>
            0 -1 55 -7.6243825256824493e-02</internalNodes>
          <leafValues>
            3.6527258157730103e-01 -6.1002725362777710e-01</leafValues></_>
        <_>
          <internalNodes>
            0 -1 60 2.6901061646640301e-03</internalNodes>
          <leafValues>
            2.6646399497985840e-01 -7.1568983793258667e-01</leafValues></_>
        <_>
          <internalNodes>
            0 -1 78 -3.7297079688869417e-04</internalNodes>
          <leafValues>
            4.7584423422813416e-01 -3.3879807591438293e-01</leafValues></_>
        <_>
          <internalNodes>
            0 -1 35 5.6307344493689016e-05</internalNodes>
          <leafValues>
            2.3110659420490265e-01 -7.4840044975280762e-01</leafValues></_>
        <_>
          <internalNodes>
            0 -1 34 -4.0033571422100067e-03</internalNodes>
          <leafValues>
            -7.6016706228256226e-01 2.0717874169349670e-01</leafValues></_>
        <_>
          <internalNodes>
            0 -1 63 -8.1070046871900558e-04</internalNodes>
          <leafValues>
            5.1196485757827759e-01 -4.3438547849655151e-01</leafValues></_></weakClassifiers></_>
    <!-- stage 5 -->
    <_>
      <maxWeakCount>9</maxWeakCount>
      <stageThreshold>-8.2892388105392456e-01</stageThreshold>
      <weakClassifiers>
        <_>
          <internalNodes>
            0 -1 32 4.2194826528429985e-03</internalNodes>
          <leafValues>
            -6.3392859697341919e-01 3.3333334326744080e-01</leafValues></_>
        <_>
          <internalNodes>
            0 -1 11 -1.2898533046245575e-01</internalNodes>
          <leafValues>
            -8.5934001207351685e-01 1.5933661162853241e-01</leafValues></_>
        <_>
          <internalNodes>
            0 -1 72 -1.0172081179916859e-02</internalNodes>
          <leafValues>
            4.6804901957511902e-01 -3.7575268745422363e-01</leafValues></_>
        <_>
          <internalNodes>
            0 -1 70 -2.0486287772655487e-02</internalNodes>
          <leafValues>
            -6.3448792695999146e-01 3.1694406270980835e-01</leafValues></_>
        <_>
          <internalNodes>
            0 -1 75 4.2462430428713560e-04</internalNodes>
          <leafValues>
            -2.7440786361694336e-01 6.0798716545104980e-01</leafValues></_>
        <_>
          <internalNodes>
            0 -1 62 1.4782982179895043e-04</internalNodes>
          <leafValues>
            2.9226693511009216e-01 -7.7244842052459717e-01</leafValues></_>
        <_>
          <internalNodes>
            0 -1 14 7.8847759868949652e-04</internalNodes>
          <leafValues>
            -2.2263833880424500e-01 8.8642811775207520e-01</leafValues></_>
        <_>
          <internalNodes>
            0 -1 9 -2.2312153130769730e-02</internalNodes>
          <leafValues>
            -4.3799325823783875e-01 4.0006139874458313e-01</leafValues></_>
        <_>
          <internalNodes>
            0 -1 57 2.2232365154195577e-04</internalNodes>
          <leafValues>
            -2.7891844511032104e-01 7.0444452762603760e-01</leafValues></_></weakClassifiers></_>
    <!-- stage 6 -->
    <_>
      <maxWeakCount>9</maxWeakCount>
      <stageThreshold>-1.0434557199478149e+00</stageThreshold>
      <weakClassifiers>
        <_>
          <internalNodes>
            0 -1 46 7.8609474003314972e-03</internalNodes>
          <leafValues>
            -6.1702126264572144e-01 5.0000000000000000e-01</leafValues></_>
        <_>
          <internalNodes>
            0 -1 21 4.4989106245338917e-03</internalNodes>
          <leafValues>
            -4.0785664319992065e-01 3.3423361182212830e-01</leafValues></_>
        <_>
          <internalNodes>
            0 -1 86 -8.7430048733949661e-04</internalNodes>
          <leafValues>
            7.0082896947860718e-01 -2.1261942386627197e-01</leafValues></_>
        <_>
          <internalNodes>
            0 -1 74 6.3447840511798859e-04</internalNodes>
          <leafValues>
            1.8423931300640106e-01 -9.6017336845397949e-01</leafValues></_>
        <_>
          <internalNodes>
            0 -1 45 -6.3941598637029529e-04</internalNodes>
          <leafValues>
            6.5884178876876831e-01 -2.6947402954101563e-01</leafValues></_>
        <_>
          <internalNodes>
            0 -1 66 -7.1914444561116397e-05</internalNodes>
          <leafValues>
            3.3311310410499573e-01 -5.0084531307220459e-01</leafValues></_>
        <_>
          <internalNodes>
            0 -1 88 1.0335554834455252e-03</internalNodes>
          <leafValues>
            -2.8968811035156250e-01 5.8911657333374023e-01</leafValues></_>
        <_>
          <internalNodes>
            0 -1 83 1.4071230543777347e-03</internalNodes>
          <leafValues>
            -3.2974439859390259e-01 5.3919261693954468e-01</leafValues></_>
        <_>
          <internalNodes>
            0 -1 81 -1.0471651330590248e-02</internalNodes>
          <leafValues>
            5.6559574604034424e-01 -3.2793718576431274e-01</leafValues></_></weakClassifiers></_>
    <!-- stage 7 -->
    <_>
      <maxWeakCount>9</maxWeakCount>
      <stageThreshold>-9.3000805377960205e-01</stageThreshold>
      <weakClassifiers>
        <_>
          <internalNodes>
            0 -1 23 -3.9557015895843506e-01</internalNodes>
          <leafValues>
            5.6250000000000000e-01 -5.8847737312316895e-01</leafValues></_>
        <_>
          <internalNodes>
            0 -1 30 -2.1334774792194366e-02</internalNodes>
          <leafValues>
            5.1100021600723267e-01 -3.5896107554435730e-01</leafValues></_>
        <_>
          <internalNodes>
            0 -1 27 7.6212054118514061e-03</internalNodes>
          <leafValues>
            -1.9612891972064972e-01 9.2598074674606323e-01</leafValues></_>
        <_>
          <internalNodes>
            0 -1 18 5.4158703424036503e-03</internalNodes>
          <leafValues>
            3.0343064665794373e-01 -6.4717680215835571e-01</leafValues></_>
        <_>
          <internalNodes>
            0 -1 73 -5.6581059470772743e-04</internalNodes>
          <leafValues>
            2.7922832965850830e-01 -6.6210460662841797e-01</leafValues></_>
        <_>
          <internalNodes>
            0 -1 50 -2.5548157282173634e-03</internalNodes>
          <leafValues>
            -4.7017046809196472e-01 3.2650154829025269e-01</leafValues></_>
        <_>
          <internalNodes>
            0 -1 25 -4.1576242074370384e-04</internalNodes>
          <leafValues>
            -7.3602712154388428e-01 2.5625061988830566e-01</leafValues></_>
        <_>
          <internalNodes>
            0 -1 0 8.4362048655748367e-03</internalNodes>
          <leafValues>
            -2.3453855514526367e-01 8.2166147232055664e-01</leafValues></_>
        <_>
          <internalNodes>
            0 -1 61 -9.9822953343391418e-02</internalNodes>
          <leafValues>
            -7.8123545646667480e-01 2.7871203422546387e-01</leafValues></_></weakClassifiers></_>
    <!-- stage 8 -->
    <_>
      <maxWeakCount>8</maxWeakCount>
      <stageThreshold>-5.9752130508422852e-01</stageThreshold>
      <weakClassifiers>
        <_>
          <internalNodes>
            0 -1 53 1.0929787531495094e-02</internalNodes>
          <leafValues>
            -5.5038762092590332e-01 1.</leafValues></_>
        <_>
          <internalNodes>
            0 -1 24 -1.1885498464107513e-01</internalNodes>
          <leafValues>
            4.2194196581840515e-01 -4.0450128912925720e-01</leafValues></_>
        <_>
          <internalNodes>
            0 -1 59 3.5403165966272354e-03</internalNodes>
          <leafValues>
            2.2708049416542053e-01 -7.3393881320953369e-01</leafValues></_>
        <_>
          <internalNodes>
            0 -1 15 -1.0492468718439341e-03</internalNodes>
          <leafValues>
            6.3351094722747803e-01 -2.2810909152030945e-01</leafValues></_>
        <_>
          <internalNodes>
            0 -1 31 -8.6263846606016159e-04</internalNodes>
          <leafValues>
            4.2576378583908081e-01 -3.7948405742645264e-01</leafValues></_>
        <_>
          <internalNodes>
            0 -1 41 -1.6626405995339155e-03</internalNodes>
          <leafValues>
            -8.9471715688705444e-01 2.0322957634925842e-01</leafValues></_>
        <_>
          <internalNodes>
            0 -1 47 1.4007505960762501e-02</internalNodes>
          <leafValues>
            -2.3980708420276642e-01 8.3415341377258301e-01</leafValues></_>
        <_>
          <internalNodes>
            0 -1 37 -1.0459587210789323e-03</internalNodes>
          <leafValues>
            -7.3309028148651123e-01 2.4071335792541504e-01</leafValues></_></weakClassifiers></_>
    <!-- stage 9 -->
    <_>
      <maxWeakCount>10</maxWeakCount>
      <stageThreshold>-6.8347990512847900e-01</stageThreshold>
      <weakClassifiers>
        <_>
          <internalNodes>
            0 -1 4 -1.0700499638915062e-02</internalNodes>
          <leafValues>
            6.2962961196899414e-01 -5.7258063554763794e-01</leafValues></_>
        <_>
          <internalNodes>
            0 -1 95 -8.1150261685252190e-03</internalNodes>
          <leafValues>
            -4.5303314924240112e-01 3.3692079782485962e-01</leafValues></_>
        <_>
          <internalNodes>
            0 -1 85 3.1224446138367057e-04</internalNodes>
          <leafValues>
            -1.8099161982536316e-01 6.9116914272308350e-01</leafValues></_>
        <_>
          <internalNodes>
            0 -1 1 2.8042909689247608e-03</internalNodes>
          <leafValues>
            -5.7693916559219360e-01 2.9468438029289246e-01</leafValues></_>
        <_>
          <internalNodes>
            0 -1 29 -5.5260665249079466e-04</internalNodes>
          <leafValues>
            7.8747212886810303e-01 -2.3347188532352448e-01</leafValues></_>
        <_>
          <internalNodes>
            0 -1 68 3.3767654094845057e-03</internalNodes>
          <leafValues>
            -2.5016078352928162e-01 5.4195523262023926e-01</leafValues></_>
        <_>
          <internalNodes>
            0 -1 49 2.7979123406112194e-03</internalNodes>
          <leafValues>
            1.7482319474220276e-01 -8.9296609163284302e-01</leafValues></_>
        <_>
          <internalNodes>
            0 -1 76 -6.4850896596908569e-03</internalNodes>
          <leafValues>
            5.0797998905181885e-01 -3.0889880657196045e-01</leafValues></_>
        <_>
          <internalNodes>
            0 -1 7 3.9944914169609547e-03</internalNodes>
          <leafValues>
            -1.9026437401771545e-01 8.4377562999725342e-01</leafValues></_>
        <_>
          <internalNodes>
            0 -1 48 -3.9312732405960560e-03</internalNodes>
          <leafValues>
            -7.5698781013488770e-01 2.4645982682704926e-01</leafValues></_></weakClassifiers></_>
    <!-- stage 10 -->
    <_>
      <maxWeakCount>9</maxWeakCount>
      <stageThreshold>-3.5472449660301208e-01</stageThreshold>
      <weakClassifiers>
        <_>
          <internalNodes>
            0 -1 80 -1.8427677452564240e-02</internalNodes>
          <leafValues>
            6.9230771064758301e-01 -5.7429718971252441e-01</leafValues></_>
        <_>
          <internalNodes>
            0 -1 16 -9.3433056026697159e-03</internalNodes>
          <leafValues>
            6.8439954519271851e-01 -3.3709022402763367e-01</leafValues></_>
        <_>
          <internalNodes>
            0 -1 42 1.8765719141811132e-03</internalNodes>
          <leafValues>
            2.4759063124656677e-01 -1.</leafValues></_>
        <_>
          <internalNodes>
            0 -1 20 2.7034857776015997e-03</internalNodes>
          <leafValues>
            -2.2192102670669556e-01 8.8165229558944702e-01</leafValues></_>
        <_>
          <internalNodes>
            0 -1 20 -7.1879592724144459e-04</internalNodes>
          <leafValues>
            6.8667161464691162e-01 -2.9682767391204834e-01</leafValues></_>
        <_>
          <internalNodes>
            0 -1 56 -8.4285974502563477e-02</internalNodes>
          <leafValues>
            3.1443634629249573e-01 -9.3857169151306152e-01</leafValues></_>
        <_>
          <internalNodes>
            0 -1 79 -1.6718771075829864e-04</internalNodes>
          <leafValues>
            5.2912223339080811e-01 -3.5950475931167603e-01</leafValues></_>
        <_>
          <internalNodes>
            0 -1 64 -2.5046891532838345e-03</internalNodes>
          <leafValues>
            -6.8614220619201660e-01 3.1234344840049744e-01</leafValues></_>
        <_>
          <internalNodes>
            0 -1 89 -5.7886645663529634e-04</internalNodes>
          <leafValues>
            5.6054592132568359e-01 -3.0318138003349304e-01</leafValues></_></weakClassifiers></_>
    <!-- stage 11 -->
    <_>
      <maxWeakCount>7</maxWeakCount>
      <stageThreshold>-9.9895995855331421e-01</stageThreshold>
      <weakClassifiers>
        <_>
          <internalNodes>
            0 -1 93 1.2876563414465636e-04</internalNodes>
          <leafValues>
            -7.3750001192092896e-01 -6.0869563370943069e-02</leafValues></_>
        <_>
          <internalNodes>
            0 -1 28 -3.5965690040029585e-04</internalNodes>
          <leafValues>
            6.1504012346267700e-01 -3.0207195878028870e-01</leafValues></_>
        <_>
          <internalNodes>
            0 -1 77 -9.1407634317874908e-04</internalNodes>
          <leafValues>
            -7.4131029844284058e-01 2.1670122444629669e-01</leafValues></_>
        <_>
          <internalNodes>
            0 -1 10 1.4738846570253372e-02</internalNodes>
          <leafValues>
            2.3600925505161285e-01 -6.9251769781112671e-01</leafValues></_>
        <_>
          <internalNodes>
            0 -1 22 1.8280927091836929e-02</internalNodes>
          <leafValues>
            -3.3476170897483826e-01 5.3594332933425903e-01</leafValues></_>
        <_>
          <internalNodes>
            0 -1 44 -3.6100625991821289e-01</internalNodes>
          <leafValues>
            -7.1359241008758545e-01 2.6242068409919739e-01</leafValues></_>
        <_>
          <internalNodes>
            0 -1 43 8.3958249888382852e-05</internalNodes>
          <leafValues>
            -3.3975741267204285e-01 5.0877666473388672e-01</leafValues></_></weakClassifiers></_>
    <!-- stage 12 -->
    <_>
      <maxWeakCount>7</maxWeakCount>
      <stageThreshold>-1.1360557079315186e+00</stageThreshold>
      <weakClassifiers>
        <_>
          <internalNodes>
            0 -1 54 -4.1160143911838531e-02</internalNodes>
          <leafValues>
            7.6470589637756348e-01 -6.2655603885650635e-01</leafValues></_>
        <_>
          <internalNodes>
            0 -1 51 -3.2663182355463505e-04</internalNodes>
          <leafValues>
            4.3482732772827148e-01 -4.9641183018684387e-01</leafValues></_>
        <_>
          <internalNodes>
            0 -1 13 -6.6631078720092773e-02</internalNodes>
          <leafValues>
            6.3078653812408447e-01 -4.1126173734664917e-01</leafValues></_>
        <_>
          <internalNodes>
            0 -1 84 3.2600169070065022e-03</internalNodes>
          <leafValues>
            -2.7092191576957703e-01 7.1678304672241211e-01</leafValues></_>
        <_>
          <internalNodes>
            0 -1 52 -6.3444031402468681e-03</internalNodes>
          <leafValues>
            -1. 2.3413403332233429e-01</leafValues></_>
        <_>
          <internalNodes>
            0 -1 40 -1.5547640621662140e-02</internalNodes>
          <leafValues>
            -3.4391930699348450e-01 7.8875041007995605e-01</leafValues></_>
        <_>
          <internalNodes>
            0 -1 58 -6.2304865568876266e-03</internalNodes>
          <leafValues>
            8.9127457141876221e-01 -2.6316717267036438e-01</leafValues></_></weakClassifiers></_></stages>
  <features>
    <_>
      <rects>
        <_>
          0 0 2 14 -1.</_>
        <_>
          0 0 1 7 2.</_>
        <_>
          1 7 1 7 2.</_></rects>
      <tilted>0</tilted></_>
    <_>
      <rects>
        <_>
          0 0 6 8 -1.</_>
        <_>
          0 0 3 4 2.</_>
        <_>
          3 4 3 4 2.</_></rects>
      <tilted>0</tilted></_>
    <_>
      <rects>
        <_>
          0 0 15 18 -1.</_>
        <_>
          0 6 15 6 2.</_></rects>
      <tilted>0</tilted></_>
    <_>
      <rects>
        <_>
          0 4 4 12 -1.</_>
        <_>
          2 4 2 12 2.</_></rects>
      <tilted>0</tilted></_>
    <_>
      <rects>
        <_>
          0 5 2 16 -1.</_>
        <_>
          0 5 1 8 2.</_>
        <_>
          1 13 1 8 2.</_></rects>
      <tilted>0</tilted></_>
    <_>
      <rects>
        <_>
          0 7 2 4 -1.</_>
        <_>
          0 7 1 2 2.</_>
        <_>
          1 9 1 2 2.</_></rects>
      <tilted>0</tilted></_>
    <_>
      <rects>
        <_>
          0 7 6 16 -1.</_>
        <_>
          3 7 3 16 2.</_></rects>
      <tilted>0</tilted></_>
    <_>
      <rects>
        <_>
          0 8 2 14 -1.</_>
        <_>
          0 8 1 7 2.</_>
        <_>
          1 15 1 7 2.</_></rects>
      <tilted>0</tilted></_>
    <_>
      <rects>
        <_>
          0 12 1 3 -1.</_>
        <_>
          0 13 1 1 2.</_></rects>
      <tilted>0</tilted></_>
    <_>
      <rects>
        <_>
          0 12 6 2 -1.</_>
        <_>
          2 12 2 2 2.</_></rects>
      <tilted>0</tilted></_>
    <_>
      <rects>
        <_>
          0 14 24 4 -1.</_>
        <_>
          0 14 12 2 2.</_>
        <_>
          12 16 12 2 2.</_></rects>
      <tilted>0</tilted></_>
    <_>
      <rects>
        <_>
          0 16 12 4 -1.</_>
        <_>
          4 16 4 4 2.</_></rects>
      <tilted>0</tilted></_>
    <_>
      <rects>
        <_>
          1 3 2 15 -1.</_>
        <_>
          2 3 1 15 2.</_></rects>
      <tilted>0</tilted></_>
    <_>
      <rects>
        <_>
          1 4 6 18 -1.</_>
        <_>
          1 13 6 9 2.</_></rects>
      <tilted>0</tilted></_>
    <_>
      <rects>
        <_>
          1 5 2 2 -1.</_>
        <_>
          1 5 1 1 2.</_>
        <_>
          2 6 1 1 2.</_></rects>
      <tilted>0</tilted></_>
    <_>
      <rects>
        <_>
          1 19 4 2 -1.</_>
        <_>
          1 19 2 1 2.</_>
        <_>
          3 20 2 1 2.</_></rects>
      <tilted>0</tilted></_>
    <_>
      <rects>
        <_>
          1 21 19 2 -1.</_>
        <_>
          1 22 19 1 2.</_></rects>
      <tilted>0</tilted></_>
    <_>
      <rects>
        <_>
          2 0 2 8 -1.</_>
        <_>
          2 0 1 4 2.</_>
        <_>
          3 4 1 4 2.</_></rects>
      <tilted>0</tilted></_>
    <_>
      <rects>
        <_>
          2 6 16 4 -1.</_>
        <_>
          2 6 8 2 2.</_>
        <_>
          10 8 8 2 2.</_></rects>
      <tilted>0</tilted></_>
    <_>
      <rects>
        <_>
          3 0 1 2 -1.</_>
        <_>
          3 1 1 1 2.</_></rects>
      <tilted>0</tilted></_>
    <_>
      <rects>
        <_>
          3 1 4 2 -1.</_>
        <_>
          3 1 2 1 2.</_>
        <_>
          5 2 2 1 2.</_></rects>
      <tilted>0</tilted></_>
    <_>
      <rects>
        <_>
          3 2 15 2 -1.</_>
        <_>
          3 3 15 1 2.</_></rects>
      <tilted>0</tilted></_>
    <_>
      <rects>
        <_>
          3 4 4 19 -1.</_>
        <_>
          5 4 2 19 2.</_></rects>
      <tilted>0</tilted></_>
    <_>
      <rects>
        <_>
          3 6 16 18 -1.</_>
        <_>
          3 15 16 9 2.</_></rects>
      <tilted>0</tilted></_>
    <_>
      <rects>
        <_>
          3 8 10 14 -1.</_>
        <_>
          3 15 10 7 2.</_></rects>
      <tilted>0</tilted></_>
    <_>
      <rects>
        <_>
          3 13 4 2 -1.</_>
        <_>
          3 13 2 1 2.</_>
        <_>
          5 14 2 1 2.</_></rects>
      <tilted>0</tilted></_>
    <_>
      <rects>
        <_>
          3 14 6 4 -1.</_>
        <_>
          3 16 6 2 2.</_></rects>
      <tilted>0</tilted></_>
    <_>
      <rects>
        <_>
          3 21 10 2 -1.</_>
        <_>
          3 22 10 1 2.</_></rects>
      <tilted>0</tilted></_>
    <_>
      <rects>
        <_>
          4 0 2 2 -1.</_>
        <_>
          4 0 1 1 2.</_>
        <_>
          5 1 1 1 2.</_></rects>
      <tilted>0</tilted></_>
    <_>
      <rects>
        <_>
          4 3 1 2 -1.</_>
        <_>
          4 4 1 1 2.</_></rects>
      <tilted>0</tilted></_>
    <_>
      <rects>
        <_>
          4 19 17 4 -1.</_>
        <_>
          4 21 17 2 2.</_></rects>
      <tilted>0</tilted></_>
    <_>
      <rects>
        <_>
          4 21 12 2 -1.</_>
        <_>
          4 21 6 1 2.</_>
        <_>
          10 22 6 1 2.</_></rects>
      <tilted>0</tilted></_>
    <_>
      <rects>
        <_>
          5 1 4 2 -1.</_>
        <_>
          5 2 4 1 2.</_></rects>
      <tilted>0</tilted></_>
    <_>
      <rects>
        <_>
          5 1 17 6 -1.</_>
        <_>
          5 4 17 3 2.</_></rects>
      <tilted>0</tilted></_>
    <_>
      <rects>
        <_>
          5 10 1 6 -1.</_>
        <_>
          5 13 1 3 2.</_></rects>
      <tilted>0</tilted></_>
    <_>
      <rects>
        <_>
          5 13 1 2 -1.</_>
        <_>
          5 14 1 1 2.</_></rects>
      <tilted>0</tilted></_>
    <_>
      <rects>
        <_>
          5 21 9 3 -1.</_>
        <_>
          8 21 3 3 2.</_></rects>
      <tilted>0</tilted></_>
    <_>
      <rects>
        <_>
          6 16 8 2 -1.</_>
        <_>
          6 16 4 1 2.</_>
        <_>
          10 17 4 1 2.</_></rects>
      <tilted>0</tilted></_>
    <_>
      <rects>
        <_>
          6 18 14 6 -1.</_>
        <_>
          6 21 14 3 2.</_></rects>
      <tilted>0</tilted></_>
    <_>
      <rects>
        <_>
          7 0 7 2 -1.</_>
        <_>
          7 1 7 1 2.</_></rects>
      <tilted>0</tilted></_>
    <_>
      <rects>
        <_>
          7 2 1 9 -1.</_>
        <_>
          7 5 1 3 2.</_></rects>
      <tilted>0</tilted></_>
    <_>
      <rects>
        <_>
          7 5 8 2 -1.</_>
        <_>
          7 5 4 1 2.</_>
        <_>
          11 6 4 1 2.</_></rects>
      <tilted>0</tilted></_>
    <_>
      <rects>
        <_>
          7 18 2 3 -1.</_>
        <_>
          8 18 1 3 2.</_></rects>
      <tilted>0</tilted></_>
    <_>
      <rects>
        <_>
          7 22 2 2 -1.</_>
        <_>
          7 22 1 1 2.</_>
        <_>
          8 23 1 1 2.</_></rects>
      <tilted>0</tilted></_>
    <_>
      <rects>
        <_>
          8 4 8 18 -1.</_>
        <_>
          8 10 8 6 2.</_></rects>
      <tilted>0</tilted></_>
    <_>
      <rects>
        <_>
          9 22 1 2 -1.</_>
        <_>
          9 23 1 1 2.</_></rects>
      <tilted>0</tilted></_>
    <_>
      <rects>
        <_>
          10 0 5 2 -1.</_>
        <_>
          10 1 5 1 2.</_></rects>
      <tilted>0</tilted></_>
    <_>
      <rects>
        <_>
          10 3 14 1 -1.</_>
        <_>
          17 3 7 1 2.</_></rects>
      <tilted>0</tilted></_>
    <_>
      <rects>
        <_>
          10 6 6 4 -1.</_>
        <_>
          10 6 3 2 2.</_>
        <_>
          13 8 3 2 2.</_></rects>
      <tilted>0</tilted></_>
    <_>
      <rects>
        <_>
          10 9 2 12 -1.</_>
        <_>
          11 9 1 12 2.</_></rects>
      <tilted>0</tilted></_>
    <_>
      <rects>
        <_>
          10 11 6 8 -1.</_>
        <_>
          10 11 3 4 2.</_>
        <_>
          13 15 3 4 2.</_></rects>
      <tilted>0</tilted></_>
    <_>
      <rects>
        <_>
          10 13 6 2 -1.</_>
        <_>
          13 13 3 2 2.</_></rects>
      <tilted>0</tilted></_>
    <_>
      <rects>
        <_>
          10 15 6 2 -1.</_>
        <_>
          10 16 6 1 2.</_></rects>
      <tilted>0</tilted></_>
    <_>
      <rects>
        <_>
          11 0 4 2 -1.</_>
        <_>
          11 1 4 1 2.</_></rects>
      <tilted>0</tilted></_>
    <_>
      <rects>
        <_>
          11 2 3 5 -1.</_>
        <_>
          12 2 1 5 2.</_></rects>
      <tilted>0</tilted></_>
    <_>
      <rects>
        <_>
          11 4 12 13 -1.</_>
        <_>
          17 4 6 13 2.</_></rects>
      <tilted>0</tilted></_>
    <_>
      <rects>
        <_>
          11 5 6 9 -1.</_>
        <_>
          11 8 6 3 2.</_></rects>
      <tilted>0</tilted></_>
    <_>
      <rects>
        <_>
          11 21 2 2 -1.</_>
        <_>
          11 21 1 1 2.</_>
        <_>
          12 22 1 1 2.</_></rects>
      <tilted>0</tilted></_>
    <_>
      <rects>
        <_>
          12 8 4 9 -1.</_>
        <_>
          14 8 2 9 2.</_></rects>
      <tilted>0</tilted></_>
    <_>
      <rects>
        <_>
          12 12 4 8 -1.</_>
        <_>
          12 12 2 4 2.</_>
        <_>
          14 16 2 4 2.</_></rects>
      <tilted>0</tilted></_>
    <_>
      <rects>
        <_>
          13 11 6 4 -1.</_>
        <_>
          13 11 3 2 2.</_>
        <_>
          16 13 3 2 2.</_></rects>
      <tilted>0</tilted></_>
    <_>
      <rects>
        <_>
          14 2 9 4 -1.</_>
        <_>
          17 2 3 4 2.</_></rects>
      <tilted>0</tilted></_>
    <_>
      <rects>
        <_>
          14 9 1 2 -1.</_>
        <_>
          14 10 1 1 2.</_></rects>
      <tilted>0</tilted></_>
    <_>
      <rects>
        <_>
          15 1 4 1 -1.</_>
        <_>
          17 1 2 1 2.</_></rects>
      <tilted>0</tilted></_>
    <_>
      <rects>
        <_>
          15 4 4 18 -1.</_>
        <_>
          15 4 2 9 2.</_>
        <_>
          17 13 2 9 2.</_></rects>
      <tilted>0</tilted></_>
    <_>
      <rects>
        <_>
          15 6 8 1 -1.</_>
        <_>
          19 6 4 1 2.</_></rects>
      <tilted>0</tilted></_>
    <_>
      <rects>
        <_>
          15 13 1 2 -1.</_>
        <_>
          15 14 1 1 2.</_></rects>
      <tilted>0</tilted></_>
    <_>
      <rects>
        <_>
          15 14 3 4 -1.</_>
        <_>
          15 16 3 2 2.</_></rects>
      <tilted>0</tilted></_>
    <_>
      <rects>
        <_>
          15 21 8 3 -1.</_>
        <_>
          19 21 4 3 2.</_></rects>
      <tilted>0</tilted></_>
    <_>
      <rects>
        <_>
          16 2 2 2 -1.</_>
        <_>
          16 2 1 1 2.</_>
        <_>
          17 3 1 1 2.</_></rects>
      <tilted>0</tilted></_>
    <_>
      <rects>
        <_>
          16 5 6 5 -1.</_>
        <_>
          19 5 3 5 2.</_></rects>
      <tilted>0</tilted></_>
    <_>
      <rects>
        <_>
          16 9 8 6 -1.</_>
        <_>
          16 12 8 3 2.</_></rects>
      <tilted>0</tilted></_>
    <_>
      <rects>
        <_>
          16 15 8 3 -1.</_>
        <_>
          20 15 4 3 2.</_></rects>
      <tilted>0</tilted></_>
    <_>
      <rects>
        <_>
          17 12 1 6 -1.</_>
        <_>
          17 15 1 3 2.</_></rects>
      <tilted>0</tilted></_>
    <_>
      <rects>
        <_>
          17 12 4 2 -1.</_>
        <_>
          17 12 2 1 2.</_>
        <_>
          19 13 2 1 2.</_></rects>
      <tilted>0</tilted></_>
    <_>
      <rects>
        <_>
          18 0 2 2 -1.</_>
        <_>
          18 0 1 1 2.</_>
        <_>
          19 1 1 1 2.</_></rects>
      <tilted>0</tilted></_>
    <_>
      <rects>
        <_>
          18 2 6 3 -1.</_>
        <_>
          21 2 3 3 2.</_></rects>
      <tilted>0</tilted></_>
    <_>
      <rects>
        <_>
          18 7 2 6 -1.</_>
        <_>
          18 7 1 3 2.</_>
        <_>
          19 10 1 3 2.</_></rects>
      <tilted>0</tilted></_>
    <_>
      <rects>
        <_>
          19 15 2 6 -1.</_>
        <_>
          19 15 1 3 2.</_>
        <_>
          20 18 1 3 2.</_></rects>
      <tilted>0</tilted></_>
    <_>
      <rects>
        <_>
          19 21 2 2 -1.</_>
        <_>
          19 21 1 1 2.</_>
        <_>
          20 22 1 1 2.</_></rects>
      <tilted>0</tilted></_>
    <_>
      <rects>
        <_>
          20 2 4 8 -1.</_>
        <_>
          20 2 2 4 2.</_>
        <_>
          22 6 2 4 2.</_></rects>
      <tilted>0</tilted></_>
    <_>
      <rects>
        <_>
          20 2 4 12 -1.</_>
        <_>
          20 2 2 6 2.</_>
        <_>
          22 8 2 6 2.</_></rects>
      <tilted>0</tilted></_>
    <_>
      <rects>
        <_>
          20 3 4 17 -1.</_>
        <_>
          22 3 2 17 2.</_></rects>
      <tilted>0</tilted></_>
    <_>
      <rects>
        <_>
          20 4 2 8 -1.</_>
        <_>
          20 4 1 4 2.</_>
        <_>
          21 8 1 4 2.</_></rects>
      <tilted>0</tilted></_>
    <_>
      <rects>
        <_>
          20 15 4 4 -1.</_>
        <_>
          20 15 2 2 2.</_>
        <_>
          22 17 2 2 2.</_></rects>
      <tilted>0</tilted></_>
    <_>
      <rects>
        <_>
          20 18 2 2 -1.</_>
        <_>
          20 18 1 1 2.</_>
        <_>
          21 19 1 1 2.</_></rects>
      <tilted>0</tilted></_>
    <_>
      <rects>
        <_>
          21 4 2 2 -1.</_>
        <_>
          21 4 1 1 2.</_>
        <_>
          22 5 1 1 2.</_></rects>
      <tilted>0</tilted></_>
    <_>
      <rects>
        <_>
          22 0 2 2 -1.</_>
        <_>
          22 0 1 1 2.</_>
        <_>
          23 1 1 1 2.</_></rects>
      <tilted>0</tilted></_>
    <_>
      <rects>
        <_>
          22 5 2 7 -1.</_>
        <_>
          23 5 1 7 2.</_></rects>
      <tilted>0</tilted></_>
    <_>
      <rects>
        <_>
          22 8 2 2 -1.</_>
        <_>
          22 8 1 1 2.</_>
        <_>
          23 9 1 1 2.</_></rects>
      <tilted>0</tilted></_>
    <_>
      <rects>
        <_>
          22 9 2 6 -1.</_>
        <_>
          23 9 1 6 2.</_></rects>
      <tilted>0</tilted></_>
    <_>
      <rects>
        <_>
          22 11 2 4 -1.</_>
        <_>
          22 11 1 2 2.</_>
        <_>
          23 13 1 2 2.</_></rects>
      <tilted>0</tilted></_>
    <_>
      <rects>
        <_>
          22 13 2 8 -1.</_>
        <_>
          22 13 1 4 2.</_>
        <_>
          23 17 1 4 2.</_></rects>
      <tilted>0</tilted></_>
    <_>
      <rects>
        <_>
          22 19 2 3 -1.</_>
        <_>
          23 19 1 3 2.</_></rects>
      <tilted>0</tilted></_>
    <_>
      <rects>
        <_>
          23 0 1 10 -1.</_>
        <_>
          23 5 1 5 2.</_></rects>
      <tilted>0</tilted></_>
    <_>
      <rects>
        <_>
          23 9 1 6 -1.</_>
        <_>
          23 11 1 2 2.</_></rects>
      <tilted>0</tilted></_></features></cascade>
</opencv_storage>
