<?xml version="1.0"?>
<opencv_storage>
<cascade>
  <stageType>BOOST</stageType>
  <featureType>HAAR</featureType>
  <height>24</height>
  <width>24</width>
  <stageParams>
    <boostType>GAB</boostType>
    <minHitRate>9.9900001287460327e-01</minHitRate>
    <maxFalseAlarm>3.0000001192092896e-01</maxFalseAlarm>
    <weightTrimRate>9.4999999999999996e-01</weightTrimRate>
    <maxDepth>1</maxDepth>
    <maxWeakCount>100</maxWeakCount></stageParams>
  <featureParams>
    <maxCatCount>0</maxCatCount>
    <featSize>1</featSize>
    <mode>BASIC</mode></featureParams>
  <stageNum>10</stageNum>
  <stages>
    <!-- stage 0 -->
    <_>
      <maxWeakCount>9</maxWeakCount>
      <stageThreshold>-1.5435554981231689e+00</stageThreshold>
      <weakClassifiers>
        <_>
          <internalNodes>
            0 -1 115 -4.6359941363334656e-02</internalNodes>
          <leafValues>
            -9.1501832008361816e-01 -2.5974025484174490e-03</leafValues></_>
        <_>
          <internalNodes>
            0 -1 155 -1.6816595196723938e-01</internalNodes>
          <leafValues>
            -8.6686301231384277e-01 1.0418999940156937e-01</leafValues></_>
        <_>
          <internalNodes>
            0 -1 234 -3.2092079054564238e-03</internalNodes>
          <leafValues>
            5.3842610120773315e-01 -4.5213532447814941e-01</leafValues></_>
        <_>
          <internalNodes>
            0 -1 224 -3.0881848931312561e-01</internalNodes>
          <leafValues>
            -1. 1.9743208587169647e-01</leafValues></_>
        <_>
          <internalNodes>
            0 -1 25 2.8373457491397858e-02</internalNodes>
          <leafValues>
            -3.9012226462364197e-01 5.1897072792053223e-01</leafValues></_>
        <_>
          <internalNodes>
            0 -1 169 1.5762459486722946e-02</internalNodes>
          <leafValues>
            -2.7052405476570129e-01 6.9914293289184570e-01</leafValues></_>
        <_>
          <internalNodes>
            0 -1 28 4.6262973919510841e-03</internalNodes>
          <leafValues>
            -2.7641877532005310e-01 6.4617019891738892e-01</leafValues></_>
        <_>
          <internalNodes>
            0 -1 156 2.5924872606992722e-03</internalNodes>
          <leafValues>
            -2.0971819758415222e-01 7.1933758258819580e-01</leafValues></_>
        <_>
          <internalNodes>
            0 -1 174 -2.6993323117494583e-03</internalNodes>
          <leafValues>
            7.3071938753128052e-01 -1.9293044507503510e-01</leafValues></_></weakClassifiers></_>
    <!-- stage 1 -->
    <_>
      <maxWeakCount>16</maxWeakCount>
      <stageThreshold>-1.9586350917816162e+00</stageThreshold>
      <weakClassifiers>
        <_>
          <internalNodes>
            0 -1 79 3.8290187716484070e-02</internalNodes>
          <leafValues>
            -8.2249999046325684e-01 4.3999999761581421e-01</leafValues></_>
        <_>
          <internalNodes>
            0 -1 151 -1.5298167709261179e-03</internalNodes>
          <leafValues>
            1.4455188810825348e-01 -6.2289935350418091e-01</leafValues></_>
        <_>
          <internalNodes>
            0 -1 250 -2.9950067400932312e-03</internalNodes>
          <leafValues>
            7.0326912403106689e-01 -2.2432771325111389e-01</leafValues></_>
        <_>
          <internalNodes>
            0 -1 216 3.5221362486481667e-04</internalNodes>
          <leafValues>
            -1.7162349820137024e-01 5.6963121891021729e-01</leafValues></_>
        <_>
          <internalNodes>
            0 -1 173 2.3008589632809162e-03</internalNodes>
          <leafValues>
            -2.4833469092845917e-01 4.2554801702499390e-01</leafValues></_>
        <_>
          <internalNodes>
            0 -1 56 -2.9087308794260025e-02</internalNodes>
          <leafValues>
            6.5789115428924561e-01 -1.8183095753192902e-01</leafValues></_>
        <_>
          <internalNodes>
            0 -1 30 3.8689021021127701e-03</internalNodes>
          <leafValues>
            -1.4537195861339569e-01 6.2036257982254028e-01</leafValues></_>
        <_>
          <internalNodes>
            0 -1 170 -2.7706017717719078e-03</internalNodes>
          <leafValues>
            5.5498576164245605e-01 -1.8302710354328156e-01</leafValues></_>
        <_>
          <internalNodes>
            0 -1 235 1.7308972310274839e-03</internalNodes>
          <leafValues>
            -1.9760669767856598e-01 5.5013680458068848e-01</leafValues></_>
        <_>
          <internalNodes>
            0 -1 1 4.8639615997672081e-03</internalNodes>
          <leafValues>
            -2.0860503613948822e-01 4.5184069871902466e-01</leafValues></_>
        <_>
          <internalNodes>
            0 -1 153 -7.4683502316474915e-02</internalNodes>
          <leafValues>
            -8.2454365491867065e-01 1.6116942465305328e-01</leafValues></_>
        <_>
          <internalNodes>
            0 -1 20 -3.1314957886934280e-03</internalNodes>
          <leafValues>
            4.9575558304786682e-01 -2.0977719128131866e-01</leafValues></_>
        <_>
          <internalNodes>
            0 -1 209 -4.6346373856067657e-02</internalNodes>
          <leafValues>
            5.5180186033248901e-01 -2.0482723414897919e-01</leafValues></_>
        <_>
          <internalNodes>
            0 -1 152 1.6292494256049395e-03</internalNodes>
          <leafValues>
            1.4688201248645782e-01 -8.3023476600646973e-01</leafValues></_>
        <_>
          <internalNodes>
            0 -1 226 -6.0629704967141151e-04</internalNodes>
          <leafValues>
            6.1077654361724854e-01 -2.0738595724105835e-01</leafValues></_>
        <_>
          <internalNodes>
            0 -1 37 1.5811574412509799e-03</internalNodes>
          <leafValues>
            -1.8382400274276733e-01 5.6735825538635254e-01</leafValues></_></weakClassifiers></_>
    <!-- stage 2 -->
    <_>
      <maxWeakCount>23</maxWeakCount>
      <stageThreshold>-1.6989300251007080e+00</stageThreshold>
      <weakClassifiers>
        <_>
          <internalNodes>
            0 -1 71 -3.4169268608093262e-01</internalNodes>
          <leafValues>
            -9.8039217293262482e-02 -8.1939798593521118e-01</leafValues></_>
        <_>
          <internalNodes>
            0 -1 57 5.2609637379646301e-02</internalNodes>
          <leafValues>
            -4.8179733753204346e-01 2.5289568305015564e-01</leafValues></_>
        <_>
          <internalNodes>
            0 -1 132 -1.0345201008021832e-03</internalNodes>
          <leafValues>
            -7.7939563989639282e-01 8.6779281497001648e-02</leafValues></_>
        <_>
          <internalNodes>
            0 -1 23 9.9029224365949631e-03</internalNodes>
          <leafValues>
            -1.1667469888925552e-01 5.9708911180496216e-01</leafValues></_>
        <_>
          <internalNodes>
            0 -1 75 2.7909763157367706e-02</internalNodes>
          <leafValues>
            -1.2139225751161575e-01 5.7141721248626709e-01</leafValues></_>
        <_>
          <internalNodes>
            0 -1 77 -4.8094257712364197e-02</internalNodes>
          <leafValues>
            7.3339927196502686e-01 -1.3853679597377777e-01</leafValues></_>
        <_>
          <internalNodes>
            0 -1 110 1.5237170737236738e-03</internalNodes>
          <leafValues>
            9.3675978481769562e-02 -9.4762927293777466e-01</leafValues></_>
        <_>
          <internalNodes>
            0 -1 114 -8.2013092935085297e-02</internalNodes>
          <leafValues>
            -6.6857564449310303e-01 9.0164385735988617e-02</leafValues></_>
        <_>
          <internalNodes>
            0 -1 6 -1.6098789870738983e-02</internalNodes>
          <leafValues>
            5.2089941501617432e-01 -1.4927561581134796e-01</leafValues></_>
        <_>
          <internalNodes>
            0 -1 31 7.3641221970319748e-03</internalNodes>
          <leafValues>
            -1.5126660466194153e-01 5.6421846151351929e-01</leafValues></_>
        <_>
          <internalNodes>
            0 -1 88 -1.8966582138091326e-03</internalNodes>
          <leafValues>
            -5.9595507383346558e-01 1.1562880873680115e-01</leafValues></_>
        <_>
          <internalNodes>
            0 -1 61 -1.3393297791481018e-02</internalNodes>
          <leafValues>
            2.6060518622398376e-01 -2.9117688536643982e-01</leafValues></_>
        <_>
          <internalNodes>
            0 -1 201 1.2925853952765465e-02</internalNodes>
          <leafValues>
            -2.6185432076454163e-01 2.5124651193618774e-01</leafValues></_>
        <_>
          <internalNodes>
            0 -1 183 -1.0246970923617482e-03</internalNodes>
          <leafValues>
            3.1318470835685730e-01 -1.9521284103393555e-01</leafValues></_>
        <_>
          <internalNodes>
            0 -1 3 -1.8050048965960741e-03</internalNodes>
          <leafValues>
            4.4164663553237915e-01 -1.6200543940067291e-01</leafValues></_>
        <_>
          <internalNodes>
            0 -1 166 -2.0231637172400951e-03</internalNodes>
          <leafValues>
            -7.4782812595367432e-01 9.9127054214477539e-02</leafValues></_>
        <_>
          <internalNodes>
            0 -1 222 -3.1495494768023491e-03</internalNodes>
          <leafValues>
            3.2657611370086670e-01 -2.2042500972747803e-01</leafValues></_>
        <_>
          <internalNodes>
            0 -1 145 -1.5389636973850429e-04</internalNodes>
          <leafValues>
            3.0624207854270935e-01 -2.1378511190414429e-01</leafValues></_>
        <_>
          <internalNodes>
            0 -1 178 -3.3030036138370633e-04</internalNodes>
          <leafValues>
            -6.2323635816574097e-01 1.1897335201501846e-01</leafValues></_>
        <_>
          <internalNodes>
            0 -1 11 -1.7361349891871214e-03</internalNodes>
          <leafValues>
            2.9329904913902283e-01 -2.4444001913070679e-01</leafValues></_>
        <_>
          <internalNodes>
            0 -1 107 1.3120044022798538e-03</internalNodes>
          <leafValues>
            1.2724786996841431e-01 -5.7884687185287476e-01</leafValues></_>
        <_>
          <internalNodes>
            0 -1 22 -4.9444260075688362e-03</internalNodes>
          <leafValues>
            4.9894350767135620e-01 -1.4547610282897949e-01</leafValues></_>
        <_>
          <internalNodes>
            0 -1 135 7.1736108511686325e-03</internalNodes>
          <leafValues>
            -1.6877155005931854e-01 4.1602465510368347e-01</leafValues></_></weakClassifiers></_>
    <!-- stage 3 -->
    <_>
      <maxWeakCount>25</maxWeakCount>
      <stageThreshold>-1.5657354593276978e+00</stageThreshold>
      <weakClassifiers>
        <_>
          <internalNodes>
            0 -1 128 -7.6798493973910809e-03</internalNodes>
          <leafValues>
            -2.0512820780277252e-01 -7.9287600517272949e-01</leafValues></_>
        <_>
          <internalNodes>
            0 -1 4 3.0426653102040291e-03</internalNodes>
          <leafValues>
            -4.4942820072174072e-01 1.5384279191493988e-01</leafValues></_>
        <_>
          <internalNodes>
            0 -1 248 7.4934288859367371e-03</internalNodes>
          <leafValues>
            -1.6281478106975555e-01 5.1203042268753052e-01</leafValues></_>
        <_>
          <internalNodes>
            0 -1 16 -1.0424955934286118e-01</internalNodes>
          <leafValues>
            -4.1323429346084595e-01 2.1083825826644897e-01</leafValues></_>
        <_>
          <internalNodes>
            0 -1 221 -9.1306399554014206e-03</internalNodes>
          <leafValues>
            4.7711941599845886e-01 -1.4137925207614899e-01</leafValues></_>
        <_>
          <internalNodes>
            0 -1 195 3.1084465445019305e-04</internalNodes>
          <leafValues>
            9.6813790500164032e-02 -6.4499133825302124e-01</leafValues></_>
        <_>
          <internalNodes>
            0 -1 39 -2.0497322082519531e-02</internalNodes>
          <leafValues>
            4.8599272966384888e-01 -1.1815558373928070e-01</leafValues></_>
        <_>
          <internalNodes>
            0 -1 52 1.2555905617773533e-02</internalNodes>
          <leafValues>
            -1.3071793317794800e-01 4.6696987748146057e-01</leafValues></_>
        <_>
          <internalNodes>
            0 -1 129 -1.5098294243216515e-02</internalNodes>
          <leafValues>
            1.5147225558757782e-01 -5.8407396078109741e-01</leafValues></_>
        <_>
          <internalNodes>
            0 -1 62 -8.6986713111400604e-02</internalNodes>
          <leafValues>
            -2.7856534719467163e-01 2.2973431646823883e-01</leafValues></_>
        <_>
          <internalNodes>
            0 -1 117 -4.7316756099462509e-03</internalNodes>
          <leafValues>
            6.3137531280517578e-01 -9.3602977693080902e-02</leafValues></_>
        <_>
          <internalNodes>
            0 -1 95 -1.1261623585596681e-03</internalNodes>
          <leafValues>
            -9.3822020292282104e-01 7.2403535246849060e-02</leafValues></_>
        <_>
          <internalNodes>
            0 -1 206 1.1097350157797337e-02</internalNodes>
          <leafValues>
            -1.4725527167320251e-01 4.1489836573600769e-01</leafValues></_>
        <_>
          <internalNodes>
            0 -1 197 -1.8075632397085428e-03</internalNodes>
          <leafValues>
            3.2630676031112671e-01 -1.9195163249969482e-01</leafValues></_>
        <_>
          <internalNodes>
            0 -1 86 3.8208458572626114e-03</internalNodes>
          <leafValues>
            8.4109194576740265e-02 -7.8620606660842896e-01</leafValues></_>
        <_>
          <internalNodes>
            0 -1 193 2.3608445189893246e-03</internalNodes>
          <leafValues>
            4.6590220183134079e-02 -8.2368338108062744e-01</leafValues></_>
        <_>
          <internalNodes>
            0 -1 181 -7.8226288314908743e-04</internalNodes>
          <leafValues>
            -5.3522950410842896e-01 9.7239434719085693e-02</leafValues></_>
        <_>
          <internalNodes>
            0 -1 13 2.9266049386933446e-04</internalNodes>
          <leafValues>
            -1.7232041060924530e-01 3.4679615497589111e-01</leafValues></_>
        <_>
          <internalNodes>
            0 -1 68 -3.1818679999560118e-03</internalNodes>
          <leafValues>
            4.0832057595252991e-01 -1.2946689128875732e-01</leafValues></_>
        <_>
          <internalNodes>
            0 -1 64 4.2831036262214184e-04</internalNodes>
          <leafValues>
            1.3280102610588074e-01 -4.5373937487602234e-01</leafValues></_>
        <_>
          <internalNodes>
            0 -1 105 -1.8695940962061286e-03</internalNodes>
          <leafValues>
            2.2836713492870331e-01 -2.8287965059280396e-01</leafValues></_>
        <_>
          <internalNodes>
            0 -1 229 -2.2233268246054649e-03</internalNodes>
          <leafValues>
            3.2691726088523865e-01 -1.7961558699607849e-01</leafValues></_>
        <_>
          <internalNodes>
            0 -1 218 1.3274408876895905e-02</internalNodes>
          <leafValues>
            -7.5163401663303375e-02 7.0588552951812744e-01</leafValues></_>
        <_>
          <internalNodes>
            0 -1 19 1.4796497998759151e-03</internalNodes>
          <leafValues>
            -1.1691476404666901e-01 4.5702084898948669e-01</leafValues></_>
        <_>
          <internalNodes>
            0 -1 121 -4.6310084871947765e-04</internalNodes>
          <leafValues>
            -6.4243990182876587e-01 9.4735883176326752e-02</leafValues></_></weakClassifiers></_>
    <!-- stage 4 -->
    <_>
      <maxWeakCount>29</maxWeakCount>
      <stageThreshold>-1.5146034955978394e+00</stageThreshold>
      <weakClassifiers>
        <_>
          <internalNodes>
            0 -1 251 -1.3328956440091133e-02</internalNodes>
          <leafValues>
            -4.8443074876726967e-17 -7.5483089685440063e-01</leafValues></_>
        <_>
          <internalNodes>
            0 -1 58 2.1095592528581619e-03</internalNodes>
          <leafValues>
            -3.3105847239494324e-01 3.3886554837226868e-01</leafValues></_>
        <_>
          <internalNodes>
            0 -1 171 3.3023161813616753e-03</internalNodes>
          <leafValues>
            -1.6410961747169495e-01 3.7406012415885925e-01</leafValues></_>
        <_>
          <internalNodes>
            0 -1 125 -5.8839853852987289e-02</internalNodes>
          <leafValues>
            -4.1180825233459473e-01 1.5233345329761505e-01</leafValues></_>
        <_>
          <internalNodes>
            0 -1 15 1.9926656968891621e-03</internalNodes>
          <leafValues>
            -1.5464657545089722e-01 4.4521266222000122e-01</leafValues></_>
        <_>
          <internalNodes>
            0 -1 53 -7.5878202915191650e-04</internalNodes>
          <leafValues>
            5.0834876298904419e-01 -6.7381739616394043e-02</leafValues></_>
        <_>
          <internalNodes>
            0 -1 177 -1.2425150722265244e-02</internalNodes>
          <leafValues>
            2.5100934505462646e-01 -2.3401096463203430e-01</leafValues></_>
        <_>
          <internalNodes>
            0 -1 8 7.4287899769842625e-04</internalNodes>
          <leafValues>
            -1.4467449486255646e-01 3.4470912814140320e-01</leafValues></_>
        <_>
          <internalNodes>
            0 -1 141 1.1315002338960767e-03</internalNodes>
          <leafValues>
            8.8979661464691162e-02 -5.8990079164505005e-01</leafValues></_>
        <_>
          <internalNodes>
            0 -1 199 1.5218195039778948e-03</internalNodes>
          <leafValues>
            -1.2561728060245514e-01 4.2827692627906799e-01</leafValues></_>
        <_>
          <internalNodes>
            0 -1 210 4.4140927493572235e-03</internalNodes>
          <leafValues>
            6.2618121504783630e-02 -9.4072818756103516e-01</leafValues></_>
        <_>
          <internalNodes>
            0 -1 214 8.7795968283899128e-05</internalNodes>
          <leafValues>
            1.1869040876626968e-01 -3.7531363964080811e-01</leafValues></_>
        <_>
          <internalNodes>
            0 -1 242 -2.0881202071905136e-03</internalNodes>
          <leafValues>
            4.1502577066421509e-01 -1.1982155591249466e-01</leafValues></_>
        <_>
          <internalNodes>
            0 -1 246 -2.3063702974468470e-04</internalNodes>
          <leafValues>
            3.2484087347984314e-01 -1.5258064866065979e-01</leafValues></_>
        <_>
          <internalNodes>
            0 -1 194 -2.9565736185759306e-03</internalNodes>
          <leafValues>
            2.1613471210002899e-01 -2.5386500358581543e-01</leafValues></_>
        <_>
          <internalNodes>
            0 -1 180 -4.7720124712213874e-04</internalNodes>
          <leafValues>
            -4.7723340988159180e-01 1.1212862282991409e-01</leafValues></_>
        <_>
          <internalNodes>
            0 -1 21 1.5871610492467880e-02</internalNodes>
          <leafValues>
            -7.6829776167869568e-02 7.0667678117752075e-01</leafValues></_>
        <_>
          <internalNodes>
            0 -1 67 -8.9897261932492256e-03</internalNodes>
          <leafValues>
            3.9382857084274292e-01 -1.3684268295764923e-01</leafValues></_>
        <_>
          <internalNodes>
            0 -1 50 -7.3968782089650631e-04</internalNodes>
          <leafValues>
            -7.0182961225509644e-01 7.5182989239692688e-02</leafValues></_>
        <_>
          <internalNodes>
            0 -1 92 -2.0481883548200130e-03</internalNodes>
          <leafValues>
            5.0093114376068115e-01 -1.1404736340045929e-01</leafValues></_>
        <_>
          <internalNodes>
            0 -1 42 2.8944592922925949e-03</internalNodes>
          <leafValues>
            -1.7794258892536163e-01 2.7489352226257324e-01</leafValues></_>
        <_>
          <internalNodes>
            0 -1 196 -6.0518982354551554e-04</internalNodes>
          <leafValues>
            -4.8790225386619568e-01 1.0255382210016251e-01</leafValues></_>
        <_>
          <internalNodes>
            0 -1 80 3.0652855057269335e-03</internalNodes>
          <leafValues>
            -9.8667517304420471e-02 5.0619244575500488e-01</leafValues></_>
        <_>
          <internalNodes>
            0 -1 24 -5.3310608491301537e-03</internalNodes>
          <leafValues>
            -2.1165406703948975e-01 2.4956603348255157e-01</leafValues></_>
        <_>
          <internalNodes>
            0 -1 40 -6.0274414718151093e-02</internalNodes>
          <leafValues>
            5.0211524963378906e-01 -9.2883750796318054e-02</leafValues></_>
        <_>
          <internalNodes>
            0 -1 187 1.9486646633595228e-03</internalNodes>
          <leafValues>
            -1.1633687466382980e-01 4.1397204995155334e-01</leafValues></_>
        <_>
          <internalNodes>
            0 -1 244 -1.0742770973592997e-03</internalNodes>
          <leafValues>
            4.2811721563339233e-01 -1.0146392136812210e-01</leafValues></_>
        <_>
          <internalNodes>
            0 -1 243 3.1981393694877625e-03</internalNodes>
          <leafValues>
            -1.1972185969352722e-01 3.9636731147766113e-01</leafValues></_>
        <_>
          <internalNodes>
            0 -1 85 -1.4012790285050869e-02</internalNodes>
          <leafValues>
            -7.0567685365676880e-01 7.7169641852378845e-02</leafValues></_></weakClassifiers></_>
    <!-- stage 5 -->
    <_>
      <maxWeakCount>29</maxWeakCount>
      <stageThreshold>-1.5303941965103149e+00</stageThreshold>
      <weakClassifiers>
        <_>
          <internalNodes>
            0 -1 91 1.9625728949904442e-02</internalNodes>
          <leafValues>
            -7.5434392690658569e-01 1.1111111193895340e-01</leafValues></_>
        <_>
          <internalNodes>
            0 -1 234 -3.1455545686185360e-03</internalNodes>
          <leafValues>
            1.2302494794130325e-01 -4.4823893904685974e-01</leafValues></_>
        <_>
          <internalNodes>
            0 -1 9 1.9245181232690811e-02</internalNodes>
          <leafValues>
            -1.7013850808143616e-01 4.1259467601776123e-01</leafValues></_>
        <_>
          <internalNodes>
            0 -1 32 -2.8076337184756994e-04</internalNodes>
          <leafValues>
            2.2215892374515533e-01 -2.4327112734317780e-01</leafValues></_>
        <_>
          <internalNodes>
            0 -1 104 7.0857477840036154e-04</internalNodes>
          <leafValues>
            1.2083381414413452e-01 -4.0559294819831848e-01</leafValues></_>
        <_>
          <internalNodes>
            0 -1 188 -2.1871118806302547e-03</internalNodes>
          <leafValues>
            4.0408891439437866e-01 -9.9454447627067566e-02</leafValues></_>
        <_>
          <internalNodes>
            0 -1 0 5.4922811686992645e-03</internalNodes>
          <leafValues>
            -9.3941763043403625e-02 6.1964023113250732e-01</leafValues></_>
        <_>
          <internalNodes>
            0 -1 163 -4.1223538573831320e-05</internalNodes>
          <leafValues>
            1.8592751026153564e-01 -3.0215266346931458e-01</leafValues></_>
        <_>
          <internalNodes>
            0 -1 207 1.8849545158445835e-03</internalNodes>
          <leafValues>
            -1.1476837843656540e-01 4.6452659368515015e-01</leafValues></_>
        <_>
          <internalNodes>
            0 -1 97 2.2702757269144058e-04</internalNodes>
          <leafValues>
            1.2211450934410095e-01 -4.7245153784751892e-01</leafValues></_>
        <_>
          <internalNodes>
            0 -1 78 -2.2368186619132757e-03</internalNodes>
          <leafValues>
            4.6024277806282043e-01 -1.3830353319644928e-01</leafValues></_>
        <_>
          <internalNodes>
            0 -1 98 4.4192718341946602e-03</internalNodes>
          <leafValues>
            6.1220981180667877e-02 -8.7390542030334473e-01</leafValues></_>
        <_>
          <internalNodes>
            0 -1 33 4.3424619361758232e-03</internalNodes>
          <leafValues>
            -1.3240942358970642e-01 4.0520900487899780e-01</leafValues></_>
        <_>
          <internalNodes>
            0 -1 43 2.0522167906165123e-03</internalNodes>
          <leafValues>
            -1.2186063081026077e-01 3.9947429299354553e-01</leafValues></_>
        <_>
          <internalNodes>
            0 -1 123 -1.7666082829236984e-02</internalNodes>
          <leafValues>
            -5.8120179176330566e-01 9.6592634916305542e-02</leafValues></_>
        <_>
          <internalNodes>
            0 -1 124 -3.9032200584188104e-04</internalNodes>
          <leafValues>
            1.9569770991802216e-01 -3.1095275282859802e-01</leafValues></_>
        <_>
          <internalNodes>
            0 -1 175 -1.2451050803065300e-02</internalNodes>
          <leafValues>
            5.6288516521453857e-01 -1.0531030595302582e-01</leafValues></_>
        <_>
          <internalNodes>
            0 -1 225 4.2405929416418076e-03</internalNodes>
          <leafValues>
            -1.8938282132148743e-01 3.0243155360221863e-01</leafValues></_>
        <_>
          <internalNodes>
            0 -1 204 -9.8898657597601414e-04</internalNodes>
          <leafValues>
            -4.1439947485923767e-01 1.3885772228240967e-01</leafValues></_>
        <_>
          <internalNodes>
            0 -1 38 1.5008069574832916e-02</internalNodes>
          <leafValues>
            -1.3305982947349548e-01 4.2743805050849915e-01</leafValues></_>
        <_>
          <internalNodes>
            0 -1 186 -1.9424024503678083e-03</internalNodes>
          <leafValues>
            3.1099146604537964e-01 -1.7180469632148743e-01</leafValues></_>
        <_>
          <internalNodes>
            0 -1 205 -8.1804202636703849e-04</internalNodes>
          <leafValues>
            -4.4391301274299622e-01 1.1864427477121353e-01</leafValues></_>
        <_>
          <internalNodes>
            0 -1 76 -4.9685954581946135e-04</internalNodes>
          <leafValues>
            4.0186664462089539e-01 -1.2543217837810516e-01</leafValues></_>
        <_>
          <internalNodes>
            0 -1 168 -1.9640997052192688e-03</internalNodes>
          <leafValues>
            -9.7934889793395996e-01 5.3089521825313568e-02</leafValues></_>
        <_>
          <internalNodes>
            0 -1 26 -8.2294382154941559e-03</internalNodes>
          <leafValues>
            2.3233303427696228e-01 -2.1472801268100739e-01</leafValues></_>
        <_>
          <internalNodes>
            0 -1 185 3.3117977436631918e-03</internalNodes>
          <leafValues>
            5.3328409790992737e-02 -9.1944301128387451e-01</leafValues></_>
        <_>
          <internalNodes>
            0 -1 231 7.2276877472177148e-04</internalNodes>
          <leafValues>
            -1.2032447010278702e-01 4.5757564902305603e-01</leafValues></_>
        <_>
          <internalNodes>
            0 -1 167 -7.4268830940127373e-03</internalNodes>
          <leafValues>
            2.9922437667846680e-01 -1.6735602915287018e-01</leafValues></_>
        <_>
          <internalNodes>
            0 -1 35 1.0397321311756968e-03</internalNodes>
          <leafValues>
            -1.7022100090980530e-01 3.5919421911239624e-01</leafValues></_></weakClassifiers></_>
    <!-- stage 6 -->
    <_>
      <maxWeakCount>30</maxWeakCount>
      <stageThreshold>-1.3956785202026367e+00</stageThreshold>
      <weakClassifiers>
        <_>
          <internalNodes>
            0 -1 69 1.2759233824908733e-02</internalNodes>
          <leafValues>
            -7.8820186853408813e-01 -4.1107872128486633e-01</leafValues></_>
        <_>
          <internalNodes>
            0 -1 48 -3.4848538041114807e-01</internalNodes>
          <leafValues>
            8.5152067244052887e-02 -4.0579795837402344e-01</leafValues></_>
        <_>
          <internalNodes>
            0 -1 44 -3.3653199672698975e-02</internalNodes>
          <leafValues>
            -2.6114451885223389e-01 1.9835321605205536e-01</leafValues></_>
        <_>
          <internalNodes>
            0 -1 144 1.0919492691755295e-01</internalNodes>
          <leafValues>
            -7.6689004898071289e-02 7.1077269315719604e-01</leafValues></_>
        <_>
          <internalNodes>
            0 -1 127 -7.8201498836278915e-03</internalNodes>
          <leafValues>
            6.7091071605682373e-01 -5.4503470659255981e-02</leafValues></_>
        <_>
          <internalNodes>
            0 -1 111 -1.2737889774143696e-03</internalNodes>
          <leafValues>
            1.7813809216022491e-01 -2.4159477651119232e-01</leafValues></_>
        <_>
          <internalNodes>
            0 -1 247 8.8938017142936587e-04</internalNodes>
          <leafValues>
            -5.7052582502365112e-02 4.8306480050086975e-01</leafValues></_>
        <_>
          <internalNodes>
            0 -1 109 3.9134337566792965e-04</internalNodes>
          <leafValues>
            6.9728873670101166e-02 -6.3681876659393311e-01</leafValues></_>
        <_>
          <internalNodes>
            0 -1 29 1.6248235478997231e-03</internalNodes>
          <leafValues>
            -1.0094640403985977e-01 4.4012883305549622e-01</leafValues></_>
        <_>
          <internalNodes>
            0 -1 7 -1.5716729685664177e-03</internalNodes>
          <leafValues>
            4.4865858554840088e-01 -9.2853412032127380e-02</leafValues></_>
        <_>
          <internalNodes>
            0 -1 245 7.1365182520821691e-04</internalNodes>
          <leafValues>
            -1.0270136594772339e-01 4.2051532864570618e-01</leafValues></_>
        <_>
          <internalNodes>
            0 -1 192 4.4179635006003082e-04</internalNodes>
          <leafValues>
            1.1027879267930984e-01 -3.7362825870513916e-01</leafValues></_>
        <_>
          <internalNodes>
            0 -1 227 -1.4268303057178855e-03</internalNodes>
          <leafValues>
            -6.0259461402893066e-01 7.7340416610240936e-02</leafValues></_>
        <_>
          <internalNodes>
            0 -1 142 8.2003395073115826e-04</internalNodes>
          <leafValues>
            3.2246556133031845e-02 -9.4899708032608032e-01</leafValues></_>
        <_>
          <internalNodes>
            0 -1 108 2.3050622548907995e-03</internalNodes>
          <leafValues>
            -9.7876384854316711e-02 5.4608458280563354e-01</leafValues></_>
        <_>
          <internalNodes>
            0 -1 102 2.4027889594435692e-03</internalNodes>
          <leafValues>
            -7.8606411814689636e-02 4.7573527693748474e-01</leafValues></_>
        <_>
          <internalNodes>
            0 -1 131 -5.3005793597549200e-04</internalNodes>
          <leafValues>
            -6.7491471767425537e-01 6.8928293883800507e-02</leafValues></_>
        <_>
          <internalNodes>
            0 -1 36 -3.2408479601144791e-03</internalNodes>
          <leafValues>
            4.2482230067253113e-01 -1.1248038709163666e-01</leafValues></_>
        <_>
          <internalNodes>
            0 -1 36 1.7629571957513690e-03</internalNodes>
          <leafValues>
            -1.4797082543373108e-01 3.6441016197204590e-01</leafValues></_>
        <_>
          <internalNodes>
            0 -1 237 6.3229666557163000e-04</internalNodes>
          <leafValues>
            -2.2523367404937744e-01 1.9879305362701416e-01</leafValues></_>
        <_>
          <internalNodes>
            0 -1 213 -2.4940627627074718e-03</internalNodes>
          <leafValues>
            2.4082352221012115e-01 -1.7639216780662537e-01</leafValues></_>
        <_>
          <internalNodes>
            0 -1 220 8.4304052870720625e-04</internalNodes>
          <leafValues>
            -1.5574893355369568e-01 3.4041100740432739e-01</leafValues></_>
        <_>
          <internalNodes>
            0 -1 182 3.4228975418955088e-03</internalNodes>
          <leafValues>
            4.2723711580038071e-02 -1.</leafValues></_>
        <_>
          <internalNodes>
            0 -1 74 5.6784338084980845e-04</internalNodes>
          <leafValues>
            4.3456997722387314e-02 -7.0578581094741821e-01</leafValues></_>
        <_>
          <internalNodes>
            0 -1 84 1.4484311395790428e-04</internalNodes>
          <leafValues>
            1.0733368992805481e-01 -3.6284375190734863e-01</leafValues></_>
        <_>
          <internalNodes>
            0 -1 83 -2.1988703520037234e-04</internalNodes>
          <leafValues>
            2.1919292211532593e-01 -2.1248137950897217e-01</leafValues></_>
        <_>
          <internalNodes>
            0 -1 208 -2.6344045996665955e-02</internalNodes>
          <leafValues>
            3.1986451148986816e-01 -1.2752322852611542e-01</leafValues></_>
        <_>
          <internalNodes>
            0 -1 148 -4.8163056373596191e-02</internalNodes>
          <leafValues>
            -6.5330404043197632e-01 7.0941872894763947e-02</leafValues></_>
        <_>
          <internalNodes>
            0 -1 198 -3.7284404039382935e-02</internalNodes>
          <leafValues>
            -1.3559330999851227e-01 3.4029623866081238e-01</leafValues></_>
        <_>
          <internalNodes>
            0 -1 41 -1.2299804948270321e-03</internalNodes>
          <leafValues>
            3.0545181035995483e-01 -1.4223249256610870e-01</leafValues></_></weakClassifiers></_>
    <!-- stage 7 -->
    <_>
      <maxWeakCount>34</maxWeakCount>
      <stageThreshold>-1.4703395366668701e+00</stageThreshold>
      <weakClassifiers>
        <_>
          <internalNodes>
            0 -1 81 4.4000437483191490e-03</internalNodes>
          <leafValues>
            -7.7896851301193237e-01 -3.3852139115333557e-01</leafValues></_>
        <_>
          <internalNodes>
            0 -1 219 1.6642592381685972e-03</internalNodes>
          <leafValues>
            -2.9990985989570618e-01 3.1809562444686890e-01</leafValues></_>
        <_>
          <internalNodes>
            0 -1 215 -3.6698096664622426e-04</internalNodes>
          <leafValues>
            -6.0829722881317139e-01 7.9741507768630981e-02</leafValues></_>
        <_>
          <internalNodes>
            0 -1 130 -8.3626843988895416e-03</internalNodes>
          <leafValues>
            -7.2581708431243896e-01 9.3725390732288361e-02</leafValues></_>
        <_>
          <internalNodes>
            0 -1 232 -4.2336978949606419e-03</internalNodes>
          <leafValues>
            2.8263509273529053e-01 -1.6018061339855194e-01</leafValues></_>
        <_>
          <internalNodes>
            0 -1 46 2.4135266430675983e-03</internalNodes>
          <leafValues>
            -6.3206583261489868e-02 5.1090568304061890e-01</leafValues></_>
        <_>
          <internalNodes>
            0 -1 241 -7.7366863843053579e-04</internalNodes>
          <leafValues>
            4.4141796231269836e-01 -8.8504791259765625e-02</leafValues></_>
        <_>
          <internalNodes>
            0 -1 203 -2.1472724154591560e-02</internalNodes>
          <leafValues>
            2.7082613110542297e-01 -1.6852790117263794e-01</leafValues></_>
        <_>
          <internalNodes>
            0 -1 159 -9.5809726044535637e-03</internalNodes>
          <leafValues>
            5.4791134595870972e-01 -7.9838000237941742e-02</leafValues></_>
        <_>
          <internalNodes>
            0 -1 230 -1.1193687096238136e-03</internalNodes>
          <leafValues>
            3.7043267488479614e-01 -1.2493122369050980e-01</leafValues></_>
        <_>
          <internalNodes>
            0 -1 164 -2.9931758763268590e-04</internalNodes>
          <leafValues>
            -4.9755468964576721e-01 7.8939273953437805e-02</leafValues></_>
        <_>
          <internalNodes>
            0 -1 47 -2.7589206583797932e-03</internalNodes>
          <leafValues>
            4.1357073187828064e-01 -9.4966977834701538e-02</leafValues></_>
        <_>
          <internalNodes>
            0 -1 12 5.4213525727391243e-03</internalNodes>
          <leafValues>
            -1.4871741831302643e-01 2.6377272605895996e-01</leafValues></_>
        <_>
          <internalNodes>
            0 -1 120 -1.9824344664812088e-02</internalNodes>
          <leafValues>
            4.1243186593055725e-01 -1.0228360444307327e-01</leafValues></_>
        <_>
          <internalNodes>
            0 -1 158 -4.9716411158442497e-03</internalNodes>
          <leafValues>
            -8.0728703737258911e-01 4.8261847347021103e-02</leafValues></_>
        <_>
          <internalNodes>
            0 -1 228 -1.6043614596128464e-03</internalNodes>
          <leafValues>
            -5.9789550304412842e-01 6.5457008779048920e-02</leafValues></_>
        <_>
          <internalNodes>
            0 -1 236 3.2141397241503000e-03</internalNodes>
          <leafValues>
            -1.2242077291011810e-01 3.0948856472969055e-01</leafValues></_>
        <_>
          <internalNodes>
            0 -1 49 9.7290077246725559e-04</internalNodes>
          <leafValues>
            1.0181518644094467e-01 -3.9431226253509521e-01</leafValues></_>
        <_>
          <internalNodes>
            0 -1 54 4.9065604805946350e-02</internalNodes>
          <leafValues>
            5.9795789420604706e-02 -7.2195941209793091e-01</leafValues></_>
        <_>
          <internalNodes>
            0 -1 184 -1.5460143913514912e-04</internalNodes>
          <leafValues>
            -3.5525879263877869e-01 1.1363825947046280e-01</leafValues></_>
        <_>
          <internalNodes>
            0 -1 90 -3.9592131972312927e-02</internalNodes>
          <leafValues>
            5.0302863121032715e-01 -9.4155780971050262e-02</leafValues></_>
        <_>
          <internalNodes>
            0 -1 189 -1.1696247383952141e-03</internalNodes>
          <leafValues>
            3.5493791103363037e-01 -1.0503903776407242e-01</leafValues></_>
        <_>
          <internalNodes>
            0 -1 200 4.5285660773515701e-02</internalNodes>
          <leafValues>
            -6.7599080502986908e-02 5.7865363359451294e-01</leafValues></_>
        <_>
          <internalNodes>
            0 -1 223 8.6378939449787140e-02</internalNodes>
          <leafValues>
            7.5914606451988220e-02 -6.3156735897064209e-01</leafValues></_>
        <_>
          <internalNodes>
            0 -1 146 6.6928073763847351e-02</internalNodes>
          <leafValues>
            -1.4670331776142120e-01 3.9127776026725769e-01</leafValues></_>
        <_>
          <internalNodes>
            0 -1 217 1.1147962510585785e-01</internalNodes>
          <leafValues>
            4.4950358569622040e-02 -8.9378434419631958e-01</leafValues></_>
        <_>
          <internalNodes>
            0 -1 161 1.4310793485492468e-03</internalNodes>
          <leafValues>
            -1.9141991436481476e-01 2.2111013531684875e-01</leafValues></_>
        <_>
          <internalNodes>
            0 -1 211 -3.0653160065412521e-03</internalNodes>
          <leafValues>
            -9.0250653028488159e-01 4.0459632873535156e-02</leafValues></_>
        <_>
          <internalNodes>
            0 -1 147 -1.9046834111213684e-01</internalNodes>
          <leafValues>
            2.9029655456542969e-01 -1.3596639037132263e-01</leafValues></_>
        <_>
          <internalNodes>
            0 -1 116 -4.5700385235249996e-03</internalNodes>
          <leafValues>
            4.0998056530952454e-01 -1.0750488191843033e-01</leafValues></_>
        <_>
          <internalNodes>
            0 -1 118 -1.9449315965175629e-02</internalNodes>
          <leafValues>
            -5.8067339658737183e-01 6.7209124565124512e-02</leafValues></_>
        <_>
          <internalNodes>
            0 -1 106 4.0952377021312714e-03</internalNodes>
          <leafValues>
            -9.4356030225753784e-02 4.1624364256858826e-01</leafValues></_>
        <_>
          <internalNodes>
            0 -1 138 3.7218523211777210e-03</internalNodes>
          <leafValues>
            6.2849976122379303e-02 -6.7333245277404785e-01</leafValues></_>
        <_>
          <internalNodes>
            0 -1 190 1.0182845871895552e-03</internalNodes>
          <leafValues>
            -9.3654267489910126e-02 4.7904348373413086e-01</leafValues></_></weakClassifiers></_>
    <!-- stage 8 -->
    <_>
      <maxWeakCount>33</maxWeakCount>
      <stageThreshold>-1.4176576137542725e+00</stageThreshold>
      <weakClassifiers>
        <_>
          <internalNodes>
            0 -1 137 1.1153222061693668e-02</internalNodes>
          <leafValues>
            -7.6664632558822632e-01 4.4247787445783615e-02</leafValues></_>
        <_>
          <internalNodes>
            0 -1 157 2.7236510068178177e-02</internalNodes>
          <leafValues>
            -4.1541269421577454e-01 6.3619367778301239e-02</leafValues></_>
        <_>
          <internalNodes>
            0 -1 238 -3.1103780493140221e-03</internalNodes>
          <leafValues>
            5.5762487649917603e-01 -1.0407041758298874e-01</leafValues></_>
        <_>
          <internalNodes>
            0 -1 70 -6.6760845948010683e-04</internalNodes>
          <leafValues>
            4.4306579232215881e-01 -1.0795262455940247e-01</leafValues></_>
        <_>
          <internalNodes>
            0 -1 89 3.4978534094989300e-03</internalNodes>
          <leafValues>
            6.2326073646545410e-02 -7.8402620553970337e-01</leafValues></_>
        <_>
          <internalNodes>
            0 -1 240 5.7007523719221354e-04</internalNodes>
          <leafValues>
            -1.0067910701036453e-01 4.2508149147033691e-01</leafValues></_>
        <_>
          <internalNodes>
            0 -1 82 1.3677295064553618e-03</internalNodes>
          <leafValues>
            -7.3679022490978241e-02 5.8703893423080444e-01</leafValues></_>
        <_>
          <internalNodes>
            0 -1 55 -3.0004195868968964e-02</internalNodes>
          <leafValues>
            -5.9907579421997070e-01 7.2955347597599030e-02</leafValues></_>
        <_>
          <internalNodes>
            0 -1 103 5.1973881199955940e-03</internalNodes>
          <leafValues>
            -6.2548890709877014e-02 5.2359932661056519e-01</leafValues></_>
        <_>
          <internalNodes>
            0 -1 113 -1.5852384269237518e-02</internalNodes>
          <leafValues>
            1.0571404546499252e-01 -3.8309007883071899e-01</leafValues></_>
        <_>
          <internalNodes>
            0 -1 99 -1.2316952645778656e-01</internalNodes>
          <leafValues>
            -1.4238886535167694e-01 4.2715203762054443e-01</leafValues></_>
        <_>
          <internalNodes>
            0 -1 2 1.2541485484689474e-03</internalNodes>
          <leafValues>
            -1.2895271182060242e-01 3.4462788701057434e-01</leafValues></_>
        <_>
          <internalNodes>
            0 -1 0 -4.0357178077101707e-03</internalNodes>
          <leafValues>
            5.6543612480163574e-01 -8.6136512458324432e-02</leafValues></_>
        <_>
          <internalNodes>
            0 -1 212 -1.1612679809331894e-03</internalNodes>
          <leafValues>
            -8.3186787366867065e-01 6.0371737927198410e-02</leafValues></_>
        <_>
          <internalNodes>
            0 -1 165 1.1499803513288498e-03</internalNodes>
          <leafValues>
            5.6472335010766983e-02 -6.7827183008193970e-01</leafValues></_>
        <_>
          <internalNodes>
            0 -1 101 -7.9391332110390067e-04</internalNodes>
          <leafValues>
            3.0768707394599915e-01 -1.6112031042575836e-01</leafValues></_>
        <_>
          <internalNodes>
            0 -1 249 -5.7601946173235774e-04</internalNodes>
          <leafValues>
            3.5589736700057983e-01 -1.1864352226257324e-01</leafValues></_>
        <_>
          <internalNodes>
            0 -1 250 6.1399419791996479e-04</internalNodes>
          <leafValues>
            -1.3569828867912292e-01 3.2018283009529114e-01</leafValues></_>
        <_>
          <internalNodes>
            0 -1 139 -1.2529725208878517e-03</internalNodes>
          <leafValues>
            -5.5089730024337769e-01 7.1907863020896912e-02</leafValues></_>
        <_>
          <internalNodes>
            0 -1 150 5.8179360348731279e-04</internalNodes>
          <leafValues>
            -1.8087157607078552e-01 2.2679905593395233e-01</leafValues></_>
        <_>
          <internalNodes>
            0 -1 122 -4.6782058780081570e-04</internalNodes>
          <leafValues>
            2.1739475429058075e-01 -2.1819771826267242e-01</leafValues></_>
        <_>
          <internalNodes>
            0 -1 112 -7.7798927668482065e-04</internalNodes>
          <leafValues>
            -3.6882817745208740e-01 1.4566780626773834e-01</leafValues></_>
        <_>
          <internalNodes>
            0 -1 96 4.8247333616018295e-03</internalNodes>
          <leafValues>
            1.1240754276514053e-01 -4.7507357597351074e-01</leafValues></_>
        <_>
          <internalNodes>
            0 -1 239 6.4830831252038479e-04</internalNodes>
          <leafValues>
            -2.1511079370975494e-01 2.0969267189502716e-01</leafValues></_>
        <_>
          <internalNodes>
            0 -1 119 1.0768628679215908e-02</internalNodes>
          <leafValues>
            8.3578877151012421e-02 -5.6198722124099731e-01</leafValues></_>
        <_>
          <internalNodes>
            0 -1 51 1.6678687185049057e-02</internalNodes>
          <leafValues>
            -1.0585976392030716e-01 4.5896640419960022e-01</leafValues></_>
        <_>
          <internalNodes>
            0 -1 63 -7.8334230929613113e-03</internalNodes>
          <leafValues>
            2.6442354917526245e-01 -1.8421129882335663e-01</leafValues></_>
        <_>
          <internalNodes>
            0 -1 136 2.0780479535460472e-03</internalNodes>
          <leafValues>
            -1.2754508852958679e-01 4.4114866852760315e-01</leafValues></_>
        <_>
          <internalNodes>
            0 -1 66 8.7492182501591742e-05</internalNodes>
          <leafValues>
            -1.8862555921077728e-01 2.4547271430492401e-01</leafValues></_>
        <_>
          <internalNodes>
            0 -1 154 -1.7244860064238310e-03</internalNodes>
          <leafValues>
            3.7147432565689087e-01 -1.3239279389381409e-01</leafValues></_>
        <_>
          <internalNodes>
            0 -1 176 -5.5773504078388214e-02</internalNodes>
          <leafValues>
            -5.5882412195205688e-01 1.0049924254417419e-01</leafValues></_>
        <_>
          <internalNodes>
            0 -1 202 1.5447344630956650e-03</internalNodes>
          <leafValues>
            1.5616668760776520e-01 -3.1548479199409485e-01</leafValues></_>
        <_>
          <internalNodes>
            0 -1 233 -3.1278271228075027e-02</internalNodes>
          <leafValues>
            6.7063581943511963e-01 -6.9598056375980377e-02</leafValues></_></weakClassifiers></_>
    <!-- stage 9 -->
    <_>
      <maxWeakCount>30</maxWeakCount>
      <stageThreshold>-1.3319318294525146e+00</stageThreshold>
      <weakClassifiers>
        <_>
          <internalNodes>
            0 -1 18 -2.2319476120173931e-03</internalNodes>
          <leafValues>
            -7.2811061143875122e-01 1.</leafValues></_>
        <_>
          <internalNodes>
            0 -1 172 2.7401624247431755e-03</internalNodes>
          <leafValues>
            -3.7541165947914124e-01 9.2332698404788971e-02</leafValues></_>
        <_>
          <internalNodes>
            0 -1 65 8.2166772335767746e-04</internalNodes>
          <leafValues>
            -1.5818336606025696e-01 3.2752522826194763e-01</leafValues></_>
        <_>
          <internalNodes>
            0 -1 72 -2.1579740860033780e-04</internalNodes>
          <leafValues>
            -3.1587260961532593e-01 1.1771265417337418e-01</leafValues></_>
        <_>
          <internalNodes>
            0 -1 179 -1.2744183186441660e-04</internalNodes>
          <leafValues>
            2.1641859412193298e-01 -1.9549411535263062e-01</leafValues></_>
        <_>
          <internalNodes>
            0 -1 140 3.7372116930782795e-03</internalNodes>
          <leafValues>
            -8.0827742815017700e-02 5.1859790086746216e-01</leafValues></_>
        <_>
          <internalNodes>
            0 -1 87 -8.1419106572866440e-04</internalNodes>
          <leafValues>
            -8.0082613229751587e-01 4.9198135733604431e-02</leafValues></_>
        <_>
          <internalNodes>
            0 -1 17 -8.7988888844847679e-04</internalNodes>
          <leafValues>
            3.9460086822509766e-01 -1.2392997741699219e-01</leafValues></_>
        <_>
          <internalNodes>
            0 -1 149 1.8129726871848106e-02</internalNodes>
          <leafValues>
            -9.9280059337615967e-02 3.4362488985061646e-01</leafValues></_>
        <_>
          <internalNodes>
            0 -1 160 5.8825188316404819e-03</internalNodes>
          <leafValues>
            5.3952310234308243e-02 -6.3192349672317505e-01</leafValues></_>
        <_>
          <internalNodes>
            0 -1 52 2.1040307357907295e-02</internalNodes>
          <leafValues>
            -7.8827165067195892e-02 5.7024681568145752e-01</leafValues></_>
        <_>
          <internalNodes>
            0 -1 143 2.3600431450176984e-04</internalNodes>
          <leafValues>
            1.1686827242374420e-01 -4.1256496310234070e-01</leafValues></_>
        <_>
          <internalNodes>
            0 -1 27 5.6628920137882233e-03</internalNodes>
          <leafValues>
            -9.2248089611530304e-02 5.0054442882537842e-01</leafValues></_>
        <_>
          <internalNodes>
            0 -1 59 -2.1988474763929844e-03</internalNodes>
          <leafValues>
            4.2460519075393677e-01 -9.0743541717529297e-02</leafValues></_>
        <_>
          <internalNodes>
            0 -1 93 -2.1782971918582916e-02</internalNodes>
          <leafValues>
            3.3483669161796570e-01 -1.3136155903339386e-01</leafValues></_>
        <_>
          <internalNodes>
            0 -1 133 -1.2479718029499054e-01</internalNodes>
          <leafValues>
            1.4180041849613190e-01 -3.1027519702911377e-01</leafValues></_>
        <_>
          <internalNodes>
            0 -1 73 -5.1357772201299667e-02</internalNodes>
          <leafValues>
            -2.4101938307285309e-01 2.3420071601867676e-01</leafValues></_>
        <_>
          <internalNodes>
            0 -1 191 3.3263370278291404e-04</internalNodes>
          <leafValues>
            1.3770027458667755e-01 -3.5437601804733276e-01</leafValues></_>
        <_>
          <internalNodes>
            0 -1 134 3.2432607258670032e-04</internalNodes>
          <leafValues>
            7.9321511089801788e-02 -5.4437738656997681e-01</leafValues></_>
        <_>
          <internalNodes>
            0 -1 100 -6.9372118450701237e-03</internalNodes>
          <leafValues>
            4.3151468038558960e-01 -1.1493326723575592e-01</leafValues></_>
        <_>
          <internalNodes>
            0 -1 34 -4.7298884019255638e-03</internalNodes>
          <leafValues>
            2.5906836986541748e-01 -1.6470652818679810e-01</leafValues></_>
        <_>
          <internalNodes>
            0 -1 252 2.2214985801838338e-04</internalNodes>
          <leafValues>
            -1.6761209070682526e-01 2.8556203842163086e-01</leafValues></_>
        <_>
          <internalNodes>
            0 -1 10 2.3068804293870926e-03</internalNodes>
          <leafValues>
            -7.1826733648777008e-02 5.8073002099990845e-01</leafValues></_>
        <_>
          <internalNodes>
            0 -1 45 6.1389207839965820e-03</internalNodes>
          <leafValues>
            -8.4018930792808533e-02 4.5781615376472473e-01</leafValues></_>
        <_>
          <internalNodes>
            0 -1 94 4.3568853288888931e-03</internalNodes>
          <leafValues>
            -7.4228577315807343e-02 5.5633234977722168e-01</leafValues></_>
        <_>
          <internalNodes>
            0 -1 60 -6.4484640024602413e-03</internalNodes>
          <leafValues>
            1.8751540780067444e-01 -2.3276929557323456e-01</leafValues></_>
        <_>
          <internalNodes>
            0 -1 162 -3.8233257830142975e-02</internalNodes>
          <leafValues>
            -6.2174963951110840e-01 9.5500461757183075e-02</leafValues></_>
        <_>
          <internalNodes>
            0 -1 14 -1.0430102050304413e-01</internalNodes>
          <leafValues>
            -3.4417963027954102e-01 1.0449144989252090e-01</leafValues></_>
        <_>
          <internalNodes>
            0 -1 126 -1.6504195332527161e-01</internalNodes>
          <leafValues>
            2.6984700560569763e-01 -2.0146977901458740e-01</leafValues></_>
        <_>
          <internalNodes>
            0 -1 5 -1.7205023765563965e-01</internalNodes>
          <leafValues>
            6.2511664628982544e-01 -7.4522659182548523e-02</leafValues></_></weakClassifiers></_></stages>
  <features>
    <_>
      <rects>
        <_>
          0 5 2 6 -1.</_>
        <_>
          0 5 1 3 2.</_>
        <_>
          1 8 1 3 2.</_></rects>
      <tilted>0</tilted></_>
    <_>
      <rects>
        <_>
          0 6 4 8 -1.</_>
        <_>
          0 6 2 4 2.</_>
        <_>
          2 10 2 4 2.</_></rects>
      <tilted>0</tilted></_>
    <_>
      <rects>
        <_>
          0 7 2 4 -1.</_>
        <_>
          0 7 1 2 2.</_>
        <_>
          1 9 1 2 2.</_></rects>
      <tilted>0</tilted></_>
    <_>
      <rects>
        <_>
          0 7 4 1 -1.</_>
        <_>
          2 7 2 1 2.</_></rects>
      <tilted>0</tilted></_>
    <_>
      <rects>
        <_>
          0 7 4 2 -1.</_>
        <_>
          2 7 2 2 2.</_></rects>
      <tilted>0</tilted></_>
    <_>
      <rects>
        <_>
          0 7 24 9 -1.</_>
        <_>
          12 7 12 9 2.</_></rects>
      <tilted>0</tilted></_>
    <_>
      <rects>
        <_>
          0 8 4 8 -1.</_>
        <_>
          2 8 2 8 2.</_></rects>
      <tilted>0</tilted></_>
    <_>
      <rects>
        <_>
          0 9 2 2 -1.</_>
        <_>
          1 9 1 2 2.</_></rects>
      <tilted>0</tilted></_>
    <_>
      <rects>
        <_>
          0 9 1 4 -1.</_>
        <_>
          0 11 1 2 2.</_></rects>
      <tilted>0</tilted></_>
    <_>
      <rects>
        <_>
          0 9 6 4 -1.</_>
        <_>
          3 9 3 4 2.</_></rects>
      <tilted>0</tilted></_>
    <_>
      <rects>
        <_>
          0 10 2 1 -1.</_>
        <_>
          1 10 1 1 2.</_></rects>
      <tilted>0</tilted></_>
    <_>
      <rects>
        <_>
          0 10 2 10 -1.</_>
        <_>
          0 10 1 5 2.</_>
        <_>
          1 15 1 5 2.</_></rects>
      <tilted>0</tilted></_>
    <_>
      <rects>
        <_>
          0 10 8 1 -1.</_>
        <_>
          4 10 4 1 2.</_></rects>
      <tilted>0</tilted></_>
    <_>
      <rects>
        <_>
          0 11 2 2 -1.</_>
        <_>
          0 11 1 1 2.</_>
        <_>
          1 12 1 1 2.</_></rects>
      <tilted>0</tilted></_>
    <_>
      <rects>
        <_>
          0 11 6 8 -1.</_>
        <_>
          2 11 2 8 2.</_></rects>
      <tilted>0</tilted></_>
    <_>
      <rects>
        <_>
          0 12 2 2 -1.</_>
        <_>
          1 12 1 2 2.</_></rects>
      <tilted>0</tilted></_>
    <_>
      <rects>
        <_>
          0 12 6 8 -1.</_>
        <_>
          2 12 2 8 2.</_></rects>
      <tilted>0</tilted></_>
    <_>
      <rects>
        <_>
          0 14 2 2 -1.</_>
        <_>
          0 14 1 1 2.</_>
        <_>
          1 15 1 1 2.</_></rects>
      <tilted>0</tilted></_>
    <_>
      <rects>
        <_>
          0 14 1 9 -1.</_>
        <_>
          0 17 1 3 2.</_></rects>
      <tilted>0</tilted></_>
    <_>
      <rects>
        <_>
          0 15 2 4 -1.</_>
        <_>
          0 15 1 2 2.</_>
        <_>
          1 17 1 2 2.</_></rects>
      <tilted>0</tilted></_>
    <_>
      <rects>
        <_>
          0 16 6 1 -1.</_>
        <_>
          3 16 3 1 2.</_></rects>
      <tilted>0</tilted></_>
    <_>
      <rects>
        <_>
          0 21 18 2 -1.</_>
        <_>
          0 21 9 1 2.</_>
        <_>
          9 22 9 1 2.</_></rects>
      <tilted>0</tilted></_>
    <_>
      <rects>
        <_>
          0 22 14 2 -1.</_>
        <_>
          0 22 7 1 2.</_>
        <_>
          7 23 7 1 2.</_></rects>
      <tilted>0</tilted></_>
    <_>
      <rects>
        <_>
          1 0 14 2 -1.</_>
        <_>
          1 0 7 1 2.</_>
        <_>
          8 1 7 1 2.</_></rects>
      <tilted>0</tilted></_>
    <_>
      <rects>
        <_>
          1 1 3 1 -1.</_>
        <_>
          2 1 1 1 2.</_></rects>
      <tilted>0</tilted></_>
    <_>
      <rects>
        <_>
          1 1 8 11 -1.</_>
        <_>
          5 1 4 11 2.</_></rects>
      <tilted>0</tilted></_>
    <_>
      <rects>
        <_>
          1 4 14 6 -1.</_>
        <_>
          1 4 7 3 2.</_>
        <_>
          8 7 7 3 2.</_></rects>
      <tilted>0</tilted></_>
    <_>
      <rects>
        <_>
          1 5 2 8 -1.</_>
        <_>
          1 5 1 4 2.</_>
        <_>
          2 9 1 4 2.</_></rects>
      <tilted>0</tilted></_>
    <_>
      <rects>
        <_>
          1 5 2 14 -1.</_>
        <_>
          2 5 1 14 2.</_></rects>
      <tilted>0</tilted></_>
    <_>
      <rects>
        <_>
          1 6 2 1 -1.</_>
        <_>
          2 6 1 1 2.</_></rects>
      <tilted>0</tilted></_>
    <_>
      <rects>
        <_>
          1 6 2 4 -1.</_>
        <_>
          2 6 1 4 2.</_></rects>
      <tilted>0</tilted></_>
    <_>
      <rects>
        <_>
          1 6 2 9 -1.</_>
        <_>
          2 6 1 9 2.</_></rects>
      <tilted>0</tilted></_>
    <_>
      <rects>
        <_>
          1 10 5 2 -1.</_>
        <_>
          1 11 5 1 2.</_></rects>
      <tilted>0</tilted></_>
    <_>
      <rects>
        <_>
          1 13 2 5 -1.</_>
        <_>
          2 13 1 5 2.</_></rects>
      <tilted>0</tilted></_>
    <_>
      <rects>
        <_>
          1 13 14 4 -1.</_>
        <_>
          1 13 7 2 2.</_>
        <_>
          8 15 7 2 2.</_></rects>
      <tilted>0</tilted></_>
    <_>
      <rects>
        <_>
          1 14 2 4 -1.</_>
        <_>
          1 14 1 2 2.</_>
        <_>
          2 16 1 2 2.</_></rects>
      <tilted>0</tilted></_>
    <_>
      <rects>
        <_>
          1 14 2 6 -1.</_>
        <_>
          1 14 1 3 2.</_>
        <_>
          2 17 1 3 2.</_></rects>
      <tilted>0</tilted></_>
    <_>
      <rects>
        <_>
          1 17 2 3 -1.</_>
        <_>
          2 17 1 3 2.</_></rects>
      <tilted>0</tilted></_>
    <_>
      <rects>
        <_>
          1 18 10 3 -1.</_>
        <_>
          6 18 5 3 2.</_></rects>
      <tilted>0</tilted></_>
    <_>
      <rects>
        <_>
          1 19 14 4 -1.</_>
        <_>
          1 21 14 2 2.</_></rects>
      <tilted>0</tilted></_>
    <_>
      <rects>
        <_>
          2 0 8 19 -1.</_>
        <_>
          6 0 4 19 2.</_></rects>
      <tilted>0</tilted></_>
    <_>
      <rects>
        <_>
          2 1 4 2 -1.</_>
        <_>
          2 2 4 1 2.</_></rects>
      <tilted>0</tilted></_>
    <_>
      <rects>
        <_>
          2 1 18 2 -1.</_>
        <_>
          2 1 9 1 2.</_>
        <_>
          11 2 9 1 2.</_></rects>
      <tilted>0</tilted></_>
    <_>
      <rects>
        <_>
          2 2 4 2 -1.</_>
        <_>
          2 2 2 1 2.</_>
        <_>
          4 3 2 1 2.</_></rects>
      <tilted>0</tilted></_>
    <_>
      <rects>
        <_>
          2 2 18 1 -1.</_>
        <_>
          8 2 6 1 2.</_></rects>
      <tilted>0</tilted></_>
    <_>
      <rects>
        <_>
          2 2 14 2 -1.</_>
        <_>
          2 2 7 1 2.</_>
        <_>
          9 3 7 1 2.</_></rects>
      <tilted>0</tilted></_>
    <_>
      <rects>
        <_>
          2 4 2 4 -1.</_>
        <_>
          2 4 1 2 2.</_>
        <_>
          3 6 1 2 2.</_></rects>
      <tilted>0</tilted></_>
    <_>
      <rects>
        <_>
          2 4 2 6 -1.</_>
        <_>
          2 4 1 3 2.</_>
        <_>
          3 7 1 3 2.</_></rects>
      <tilted>0</tilted></_>
    <_>
      <rects>
        <_>
          2 4 20 20 -1.</_>
        <_>
          2 14 20 10 2.</_></rects>
      <tilted>0</tilted></_>
    <_>
      <rects>
        <_>
          2 7 6 2 -1.</_>
        <_>
          2 7 3 1 2.</_>
        <_>
          5 8 3 1 2.</_></rects>
      <tilted>0</tilted></_>
    <_>
      <rects>
        <_>
          2 10 1 2 -1.</_>
        <_>
          2 11 1 1 2.</_></rects>
      <tilted>0</tilted></_>
    <_>
      <rects>
        <_>
          2 14 2 8 -1.</_>
        <_>
          2 18 2 4 2.</_></rects>
      <tilted>0</tilted></_>
    <_>
      <rects>
        <_>
          2 18 6 6 -1.</_>
        <_>
          2 18 3 3 2.</_>
        <_>
          5 21 3 3 2.</_></rects>
      <tilted>0</tilted></_>
    <_>
      <rects>
        <_>
          2 19 2 2 -1.</_>
        <_>
          2 19 1 1 2.</_>
        <_>
          3 20 1 1 2.</_></rects>
      <tilted>0</tilted></_>
    <_>
      <rects>
        <_>
          3 0 2 16 -1.</_>
        <_>
          3 8 2 8 2.</_></rects>
      <tilted>0</tilted></_>
    <_>
      <rects>
        <_>
          3 0 14 2 -1.</_>
        <_>
          10 0 7 2 2.</_></rects>
      <tilted>0</tilted></_>
    <_>
      <rects>
        <_>
          3 0 16 4 -1.</_>
        <_>
          3 2 16 2 2.</_></rects>
      <tilted>0</tilted></_>
    <_>
      <rects>
        <_>
          3 0 16 6 -1.</_>
        <_>
          3 3 16 3 2.</_></rects>
      <tilted>0</tilted></_>
    <_>
      <rects>
        <_>
          3 1 2 4 -1.</_>
        <_>
          3 1 1 2 2.</_>
        <_>
          4 3 1 2 2.</_></rects>
      <tilted>0</tilted></_>
    <_>
      <rects>
        <_>
          3 3 2 4 -1.</_>
        <_>
          3 3 1 2 2.</_>
        <_>
          4 5 1 2 2.</_></rects>
      <tilted>0</tilted></_>
    <_>
      <rects>
        <_>
          3 7 20 4 -1.</_>
        <_>
          3 9 20 2 2.</_></rects>
      <tilted>0</tilted></_>
    <_>
      <rects>
        <_>
          3 10 8 14 -1.</_>
        <_>
          3 10 4 7 2.</_>
        <_>
          7 17 4 7 2.</_></rects>
      <tilted>0</tilted></_>
    <_>
      <rects>
        <_>
          3 11 5 9 -1.</_>
        <_>
          3 14 5 3 2.</_></rects>
      <tilted>0</tilted></_>
    <_>
      <rects>
        <_>
          3 13 4 6 -1.</_>
        <_>
          3 16 4 3 2.</_></rects>
      <tilted>0</tilted></_>
    <_>
      <rects>
        <_>
          3 14 4 2 -1.</_>
        <_>
          3 14 2 1 2.</_>
        <_>
          5 15 2 1 2.</_></rects>
      <tilted>0</tilted></_>
    <_>
      <rects>
        <_>
          3 17 2 4 -1.</_>
        <_>
          3 17 1 2 2.</_>
        <_>
          4 19 1 2 2.</_></rects>
      <tilted>0</tilted></_>
    <_>
      <rects>
        <_>
          3 18 2 1 -1.</_>
        <_>
          4 18 1 1 2.</_></rects>
      <tilted>0</tilted></_>
    <_>
      <rects>
        <_>
          3 18 6 6 -1.</_>
        <_>
          3 18 3 3 2.</_>
        <_>
          6 21 3 3 2.</_></rects>
      <tilted>0</tilted></_>
    <_>
      <rects>
        <_>
          3 19 4 4 -1.</_>
        <_>
          3 19 2 2 2.</_>
        <_>
          5 21 2 2 2.</_></rects>
      <tilted>0</tilted></_>
    <_>
      <rects>
        <_>
          4 1 15 2 -1.</_>
        <_>
          4 2 15 1 2.</_></rects>
      <tilted>0</tilted></_>
    <_>
      <rects>
        <_>
          4 3 2 2 -1.</_>
        <_>
          4 3 1 1 2.</_>
        <_>
          5 4 1 1 2.</_></rects>
      <tilted>0</tilted></_>
    <_>
      <rects>
        <_>
          4 6 17 18 -1.</_>
        <_>
          4 15 17 9 2.</_></rects>
      <tilted>0</tilted></_>
    <_>
      <rects>
        <_>
          4 8 2 2 -1.</_>
        <_>
          4 8 1 1 2.</_>
        <_>
          5 9 1 1 2.</_></rects>
      <tilted>0</tilted></_>
    <_>
      <rects>
        <_>
          4 10 6 4 -1.</_>
        <_>
          6 10 2 4 2.</_></rects>
      <tilted>0</tilted></_>
    <_>
      <rects>
        <_>
          4 12 1 2 -1.</_>
        <_>
          4 13 1 1 2.</_></rects>
      <tilted>0</tilted></_>
    <_>
      <rects>
        <_>
          4 16 5 8 -1.</_>
        <_>
          4 20 5 4 2.</_></rects>
      <tilted>0</tilted></_>
    <_>
      <rects>
        <_>
          4 18 2 2 -1.</_>
        <_>
          4 18 1 1 2.</_>
        <_>
          5 19 1 1 2.</_></rects>
      <tilted>0</tilted></_>
    <_>
      <rects>
        <_>
          4 18 11 6 -1.</_>
        <_>
          4 21 11 3 2.</_></rects>
      <tilted>0</tilted></_>
    <_>
      <rects>
        <_>
          4 20 6 2 -1.</_>
        <_>
          4 20 3 1 2.</_>
        <_>
          7 21 3 1 2.</_></rects>
      <tilted>0</tilted></_>
    <_>
      <rects>
        <_>
          5 0 13 4 -1.</_>
        <_>
          5 2 13 2 2.</_></rects>
      <tilted>0</tilted></_>
    <_>
      <rects>
        <_>
          5 1 4 2 -1.</_>
        <_>
          5 1 2 1 2.</_>
        <_>
          7 2 2 1 2.</_></rects>
      <tilted>0</tilted></_>
    <_>
      <rects>
        <_>
          5 1 4 2 -1.</_>
        <_>
          5 2 4 1 2.</_></rects>
      <tilted>0</tilted></_>
    <_>
      <rects>
        <_>
          5 2 2 2 -1.</_>
        <_>
          5 2 1 1 2.</_>
        <_>
          6 3 1 1 2.</_></rects>
      <tilted>0</tilted></_>
    <_>
      <rects>
        <_>
          5 7 8 2 -1.</_>
        <_>
          5 7 4 1 2.</_>
        <_>
          9 8 4 1 2.</_></rects>
      <tilted>0</tilted></_>
    <_>
      <rects>
        <_>
          5 9 2 2 -1.</_>
        <_>
          5 10 2 1 2.</_></rects>
      <tilted>0</tilted></_>
    <_>
      <rects>
        <_>
          5 12 8 3 -1.</_>
        <_>
          9 12 4 3 2.</_></rects>
      <tilted>0</tilted></_>
    <_>
      <rects>
        <_>
          5 12 12 2 -1.</_>
        <_>
          5 12 6 1 2.</_>
        <_>
          11 13 6 1 2.</_></rects>
      <tilted>0</tilted></_>
    <_>
      <rects>
        <_>
          5 13 2 2 -1.</_>
        <_>
          5 13 1 1 2.</_>
        <_>
          6 14 1 1 2.</_></rects>
      <tilted>0</tilted></_>
    <_>
      <rects>
        <_>
          5 13 8 2 -1.</_>
        <_>
          5 13 4 1 2.</_>
        <_>
          9 14 4 1 2.</_></rects>
      <tilted>0</tilted></_>
    <_>
      <rects>
        <_>
          5 17 2 4 -1.</_>
        <_>
          6 17 1 4 2.</_></rects>
      <tilted>0</tilted></_>
    <_>
      <rects>
        <_>
          5 18 7 6 -1.</_>
        <_>
          5 21 7 3 2.</_></rects>
      <tilted>0</tilted></_>
    <_>
      <rects>
        <_>
          6 0 10 2 -1.</_>
        <_>
          6 1 10 1 2.</_></rects>
      <tilted>0</tilted></_>
    <_>
      <rects>
        <_>
          6 1 4 2 -1.</_>
        <_>
          6 1 2 1 2.</_>
        <_>
          8 2 2 1 2.</_></rects>
      <tilted>0</tilted></_>
    <_>
      <rects>
        <_>
          6 1 10 12 -1.</_>
        <_>
          6 1 5 6 2.</_>
        <_>
          11 7 5 6 2.</_></rects>
      <tilted>0</tilted></_>
    <_>
      <rects>
        <_>
          6 8 4 4 -1.</_>
        <_>
          6 10 4 2 2.</_></rects>
      <tilted>0</tilted></_>
    <_>
      <rects>
        <_>
          6 10 1 2 -1.</_>
        <_>
          6 11 1 1 2.</_></rects>
      <tilted>0</tilted></_>
    <_>
      <rects>
        <_>
          6 12 6 8 -1.</_>
        <_>
          6 12 3 4 2.</_>
        <_>
          9 16 3 4 2.</_></rects>
      <tilted>0</tilted></_>
    <_>
      <rects>
        <_>
          6 14 2 2 -1.</_>
        <_>
          6 14 1 1 2.</_>
        <_>
          7 15 1 1 2.</_></rects>
      <tilted>0</tilted></_>
    <_>
      <rects>
        <_>
          6 17 4 4 -1.</_>
        <_>
          6 17 2 2 2.</_>
        <_>
          8 19 2 2 2.</_></rects>
      <tilted>0</tilted></_>
    <_>
      <rects>
        <_>
          6 17 16 6 -1.</_>
        <_>
          6 19 16 2 2.</_></rects>
      <tilted>0</tilted></_>
    <_>
      <rects>
        <_>
          6 21 10 2 -1.</_>
        <_>
          6 22 10 1 2.</_></rects>
      <tilted>0</tilted></_>
    <_>
      <rects>
        <_>
          6 22 4 2 -1.</_>
        <_>
          6 22 2 1 2.</_>
        <_>
          8 23 2 1 2.</_></rects>
      <tilted>0</tilted></_>
    <_>
      <rects>
        <_>
          7 1 4 2 -1.</_>
        <_>
          7 1 2 1 2.</_>
        <_>
          9 2 2 1 2.</_></rects>
      <tilted>0</tilted></_>
    <_>
      <rects>
        <_>
          7 1 8 2 -1.</_>
        <_>
          7 1 4 1 2.</_>
        <_>
          11 2 4 1 2.</_></rects>
      <tilted>0</tilted></_>
    <_>
      <rects>
        <_>
          7 7 2 6 -1.</_>
        <_>
          7 7 1 3 2.</_>
        <_>
          8 10 1 3 2.</_></rects>
      <tilted>0</tilted></_>
    <_>
      <rects>
        <_>
          7 7 1 8 -1.</_>
        <_>
          7 11 1 4 2.</_></rects>
      <tilted>0</tilted></_>
    <_>
      <rects>
        <_>
          7 8 4 6 -1.</_>
        <_>
          7 11 4 3 2.</_></rects>
      <tilted>0</tilted></_>
    <_>
      <rects>
        <_>
          7 10 2 8 -1.</_>
        <_>
          7 10 1 4 2.</_>
        <_>
          8 14 1 4 2.</_></rects>
      <tilted>0</tilted></_>
    <_>
      <rects>
        <_>
          7 10 2 4 -1.</_>
        <_>
          7 12 2 2 2.</_></rects>
      <tilted>0</tilted></_>
    <_>
      <rects>
        <_>
          7 11 2 2 -1.</_>
        <_>
          7 11 1 1 2.</_>
        <_>
          8 12 1 1 2.</_></rects>
      <tilted>0</tilted></_>
    <_>
      <rects>
        <_>
          7 12 4 2 -1.</_>
        <_>
          7 12 2 1 2.</_>
        <_>
          9 13 2 1 2.</_></rects>
      <tilted>0</tilted></_>
    <_>
      <rects>
        <_>
          7 12 9 2 -1.</_>
        <_>
          7 13 9 1 2.</_></rects>
      <tilted>0</tilted></_>
    <_>
      <rects>
        <_>
          7 14 4 4 -1.</_>
        <_>
          7 14 2 2 2.</_>
        <_>
          9 16 2 2 2.</_></rects>
      <tilted>0</tilted></_>
    <_>
      <rects>
        <_>
          7 15 6 2 -1.</_>
        <_>
          9 15 2 2 2.</_></rects>
      <tilted>0</tilted></_>
    <_>
      <rects>
        <_>
          7 18 15 2 -1.</_>
        <_>
          12 18 5 2 2.</_></rects>
      <tilted>0</tilted></_>
    <_>
      <rects>
        <_>
          7 20 6 4 -1.</_>
        <_>
          9 20 2 4 2.</_></rects>
      <tilted>0</tilted></_>
    <_>
      <rects>
        <_>
          7 20 14 2 -1.</_>
        <_>
          7 20 7 1 2.</_>
        <_>
          14 21 7 1 2.</_></rects>
      <tilted>0</tilted></_>
    <_>
      <rects>
        <_>
          7 22 5 2 -1.</_>
        <_>
          7 23 5 1 2.</_></rects>
      <tilted>0</tilted></_>
    <_>
      <rects>
        <_>
          7 22 12 2 -1.</_>
        <_>
          13 22 6 2 2.</_></rects>
      <tilted>0</tilted></_>
    <_>
      <rects>
        <_>
          8 2 3 4 -1.</_>
        <_>
          8 4 3 2 2.</_></rects>
      <tilted>0</tilted></_>
    <_>
      <rects>
        <_>
          8 2 7 6 -1.</_>
        <_>
          8 5 7 3 2.</_></rects>
      <tilted>0</tilted></_>
    <_>
      <rects>
        <_>
          8 7 2 2 -1.</_>
        <_>
          8 7 1 1 2.</_>
        <_>
          9 8 1 1 2.</_></rects>
      <tilted>0</tilted></_>
    <_>
      <rects>
        <_>
          8 7 1 4 -1.</_>
        <_>
          8 9 1 2 2.</_></rects>
      <tilted>0</tilted></_>
    <_>
      <rects>
        <_>
          8 12 3 2 -1.</_>
        <_>
          9 12 1 2 2.</_></rects>
      <tilted>0</tilted></_>
    <_>
      <rects>
        <_>
          8 15 3 2 -1.</_>
        <_>
          8 16 3 1 2.</_></rects>
      <tilted>0</tilted></_>
    <_>
      <rects>
        <_>
          8 17 9 3 -1.</_>
        <_>
          11 17 3 3 2.</_></rects>
      <tilted>0</tilted></_>
    <_>
      <rects>
        <_>
          8 18 15 6 -1.</_>
        <_>
          8 20 15 2 2.</_></rects>
      <tilted>0</tilted></_>
    <_>
      <rects>
        <_>
          8 22 5 2 -1.</_>
        <_>
          8 23 5 1 2.</_></rects>
      <tilted>0</tilted></_>
    <_>
      <rects>
        <_>
          9 0 12 2 -1.</_>
        <_>
          9 0 6 1 2.</_>
        <_>
          15 1 6 1 2.</_></rects>
      <tilted>0</tilted></_>
    <_>
      <rects>
        <_>
          9 7 3 3 -1.</_>
        <_>
          9 8 3 1 2.</_></rects>
      <tilted>0</tilted></_>
    <_>
      <rects>
        <_>
          9 8 14 2 -1.</_>
        <_>
          9 9 14 1 2.</_></rects>
      <tilted>0</tilted></_>
    <_>
      <rects>
        <_>
          9 10 2 2 -1.</_>
        <_>
          9 10 1 1 2.</_>
        <_>
          10 11 1 1 2.</_></rects>
      <tilted>0</tilted></_>
    <_>
      <rects>
        <_>
          9 11 4 2 -1.</_>
        <_>
          9 11 2 1 2.</_>
        <_>
          11 12 2 1 2.</_></rects>
      <tilted>0</tilted></_>
    <_>
      <rects>
        <_>
          9 13 13 6 -1.</_>
        <_>
          9 15 13 2 2.</_></rects>
      <tilted>0</tilted></_>
    <_>
      <rects>
        <_>
          9 14 2 2 -1.</_>
        <_>
          9 14 1 1 2.</_>
        <_>
          10 15 1 1 2.</_></rects>
      <tilted>0</tilted></_>
    <_>
      <rects>
        <_>
          9 20 6 4 -1.</_>
        <_>
          9 22 6 2 2.</_></rects>
      <tilted>0</tilted></_>
    <_>
      <rects>
        <_>
          10 0 6 2 -1.</_>
        <_>
          10 0 3 1 2.</_>
        <_>
          13 1 3 1 2.</_></rects>
      <tilted>0</tilted></_>
    <_>
      <rects>
        <_>
          10 0 5 2 -1.</_>
        <_>
          10 1 5 1 2.</_></rects>
      <tilted>0</tilted></_>
    <_>
      <rects>
        <_>
          10 1 2 8 -1.</_>
        <_>
          10 1 1 4 2.</_>
        <_>
          11 5 1 4 2.</_></rects>
      <tilted>0</tilted></_>
    <_>
      <rects>
        <_>
          10 4 2 4 -1.</_>
        <_>
          10 4 1 2 2.</_>
        <_>
          11 6 1 2 2.</_></rects>
      <tilted>0</tilted></_>
    <_>
      <rects>
        <_>
          10 11 6 8 -1.</_>
        <_>
          10 15 6 4 2.</_></rects>
      <tilted>0</tilted></_>
    <_>
      <rects>
        <_>
          10 13 2 3 -1.</_>
        <_>
          11 13 1 3 2.</_></rects>
      <tilted>0</tilted></_>
    <_>
      <rects>
        <_>
          10 15 2 2 -1.</_>
        <_>
          10 15 1 1 2.</_>
        <_>
          11 16 1 1 2.</_></rects>
      <tilted>0</tilted></_>
    <_>
      <rects>
        <_>
          10 19 2 2 -1.</_>
        <_>
          10 19 1 1 2.</_>
        <_>
          11 20 1 1 2.</_></rects>
      <tilted>0</tilted></_>
    <_>
      <rects>
        <_>
          11 0 10 16 -1.</_>
        <_>
          16 0 5 16 2.</_></rects>
      <tilted>0</tilted></_>
    <_>
      <rects>
        <_>
          11 1 2 2 -1.</_>
        <_>
          11 1 1 1 2.</_>
        <_>
          12 2 1 1 2.</_></rects>
      <tilted>0</tilted></_>
    <_>
      <rects>
        <_>
          11 1 12 14 -1.</_>
        <_>
          11 1 6 7 2.</_>
        <_>
          17 8 6 7 2.</_></rects>
      <tilted>0</tilted></_>
    <_>
      <rects>
        <_>
          11 1 8 20 -1.</_>
        <_>
          11 11 8 10 2.</_></rects>
      <tilted>0</tilted></_>
    <_>
      <rects>
        <_>
          11 2 10 3 -1.</_>
        <_>
          16 2 5 3 2.</_></rects>
      <tilted>0</tilted></_>
    <_>
      <rects>
        <_>
          11 2 5 6 -1.</_>
        <_>
          11 5 5 3 2.</_></rects>
      <tilted>0</tilted></_>
    <_>
      <rects>
        <_>
          11 4 3 2 -1.</_>
        <_>
          11 5 3 1 2.</_></rects>
      <tilted>0</tilted></_>
    <_>
      <rects>
        <_>
          11 11 1 6 -1.</_>
        <_>
          11 14 1 3 2.</_></rects>
      <tilted>0</tilted></_>
    <_>
      <rects>
        <_>
          11 15 2 3 -1.</_>
        <_>
          12 15 1 3 2.</_></rects>
      <tilted>0</tilted></_>
    <_>
      <rects>
        <_>
          11 19 9 3 -1.</_>
        <_>
          11 20 9 1 2.</_></rects>
      <tilted>0</tilted></_>
    <_>
      <rects>
        <_>
          12 0 4 2 -1.</_>
        <_>
          12 0 2 1 2.</_>
        <_>
          14 1 2 1 2.</_></rects>
      <tilted>0</tilted></_>
    <_>
      <rects>
        <_>
          12 0 3 21 -1.</_>
        <_>
          12 7 3 7 2.</_></rects>
      <tilted>0</tilted></_>
    <_>
      <rects>
        <_>
          12 0 4 2 -1.</_>
        <_>
          12 1 4 1 2.</_></rects>
      <tilted>0</tilted></_>
    <_>
      <rects>
        <_>
          12 1 9 6 -1.</_>
        <_>
          12 4 9 3 2.</_></rects>
      <tilted>0</tilted></_>
    <_>
      <rects>
        <_>
          12 2 2 6 -1.</_>
        <_>
          13 2 1 6 2.</_></rects>
      <tilted>0</tilted></_>
    <_>
      <rects>
        <_>
          12 2 6 4 -1.</_>
        <_>
          12 2 3 2 2.</_>
        <_>
          15 4 3 2 2.</_></rects>
      <tilted>0</tilted></_>
    <_>
      <rects>
        <_>
          12 4 2 17 -1.</_>
        <_>
          13 4 1 17 2.</_></rects>
      <tilted>0</tilted></_>
    <_>
      <rects>
        <_>
          12 5 10 2 -1.</_>
        <_>
          12 6 10 1 2.</_></rects>
      <tilted>0</tilted></_>
    <_>
      <rects>
        <_>
          12 5 12 6 -1.</_>
        <_>
          12 8 12 3 2.</_></rects>
      <tilted>0</tilted></_>
    <_>
      <rects>
        <_>
          12 10 1 2 -1.</_>
        <_>
          12 11 1 1 2.</_></rects>
      <tilted>0</tilted></_>
    <_>
      <rects>
        <_>
          12 12 2 2 -1.</_>
        <_>
          12 12 1 1 2.</_>
        <_>
          13 13 1 1 2.</_></rects>
      <tilted>0</tilted></_>
    <_>
      <rects>
        <_>
          12 13 4 2 -1.</_>
        <_>
          12 13 2 1 2.</_>
        <_>
          14 14 2 1 2.</_></rects>
      <tilted>0</tilted></_>
    <_>
      <rects>
        <_>
          12 13 6 2 -1.</_>
        <_>
          12 13 3 1 2.</_>
        <_>
          15 14 3 1 2.</_></rects>
      <tilted>0</tilted></_>
    <_>
      <rects>
        <_>
          12 16 3 6 -1.</_>
        <_>
          12 19 3 3 2.</_></rects>
      <tilted>0</tilted></_>
    <_>
      <rects>
        <_>
          12 18 2 2 -1.</_>
        <_>
          13 18 1 2 2.</_></rects>
      <tilted>0</tilted></_>
    <_>
      <rects>
        <_>
          12 18 8 6 -1.</_>
        <_>
          12 21 8 3 2.</_></rects>
      <tilted>0</tilted></_>
    <_>
      <rects>
        <_>
          12 21 10 2 -1.</_>
        <_>
          12 21 5 1 2.</_>
        <_>
          17 22 5 1 2.</_></rects>
      <tilted>0</tilted></_>
    <_>
      <rects>
        <_>
          12 21 12 2 -1.</_>
        <_>
          12 21 6 1 2.</_>
        <_>
          18 22 6 1 2.</_></rects>
      <tilted>0</tilted></_>
    <_>
      <rects>
        <_>
          13 0 1 4 -1.</_>
        <_>
          13 2 1 2 2.</_></rects>
      <tilted>0</tilted></_>
    <_>
      <rects>
        <_>
          13 0 1 6 -1.</_>
        <_>
          13 3 1 3 2.</_></rects>
      <tilted>0</tilted></_>
    <_>
      <rects>
        <_>
          13 0 4 2 -1.</_>
        <_>
          13 1 4 1 2.</_></rects>
      <tilted>0</tilted></_>
    <_>
      <rects>
        <_>
          13 0 4 4 -1.</_>
        <_>
          13 2 4 2 2.</_></rects>
      <tilted>0</tilted></_>
    <_>
      <rects>
        <_>
          13 1 1 21 -1.</_>
        <_>
          13 8 1 7 2.</_></rects>
      <tilted>0</tilted></_>
    <_>
      <rects>
        <_>
          13 4 8 5 -1.</_>
        <_>
          17 4 4 5 2.</_></rects>
      <tilted>0</tilted></_>
    <_>
      <rects>
        <_>
          13 8 2 2 -1.</_>
        <_>
          13 8 1 1 2.</_>
        <_>
          14 9 1 1 2.</_></rects>
      <tilted>0</tilted></_>
    <_>
      <rects>
        <_>
          13 11 1 2 -1.</_>
        <_>
          13 12 1 1 2.</_></rects>
      <tilted>0</tilted></_>
    <_>
      <rects>
        <_>
          13 13 2 4 -1.</_>
        <_>
          13 13 1 2 2.</_>
        <_>
          14 15 1 2 2.</_></rects>
      <tilted>0</tilted></_>
    <_>
      <rects>
        <_>
          13 16 2 3 -1.</_>
        <_>
          14 16 1 3 2.</_></rects>
      <tilted>0</tilted></_>
    <_>
      <rects>
        <_>
          13 16 2 6 -1.</_>
        <_>
          13 16 1 3 2.</_>
        <_>
          14 19 1 3 2.</_></rects>
      <tilted>0</tilted></_>
    <_>
      <rects>
        <_>
          13 17 1 4 -1.</_>
        <_>
          13 19 1 2 2.</_></rects>
      <tilted>0</tilted></_>
    <_>
      <rects>
        <_>
          13 18 2 2 -1.</_>
        <_>
          13 18 1 1 2.</_>
        <_>
          14 19 1 1 2.</_></rects>
      <tilted>0</tilted></_>
    <_>
      <rects>
        <_>
          13 18 2 4 -1.</_>
        <_>
          14 18 1 4 2.</_></rects>
      <tilted>0</tilted></_>
    <_>
      <rects>
        <_>
          13 20 10 2 -1.</_>
        <_>
          13 20 5 1 2.</_>
        <_>
          18 21 5 1 2.</_></rects>
      <tilted>0</tilted></_>
    <_>
      <rects>
        <_>
          13 21 6 2 -1.</_>
        <_>
          13 21 3 1 2.</_>
        <_>
          16 22 3 1 2.</_></rects>
      <tilted>0</tilted></_>
    <_>
      <rects>
        <_>
          13 21 8 2 -1.</_>
        <_>
          13 21 4 1 2.</_>
        <_>
          17 22 4 1 2.</_></rects>
      <tilted>0</tilted></_>
    <_>
      <rects>
        <_>
          13 22 4 2 -1.</_>
        <_>
          13 22 2 1 2.</_>
        <_>
          15 23 2 1 2.</_></rects>
      <tilted>0</tilted></_>
    <_>
      <rects>
        <_>
          14 1 2 2 -1.</_>
        <_>
          14 1 1 1 2.</_>
        <_>
          15 2 1 1 2.</_></rects>
      <tilted>0</tilted></_>
    <_>
      <rects>
        <_>
          14 3 2 2 -1.</_>
        <_>
          15 3 1 2 2.</_></rects>
      <tilted>0</tilted></_>
    <_>
      <rects>
        <_>
          14 4 2 4 -1.</_>
        <_>
          14 4 1 2 2.</_>
        <_>
          15 6 1 2 2.</_></rects>
      <tilted>0</tilted></_>
    <_>
      <rects>
        <_>
          14 14 2 4 -1.</_>
        <_>
          15 14 1 4 2.</_></rects>
      <tilted>0</tilted></_>
    <_>
      <rects>
        <_>
          14 14 4 4 -1.</_>
        <_>
          14 16 4 2 2.</_></rects>
      <tilted>0</tilted></_>
    <_>
      <rects>
        <_>
          14 15 1 2 -1.</_>
        <_>
          14 16 1 1 2.</_></rects>
      <tilted>0</tilted></_>
    <_>
      <rects>
        <_>
          14 16 4 2 -1.</_>
        <_>
          14 16 2 1 2.</_>
        <_>
          16 17 2 1 2.</_></rects>
      <tilted>0</tilted></_>
    <_>
      <rects>
        <_>
          14 20 7 2 -1.</_>
        <_>
          14 21 7 1 2.</_></rects>
      <tilted>0</tilted></_>
    <_>
      <rects>
        <_>
          15 0 9 3 -1.</_>
        <_>
          18 0 3 3 2.</_></rects>
      <tilted>0</tilted></_>
    <_>
      <rects>
        <_>
          15 1 4 2 -1.</_>
        <_>
          15 1 2 1 2.</_>
        <_>
          17 2 2 1 2.</_></rects>
      <tilted>0</tilted></_>
    <_>
      <rects>
        <_>
          15 2 4 14 -1.</_>
        <_>
          15 9 4 7 2.</_></rects>
      <tilted>0</tilted></_>
    <_>
      <rects>
        <_>
          15 2 8 16 -1.</_>
        <_>
          15 2 4 8 2.</_>
        <_>
          19 10 4 8 2.</_></rects>
      <tilted>0</tilted></_>
    <_>
      <rects>
        <_>
          15 3 2 16 -1.</_>
        <_>
          15 3 1 8 2.</_>
        <_>
          16 11 1 8 2.</_></rects>
      <tilted>0</tilted></_>
    <_>
      <rects>
        <_>
          15 5 6 14 -1.</_>
        <_>
          18 5 3 14 2.</_></rects>
      <tilted>0</tilted></_>
    <_>
      <rects>
        <_>
          15 8 4 4 -1.</_>
        <_>
          15 8 2 2 2.</_>
        <_>
          17 10 2 2 2.</_></rects>
      <tilted>0</tilted></_>
    <_>
      <rects>
        <_>
          15 11 2 6 -1.</_>
        <_>
          15 11 1 3 2.</_>
        <_>
          16 14 1 3 2.</_></rects>
      <tilted>0</tilted></_>
    <_>
      <rects>
        <_>
          15 18 3 6 -1.</_>
        <_>
          15 21 3 3 2.</_></rects>
      <tilted>0</tilted></_>
    <_>
      <rects>
        <_>
          15 21 4 2 -1.</_>
        <_>
          15 21 2 1 2.</_>
        <_>
          17 22 2 1 2.</_></rects>
      <tilted>0</tilted></_>
    <_>
      <rects>
        <_>
          16 1 8 8 -1.</_>
        <_>
          16 1 4 4 2.</_>
        <_>
          20 5 4 4 2.</_></rects>
      <tilted>0</tilted></_>
    <_>
      <rects>
        <_>
          16 3 8 7 -1.</_>
        <_>
          20 3 4 7 2.</_></rects>
      <tilted>0</tilted></_>
    <_>
      <rects>
        <_>
          16 7 5 2 -1.</_>
        <_>
          16 8 5 1 2.</_></rects>
      <tilted>0</tilted></_>
    <_>
      <rects>
        <_>
          16 10 3 2 -1.</_>
        <_>
          16 11 3 1 2.</_></rects>
      <tilted>0</tilted></_>
    <_>
      <rects>
        <_>
          16 16 1 2 -1.</_>
        <_>
          16 17 1 1 2.</_></rects>
      <tilted>0</tilted></_>
    <_>
      <rects>
        <_>
          17 1 4 4 -1.</_>
        <_>
          17 1 2 2 2.</_>
        <_>
          19 3 2 2 2.</_></rects>
      <tilted>0</tilted></_>
    <_>
      <rects>
        <_>
          17 10 2 2 -1.</_>
        <_>
          17 11 2 1 2.</_></rects>
      <tilted>0</tilted></_>
    <_>
      <rects>
        <_>
          17 15 2 2 -1.</_>
        <_>
          17 15 1 1 2.</_>
        <_>
          18 16 1 1 2.</_></rects>
      <tilted>0</tilted></_>
    <_>
      <rects>
        <_>
          17 21 2 2 -1.</_>
        <_>
          17 21 1 1 2.</_>
        <_>
          18 22 1 1 2.</_></rects>
      <tilted>0</tilted></_>
    <_>
      <rects>
        <_>
          18 0 6 12 -1.</_>
        <_>
          18 6 6 6 2.</_></rects>
      <tilted>0</tilted></_>
    <_>
      <rects>
        <_>
          18 1 4 6 -1.</_>
        <_>
          18 1 2 3 2.</_>
        <_>
          20 4 2 3 2.</_></rects>
      <tilted>0</tilted></_>
    <_>
      <rects>
        <_>
          18 2 1 2 -1.</_>
        <_>
          18 3 1 1 2.</_></rects>
      <tilted>0</tilted></_>
    <_>
      <rects>
        <_>
          18 3 4 2 -1.</_>
        <_>
          18 3 2 1 2.</_>
        <_>
          20 4 2 1 2.</_></rects>
      <tilted>0</tilted></_>
    <_>
      <rects>
        <_>
          18 3 6 4 -1.</_>
        <_>
          18 3 3 2 2.</_>
        <_>
          21 5 3 2 2.</_></rects>
      <tilted>0</tilted></_>
    <_>
      <rects>
        <_>
          18 12 6 1 -1.</_>
        <_>
          21 12 3 1 2.</_></rects>
      <tilted>0</tilted></_>
    <_>
      <rects>
        <_>
          19 0 5 20 -1.</_>
        <_>
          19 10 5 10 2.</_></rects>
      <tilted>0</tilted></_>
    <_>
      <rects>
        <_>
          19 1 4 21 -1.</_>
        <_>
          19 8 4 7 2.</_></rects>
      <tilted>0</tilted></_>
    <_>
      <rects>
        <_>
          19 3 4 4 -1.</_>
        <_>
          19 5 4 2 2.</_></rects>
      <tilted>0</tilted></_>
    <_>
      <rects>
        <_>
          19 4 2 2 -1.</_>
        <_>
          19 4 1 1 2.</_>
        <_>
          20 5 1 1 2.</_></rects>
      <tilted>0</tilted></_>
    <_>
      <rects>
        <_>
          19 10 2 2 -1.</_>
        <_>
          19 11 2 1 2.</_></rects>
      <tilted>0</tilted></_>
    <_>
      <rects>
        <_>
          19 12 2 2 -1.</_>
        <_>
          19 13 2 1 2.</_></rects>
      <tilted>0</tilted></_>
    <_>
      <rects>
        <_>
          19 16 4 2 -1.</_>
        <_>
          21 16 2 2 2.</_></rects>
      <tilted>0</tilted></_>
    <_>
      <rects>
        <_>
          19 17 2 4 -1.</_>
        <_>
          19 17 1 2 2.</_>
        <_>
          20 19 1 2 2.</_></rects>
      <tilted>0</tilted></_>
    <_>
      <rects>
        <_>
          19 19 2 2 -1.</_>
        <_>
          19 19 1 1 2.</_>
        <_>
          20 20 1 1 2.</_></rects>
      <tilted>0</tilted></_>
    <_>
      <rects>
        <_>
          20 4 4 4 -1.</_>
        <_>
          20 4 2 2 2.</_>
        <_>
          22 6 2 2 2.</_></rects>
      <tilted>0</tilted></_>
    <_>
      <rects>
        <_>
          20 4 3 3 -1.</_>
        <_>
          20 5 3 1 2.</_></rects>
      <tilted>0</tilted></_>
    <_>
      <rects>
        <_>
          20 7 4 2 -1.</_>
        <_>
          22 7 2 2 2.</_></rects>
      <tilted>0</tilted></_>
    <_>
      <rects>
        <_>
          20 15 2 6 -1.</_>
        <_>
          20 15 1 3 2.</_>
        <_>
          21 18 1 3 2.</_></rects>
      <tilted>0</tilted></_>
    <_>
      <rects>
        <_>
          20 18 2 6 -1.</_>
        <_>
          21 18 1 6 2.</_></rects>
      <tilted>0</tilted></_>
    <_>
      <rects>
        <_>
          20 21 4 3 -1.</_>
        <_>
          22 21 2 3 2.</_></rects>
      <tilted>0</tilted></_>
    <_>
      <rects>
        <_>
          21 4 2 4 -1.</_>
        <_>
          21 4 1 2 2.</_>
        <_>
          22 6 1 2 2.</_></rects>
      <tilted>0</tilted></_>
    <_>
      <rects>
        <_>
          21 5 2 4 -1.</_>
        <_>
          21 7 2 2 2.</_></rects>
      <tilted>0</tilted></_>
    <_>
      <rects>
        <_>
          21 6 2 2 -1.</_>
        <_>
          21 6 1 1 2.</_>
        <_>
          22 7 1 1 2.</_></rects>
      <tilted>0</tilted></_>
    <_>
      <rects>
        <_>
          21 7 2 2 -1.</_>
        <_>
          21 7 1 1 2.</_>
        <_>
          22 8 1 1 2.</_></rects>
      <tilted>0</tilted></_>
    <_>
      <rects>
        <_>
          21 7 2 6 -1.</_>
        <_>
          21 7 1 3 2.</_>
        <_>
          22 10 1 3 2.</_></rects>
      <tilted>0</tilted></_>
    <_>
      <rects>
        <_>
          21 7 2 10 -1.</_>
        <_>
          22 7 1 10 2.</_></rects>
      <tilted>0</tilted></_>
    <_>
      <rects>
        <_>
          21 15 2 1 -1.</_>
        <_>
          22 15 1 1 2.</_></rects>
      <tilted>0</tilted></_>
    <_>
      <rects>
        <_>
          21 15 2 2 -1.</_>
        <_>
          21 15 1 1 2.</_>
        <_>
          22 16 1 1 2.</_></rects>
      <tilted>0</tilted></_>
    <_>
      <rects>
        <_>
          21 16 2 2 -1.</_>
        <_>
          21 16 1 1 2.</_>
        <_>
          22 17 1 1 2.</_></rects>
      <tilted>0</tilted></_>
    <_>
      <rects>
        <_>
          21 17 2 2 -1.</_>
        <_>
          21 17 1 1 2.</_>
        <_>
          22 18 1 1 2.</_></rects>
      <tilted>0</tilted></_>
    <_>
      <rects>
        <_>
          22 7 2 14 -1.</_>
        <_>
          22 7 1 7 2.</_>
        <_>
          23 14 1 7 2.</_></rects>
      <tilted>0</tilted></_>
    <_>
      <rects>
        <_>
          22 8 2 2 -1.</_>
        <_>
          22 8 1 1 2.</_>
        <_>
          23 9 1 1 2.</_></rects>
      <tilted>0</tilted></_>
    <_>
      <rects>
        <_>
          22 9 2 3 -1.</_>
        <_>
          23 9 1 3 2.</_></rects>
      <tilted>0</tilted></_>
    <_>
      <rects>
        <_>
          22 10 2 8 -1.</_>
        <_>
          23 10 1 8 2.</_></rects>
      <tilted>0</tilted></_>
    <_>
      <rects>
        <_>
          22 16 2 2 -1.</_>
        <_>
          22 16 1 1 2.</_>
        <_>
          23 17 1 1 2.</_></rects>
      <tilted>0</tilted></_></features></cascade>
</opencv_storage>
