<?xml version="1.0"?>
<opencv_storage>
<stage0>
  <maxWeakCount>8</maxWeakCount>
  <stageThreshold>-1.4054570198059082e+00</stageThreshold>
  <weakClassifiers>
    <_>
      <internalNodes>
        0 -1 10083 -1.3751597702503204e-01</internalNodes>
      <leafValues>
        -9.0333718061447144e-01 9.1863520443439484e-02</leafValues></_>
    <_>
      <internalNodes>
        0 -1 143903 -1.6388949006795883e-02</internalNodes>
      <leafValues>
        -8.8054460287094116e-01 1.0968599468469620e-01</leafValues></_>
    <_>
      <internalNodes>
        0 -1 72262 3.6730058491230011e-02</internalNodes>
      <leafValues>
        -4.7195920348167419e-01 6.4608949422836304e-01</leafValues></_>
    <_>
      <internalNodes>
        0 -1 895 -8.0385899543762207e-01</internalNodes>
      <leafValues>
        -8.6132544279098511e-01 2.0905999839305878e-01</leafValues></_>
    <_>
      <internalNodes>
        0 -1 158716 -1.3639577664434910e-03</internalNodes>
      <leafValues>
        5.9800457954406738e-01 -3.2109445333480835e-01</leafValues></_>
    <_>
      <internalNodes>
        0 -1 10008 5.0806772196665406e-04</internalNodes>
      <leafValues>
        -2.4141059815883636e-01 7.1625369787216187e-01</leafValues></_>
    <_>
      <internalNodes>
        0 -1 161911 3.7826603511348367e-04</internalNodes>
      <leafValues>
        -2.3674453794956207e-01 7.0719856023788452e-01</leafValues></_>
    <_>
      <internalNodes>
        0 -1 53659 -3.1422828324139118e-03</internalNodes>
      <leafValues>
        4.5034289360046387e-01 -4.4573909044265747e-01</leafValues></_></weakClassifiers></stage0>
</opencv_storage>
