<?xml version="1.0"?>
<opencv_storage>
<stage10>
  <maxWeakCount>25</maxWeakCount>
  <stageThreshold>-7.8276073932647705e-01</stageThreshold>
  <weakClassifiers>
    <_>
      <internalNodes>
        0 -1 8946 5.3577115759253502e-03</internalNodes>
      <leafValues>
        -4.0318906307220459e-01 1.2796208262443542e-01</leafValues></_>
    <_>
      <internalNodes>
        0 -1 13959 1.7220664303749800e-03</internalNodes>
      <leafValues>
        -2.7594649791717529e-01 1.8977691233158112e-01</leafValues></_>
    <_>
      <internalNodes>
        0 -1 68548 -8.1448134733363986e-04</internalNodes>
      <leafValues>
        -7.9451102018356323e-01 6.6837288439273834e-02</leafValues></_>
    <_>
      <internalNodes>
        0 -1 45482 -3.6991273518651724e-03</internalNodes>
      <leafValues>
        2.8541174530982971e-01 -1.6756406426429749e-01</leafValues></_>
    <_>
      <internalNodes>
        0 -1 132767 -4.2472798377275467e-03</internalNodes>
      <leafValues>
        2.5889787077903748e-01 -2.0558674633502960e-01</leafValues></_>
    <_>
      <internalNodes>
        0 -1 23196 1.7220373265445232e-03</internalNodes>
      <leafValues>
        -1.3785414397716522e-01 3.7456783652305603e-01</leafValues></_>
    <_>
      <internalNodes>
        0 -1 12548 -7.6984614133834839e-04</internalNodes>
      <leafValues>
        3.4819707274436951e-01 -1.5788835287094116e-01</leafValues></_>
    <_>
      <internalNodes>
        0 -1 153297 8.3489308599382639e-04</internalNodes>
      <leafValues>
        -2.5592833757400513e-01 2.4644640088081360e-01</leafValues></_>
    <_>
      <internalNodes>
        0 -1 130947 -3.7295430898666382e-02</internalNodes>
      <leafValues>
        -5.0617408752441406e-01 1.2136574089527130e-01</leafValues></_>
    <_>
      <internalNodes>
        0 -1 159433 -5.9025300288340077e-05</internalNodes>
      <leafValues>
        2.4265803396701813e-01 -2.4234999716281891e-01</leafValues></_>
    <_>
      <internalNodes>
        0 -1 115815 1.8146947026252747e-02</internalNodes>
      <leafValues>
        -1.3991053402423859e-01 3.8821759819984436e-01</leafValues></_>
    <_>
      <internalNodes>
        0 -1 59964 3.1436264980584383e-03</internalNodes>
      <leafValues>
        -5.8120023459196091e-02 7.0351403951644897e-01</leafValues></_>
    <_>
      <internalNodes>
        0 -1 25078 -2.0541854202747345e-02</internalNodes>
      <leafValues>
        5.2386969327926636e-01 -1.3291575014591217e-01</leafValues></_>
    <_>
      <internalNodes>
        0 -1 143499 -3.7792488001286983e-04</internalNodes>
      <leafValues>
        -5.6258821487426758e-01 1.0635821521282196e-01</leafValues></_>
    <_>
      <internalNodes>
        0 -1 157013 2.3136921226978302e-03</internalNodes>
      <leafValues>
        5.5836375802755356e-02 -8.3112800121307373e-01</leafValues></_>
    <_>
      <internalNodes>
        0 -1 111705 2.7899619191884995e-02</internalNodes>
      <leafValues>
        -1.5333548188209534e-01 3.7031829357147217e-01</leafValues></_>
    <_>
      <internalNodes>
        0 -1 78994 5.9059361228719354e-04</internalNodes>
      <leafValues>
        7.1515060961246490e-02 -8.4101670980453491e-01</leafValues></_>
    <_>
      <internalNodes>
        0 -1 82028 2.2095119953155518e-01</internalNodes>
      <leafValues>
        -7.7008284628391266e-02 8.7513870000839233e-01</leafValues></_>
    <_>
      <internalNodes>
        0 -1 13335 -4.6818796545267105e-03</internalNodes>
      <leafValues>
        4.3539440631866455e-01 -1.1777365952730179e-01</leafValues></_>
    <_>
      <internalNodes>
        0 -1 85936 -1.9076795433647931e-04</internalNodes>
      <leafValues>
        2.1954117715358734e-01 -2.8680846095085144e-01</leafValues></_>
    <_>
      <internalNodes>
        0 -1 95292 1.7423452809453011e-03</internalNodes>
      <leafValues>
        -1.1230793595314026e-01 6.3222622871398926e-01</leafValues></_>
    <_>
      <internalNodes>
        0 -1 128124 -1.1204347247257829e-03</internalNodes>
      <leafValues>
        3.3102998137474060e-01 -1.7104798555374146e-01</leafValues></_>
    <_>
      <internalNodes>
        0 -1 137936 6.3645746558904648e-04</internalNodes>
      <leafValues>
        1.6107904911041260e-01 -3.4836453199386597e-01</leafValues></_>
    <_>
      <internalNodes>
        0 -1 96364 -7.9288203269243240e-03</internalNodes>
      <leafValues>
        2.1386551856994629e-01 -2.7921360731124878e-01</leafValues></_>
    <_>
      <internalNodes>
        0 -1 150942 1.9971010624431074e-04</internalNodes>
      <leafValues>
        -1.4833040535449982e-01 4.1397923231124878e-01</leafValues></_></weakClassifiers></stage10>
</opencv_storage>
