<?xml version="1.0"?>
<opencv_storage>
<stage0>
  <maxWeakCount>17</maxWeakCount>
  <stageThreshold>-1.6152937412261963e+00</stageThreshold>
  <weakClassifiers>
    <_>
      <internalNodes>
        0 -1 19784 1.5436261892318726e-02</internalNodes>
      <leafValues>
        -7.9124999046325684e-01 3.0208334326744080e-01</leafValues></_>
    <_>
      <internalNodes>
        0 -1 26006 -7.0567965507507324e-02</internalNodes>
      <leafValues>
        -9.3351739645004272e-01 -1.1422528885304928e-02</leafValues></_>
    <_>
      <internalNodes>
        0 -1 2088 9.9500101059675217e-03</internalNodes>
      <leafValues>
        -2.6519486308097839e-01 7.4503499269485474e-01</leafValues></_>
    <_>
      <internalNodes>
        0 -1 17648 2.7043391019105911e-02</internalNodes>
      <leafValues>
        -2.6075878739356995e-01 4.4676896929740906e-01</leafValues></_>
    <_>
      <internalNodes>
        0 -1 32068 1.4142582193017006e-02</internalNodes>
      <leafValues>
        -1.2832213938236237e-01 6.4949953556060791e-01</leafValues></_>
    <_>
      <internalNodes>
        0 -1 21835 -1.8147841095924377e-02</internalNodes>
      <leafValues>
        -4.8277837038040161e-01 2.2330200672149658e-01</leafValues></_>
    <_>
      <internalNodes>
        0 -1 31243 8.9331269264221191e-03</internalNodes>
      <leafValues>
        -1.5098583698272705e-01 5.7045650482177734e-01</leafValues></_>
    <_>
      <internalNodes>
        0 -1 23132 -3.1173588708043098e-02</internalNodes>
      <leafValues>
        4.1336503624916077e-01 -2.4954999983310699e-01</leafValues></_>
    <_>
      <internalNodes>
        0 -1 30544 -6.3432026654481888e-03</internalNodes>
      <leafValues>
        5.9015321731567383e-01 -1.6001479327678680e-01</leafValues></_>
    <_>
      <internalNodes>
        0 -1 27328 3.0860712286084890e-03</internalNodes>
      <leafValues>
        1.6076672077178955e-01 -5.9700769186019897e-01</leafValues></_>
    <_>
      <internalNodes>
        0 -1 32229 6.6397921182215214e-03</internalNodes>
      <leafValues>
        -1.7275537550449371e-01 5.6221789121627808e-01</leafValues></_>
    <_>
      <internalNodes>
        0 -1 27215 8.8905764278024435e-04</internalNodes>
      <leafValues>
        1.7172156274318695e-01 -5.2553939819335938e-01</leafValues></_>
    <_>
      <internalNodes>
        0 -1 16983 7.9078022390604019e-03</internalNodes>
      <leafValues>
        -1.4703872799873352e-01 5.8945727348327637e-01</leafValues></_>
    <_>
      <internalNodes>
        0 -1 4800 2.1296236664056778e-03</internalNodes>
      <leafValues>
        -1.3327780365943909e-01 5.3756809234619141e-01</leafValues></_>
    <_>
      <internalNodes>
        0 -1 724 -7.9780644178390503e-01</internalNodes>
      <leafValues>
        -1.4304612576961517e-01 5.6597203016281128e-01</leafValues></_>
    <_>
      <internalNodes>
        0 -1 6892 5.7088984176516533e-03</internalNodes>
      <leafValues>
        -1.3949000835418701e-01 4.8444446921348572e-01</leafValues></_>
    <_>
      <internalNodes>
        0 -1 7068 -3.1873227562755346e-03</internalNodes>
      <leafValues>
        4.2646077275276184e-01 -1.9579873979091644e-01</leafValues></_></weakClassifiers></stage0>
</opencv_storage>
