<?xml version="1.0"?>
<opencv_storage>
<stage2>
  <maxWeakCount>11</maxWeakCount>
  <stageThreshold>-1.1953951120376587e+00</stageThreshold>
  <weakClassifiers>
    <_>
      <internalNodes>
        0 -1 26734 9.4164930284023285e-02</internalNodes>
      <leafValues>
        -7.9324460029602051e-01 1.9762845709919930e-02</leafValues></_>
    <_>
      <internalNodes>
        0 -1 13283 -6.7717336118221283e-02</internalNodes>
      <leafValues>
        -4.4679409265518188e-01 4.2500016093254089e-01</leafValues></_>
    <_>
      <internalNodes>
        0 -1 107874 -1.0582232475280762e-01</internalNodes>
      <leafValues>
        4.3333509564399719e-01 -2.8210967779159546e-01</leafValues></_>
    <_>
      <internalNodes>
        0 -1 147554 4.0713683119975030e-04</internalNodes>
      <leafValues>
        1.5282583236694336e-01 -7.3716074228286743e-01</leafValues></_>
    <_>
      <internalNodes>
        0 -1 228 3.8973454385995865e-02</internalNodes>
      <leafValues>
        -2.5640192627906799e-01 4.1674488782882690e-01</leafValues></_>
    <_>
      <internalNodes>
        0 -1 137637 1.3876666780561209e-03</internalNodes>
      <leafValues>
        1.9960118830204010e-01 -6.6567027568817139e-01</leafValues></_>
    <_>
      <internalNodes>
        0 -1 136802 1.0057038161903620e-03</internalNodes>
      <leafValues>
        1.6497223079204559e-01 -6.1715072393417358e-01</leafValues></_>
    <_>
      <internalNodes>
        0 -1 130964 -5.8700586669147015e-03</internalNodes>
      <leafValues>
        -6.6711300611495972e-01 1.3823693990707397e-01</leafValues></_>
    <_>
      <internalNodes>
        0 -1 132323 -5.3655571537092328e-04</internalNodes>
      <leafValues>
        -6.4350301027297974e-01 1.4403775334358215e-01</leafValues></_>
    <_>
      <internalNodes>
        0 -1 61513 -4.7450046986341476e-03</internalNodes>
      <leafValues>
        5.9933477640151978e-01 -1.8099820613861084e-01</leafValues></_>
    <_>
      <internalNodes>
        0 -1 70138 2.3024876136332750e-03</internalNodes>
      <leafValues>
        1.6225886344909668e-01 -6.5640330314636230e-01</leafValues></_></weakClassifiers></stage2>
</opencv_storage>
