<?xml version="1.0"?>
<opencv_storage>
<stage0>
  <maxWeakCount>10</maxWeakCount>
  <stageThreshold>-9.7741317749023438e-01</stageThreshold>
  <weakClassifiers>
    <_>
      <internalNodes>
        0 -1 71428 2.9260683804750443e-02</internalNodes>
      <leafValues>
        -5.9012347459793091e-01 3.6326530575752258e-01</leafValues></_>
    <_>
      <internalNodes>
        0 -1 907 -1.0206145048141479e-01</internalNodes>
      <leafValues>
        1.6320964694023132e-01 -8.8633877038955688e-01</leafValues></_>
    <_>
      <internalNodes>
        0 -1 133514 -1.8111120909452438e-02</internalNodes>
      <leafValues>
        -8.9295339584350586e-01 1.6434293985366821e-01</leafValues></_>
    <_>
      <internalNodes>
        0 -1 110148 -4.0978379547595978e-02</internalNodes>
      <leafValues>
        2.8095722198486328e-01 -5.3601038455963135e-01</leafValues></_>
    <_>
      <internalNodes>
        0 -1 8888 -1.1435698717832565e-02</internalNodes>
      <leafValues>
        7.5745183229446411e-01 -2.3798152804374695e-01</leafValues></_>
    <_>
      <internalNodes>
        0 -1 140271 7.4215270578861237e-03</internalNodes>
      <leafValues>
        -2.1857209503650665e-01 5.6611919403076172e-01</leafValues></_>
    <_>
      <internalNodes>
        0 -1 133714 4.6030869707465172e-03</internalNodes>
      <leafValues>
        -1.7908580601215363e-01 7.2993129491806030e-01</leafValues></_>
    <_>
      <internalNodes>
        0 -1 102658 -1.1638779938220978e-01</internalNodes>
      <leafValues>
        4.1924962401390076e-01 -3.2305777072906494e-01</leafValues></_>
    <_>
      <internalNodes>
        0 -1 120362 -3.1774491071701050e-04</internalNodes>
      <leafValues>
        -6.9503706693649292e-01 2.2631689906120300e-01</leafValues></_>
    <_>
      <internalNodes>
        0 -1 145227 8.9719593524932861e-03</internalNodes>
      <leafValues>
        -2.6341924071311951e-01 6.2377607822418213e-01</leafValues></_></weakClassifiers></stage0>
</opencv_storage>
