<?xml version="1.0"?>
<opencv_storage>
<stage8>
  <maxWeakCount>23</maxWeakCount>
  <stageThreshold>-7.3773604631423950e-01</stageThreshold>
  <weakClassifiers>
    <_>
      <internalNodes>
        0 -1 48972 7.5491762254387140e-04</internalNodes>
      <leafValues>
        -3.4177213907241821e-01 4.0206184983253479e-01</leafValues></_>
    <_>
      <internalNodes>
        0 -1 65519 -3.4755092859268188e-01</internalNodes>
      <leafValues>
        3.7817046046257019e-01 -1.9676952064037323e-01</leafValues></_>
    <_>
      <internalNodes>
        0 -1 128591 1.3619920937344432e-03</internalNodes>
      <leafValues>
        -1.5901543200016022e-01 4.4543060660362244e-01</leafValues></_>
    <_>
      <internalNodes>
        0 -1 138776 -2.4082020390778780e-03</internalNodes>
      <leafValues>
        -7.6339834928512573e-01 8.9865356683731079e-02</leafValues></_>
    <_>
      <internalNodes>
        0 -1 161587 -7.8760250471532345e-04</internalNodes>
      <leafValues>
        5.6536626815795898e-01 -1.1720546334981918e-01</leafValues></_>
    <_>
      <internalNodes>
        0 -1 131208 -3.5066076088696718e-04</internalNodes>
      <leafValues>
        -5.9565126895904541e-01 1.0349214822053909e-01</leafValues></_>
    <_>
      <internalNodes>
        0 -1 128040 1.2240790529176593e-03</internalNodes>
      <leafValues>
        -7.1958005428314209e-02 7.4329310655593872e-01</leafValues></_>
    <_>
      <internalNodes>
        0 -1 13154 -3.0002148821949959e-02</internalNodes>
      <leafValues>
        5.9704810380935669e-01 -9.7803965210914612e-02</leafValues></_>
    <_>
      <internalNodes>
        0 -1 89988 3.8097905926406384e-03</internalNodes>
      <leafValues>
        -1.1627383530139923e-01 5.6994873285293579e-01</leafValues></_>
    <_>
      <internalNodes>
        0 -1 143371 1.2035225518047810e-04</internalNodes>
      <leafValues>
        -2.5082698464393616e-01 2.5417873263359070e-01</leafValues></_>
    <_>
      <internalNodes>
        0 -1 1024 4.8139348626136780e-02</internalNodes>
      <leafValues>
        7.3482520878314972e-02 -1.</leafValues></_>
    <_>
      <internalNodes>
        0 -1 40617 2.0915953442454338e-02</internalNodes>
      <leafValues>
        -2.4580414593219757e-01 2.6604408025741577e-01</leafValues></_>
    <_>
      <internalNodes>
        0 -1 91321 -1.3415576890110970e-02</internalNodes>
      <leafValues>
        4.8397165536880493e-01 -1.4127708971500397e-01</leafValues></_>
    <_>
      <internalNodes>
        0 -1 18037 2.5081695057451725e-03</internalNodes>
      <leafValues>
        -1.3228020071983337e-01 4.2072618007659912e-01</leafValues></_>
    <_>
      <internalNodes>
        0 -1 159369 -2.1475320681929588e-02</internalNodes>
      <leafValues>
        -3.9100894331932068e-01 1.5675279498100281e-01</leafValues></_>
    <_>
      <internalNodes>
        0 -1 119498 -4.1090468876063824e-03</internalNodes>
      <leafValues>
        -8.1265121698379517e-01 6.3420481979846954e-02</leafValues></_>
    <_>
      <internalNodes>
        0 -1 139200 -9.5459877047687769e-04</internalNodes>
      <leafValues>
        6.5965467691421509e-01 -1.1928591877222061e-01</leafValues></_>
    <_>
      <internalNodes>
        0 -1 119236 -3.5041131079196930e-02</internalNodes>
      <leafValues>
        -5.6697481870651245e-01 1.2232272326946259e-01</leafValues></_>
    <_>
      <internalNodes>
        0 -1 103810 -8.8766766712069511e-03</internalNodes>
      <leafValues>
        2.4904732406139374e-01 -2.2983019053936005e-01</leafValues></_>
    <_>
      <internalNodes>
        0 -1 27098 -6.3537582755088806e-02</internalNodes>
      <leafValues>
        6.0080844163894653e-01 -9.8416022956371307e-02</leafValues></_>
    <_>
      <internalNodes>
        0 -1 32738 3.5945437848567963e-02</internalNodes>
      <leafValues>
        -1.7579905688762665e-01 4.3505865335464478e-01</leafValues></_>
    <_>
      <internalNodes>
        0 -1 90861 -1.3187259435653687e-02</internalNodes>
      <leafValues>
        6.3855361938476563e-01 -1.0441094636917114e-01</leafValues></_>
    <_>
      <internalNodes>
        0 -1 56164 -3.9568198844790459e-03</internalNodes>
      <leafValues>
        -4.5165199041366577e-01 1.4753060042858124e-01</leafValues></_></weakClassifiers></stage8>
</opencv_storage>
