<?xml version="1.0"?>
<opencv_storage>
<stage11>
  <maxWeakCount>29</maxWeakCount>
  <stageThreshold>-8.6600142717361450e-01</stageThreshold>
  <weakClassifiers>
    <_>
      <internalNodes>
        0 -1 51110 1.3278769329190254e-02</internalNodes>
      <leafValues>
        -3.8181817531585693e-01 2.5161290168762207e-01</leafValues></_>
    <_>
      <internalNodes>
        0 -1 36616 1.1273955460637808e-03</internalNodes>
      <leafValues>
        -1.7602862417697906e-01 3.5910707712173462e-01</leafValues></_>
    <_>
      <internalNodes>
        0 -1 4568 -1.1379061639308929e-01</internalNodes>
      <leafValues>
        -8.3873504400253296e-01 3.6372072994709015e-02</leafValues></_>
    <_>
      <internalNodes>
        0 -1 79475 -3.3536247792653739e-04</internalNodes>
      <leafValues>
        2.1826985478401184e-01 -3.1117916107177734e-01</leafValues></_>
    <_>
      <internalNodes>
        0 -1 141474 -1.0416359454393387e-01</internalNodes>
      <leafValues>
        -2.3398758471012115e-01 2.5345593690872192e-01</leafValues></_>
    <_>
      <internalNodes>
        0 -1 161911 7.2847539559006691e-04</internalNodes>
      <leafValues>
        -1.1530876904726028e-01 4.7020170092582703e-01</leafValues></_>
    <_>
      <internalNodes>
        0 -1 6744 -2.3462938144803047e-02</internalNodes>
      <leafValues>
        7.8085410594940186e-01 -4.3022856116294861e-02</leafValues></_>
    <_>
      <internalNodes>
        0 -1 138058 -1.2355747167021036e-03</internalNodes>
      <leafValues>
        2.3944909870624542e-01 -2.2926717996597290e-01</leafValues></_>
    <_>
      <internalNodes>
        0 -1 127977 4.5822244137525558e-03</internalNodes>
      <leafValues>
        -1.5631538629531860e-01 4.1632440686225891e-01</leafValues></_>
    <_>
      <internalNodes>
        0 -1 155788 -2.9458530480042100e-04</internalNodes>
      <leafValues>
        3.9342400431632996e-01 -1.2046076357364655e-01</leafValues></_>
    <_>
      <internalNodes>
        0 -1 90076 -8.2449883222579956e-02</internalNodes>
      <leafValues>
        -3.3314126729965210e-01 2.1421878039836884e-01</leafValues></_>
    <_>
      <internalNodes>
        0 -1 158464 -3.8942615501582623e-03</internalNodes>
      <leafValues>
        2.5413656234741211e-01 -2.3927998542785645e-01</leafValues></_>
    <_>
      <internalNodes>
        0 -1 146543 3.3938703127205372e-03</internalNodes>
      <leafValues>
        -1.4426630735397339e-01 4.1879025101661682e-01</leafValues></_>
    <_>
      <internalNodes>
        0 -1 113177 -4.4963797554373741e-03</internalNodes>
      <leafValues>
        3.0639636516571045e-01 -1.8914195895195007e-01</leafValues></_>
    <_>
      <internalNodes>
        0 -1 6729 -7.6046250760555267e-03</internalNodes>
      <leafValues>
        5.4227221012115479e-01 -1.1704658716917038e-01</leafValues></_>
    <_>
      <internalNodes>
        0 -1 153532 -1.1803577095270157e-01</internalNodes>
      <leafValues>
        -6.8149018287658691e-01 8.0832041800022125e-02</leafValues></_>
    <_>
      <internalNodes>
        0 -1 102220 -3.2190009951591492e-03</internalNodes>
      <leafValues>
        -7.6424443721771240e-01 5.6911081075668335e-02</leafValues></_>
    <_>
      <internalNodes>
        0 -1 144718 -1.2938455911353230e-03</internalNodes>
      <leafValues>
        6.5332126617431641e-01 -9.3433842062950134e-02</leafValues></_>
    <_>
      <internalNodes>
        0 -1 125757 -1.4938826207071543e-03</internalNodes>
      <leafValues>
        -7.3876875638961792e-01 7.9484269022941589e-02</leafValues></_>
    <_>
      <internalNodes>
        0 -1 139400 -4.1812155395746231e-03</internalNodes>
      <leafValues>
        5.6606137752532959e-01 -1.2163904309272766e-01</leafValues></_>
    <_>
      <internalNodes>
        0 -1 147511 -1.6018062829971313e-02</internalNodes>
      <leafValues>
        -4.4117361307144165e-01 1.3425435125827789e-01</leafValues></_>
    <_>
      <internalNodes>
        0 -1 2147 -2.5896872393786907e-03</internalNodes>
      <leafValues>
        4.9871578812599182e-01 -1.2009366601705551e-01</leafValues></_>
    <_>
      <internalNodes>
        0 -1 72487 -2.9093069024384022e-03</internalNodes>
      <leafValues>
        2.7366310358047485e-01 -2.2550851106643677e-01</leafValues></_>
    <_>
      <internalNodes>
        0 -1 7423 8.0297552049160004e-03</internalNodes>
      <leafValues>
        -7.2120428085327148e-02 8.6110389232635498e-01</leafValues></_>
    <_>
      <internalNodes>
        0 -1 70340 -5.9306632727384567e-02</internalNodes>
      <leafValues>
        -5.7750783860683441e-02 8.6696380376815796e-01</leafValues></_>
    <_>
      <internalNodes>
        0 -1 162099 1.1145053576910868e-04</internalNodes>
      <leafValues>
        -2.3860998451709747e-01 2.8456383943557739e-01</leafValues></_>
    <_>
      <internalNodes>
        0 -1 161079 -4.5068869367241859e-03</internalNodes>
      <leafValues>
        5.5073308944702148e-01 -9.2005603015422821e-02</leafValues></_>
    <_>
      <internalNodes>
        0 -1 155959 -6.8006606306880713e-04</internalNodes>
      <leafValues>
        4.4213199615478516e-01 -1.0848788917064667e-01</leafValues></_>
    <_>
      <internalNodes>
        0 -1 56186 5.1582206651801243e-05</internalNodes>
      <leafValues>
        1.7314900457859039e-01 -3.5065361857414246e-01</leafValues></_></weakClassifiers></stage11>
</opencv_storage>
