<?xml version="1.0"?>
<opencv_storage>
<stage9>
  <maxWeakCount>21</maxWeakCount>
  <stageThreshold>-1.3207044601440430e+00</stageThreshold>
  <weakClassifiers>
    <_>
      <internalNodes>
        0 -1 148597 2.3936554789543152e-03</internalNodes>
      <leafValues>
        -7.1883291006088257e-01 1.8840579688549042e-01</leafValues></_>
    <_>
      <internalNodes>
        0 -1 112353 -2.4658760055899620e-02</internalNodes>
      <leafValues>
        4.6058714389801025e-02 -5.5766761302947998e-01</leafValues></_>
    <_>
      <internalNodes>
        0 -1 89348 1.0650990530848503e-02</internalNodes>
      <leafValues>
        9.7762107849121094e-02 -6.3696920871734619e-01</leafValues></_>
    <_>
      <internalNodes>
        0 -1 161487 -4.9035130068659782e-03</internalNodes>
      <leafValues>
        4.7573924064636230e-01 -1.4642380177974701e-01</leafValues></_>
    <_>
      <internalNodes>
        0 -1 47452 -5.6721980217844248e-04</internalNodes>
      <leafValues>
        -4.4994041323661804e-01 1.4264087378978729e-01</leafValues></_>
    <_>
      <internalNodes>
        0 -1 138271 -4.7355519200209528e-05</internalNodes>
      <leafValues>
        2.7704662084579468e-01 -2.6212748885154724e-01</leafValues></_>
    <_>
      <internalNodes>
        0 -1 157453 -3.3602275652810931e-04</internalNodes>
      <leafValues>
        4.1163697838783264e-01 -1.5704104304313660e-01</leafValues></_>
    <_>
      <internalNodes>
        0 -1 10138 7.2348993271589279e-03</internalNodes>
      <leafValues>
        -2.6106774806976318e-01 2.5896057486534119e-01</leafValues></_>
    <_>
      <internalNodes>
        0 -1 24745 -2.5108242407441139e-03</internalNodes>
      <leafValues>
        5.7007527351379395e-01 -1.2545952200889587e-01</leafValues></_>
    <_>
      <internalNodes>
        0 -1 66805 1.4400656800717115e-03</internalNodes>
      <leafValues>
        2.0960769057273865e-01 -3.3180540800094604e-01</leafValues></_>
    <_>
      <internalNodes>
        0 -1 46776 -4.2067822068929672e-03</internalNodes>
      <leafValues>
        -8.2941037416458130e-01 7.7400021255016327e-02</leafValues></_>
    <_>
      <internalNodes>
        0 -1 70564 -1.7328053945675492e-03</internalNodes>
      <leafValues>
        4.6947169303894043e-01 -1.5152330696582794e-01</leafValues></_>
    <_>
      <internalNodes>
        0 -1 147247 -2.3642848245799541e-03</internalNodes>
      <leafValues>
        -6.2087941169738770e-01 1.0808557271957397e-01</leafValues></_>
    <_>
      <internalNodes>
        0 -1 128124 1.7967522144317627e-03</internalNodes>
      <leafValues>
        -1.2021534889936447e-01 6.2180376052856445e-01</leafValues></_>
    <_>
      <internalNodes>
        0 -1 37982 -7.0834704674780369e-03</internalNodes>
      <leafValues>
        -4.9970576167106628e-01 1.4818120002746582e-01</leafValues></_>
    <_>
      <internalNodes>
        0 -1 143969 -2.2731933277100325e-03</internalNodes>
      <leafValues>
        5.6477081775665283e-01 -1.2487544119358063e-01</leafValues></_>
    <_>
      <internalNodes>
        0 -1 137542 -1.1962217278778553e-02</internalNodes>
      <leafValues>
        -6.5210121870040894e-01 1.1159067600965500e-01</leafValues></_>
    <_>
      <internalNodes>
        0 -1 89825 -9.4337301561608911e-04</internalNodes>
      <leafValues>
        6.8770009279251099e-01 -1.2313717603683472e-01</leafValues></_>
    <_>
      <internalNodes>
        0 -1 158274 -4.7786813229322433e-03</internalNodes>
      <leafValues>
        6.0385519266128540e-01 -1.0102237761020660e-01</leafValues></_>
    <_>
      <internalNodes>
        0 -1 62147 -1.3393503613770008e-03</internalNodes>
      <leafValues>
        4.8700052499771118e-01 -1.6344515979290009e-01</leafValues></_>
    <_>
      <internalNodes>
        0 -1 74262 2.4899254739284515e-01</internalNodes>
      <leafValues>
        -7.6284192502498627e-02 8.4807914495468140e-01</leafValues></_></weakClassifiers></stage9>
</opencv_storage>
