<?xml version="1.0"?>
<opencv_storage>
<stage9>
  <maxWeakCount>8</maxWeakCount>
  <stageThreshold>-1.3781886100769043e+00</stageThreshold>
  <weakClassifiers>
    <_>
      <internalNodes>
        0 -1 7100 -661523969 -639954803 -671088291 -15875953 -1157060113
        -102858520 -335502646 -26344566</internalNodes>
      <leafValues>
        -8.2588452100753784e-01 2.3529411852359772e-01</leafValues></_>
    <_>
      <internalNodes>
        0 -1 5301 -566319635 -1304328173 -1878916659 -1801223990
        -508947281 -895270909 1368050313 1872816902</internalNodes>
      <leafValues>
        -6.5571439266204834e-01 1.3113731145858765e-01</leafValues></_>
    <_>
      <internalNodes>
        0 -1 8072 1083408244 1089601539 1090606620 -1554312822
        -1861742536 562594475 -448765464 1903646966</internalNodes>
      <leafValues>
        -7.0176202058792114e-01 2.5189095735549927e-01</leafValues></_>
    <_>
      <internalNodes>
        0 -1 122 1497561008 289636738 553664522 -754913277 1342915205
        -905641463 315357442 211661870</internalNodes>
      <leafValues>
        -5.5911862850189209e-01 3.3916726708412170e-01</leafValues></_>
    <_>
      <internalNodes>
        0 -1 8087 -226960069 1083769369 25165955 420511818 -1853218556
        843612417 1242073816 -1550304528</internalNodes>
      <leafValues>
        -6.3189035654067993e-01 3.5199922323226929e-01</leafValues></_>
    <_>
      <internalNodes>
        0 -1 8455 -1454743394 1377030272 34078816 -599506927 268476889
        8552472 931844858 606799971</internalNodes>
      <leafValues>
        -5.2416437864303589e-01 4.1853779554367065e-01</leafValues></_>
    <_>
      <internalNodes>
        0 -1 3220 -1309302392 1400996106 32781 -1069154256 -2137845745
        1487243401 100882682 566299817</internalNodes>
      <leafValues>
        -5.9589624404907227e-01 3.9983406662940979e-01</leafValues></_>
    <_>
      <internalNodes>
        0 -1 3216 2021689453 -92209131 327836 1024594129 3251
        -2147450868 -1291277057 -1090318158</internalNodes>
      <leafValues>
        -4.9548736214637756e-01 5.3962230682373047e-01</leafValues></_></weakClassifiers></stage9>
</opencv_storage>
