<?xml version="1.0"?>
<opencv_storage>
<stage1>
  <maxWeakCount>5</maxWeakCount>
  <stageThreshold>-3.7994599342346191e-01</stageThreshold>
  <weakClassifiers>
    <_>
      <internalNodes>
        0 -1 10732 -3.0038672685623169e-01</internalNodes>
      <leafValues>
        -7.0370370149612427e-01 7.6119405031204224e-01</leafValues></_>
    <_>
      <internalNodes>
        0 -1 162301 -1.3498360291123390e-02</internalNodes>
      <leafValues>
        -4.0464594960212708e-01 9.4306129217147827e-01</leafValues></_>
    <_>
      <internalNodes>
        0 -1 123335 7.5189457274973392e-03</internalNodes>
      <leafValues>
        -4.4121757149696350e-01 7.1546113491058350e-01</leafValues></_>
    <_>
      <internalNodes>
        0 -1 25466 -3.8463231176137924e-03</internalNodes>
      <leafValues>
        7.7221041917800903e-01 -4.7268241643905640e-01</leafValues></_>
    <_>
      <internalNodes>
        0 -1 133721 -1.6309250146150589e-02</internalNodes>
      <leafValues>
        -1. 4.8562493920326233e-01</leafValues></_></weakClassifiers></stage1>
</opencv_storage>
