<?xml version="1.0"?>
<opencv_storage>
<stage4>
  <maxWeakCount>7</maxWeakCount>
  <stageThreshold>-1.5623564720153809e+00</stageThreshold>
  <weakClassifiers>
    <_>
      <internalNodes>
        0 -1 8425 -484968457 1330102555 -1878997842 -719365131
        1402973728 -1870561249 -1147939330 -204473633</internalNodes>
      <leafValues>
        -8.7755101919174194e-01 -3.6384439468383789e-01</leafValues></_>
    <_>
      <internalNodes>
        0 -1 378 -35652705 -1563376677 461725800 -104070400 -634913905
        -82738973 1884135501 -476598657</internalNodes>
      <leafValues>
        -6.0017794370651245e-01 2.6715481281280518e-01</leafValues></_>
    <_>
      <internalNodes>
        0 -1 3495 -86641241 1393400003 -493207138 2045757661 873866182
        -2106390803 1976884092 -1477905000</internalNodes>
      <leafValues>
        -6.5766191482543945e-01 2.8343728184700012e-01</leafValues></_>
    <_>
      <internalNodes>
        0 -1 8354 -208701754 -330444554 1922781572 -949123634 1640266215
        -324275673 1156113344 -2050497858</internalNodes>
      <leafValues>
        -5.6696534156799316e-01 3.4753859043121338e-01</leafValues></_>
    <_>
      <internalNodes>
        0 -1 7083 1178707346 851497154 272647095 -237715143 -1466844499
        -2097501647 680534431 213834413</internalNodes>
      <leafValues>
        -4.7559201717376709e-01 4.7360560297966003e-01</leafValues></_>
    <_>
      <internalNodes>
        0 -1 8280 -1210865942 -669023800 -170587658 -1671593955
        -1144327224 -629043192 -1228227940 -1873722584</internalNodes>
      <leafValues>
        -5.2783882617950439e-01 4.1251739859580994e-01</leafValues></_>
    <_>
      <internalNodes>
        0 -1 116 -1176051766 1351086848 -61729880 -1170713613 -575573082
        2040570129 -1433756750 1907337912</internalNodes>
      <leafValues>
        -8.1200057268142700e-01 2.8782743215560913e-01</leafValues></_></weakClassifiers></stage4>
</opencv_storage>
