<?xml version="1.0"?>
<opencv_storage>
<stage12>
  <maxWeakCount>26</maxWeakCount>
  <stageThreshold>-9.2046999931335449e-01</stageThreshold>
  <weakClassifiers>
    <_>
      <internalNodes>
        0 -1 64166 -3.5367280244827271e-01</internalNodes>
      <leafValues>
        2.0000000298023224e-01 -3.6565655469894409e-01</leafValues></_>
    <_>
      <internalNodes>
        0 -1 47488 4.3100694892928004e-04</internalNodes>
      <leafValues>
        1.3087618350982666e-01 -4.2653161287307739e-01</leafValues></_>
    <_>
      <internalNodes>
        0 -1 10013 1.9863012712448835e-03</internalNodes>
      <leafValues>
        -1.4503331482410431e-01 4.2251303791999817e-01</leafValues></_>
    <_>
      <internalNodes>
        0 -1 35923 -9.6049839630723000e-03</internalNodes>
      <leafValues>
        3.0542096495628357e-01 -1.6852355003356934e-01</leafValues></_>
    <_>
      <internalNodes>
        0 -1 29429 -5.0347950309514999e-03</internalNodes>
      <leafValues>
        6.6791445016860962e-01 -5.3481183946132660e-02</leafValues></_>
    <_>
      <internalNodes>
        0 -1 158256 2.8695625951513648e-04</internalNodes>
      <leafValues>
        -2.6408180594444275e-01 2.4417163431644440e-01</leafValues></_>
    <_>
      <internalNodes>
        0 -1 38664 -1.0743962973356247e-01</internalNodes>
      <leafValues>
        -7.9333639144897461e-01 7.7041156589984894e-02</leafValues></_>
    <_>
      <internalNodes>
        0 -1 77262 -3.1902797054499388e-03</internalNodes>
      <leafValues>
        3.4635007381439209e-01 -2.1525914967060089e-01</leafValues></_>
    <_>
      <internalNodes>
        0 -1 159977 5.5634095333516598e-03</internalNodes>
      <leafValues>
        -7.9429343342781067e-02 9.5525568723678589e-01</leafValues></_>
    <_>
      <internalNodes>
        0 -1 161276 -1.0177862131968141e-03</internalNodes>
      <leafValues>
        -2.9597952961921692e-01 2.3011101782321930e-01</leafValues></_>
    <_>
      <internalNodes>
        0 -1 126352 -5.5647356202825904e-04</internalNodes>
      <leafValues>
        -7.4535745382308960e-01 8.1933520734310150e-02</leafValues></_>
    <_>
      <internalNodes>
        0 -1 161911 8.5436052177101374e-04</internalNodes>
      <leafValues>
        -1.5359365940093994e-01 4.9850693345069885e-01</leafValues></_>
    <_>
      <internalNodes>
        0 -1 145323 5.0152428448200226e-02</internalNodes>
      <leafValues>
        9.2081308364868164e-02 -8.3933842182159424e-01</leafValues></_>
    <_>
      <internalNodes>
        0 -1 160997 -9.1170897940173745e-04</internalNodes>
      <leafValues>
        2.5478306412696838e-01 -2.4801380932331085e-01</leafValues></_>
    <_>
      <internalNodes>
        0 -1 162245 9.5544639043509960e-04</internalNodes>
      <leafValues>
        -9.2008158564567566e-02 6.0046106576919556e-01</leafValues></_>
    <_>
      <internalNodes>
        0 -1 34923 -5.3917076438665390e-03</internalNodes>
      <leafValues>
        7.5575506687164307e-01 -6.5387174487113953e-02</leafValues></_>
    <_>
      <internalNodes>
        0 -1 113850 -1.0893070138990879e-02</internalNodes>
      <leafValues>
        4.0806964039802551e-01 -1.3840311765670776e-01</leafValues></_>
    <_>
      <internalNodes>
        0 -1 135800 -1.6229049651883543e-04</internalNodes>
      <leafValues>
        -3.5273700952529907e-01 1.5791347622871399e-01</leafValues></_>
    <_>
      <internalNodes>
        0 -1 106763 -2.7861772105097771e-03</internalNodes>
      <leafValues>
        5.6677687168121338e-01 -1.0043212026357651e-01</leafValues></_>
    <_>
      <internalNodes>
        0 -1 87540 6.6851265728473663e-05</internalNodes>
      <leafValues>
        1.7745837569236755e-01 -3.6163997650146484e-01</leafValues></_>
    <_>
      <internalNodes>
        0 -1 160459 -1.1444899719208479e-03</internalNodes>
      <leafValues>
        6.8994075059890747e-01 -7.6803043484687805e-02</leafValues></_>
    <_>
      <internalNodes>
        0 -1 114817 -6.5585494041442871e-02</internalNodes>
      <leafValues>
        4.8149219155311584e-01 -1.2642270326614380e-01</leafValues></_>
    <_>
      <internalNodes>
        0 -1 74314 1.9142888486385345e-02</internalNodes>
      <leafValues>
        -1.2999825179576874e-01 5.0391483306884766e-01</leafValues></_>
    <_>
      <internalNodes>
        0 -1 147268 -3.0122743919491768e-04</internalNodes>
      <leafValues>
        -4.0665361285209656e-01 1.5853166580200195e-01</leafValues></_>
    <_>
      <internalNodes>
        0 -1 89568 8.9790101628750563e-04</internalNodes>
      <leafValues>
        -1.6331684589385986e-01 4.1363251209259033e-01</leafValues></_>
    <_>
      <internalNodes>
        0 -1 70812 -1.3216421008110046e-02</internalNodes>
      <leafValues>
        7.4422365427017212e-01 -7.6349668204784393e-02</leafValues></_></weakClassifiers></stage12>
</opencv_storage>
