<?xml version="1.0"?>
<opencv_storage>
<stage9>
  <maxWeakCount>30</maxWeakCount>
  <stageThreshold>-1.3319318294525146e+00</stageThreshold>
  <weakClassifiers>
    <_>
      <internalNodes>
        0 -1 11045 -2.2319476120173931e-03</internalNodes>
      <leafValues>
        -7.2811061143875122e-01 1.</leafValues></_>
    <_>
      <internalNodes>
        0 -1 128046 2.7401624247431755e-03</internalNodes>
      <leafValues>
        -3.7541165947914124e-01 9.2332698404788971e-02</leafValues></_>
    <_>
      <internalNodes>
        0 -1 48490 8.2166772335767746e-04</internalNodes>
      <leafValues>
        -1.5818336606025696e-01 3.2752522826194763e-01</leafValues></_>
    <_>
      <internalNodes>
        0 -1 55544 -2.1579740860033780e-04</internalNodes>
      <leafValues>
        -3.1587260961532593e-01 1.1771265417337418e-01</leafValues></_>
    <_>
      <internalNodes>
        0 -1 132071 -1.2744183186441660e-04</internalNodes>
      <leafValues>
        2.1641859412193298e-01 -1.9549411535263062e-01</leafValues></_>
    <_>
      <internalNodes>
        0 -1 112375 3.7372116930782795e-03</internalNodes>
      <leafValues>
        -8.0827742815017700e-02 5.1859790086746216e-01</leafValues></_>
    <_>
      <internalNodes>
        0 -1 68548 -8.1419106572866440e-04</internalNodes>
      <leafValues>
        -8.0082613229751587e-01 4.9198135733604431e-02</leafValues></_>
    <_>
      <internalNodes>
        0 -1 11036 -8.7988888844847679e-04</internalNodes>
      <leafValues>
        3.9460086822509766e-01 -1.2392997741699219e-01</leafValues></_>
    <_>
      <internalNodes>
        0 -1 115815 1.8129726871848106e-02</internalNodes>
      <leafValues>
        -9.9280059337615967e-02 3.4362488985061646e-01</leafValues></_>
    <_>
      <internalNodes>
        0 -1 123442 5.8825188316404819e-03</internalNodes>
      <leafValues>
        5.3952310234308243e-02 -6.3192349672317505e-01</leafValues></_>
    <_>
      <internalNodes>
        0 -1 37248 2.1040307357907295e-02</internalNodes>
      <leafValues>
        -7.8827165067195892e-02 5.7024681568145752e-01</leafValues></_>
    <_>
      <internalNodes>
        0 -1 114083 2.3600431450176984e-04</internalNodes>
      <leafValues>
        1.1686827242374420e-01 -4.1256496310234070e-01</leafValues></_>
    <_>
      <internalNodes>
        0 -1 18032 5.6628920137882233e-03</internalNodes>
      <leafValues>
        -9.2248089611530304e-02 5.0054442882537842e-01</leafValues></_>
    <_>
      <internalNodes>
        0 -1 40678 -2.1988474763929844e-03</internalNodes>
      <leafValues>
        4.2460519075393677e-01 -9.0743541717529297e-02</leafValues></_>
    <_>
      <internalNodes>
        0 -1 71873 -2.1782971918582916e-02</internalNodes>
      <leafValues>
        3.3483669161796570e-01 -1.3136155903339386e-01</leafValues></_>
    <_>
      <internalNodes>
        0 -1 105344 -1.2479718029499054e-01</internalNodes>
      <leafValues>
        1.4180041849613190e-01 -3.1027519702911377e-01</leafValues></_>
    <_>
      <internalNodes>
        0 -1 56749 -5.1357772201299667e-02</internalNodes>
      <leafValues>
        -2.4101938307285309e-01 2.3420071601867676e-01</leafValues></_>
    <_>
      <internalNodes>
        0 -1 135043 3.3263370278291404e-04</internalNodes>
      <leafValues>
        1.3770027458667755e-01 -3.5437601804733276e-01</leafValues></_>
    <_>
      <internalNodes>
        0 -1 105369 3.2432607258670032e-04</internalNodes>
      <leafValues>
        7.9321511089801788e-02 -5.4437738656997681e-01</leafValues></_>
    <_>
      <internalNodes>
        0 -1 80670 -6.9372118450701237e-03</internalNodes>
      <leafValues>
        4.3151468038558960e-01 -1.1493326723575592e-01</leafValues></_>
    <_>
      <internalNodes>
        0 -1 23401 -4.7298884019255638e-03</internalNodes>
      <leafValues>
        2.5906836986541748e-01 -1.6470652818679810e-01</leafValues></_>
    <_>
      <internalNodes>
        0 -1 162001 2.2214985801838338e-04</internalNodes>
      <leafValues>
        -1.6761209070682526e-01 2.8556203842163086e-01</leafValues></_>
    <_>
      <internalNodes>
        0 -1 8808 2.3068804293870926e-03</internalNodes>
      <leafValues>
        -7.1826733648777008e-02 5.8073002099990845e-01</leafValues></_>
    <_>
      <internalNodes>
        0 -1 28181 6.1389207839965820e-03</internalNodes>
      <leafValues>
        -8.4018930792808533e-02 4.5781615376472473e-01</leafValues></_>
    <_>
      <internalNodes>
        0 -1 76437 4.3568853288888931e-03</internalNodes>
      <leafValues>
        -7.4228577315807343e-02 5.5633234977722168e-01</leafValues></_>
    <_>
      <internalNodes>
        0 -1 44316 -6.4484640024602413e-03</internalNodes>
      <leafValues>
        1.8751540780067444e-01 -2.3276929557323456e-01</leafValues></_>
    <_>
      <internalNodes>
        0 -1 124249 -3.8233257830142975e-02</internalNodes>
      <leafValues>
        -6.2174963951110840e-01 9.5500461757183075e-02</leafValues></_>
    <_>
      <internalNodes>
        0 -1 9509 -1.0430102050304413e-01</internalNodes>
      <leafValues>
        -3.4417963027954102e-01 1.0449144989252090e-01</leafValues></_>
    <_>
      <internalNodes>
        0 -1 98258 -1.6504195332527161e-01</internalNodes>
      <leafValues>
        2.6984700560569763e-01 -2.0146977901458740e-01</leafValues></_>
    <_>
      <internalNodes>
        0 -1 7243 -1.7205023765563965e-01</internalNodes>
      <leafValues>
        6.2511664628982544e-01 -7.4522659182548523e-02</leafValues></_></weakClassifiers></stage9>
</opencv_storage>
