<?xml version="1.0"?>
<opencv_storage>
<stage2>
  <maxWeakCount>13</maxWeakCount>
  <stageThreshold>-1.2747246026992798e+00</stageThreshold>
  <weakClassifiers>
    <_>
      <internalNodes>
        0 -1 18845 5.9819202870130539e-03</internalNodes>
      <leafValues>
        -4.7474747896194458e-01 5.4838711023330688e-01</leafValues></_>
    <_>
      <internalNodes>
        0 -1 140901 -5.5400994606316090e-03</internalNodes>
      <leafValues>
        4.2725393176078796e-01 -3.6593729257583618e-01</leafValues></_>
    <_>
      <internalNodes>
        0 -1 37450 -6.0654582921415567e-04</internalNodes>
      <leafValues>
        8.0685913562774658e-01 -1.7269706726074219e-01</leafValues></_>
    <_>
      <internalNodes>
        0 -1 25280 1.2324007693678141e-03</internalNodes>
      <leafValues>
        -1.7568290233612061e-01 7.7645862102508545e-01</leafValues></_>
    <_>
      <internalNodes>
        0 -1 18803 -5.5960408644750714e-04</internalNodes>
      <leafValues>
        7.2323018312454224e-01 -1.6127380728721619e-01</leafValues></_>
    <_>
      <internalNodes>
        0 -1 159458 -2.7025225572288036e-03</internalNodes>
      <leafValues>
        6.8796920776367188e-01 -1.8690565228462219e-01</leafValues></_>
    <_>
      <internalNodes>
        0 -1 71623 9.5641351072117686e-04</internalNodes>
      <leafValues>
        -1.4247150719165802e-01 6.2293642759323120e-01</leafValues></_>
    <_>
      <internalNodes>
        0 -1 60364 -2.0868335850536823e-03</internalNodes>
      <leafValues>
        6.4026606082916260e-01 -1.6084626317024231e-01</leafValues></_>
    <_>
      <internalNodes>
        0 -1 160369 3.7434539990499616e-04</internalNodes>
      <leafValues>
        -1.7646479606628418e-01 5.4462885856628418e-01</leafValues></_>
    <_>
      <internalNodes>
        0 -1 132823 -2.0205201581120491e-03</internalNodes>
      <leafValues>
        3.6373770236968994e-01 -3.3279913663864136e-01</leafValues></_>
    <_>
      <internalNodes>
        0 -1 23633 1.7588592600077391e-03</internalNodes>
      <leafValues>
        -2.0198640227317810e-01 5.8176612854003906e-01</leafValues></_>
    <_>
      <internalNodes>
        0 -1 12808 1.0716564720496535e-03</internalNodes>
      <leafValues>
        -9.8172605037689209e-02 9.2058324813842773e-01</leafValues></_>
    <_>
      <internalNodes>
        0 -1 6674 1.0180344106629491e-03</internalNodes>
      <leafValues>
        -2.0168350636959076e-01 5.3555011749267578e-01</leafValues></_></weakClassifiers></stage2>
</opencv_storage>
