<?xml version="1.0"?>
<opencv_storage>
<stage2>
  <maxWeakCount>5</maxWeakCount>
  <stageThreshold>-1.2962341308593750e+00</stageThreshold>
  <weakClassifiers>
    <_>
      <internalNodes>
        0 -1 3256 2.6811607182025909e-02</internalNodes>
      <leafValues>
        -5.3333336114883423e-01 7.0909088850021362e-01</leafValues></_>
    <_>
      <internalNodes>
        0 -1 155716 -1.2200674042105675e-02</internalNodes>
      <leafValues>
        7.4870783090591431e-01 -3.6367014050483704e-01</leafValues></_>
    <_>
      <internalNodes>
        0 -1 110033 -1.6273884475231171e-01</internalNodes>
      <leafValues>
        3.4151262044906616e-01 -7.9721999168395996e-01</leafValues></_>
    <_>
      <internalNodes>
        0 -1 144718 -3.7716585211455822e-04</internalNodes>
      <leafValues>
        7.2815126180648804e-01 -4.8589241504669189e-01</leafValues></_>
    <_>
      <internalNodes>
        0 -1 484 4.3845074251294136e-03</internalNodes>
      <leafValues>
        -3.3016195893287659e-01 8.2848662137985229e-01</leafValues></_></weakClassifiers></stage2>
</opencv_storage>
