<?xml version="1.0"?>
<opencv_storage>
<stage6>
  <maxWeakCount>8</maxWeakCount>
  <stageThreshold>-1.6670116186141968e+00</stageThreshold>
  <weakClassifiers>
    <_>
      <internalNodes>
        0 -1 8434 -52429825 -574101220 -1744460596 -103822714 -754340909
        -475027075 2034290650 -5506145</internalNodes>
      <leafValues>
        -8.4134852886199951e-01 -2.2746780514717102e-01</leafValues></_>
    <_>
      <internalNodes>
        0 -1 1991 -165821873 2103281115 1350816654 2056798614
        -1144876283 -109346215 -1249732422 -2082210981</internalNodes>
      <leafValues>
        -7.2269421815872192e-01 4.4176645576953888e-02</leafValues></_>
    <_>
      <internalNodes>
        0 -1 4332 -1439522384 -680464115 1229066901 -1898282725
        -1423357288 973217934 -1149042051 -1131918348</internalNodes>
      <leafValues>
        -6.4770942926406860e-01 2.5569733977317810e-01</leafValues></_>
    <_>
      <internalNodes>
        0 -1 8031 2128722976 -1703815141 25768070 1726693263 -84313892
        -1020308962 -559613858 -622067850</internalNodes>
      <leafValues>
        -6.1373794078826904e-01 3.1202909350395203e-01</leafValues></_>
    <_>
      <internalNodes>
        0 -1 6805 -397931742 -1114402422 -1727425537 -1646274468
        -1700157187 -1164869549 1631693725 226431072</internalNodes>
      <leafValues>
        -5.6653696298599243e-01 3.8749909400939941e-01</leafValues></_>
    <_>
      <internalNodes>
        0 -1 4694 1868266835 -758258213 -746290030 214884503 956532792
        -912719486 1136829868 1911602672</internalNodes>
      <leafValues>
        -7.9561233520507813e-01 2.6898914575576782e-01</leafValues></_>
    <_>
      <internalNodes>
        0 -1 8182 -388384576 -2101194584 -2147413653 -158343028
        -628512371 19828741 421613968 -782025343</internalNodes>
      <leafValues>
        -6.4828610420227051e-01 3.0373814702033997e-01</leafValues></_>
    <_>
      <internalNodes>
        0 -1 744 -567229767 1411007259 -1325297659 -108691053 1879353768
        -1291581400 671779512 50467237</internalNodes>
      <leafValues>
        -5.1798939704895020e-01 4.4197210669517517e-01</leafValues></_></weakClassifiers></stage6>
</opencv_storage>
