<?xml version="1.0"?>
<opencv_storage>
<stage10>
  <maxWeakCount>20</maxWeakCount>
  <stageThreshold>-1.1241633892059326e+00</stageThreshold>
  <weakClassifiers>
    <_>
      <internalNodes>
        0 -1 80565 2.0296767354011536e-02</internalNodes>
      <leafValues>
        -6.8067228794097900e-01 1.</leafValues></_>
    <_>
      <internalNodes>
        0 -1 154105 1.2263254029676318e-03</internalNodes>
      <leafValues>
        -1.1720795184373856e-02 -5.6513255834579468e-01</leafValues></_>
    <_>
      <internalNodes>
        0 -1 61962 9.7728539258241653e-03</internalNodes>
      <leafValues>
        -2.1312266588211060e-01 2.6319751143455505e-01</leafValues></_>
    <_>
      <internalNodes>
        0 -1 75559 8.4358258172869682e-03</internalNodes>
      <leafValues>
        -9.4140261411666870e-02 4.9573197960853577e-01</leafValues></_>
    <_>
      <internalNodes>
        0 -1 104694 -1.2163845822215080e-02</internalNodes>
      <leafValues>
        3.2930076122283936e-01 -1.9091814756393433e-01</leafValues></_>
    <_>
      <internalNodes>
        0 -1 106568 -3.2466873526573181e-03</internalNodes>
      <leafValues>
        4.6248516440391541e-01 -7.0274144411087036e-02</leafValues></_>
    <_>
      <internalNodes>
        0 -1 106279 -4.8323435476049781e-04</internalNodes>
      <leafValues>
        -6.3310402631759644e-01 8.8372096419334412e-02</leafValues></_>
    <_>
      <internalNodes>
        0 -1 127993 5.2469223737716675e-04</internalNodes>
      <leafValues>
        -1.0991013050079346e-01 4.4265294075012207e-01</leafValues></_>
    <_>
      <internalNodes>
        0 -1 128007 2.0879106596112251e-03</internalNodes>
      <leafValues>
        -1.3073389232158661e-01 3.7529668211936951e-01</leafValues></_>
    <_>
      <internalNodes>
        0 -1 134155 -1.3402879238128662e-01</internalNodes>
      <leafValues>
        -1.5214706957340240e-01 3.5950455069541931e-01</leafValues></_>
    <_>
      <internalNodes>
        0 -1 160831 -1.1342846788465977e-02</internalNodes>
      <leafValues>
        1.7442031204700470e-01 -3.2348120212554932e-01</leafValues></_>
    <_>
      <internalNodes>
        0 -1 106695 -1.7338186502456665e-02</internalNodes>
      <leafValues>
        -9.3618720769882202e-02 6.3554388284683228e-01</leafValues></_>
    <_>
      <internalNodes>
        0 -1 20940 2.1671033464372158e-03</internalNodes>
      <leafValues>
        -1.3839463889598846e-01 4.2680042982101440e-01</leafValues></_>
    <_>
      <internalNodes>
        0 -1 8146 -1.6123316527227871e-05</internalNodes>
      <leafValues>
        3.2036831974983215e-01 -1.8699914216995239e-01</leafValues></_>
    <_>
      <internalNodes>
        0 -1 68544 -1.9302975852042437e-04</internalNodes>
      <leafValues>
        -4.4433984160423279e-01 1.1663756519556046e-01</leafValues></_>
    <_>
      <internalNodes>
        0 -1 18089 -9.3367062509059906e-03</internalNodes>
      <leafValues>
        5.1445251703262329e-01 -1.0031028836965561e-01</leafValues></_>
    <_>
      <internalNodes>
        0 -1 28676 6.6373888403177261e-03</internalNodes>
      <leafValues>
        -8.2865990698337555e-02 6.6656774282455444e-01</leafValues></_>
    <_>
      <internalNodes>
        0 -1 146405 -7.6371280010789633e-04</internalNodes>
      <leafValues>
        -6.5241140127182007e-01 9.4626262784004211e-02</leafValues></_>
    <_>
      <internalNodes>
        0 -1 125271 -3.7487810477614403e-03</internalNodes>
      <leafValues>
        3.9258131384849548e-01 -1.5322026610374451e-01</leafValues></_>
    <_>
      <internalNodes>
        0 -1 24435 5.9179251547902822e-04</internalNodes>
      <leafValues>
        -1.6339442133903503e-01 3.2194760441780090e-01</leafValues></_></weakClassifiers></stage10>
</opencv_storage>
