<?xml version="1.0"?>
<opencv_storage>
<stage14>
  <maxWeakCount>8</maxWeakCount>
  <stageThreshold>-6.4493346214294434e-01</stageThreshold>
  <weakClassifiers>
    <_>
      <internalNodes>
        0 -1 161501 -1.1839520186185837e-02</internalNodes>
      <leafValues>
        8.3999997377395630e-01 -3.0666667222976685e-01</leafValues></_>
    <_>
      <internalNodes>
        0 -1 35073 7.0376535877585411e-03</internalNodes>
      <leafValues>
        2.9956555366516113e-01 -6.4849305152893066e-01</leafValues></_>
    <_>
      <internalNodes>
        0 -1 161754 1.2038376880809665e-03</internalNodes>
      <leafValues>
        -2.9971033334732056e-01 7.8702467679977417e-01</leafValues></_>
    <_>
      <internalNodes>
        0 -1 157604 -6.0466164723038673e-04</internalNodes>
      <leafValues>
        9.1892141103744507e-01 -1.4402171969413757e-01</leafValues></_>
    <_>
      <internalNodes>
        0 -1 9459 -6.6696288995444775e-03</internalNodes>
      <leafValues>
        8.7660461664199829e-01 -1.9725191593170166e-01</leafValues></_>
    <_>
      <internalNodes>
        0 -1 160469 -1.9294497324153781e-03</internalNodes>
      <leafValues>
        8.0117624998092651e-01 -1.6334442794322968e-01</leafValues></_>
    <_>
      <internalNodes>
        0 -1 138744 1.6490379493916407e-05</internalNodes>
      <leafValues>
        3.3522596955299377e-01 -6.1537176370620728e-01</leafValues></_>
    <_>
      <internalNodes>
        0 -1 161834 -1.9760706345550716e-04</internalNodes>
      <leafValues>
        6.8987619876861572e-01 -2.8361445665359497e-01</leafValues></_></weakClassifiers></stage14>
</opencv_storage>
