<?xml version="1.0"?>
<opencv_storage>
<stage1>
  <maxWeakCount>6</maxWeakCount>
  <stageThreshold>-1.1632992029190063e+00</stageThreshold>
  <weakClassifiers>
    <_>
      <internalNodes>
        0 -1 6466 -1704105 -603990161 -974277793 -169930921 -120739329
        -73704773 -1081344801 -266817</internalNodes>
      <leafValues>
        -8.5930627584457397e-01 4.4334974139928818e-02</leafValues></_>
    <_>
      <internalNodes>
        0 -1 6325 1874852863 -36220433 19513823 -2696869 -70667403
        -1177071475 -103621980 -33768452</internalNodes>
      <leafValues>
        -7.6572757959365845e-01 2.0533427596092224e-01</leafValues></_>
    <_>
      <internalNodes>
        0 -1 4324 -1495355140 -669064783 428413048 -246660926 999326385
        61571202 -1584418165 -1109675531</internalNodes>
      <leafValues>
        -6.1320650577545166e-01 4.1894423961639404e-01</leafValues></_>
    <_>
      <internalNodes>
        0 -1 184 -272652333 1830332898 -1591503410 1437012372 -888804610
        1216585859 -1802669841 -788536344</internalNodes>
      <leafValues>
        -5.8188140392303467e-01 4.8608231544494629e-01</leafValues></_>
    <_>
      <internalNodes>
        0 -1 5183 -547881475 227514331 1441252029 -1347906098 -635323905
        1038871242 581271032 -1462808546</internalNodes>
      <leafValues>
        -5.9794342517852783e-01 4.8472562432289124e-01</leafValues></_>
    <_>
      <internalNodes>
        0 -1 7105 1972820324 -612404270 -1760569064 1061993111
        -305497756 -800896319 1891807645 1666441207</internalNodes>
      <leafValues>
        -7.4898976087570190e-01 4.4424900412559509e-01</leafValues></_></weakClassifiers></stage1>
</opencv_storage>
