<?xml version="1.0"?>
<opencv_storage>
<stage8>
  <maxWeakCount>8</maxWeakCount>
  <stageThreshold>-5.9752130508422852e-01</stageThreshold>
  <weakClassifiers>
    <_>
      <internalNodes>
        0 -1 114653 1.0929787531495094e-02</internalNodes>
      <leafValues>
        -5.5038762092590332e-01 1.</leafValues></_>
    <_>
      <internalNodes>
        0 -1 44809 -1.1885498464107513e-01</internalNodes>
      <leafValues>
        4.2194196581840515e-01 -4.0450128912925720e-01</leafValues></_>
    <_>
      <internalNodes>
        0 -1 126407 3.5403165966272354e-03</internalNodes>
      <leafValues>
        2.2708049416542053e-01 -7.3393881320953369e-01</leafValues></_>
    <_>
      <internalNodes>
        0 -1 25280 -1.0492468718439341e-03</internalNodes>
      <leafValues>
        6.3351094722747803e-01 -2.2810909152030945e-01</leafValues></_>
    <_>
      <internalNodes>
        0 -1 60309 -8.6263846606016159e-04</internalNodes>
      <leafValues>
        4.2576378583908081e-01 -3.7948405742645264e-01</leafValues></_>
    <_>
      <internalNodes>
        0 -1 84325 -1.6626405995339155e-03</internalNodes>
      <leafValues>
        -8.9471715688705444e-01 2.0322957634925842e-01</leafValues></_>
    <_>
      <internalNodes>
        0 -1 108953 1.4007505960762501e-02</internalNodes>
      <leafValues>
        -2.3980708420276642e-01 8.3415341377258301e-01</leafValues></_>
    <_>
      <internalNodes>
        0 -1 79708 -1.0459587210789323e-03</internalNodes>
      <leafValues>
        -7.3309028148651123e-01 2.4071335792541504e-01</leafValues></_></weakClassifiers></stage8>
</opencv_storage>
