<?xml version="1.0"?>
<opencv_storage>
<stage5>
  <maxWeakCount>6</maxWeakCount>
  <stageThreshold>-9.1109275817871094e-01</stageThreshold>
  <weakClassifiers>
    <_>
      <internalNodes>
        0 -1 140238 -5.5139228701591492e-02</internalNodes>
      <leafValues>
        6.6666668653488159e-01 -7.3451328277587891e-01</leafValues></_>
    <_>
      <internalNodes>
        0 -1 161812 1.0525856167078018e-02</internalNodes>
      <leafValues>
        -4.4877660274505615e-01 7.6417005062103271e-01</leafValues></_>
    <_>
      <internalNodes>
        0 -1 26812 8.3311053458601236e-04</internalNodes>
      <leafValues>
        -3.0877435207366943e-01 8.4257906675338745e-01</leafValues></_>
    <_>
      <internalNodes>
        0 -1 47047 1.4676919090561569e-04</internalNodes>
      <leafValues>
        2.9469197988510132e-01 -9.6943610906600952e-01</leafValues></_>
    <_>
      <internalNodes>
        0 -1 134067 -1.9107874482870102e-02</internalNodes>
      <leafValues>
        5.9218639135360718e-01 -3.8703858852386475e-01</leafValues></_>
    <_>
      <internalNodes>
        0 -1 139636 1.1096710804849863e-03</internalNodes>
      <leafValues>
        -3.0590692162513733e-01 9.4752722978591919e-01</leafValues></_></weakClassifiers></stage5>
</opencv_storage>
