<?xml version="1.0"?>
<opencv_storage>
<stage3>
  <maxWeakCount>17</maxWeakCount>
  <stageThreshold>-1.1384512186050415e+00</stageThreshold>
  <weakClassifiers>
    <_>
      <internalNodes>
        0 -1 128396 1.8285281956195831e-02</internalNodes>
      <leafValues>
        -5.4869359731674194e-01 3.5371178388595581e-01</leafValues></_>
    <_>
      <internalNodes>
        0 -1 106317 -2.5932300835847855e-02</internalNodes>
      <leafValues>
        -7.9005140066146851e-01 1.4468851685523987e-01</leafValues></_>
    <_>
      <internalNodes>
        0 -1 107123 -6.9851335138082504e-03</internalNodes>
      <leafValues>
        7.6059383153915405e-01 -1.3974665105342865e-01</leafValues></_>
    <_>
      <internalNodes>
        0 -1 96825 -8.6380564607679844e-04</internalNodes>
      <leafValues>
        -6.6312855482101440e-01 1.5904793143272400e-01</leafValues></_>
    <_>
      <internalNodes>
        0 -1 128201 -4.4380016624927521e-03</internalNodes>
      <leafValues>
        8.7209188938140869e-01 -1.7956559360027313e-01</leafValues></_>
    <_>
      <internalNodes>
        0 -1 6715 3.0827950686216354e-03</internalNodes>
      <leafValues>
        -1.0062031447887421e-01 6.0607832670211792e-01</leafValues></_>
    <_>
      <internalNodes>
        0 -1 148089 1.1895505711436272e-02</internalNodes>
      <leafValues>
        -1.7098233103752136e-01 5.5792576074600220e-01</leafValues></_>
    <_>
      <internalNodes>
        0 -1 112174 8.0542219802737236e-04</internalNodes>
      <leafValues>
        1.5163125097751617e-01 -6.5589517354965210e-01</leafValues></_>
    <_>
      <internalNodes>
        0 -1 96140 -3.4612943418323994e-03</internalNodes>
      <leafValues>
        2.5844955444335938e-01 -3.8425678014755249e-01</leafValues></_>
    <_>
      <internalNodes>
        0 -1 104440 -1.0407322552055120e-03</internalNodes>
      <leafValues>
        -8.4121578931808472e-01 1.2832868099212646e-01</leafValues></_>
    <_>
      <internalNodes>
        0 -1 36642 -4.0916670113801956e-03</internalNodes>
      <leafValues>
        4.8283857107162476e-01 -1.8889097869396210e-01</leafValues></_>
    <_>
      <internalNodes>
        0 -1 10075 -1.5443680807948112e-02</internalNodes>
      <leafValues>
        5.6815254688262939e-01 -1.6136267781257629e-01</leafValues></_>
    <_>
      <internalNodes>
        0 -1 38037 -9.6766173839569092e-02</internalNodes>
      <leafValues>
        -4.6312063932418823e-01 2.2573764622211456e-01</leafValues></_>
    <_>
      <internalNodes>
        0 -1 127954 -1.3222150737419724e-03</internalNodes>
      <leafValues>
        4.7381323575973511e-01 -2.1177491545677185e-01</leafValues></_>
    <_>
      <internalNodes>
        0 -1 120023 3.3975779078900814e-03</internalNodes>
      <leafValues>
        1.4455023407936096e-01 -7.3777765035629272e-01</leafValues></_>
    <_>
      <internalNodes>
        0 -1 32810 2.0439218729734421e-02</internalNodes>
      <leafValues>
        -2.1372227370738983e-01 4.6302476525306702e-01</leafValues></_>
    <_>
      <internalNodes>
        0 -1 57712 -8.0925883958116174e-04</internalNodes>
      <leafValues>
        -6.3381046056747437e-01 1.6713081300258636e-01</leafValues></_></weakClassifiers></stage3>
</opencv_storage>
