<?xml version="1.0"?>
<opencv_storage>
<stage13>
  <maxWeakCount>5</maxWeakCount>
  <stageThreshold>-8.9592200517654419e-01</stageThreshold>
  <weakClassifiers>
    <_>
      <internalNodes>
        0 -1 148994 -7.0491987280547619e-03</internalNodes>
      <leafValues>
        1. -7.6470589637756348e-01</leafValues></_>
    <_>
      <internalNodes>
        0 -1 70650 2.6539183454588056e-04</internalNodes>
      <leafValues>
        -3.9537373185157776e-01 1.</leafValues></_>
    <_>
      <internalNodes>
        0 -1 162043 -4.7155172796919942e-04</internalNodes>
      <leafValues>
        -5.5335134267807007e-01 5.8145540952682495e-01</leafValues></_>
    <_>
      <internalNodes>
        0 -1 79021 4.3139276094734669e-03</internalNodes>
      <leafValues>
        4.7644695639610291e-01 -8.8115322589874268e-01</leafValues></_>
    <_>
      <internalNodes>
        0 -1 15371 -1.8242832738906145e-03</internalNodes>
      <leafValues>
        -7.4100273847579956e-01 5.6385546922683716e-01</leafValues></_></weakClassifiers></stage13>
</opencv_storage>
