<?xml version="1.0"?>
<opencv_storage>
<stage6>
  <maxWeakCount>27</maxWeakCount>
  <stageThreshold>-1.1891840696334839e+00</stageThreshold>
  <weakClassifiers>
    <_>
      <internalNodes>
        0 -1 161768 -1.7062902450561523e-02</internalNodes>
      <leafValues>
        5.7446807622909546e-01 -6.4588528871536255e-01</leafValues></_>
    <_>
      <internalNodes>
        0 -1 18017 1.0484766680747271e-03</internalNodes>
      <leafValues>
        -2.2041362524032593e-01 4.8357716202735901e-01</leafValues></_>
    <_>
      <internalNodes>
        0 -1 158108 -2.4064313620328903e-03</internalNodes>
      <leafValues>
        4.6959850192070007e-01 -1.1787575483322144e-01</leafValues></_>
    <_>
      <internalNodes>
        0 -1 87652 -2.2453848272562027e-02</internalNodes>
      <leafValues>
        -5.6311041116714478e-01 1.0130701214075089e-01</leafValues></_>
    <_>
      <internalNodes>
        0 -1 119917 -1.6267675906419754e-02</internalNodes>
      <leafValues>
        -4.7934192419052124e-01 1.4716234803199768e-01</leafValues></_>
    <_>
      <internalNodes>
        0 -1 106749 -1.0586671996861696e-03</internalNodes>
      <leafValues>
        4.3626561760902405e-01 -1.5747679769992828e-01</leafValues></_>
    <_>
      <internalNodes>
        0 -1 39681 1.0783551260828972e-02</internalNodes>
      <leafValues>
        -1.6662964224815369e-01 3.3363866806030273e-01</leafValues></_>
    <_>
      <internalNodes>
        0 -1 11493 1.4723578933626413e-03</internalNodes>
      <leafValues>
        -1.0321592539548874e-01 4.5767995715141296e-01</leafValues></_>
    <_>
      <internalNodes>
        0 -1 8946 5.5481884628534317e-03</internalNodes>
      <leafValues>
        -1.6437722742557526e-01 3.3115112781524658e-01</leafValues></_>
    <_>
      <internalNodes>
        0 -1 142868 1.2058180291205645e-03</internalNodes>
      <leafValues>
        7.9860553145408630e-02 -6.2458878755569458e-01</leafValues></_>
    <_>
      <internalNodes>
        0 -1 139245 5.3371000103652477e-04</internalNodes>
      <leafValues>
        -1.7555755376815796e-01 2.9762002825737000e-01</leafValues></_>
    <_>
      <internalNodes>
        0 -1 160983 2.0860675722360611e-03</internalNodes>
      <leafValues>
        -9.0199306607246399e-02 5.4296153783798218e-01</leafValues></_>
    <_>
      <internalNodes>
        0 -1 122417 -8.0919743049889803e-04</internalNodes>
      <leafValues>
        -4.6321052312850952e-01 1.1613692343235016e-01</leafValues></_>
    <_>
      <internalNodes>
        0 -1 48980 -6.4593582646921277e-04</internalNodes>
      <leafValues>
        3.1654495000839233e-01 -1.7388339340686798e-01</leafValues></_>
    <_>
      <internalNodes>
        0 -1 127473 -2.0056166686117649e-03</internalNodes>
      <leafValues>
        -6.1982595920562744e-01 9.0008832514286041e-02</leafValues></_>
    <_>
      <internalNodes>
        0 -1 33350 2.1903438027948141e-04</internalNodes>
      <leafValues>
        1.6261513531208038e-01 -3.3026963472366333e-01</leafValues></_>
    <_>
      <internalNodes>
        0 -1 159723 7.9281179932877421e-04</internalNodes>
      <leafValues>
        -1.8975844979286194e-01 2.6371806859970093e-01</leafValues></_>
    <_>
      <internalNodes>
        0 -1 154494 -2.4748714640736580e-03</internalNodes>
      <leafValues>
        -6.0495293140411377e-01 8.8576637208461761e-02</leafValues></_>
    <_>
      <internalNodes>
        0 -1 151321 -6.5113056916743517e-04</internalNodes>
      <leafValues>
        2.4348093569278717e-01 -2.4367170035839081e-01</leafValues></_>
    <_>
      <internalNodes>
        0 -1 12258 -1.4409370487555861e-03</internalNodes>
      <leafValues>
        4.0019023418426514e-01 -1.2548555433750153e-01</leafValues></_>
    <_>
      <internalNodes>
        0 -1 11522 2.7533804532140493e-03</internalNodes>
      <leafValues>
        -1.3626328110694885e-01 3.5388070344924927e-01</leafValues></_>
    <_>
      <internalNodes>
        0 -1 125749 -1.0446023661643267e-03</internalNodes>
      <leafValues>
        -8.4852486848831177e-01 6.8841166794300079e-02</leafValues></_>
    <_>
      <internalNodes>
        0 -1 133394 -6.9083180278539658e-04</internalNodes>
      <leafValues>
        -5.5964702367782593e-01 7.4569180607795715e-02</leafValues></_>
    <_>
      <internalNodes>
        0 -1 133725 1.5605619410052896e-03</internalNodes>
      <leafValues>
        -1.2451694905757904e-01 4.4202154874801636e-01</leafValues></_>
    <_>
      <internalNodes>
        0 -1 71548 -3.6194553831592202e-04</internalNodes>
      <leafValues>
        3.6832773685455322e-01 -1.4020916819572449e-01</leafValues></_>
    <_>
      <internalNodes>
        0 -1 47488 3.9954652311280370e-04</internalNodes>
      <leafValues>
        1.2770056724548340e-01 -4.2136594653129578e-01</leafValues></_>
    <_>
      <internalNodes>
        0 -1 160459 -6.6709332168102264e-04</internalNodes>
      <leafValues>
        4.6109795570373535e-01 -1.2567023932933807e-01</leafValues></_></weakClassifiers></stage6>
</opencv_storage>
