<?xml version="1.0"?>
<opencv_storage>
<stage14>
  <maxWeakCount>5</maxWeakCount>
  <stageThreshold>-1.0468040704727173e+00</stageThreshold>
  <weakClassifiers>
    <_>
      <internalNodes>
        0 -1 28666 -3.4371207002550364e-03</internalNodes>
      <leafValues>
        5.0000000000000000e-01 -6.9565218687057495e-01</leafValues></_>
    <_>
      <internalNodes>
        0 -1 137203 -2.6211475487798452e-03</internalNodes>
      <leafValues>
        -6.5968161821365356e-01 2.5603589415550232e-01</leafValues></_>
    <_>
      <internalNodes>
        0 -1 15384 2.8270012699067593e-03</internalNodes>
      <leafValues>
        -3.8658732175827026e-01 5.3302568197250366e-01</leafValues></_>
    <_>
      <internalNodes>
        0 -1 132308 -1.3939568772912025e-02</internalNodes>
      <leafValues>
        2.8729113936424255e-01 -6.3312548398971558e-01</leafValues></_>
    <_>
      <internalNodes>
        0 -1 123335 1.0979477316141129e-02</internalNodes>
      <leafValues>
        -4.7069847583770752e-01 4.0862959623336792e-01</leafValues></_></weakClassifiers></stage14>
</opencv_storage>
