<?xml version="1.0"?>
<opencv_storage>
<stage1>
  <maxWeakCount>7</maxWeakCount>
  <stageThreshold>-6.1412352323532104e-01</stageThreshold>
  <weakClassifiers>
    <_>
      <internalNodes>
        0 -1 139922 -3.1024873256683350e-01</internalNodes>
      <leafValues>
        -8.9705884456634521e-01 5.4777067899703979e-01</leafValues></_>
    <_>
      <internalNodes>
        0 -1 8874 6.1513348482549191e-03</internalNodes>
      <leafValues>
        -3.6859405040740967e-01 7.1605116128921509e-01</leafValues></_>
    <_>
      <internalNodes>
        0 -1 47118 -2.5914147496223450e-02</internalNodes>
      <leafValues>
        -7.0055747032165527e-01 3.7594142556190491e-01</leafValues></_>
    <_>
      <internalNodes>
        0 -1 161911 3.9341405499726534e-04</internalNodes>
      <leafValues>
        -3.2791694998741150e-01 9.0255206823348999e-01</leafValues></_>
    <_>
      <internalNodes>
        0 -1 161025 -1.9384057668503374e-04</internalNodes>
      <leafValues>
        7.9236787557601929e-01 -2.6274299621582031e-01</leafValues></_>
    <_>
      <internalNodes>
        0 -1 107181 6.0533927753567696e-03</internalNodes>
      <leafValues>
        -3.2346823811531067e-01 6.4535254240036011e-01</leafValues></_>
    <_>
      <internalNodes>
        0 -1 159557 1.5508783981204033e-03</internalNodes>
      <leafValues>
        -2.5511339306831360e-01 8.8614517450332642e-01</leafValues></_></weakClassifiers></stage1>
</opencv_storage>
