<?xml version="1.0"?>
<opencv_storage>
<stage12>
  <maxWeakCount>7</maxWeakCount>
  <stageThreshold>-1.1360557079315186e+00</stageThreshold>
  <weakClassifiers>
    <_>
      <internalNodes>
        0 -1 115536 -4.1160143911838531e-02</internalNodes>
      <leafValues>
        7.6470589637756348e-01 -6.2655603885650635e-01</leafValues></_>
    <_>
      <internalNodes>
        0 -1 112879 -3.2663182355463505e-04</internalNodes>
      <leafValues>
        4.3482732772827148e-01 -4.9641183018684387e-01</leafValues></_>
    <_>
      <internalNodes>
        0 -1 17544 -6.6631078720092773e-02</internalNodes>
      <leafValues>
        6.3078653812408447e-01 -4.1126173734664917e-01</leafValues></_>
    <_>
      <internalNodes>
        0 -1 159465 3.2600169070065022e-03</internalNodes>
      <leafValues>
        -2.7092191576957703e-01 7.1678304672241211e-01</leafValues></_>
    <_>
      <internalNodes>
        0 -1 113466 -6.3444031402468681e-03</internalNodes>
      <leafValues>
        -1. 2.3413403332233429e-01</leafValues></_>
    <_>
      <internalNodes>
        0 -1 82214 -1.5547640621662140e-02</internalNodes>
      <leafValues>
        -3.4391930699348450e-01 7.8875041007995605e-01</leafValues></_>
    <_>
      <internalNodes>
        0 -1 125138 -6.2304865568876266e-03</internalNodes>
      <leafValues>
        8.9127457141876221e-01 -2.6316717267036438e-01</leafValues></_></weakClassifiers></stage12>
</opencv_storage>
