<?xml version="1.0"?>
<opencv_storage>
<stage5>
  <maxWeakCount>8</maxWeakCount>
  <stageThreshold>-1.3552039861679077e+00</stageThreshold>
  <weakClassifiers>
    <_>
      <internalNodes>
        0 -1 799 -580914177 -11292241 -1621290645 -574157577 -1466851076
        -74774376 -1432224529 -541385313</internalNodes>
      <leafValues>
        -8.2449555397033691e-01 5.8823529630899429e-02</leafValues></_>
    <_>
      <internalNodes>
        0 -1 8443 -1903690053 -313057164 -754709864 -134496020 581030821
        -1986969189 1873682661 -403178909</internalNodes>
      <leafValues>
        -6.6192775964736938e-01 1.7431034147739410e-01</leafValues></_>
    <_>
      <internalNodes>
        0 -1 4809 1750994432 -1342338989 -929442497 2123719506
        -469960265 -89161703 782787486 2004513658</internalNodes>
      <leafValues>
        -7.7489441633224487e-01 2.2347973287105560e-01</leafValues></_>
    <_>
      <internalNodes>
        0 -1 2638 1000946785 -2125321 -247279297 522902351 1272992406
        -1191460753 1871706874 -24463582</internalNodes>
      <leafValues>
        -5.4911810159683228e-01 3.7948700785636902e-01</leafValues></_>
    <_>
      <internalNodes>
        0 -1 5020 -1145094597 -1017474487 -1828351541 -262916843
        1917774697 -628948813 -1321242487 -45307896</internalNodes>
      <leafValues>
        -7.0453947782516479e-01 3.3931446075439453e-01</leafValues></_>
    <_>
      <internalNodes>
        0 -1 329 -175446221 181064000 21880897 1943264130 -485833834
        1208652675 18528757 -304090262</internalNodes>
      <leafValues>
        -4.7644487023353577e-01 4.4964179396629333e-01</leafValues></_>
    <_>
      <internalNodes>
        0 -1 8042 -330311397 -179470241 1561183698 1241645907 1795662489
        1644232777 -1130169650 924278763</internalNodes>
      <leafValues>
        -4.8634660243988037e-01 4.6764293313026428e-01</leafValues></_>
    <_>
      <internalNodes>
        0 -1 17 -947473477 1560154374 306402102 1269908822 170054579
        271679625 713645556 1672161530</internalNodes>
      <leafValues>
        -5.4816234111785889e-01 4.0463143587112427e-01</leafValues></_></weakClassifiers></stage5>
</opencv_storage>
