<?xml version="1.0"?>
<opencv_storage>
<stage12>
  <maxWeakCount>13</maxWeakCount>
  <stageThreshold>-1.5903685092926025e+00</stageThreshold>
  <weakClassifiers>
    <_>
      <internalNodes>
        0 -1 21659 -3.2115993089973927e-03</internalNodes>
      <leafValues>
        1. -7.2117042541503906e-01</leafValues></_>
    <_>
      <internalNodes>
        0 -1 80752 -6.7470944486558437e-03</internalNodes>
      <leafValues>
        -3.2171064615249634e-01 8.1086552143096924e-01</leafValues></_>
    <_>
      <internalNodes>
        0 -1 33481 -2.0768433809280396e-01</internalNodes>
      <leafValues>
        2.9058691859245300e-01 -4.7661763429641724e-01</leafValues></_>
    <_>
      <internalNodes>
        0 -1 72841 -1.7612600326538086e-01</internalNodes>
      <leafValues>
        9.2220717668533325e-01 -1.7168970406055450e-01</leafValues></_>
    <_>
      <internalNodes>
        0 -1 78640 -1.7659287550486624e-04</internalNodes>
      <leafValues>
        -4.4073852896690369e-01 3.1417879462242126e-01</leafValues></_>
    <_>
      <internalNodes>
        0 -1 72448 1.7820760607719421e-02</internalNodes>
      <leafValues>
        -1.3378456234931946e-01 8.9361512660980225e-01</leafValues></_>
    <_>
      <internalNodes>
        0 -1 103097 -2.1505553741008043e-03</internalNodes>
      <leafValues>
        5.2289515733718872e-01 -3.1913596391677856e-01</leafValues></_>
    <_>
      <internalNodes>
        0 -1 33560 9.3696117401123047e-03</internalNodes>
      <leafValues>
        -1.6215763986110687e-01 8.6946493387222290e-01</leafValues></_>
    <_>
      <internalNodes>
        0 -1 6136 -4.7013545408844948e-03</internalNodes>
      <leafValues>
        -7.4632483720779419e-01 1.9426225125789642e-01</leafValues></_>
    <_>
      <internalNodes>
        0 -1 43494 1.6450625844299793e-04</internalNodes>
      <leafValues>
        5.9038913249969482e-01 -3.0717864632606506e-01</leafValues></_>
    <_>
      <internalNodes>
        0 -1 132788 6.1624957015737891e-04</internalNodes>
      <leafValues>
        1.4718525111675262e-01 -8.3451455831527710e-01</leafValues></_>
    <_>
      <internalNodes>
        0 -1 11585 6.3483514823019505e-03</internalNodes>
      <leafValues>
        -2.3590487241744995e-01 9.1825044155120850e-01</leafValues></_>
    <_>
      <internalNodes>
        0 -1 80196 4.7490652650594711e-04</internalNodes>
      <leafValues>
        -2.3867583274841309e-01 7.0605260133743286e-01</leafValues></_></weakClassifiers></stage12>
</opencv_storage>
