<?xml version="1.0"?>
<opencv_storage>
<stage4>
  <maxWeakCount>22</maxWeakCount>
  <stageThreshold>-8.8166105747222900e-01</stageThreshold>
  <weakClassifiers>
    <_>
      <internalNodes>
        0 -1 39681 7.6403319835662842e-03</internalNodes>
      <leafValues>
        -4.6948355436325073e-01 2.2321428358554840e-01</leafValues></_>
    <_>
      <internalNodes>
        0 -1 91312 -6.8622499704360962e-02</internalNodes>
      <leafValues>
        -9.3258213996887207e-01 9.9667362868785858e-02</leafValues></_>
    <_>
      <internalNodes>
        0 -1 71038 -9.7292847931385040e-03</internalNodes>
      <leafValues>
        1.6810086369514465e-01 -7.4352294206619263e-01</leafValues></_>
    <_>
      <internalNodes>
        0 -1 68166 -4.1764695197343826e-05</internalNodes>
      <leafValues>
        1.7879539728164673e-01 -4.7979205846786499e-01</leafValues></_>
    <_>
      <internalNodes>
        0 -1 160288 -2.5536194443702698e-03</internalNodes>
      <leafValues>
        4.7457024455070496e-01 -2.3589819669723511e-01</leafValues></_>
    <_>
      <internalNodes>
        0 -1 78311 3.0572835821658373e-03</internalNodes>
      <leafValues>
        1.5262961387634277e-01 -6.1955392360687256e-01</leafValues></_>
    <_>
      <internalNodes>
        0 -1 37224 6.5955761820077896e-03</internalNodes>
      <leafValues>
        -1.7723900079727173e-01 7.4507337808609009e-01</leafValues></_>
    <_>
      <internalNodes>
        0 -1 60106 -2.1501768380403519e-02</internalNodes>
      <leafValues>
        5.7711416482925415e-01 -1.3799227774143219e-01</leafValues></_>
    <_>
      <internalNodes>
        0 -1 80136 1.1573089286684990e-03</internalNodes>
      <leafValues>
        1.4695183932781219e-01 -6.9752478599548340e-01</leafValues></_>
    <_>
      <internalNodes>
        0 -1 10024 -6.6323434002697468e-03</internalNodes>
      <leafValues>
        6.7484092712402344e-01 -1.5530811250209808e-01</leafValues></_>
    <_>
      <internalNodes>
        0 -1 10029 1.5609378460794687e-03</internalNodes>
      <leafValues>
        -2.2127066552639008e-01 4.0082529187202454e-01</leafValues></_>
    <_>
      <internalNodes>
        0 -1 28106 -3.2005213201045990e-02</internalNodes>
      <leafValues>
        -2.7531293034553528e-01 3.4100121259689331e-01</leafValues></_>
    <_>
      <internalNodes>
        0 -1 128666 4.2348899878561497e-03</internalNodes>
      <leafValues>
        -1.2680546939373016e-01 6.9308441877365112e-01</leafValues></_>
    <_>
      <internalNodes>
        0 -1 133267 3.8821989437565207e-04</internalNodes>
      <leafValues>
        1.5438945591449738e-01 -6.0719442367553711e-01</leafValues></_>
    <_>
      <internalNodes>
        0 -1 37989 1.3140075607225299e-03</internalNodes>
      <leafValues>
        -1.8498803675174713e-01 5.1264268159866333e-01</leafValues></_>
    <_>
      <internalNodes>
        0 -1 11519 -1.7473936313763261e-03</internalNodes>
      <leafValues>
        4.5116490125656128e-01 -1.9338887929916382e-01</leafValues></_>
    <_>
      <internalNodes>
        0 -1 112169 -3.0744925606995821e-04</internalNodes>
      <leafValues>
        -6.5438044071197510e-01 1.3211654126644135e-01</leafValues></_>
    <_>
      <internalNodes>
        0 -1 97425 -4.1900471842382103e-05</internalNodes>
      <leafValues>
        1.9974519312381744e-01 -4.4462087750434875e-01</leafValues></_>
    <_>
      <internalNodes>
        0 -1 57669 3.6375137278810143e-04</internalNodes>
      <leafValues>
        1.2927399575710297e-01 -6.6186594963073730e-01</leafValues></_>
    <_>
      <internalNodes>
        0 -1 18037 5.6188637390732765e-03</internalNodes>
      <leafValues>
        -1.3926091790199280e-01 6.9767367839813232e-01</leafValues></_>
    <_>
      <internalNodes>
        0 -1 159779 -5.6356694549322128e-03</internalNodes>
      <leafValues>
        5.3618723154067993e-01 -1.5252958238124847e-01</leafValues></_>
    <_>
      <internalNodes>
        0 -1 130247 -5.7110022753477097e-03</internalNodes>
      <leafValues>
        3.7273243069648743e-01 -2.3480193316936493e-01</leafValues></_></weakClassifiers></stage4>
</opencv_storage>
