<?xml version="1.0"?>
<opencv_storage>
<stage9>
  <maxWeakCount>29</maxWeakCount>
  <stageThreshold>-1.4736696481704712e+00</stageThreshold>
  <weakClassifiers>
    <_>
      <internalNodes>
        0 -1 24485 -7.2979200631380081e-03</internalNodes>
      <leafValues>
        -7.8810906410217285e-01 1.</leafValues></_>
    <_>
      <internalNodes>
        0 -1 155118 2.0360394846647978e-03</internalNodes>
      <leafValues>
        -3.9475268125534058e-01 1.3500258326530457e-01</leafValues></_>
    <_>
      <internalNodes>
        0 -1 150728 2.0323805510997772e-02</internalNodes>
      <leafValues>
        4.4091492891311646e-02 -9.3557065725326538e-01</leafValues></_>
    <_>
      <internalNodes>
        0 -1 41487 -1.3602612307295203e-03</internalNodes>
      <leafValues>
        5.7883197069168091e-01 -8.2136601209640503e-02</leafValues></_>
    <_>
      <internalNodes>
        0 -1 7047 -4.7077469527721405e-02</internalNodes>
      <leafValues>
        -2.3553013801574707e-01 2.2785525023937225e-01</leafValues></_>
    <_>
      <internalNodes>
        0 -1 129099 3.2972861081361771e-03</internalNodes>
      <leafValues>
        -1.1390157043933868e-01 4.2995500564575195e-01</leafValues></_>
    <_>
      <internalNodes>
        0 -1 114789 -1.5434459783136845e-03</internalNodes>
      <leafValues>
        3.9246696233749390e-01 -1.1602398753166199e-01</leafValues></_>
    <_>
      <internalNodes>
        0 -1 18065 4.5398841612040997e-03</internalNodes>
      <leafValues>
        -2.0030282437801361e-01 2.4810720980167389e-01</leafValues></_>
    <_>
      <internalNodes>
        0 -1 138272 -6.9307442754507065e-04</internalNodes>
      <leafValues>
        -5.0669646263122559e-01 8.6087286472320557e-02</leafValues></_>
    <_>
      <internalNodes>
        0 -1 104502 1.2174310162663460e-02</internalNodes>
      <leafValues>
        -5.8309007436037064e-02 6.4084976911544800e-01</leafValues></_>
    <_>
      <internalNodes>
        0 -1 112814 1.5142980264499784e-03</internalNodes>
      <leafValues>
        6.3249044120311737e-02 -6.9384467601776123e-01</leafValues></_>
    <_>
      <internalNodes>
        0 -1 159148 -3.2387286773882806e-04</internalNodes>
      <leafValues>
        2.9059648513793945e-01 -1.7271211743354797e-01</leafValues></_>
    <_>
      <internalNodes>
        0 -1 146396 3.2072374597191811e-04</internalNodes>
      <leafValues>
        9.6696972846984863e-02 -4.4239434599876404e-01</leafValues></_>
    <_>
      <internalNodes>
        0 -1 159156 5.3209504112601280e-03</internalNodes>
      <leafValues>
        -1.5315963327884674e-01 3.5380950570106506e-01</leafValues></_>
    <_>
      <internalNodes>
        0 -1 10052 9.6920947544276714e-04</internalNodes>
      <leafValues>
        -1.2134204804897308e-01 4.5458346605300903e-01</leafValues></_>
    <_>
      <internalNodes>
        0 -1 59964 3.1738518737256527e-03</internalNodes>
      <leafValues>
        -6.2416121363639832e-02 7.1446043252944946e-01</leafValues></_>
    <_>
      <internalNodes>
        0 -1 16601 -1.5260666608810425e-02</internalNodes>
      <leafValues>
        2.5151634216308594e-01 -2.1699517965316772e-01</leafValues></_>
    <_>
      <internalNodes>
        0 -1 86046 4.6511115506291389e-03</internalNodes>
      <leafValues>
        -9.7763828933238983e-02 6.4073371887207031e-01</leafValues></_>
    <_>
      <internalNodes>
        0 -1 13753 1.1503538489341736e-01</internalNodes>
      <leafValues>
        8.8174238801002502e-02 -7.4504637718200684e-01</leafValues></_>
    <_>
      <internalNodes>
        0 -1 71282 -2.4418143928050995e-01</internalNodes>
      <leafValues>
        -1.3803160190582275e-01 4.6725049614906311e-01</leafValues></_>
    <_>
      <internalNodes>
        0 -1 109029 -3.1853935122489929e-01</internalNodes>
      <leafValues>
        2.2437852621078491e-01 -2.6325702667236328e-01</leafValues></_>
    <_>
      <internalNodes>
        0 -1 105909 -1.7237948253750801e-02</internalNodes>
      <leafValues>
        -5.9678298234939575e-01 9.4391807913780212e-02</leafValues></_>
    <_>
      <internalNodes>
        0 -1 67850 -8.5127883357927203e-04</internalNodes>
      <leafValues>
        2.0334269106388092e-01 -2.2945965826511383e-01</leafValues></_>
    <_>
      <internalNodes>
        0 -1 119791 9.3957995995879173e-03</internalNodes>
      <leafValues>
        -6.6379353404045105e-02 8.1112271547317505e-01</leafValues></_>
    <_>
      <internalNodes>
        0 -1 127850 -2.2220686078071594e-03</internalNodes>
      <leafValues>
        4.2037022113800049e-01 -1.1081361025571823e-01</leafValues></_>
    <_>
      <internalNodes>
        0 -1 43221 -1.1306388676166534e-01</internalNodes>
      <leafValues>
        8.4452551603317261e-01 -5.6354515254497528e-02</leafValues></_>
    <_>
      <internalNodes>
        0 -1 155751 5.8530014939606190e-03</internalNodes>
      <leafValues>
        -5.0753355026245117e-02 7.3799496889114380e-01</leafValues></_>
    <_>
      <internalNodes>
        0 -1 49148 4.4643675209954381e-04</internalNodes>
      <leafValues>
        -1.5263864398002625e-01 2.9947379231452942e-01</leafValues></_>
    <_>
      <internalNodes>
        0 -1 113777 -3.4159194910898805e-04</internalNodes>
      <leafValues>
        1.9203971326351166e-01 -2.8167006373405457e-01</leafValues></_></weakClassifiers></stage9>
</opencv_storage>
