<?xml version="1.0"?>
<opencv_storage>
<stage8>
  <maxWeakCount>20</maxWeakCount>
  <stageThreshold>-1.3876086473464966e+00</stageThreshold>
  <weakClassifiers>
    <_>
      <internalNodes>
        0 -1 152420 -1.8102987669408321e-03</internalNodes>
      <leafValues>
        1.1764705926179886e-01 -7.1378093957901001e-01</leafValues></_>
    <_>
      <internalNodes>
        0 -1 55756 -3.5866391845047474e-03</internalNodes>
      <leafValues>
        -8.2458126544952393e-01 -5.3521580994129181e-02</leafValues></_>
    <_>
      <internalNodes>
        0 -1 16369 2.0224696490913630e-03</internalNodes>
      <leafValues>
        -1.8160010874271393e-01 4.3854331970214844e-01</leafValues></_>
    <_>
      <internalNodes>
        0 -1 152164 -8.5522793233394623e-04</internalNodes>
      <leafValues>
        5.5789101123809814e-01 -6.1855450272560120e-02</leafValues></_>
    <_>
      <internalNodes>
        0 -1 23753 -1.4437947422266006e-02</internalNodes>
      <leafValues>
        6.5596789121627808e-02 -7.8101056814193726e-01</leafValues></_>
    <_>
      <internalNodes>
        0 -1 6723 -1.5135624445974827e-02</internalNodes>
      <leafValues>
        -2.1951685845851898e-01 3.4204179048538208e-01</leafValues></_>
    <_>
      <internalNodes>
        0 -1 141901 -9.1267377138137817e-04</internalNodes>
      <leafValues>
        -7.3436099290847778e-01 8.3672590553760529e-02</leafValues></_>
    <_>
      <internalNodes>
        0 -1 71548 6.9012620951980352e-04</internalNodes>
      <leafValues>
        -1.4320299029350281e-01 3.6978134512901306e-01</leafValues></_>
    <_>
      <internalNodes>
        0 -1 13278 -8.4803495556116104e-03</internalNodes>
      <leafValues>
        4.3169689178466797e-01 -1.2708184123039246e-01</leafValues></_>
    <_>
      <internalNodes>
        0 -1 121999 -8.0498367547988892e-02</internalNodes>
      <leafValues>
        -4.0716844797134399e-01 1.4248679578304291e-01</leafValues></_>
    <_>
      <internalNodes>
        0 -1 125317 -3.5658311098814011e-02</internalNodes>
      <leafValues>
        2.1332965791225433e-01 -2.6175969839096069e-01</leafValues></_>
    <_>
      <internalNodes>
        0 -1 48976 4.6663836110383272e-04</internalNodes>
      <leafValues>
        -1.1583556979894638e-01 4.9404203891754150e-01</leafValues></_>
    <_>
      <internalNodes>
        0 -1 139240 -4.2779862997122109e-04</internalNodes>
      <leafValues>
        3.7852755188941956e-01 -1.7338618636131287e-01</leafValues></_>
    <_>
      <internalNodes>
        0 -1 139699 -1.0297603905200958e-02</internalNodes>
      <leafValues>
        -8.9848631620407104e-01 7.9810276627540588e-02</leafValues></_>
    <_>
      <internalNodes>
        0 -1 126364 -8.9601865038275719e-03</internalNodes>
      <leafValues>
        -6.8435204029083252e-01 6.7424803972244263e-02</leafValues></_>
    <_>
      <internalNodes>
        0 -1 139120 7.5311800464987755e-03</internalNodes>
      <leafValues>
        -1.3249053061008453e-01 4.9783569574356079e-01</leafValues></_>
    <_>
      <internalNodes>
        0 -1 31815 -6.8160779774188995e-03</internalNodes>
      <leafValues>
        -8.3457756042480469e-01 8.0459684133529663e-02</leafValues></_>
    <_>
      <internalNodes>
        0 -1 35841 -8.3991757128387690e-04</internalNodes>
      <leafValues>
        2.0664320886135101e-01 -2.8912386298179626e-01</leafValues></_>
    <_>
      <internalNodes>
        0 -1 144209 2.3883141577243805e-02</internalNodes>
      <leafValues>
        -1.7161312699317932e-01 3.7858352065086365e-01</leafValues></_>
    <_>
      <internalNodes>
        0 -1 66139 1.7210617661476135e-03</internalNodes>
      <leafValues>
        1.2714415788650513e-01 -5.4941195249557495e-01</leafValues></_></weakClassifiers></stage8>
</opencv_storage>
