<?xml version="1.0"?>
<opencv_storage>
<stage6>
  <maxWeakCount>24</maxWeakCount>
  <stageThreshold>-8.6499679088592529e-01</stageThreshold>
  <weakClassifiers>
    <_>
      <internalNodes>
        0 -1 19535 -3.3834081888198853e-01</internalNodes>
      <leafValues>
        2.7891156077384949e-01 -3.7972167134284973e-01</leafValues></_>
    <_>
      <internalNodes>
        0 -1 148517 -9.5967594534158707e-03</internalNodes>
      <leafValues>
        1.0007395595312119e-01 -6.8284195661544800e-01</leafValues></_>
    <_>
      <internalNodes>
        0 -1 159331 1.0583525523543358e-02</internalNodes>
      <leafValues>
        -1.7099279165267944e-01 4.6241918206214905e-01</leafValues></_>
    <_>
      <internalNodes>
        0 -1 161025 -1.9299800624139607e-04</internalNodes>
      <leafValues>
        3.9737978577613831e-01 -1.6459818184375763e-01</leafValues></_>
    <_>
      <internalNodes>
        0 -1 145225 4.9246642738580704e-03</internalNodes>
      <leafValues>
        -2.1523897349834442e-01 3.7422165274620056e-01</leafValues></_>
    <_>
      <internalNodes>
        0 -1 39312 -9.5311403274536133e-03</internalNodes>
      <leafValues>
        4.2090886831283569e-01 -1.8704192340373993e-01</leafValues></_>
    <_>
      <internalNodes>
        0 -1 68548 6.1188568361103535e-04</internalNodes>
      <leafValues>
        1.0990652441978455e-01 -7.3263710737228394e-01</leafValues></_>
    <_>
      <internalNodes>
        0 -1 133693 2.0390371792018414e-03</internalNodes>
      <leafValues>
        -1.4948008954524994e-01 4.3887129426002502e-01</leafValues></_>
    <_>
      <internalNodes>
        0 -1 37926 -1.0380791500210762e-02</internalNodes>
      <leafValues>
        8.1702399253845215e-01 -8.4289409220218658e-02</leafValues></_>
    <_>
      <internalNodes>
        0 -1 138883 5.2941311150789261e-04</internalNodes>
      <leafValues>
        1.2690797448158264e-01 -6.6659861803054810e-01</leafValues></_>
    <_>
      <internalNodes>
        0 -1 52907 4.1683018207550049e-03</internalNodes>
      <leafValues>
        -2.7324160933494568e-01 2.4268850684165955e-01</leafValues></_>
    <_>
      <internalNodes>
        0 -1 62564 3.9209790527820587e-02</internalNodes>
      <leafValues>
        7.0627830922603607e-02 -9.3676924705505371e-01</leafValues></_>
    <_>
      <internalNodes>
        0 -1 155105 -3.9458442479372025e-03</internalNodes>
      <leafValues>
        4.5865213871002197e-01 -1.4113624393939972e-01</leafValues></_>
    <_>
      <internalNodes>
        0 -1 79330 -3.8851660065120086e-05</internalNodes>
      <leafValues>
        1.8731510639190674e-01 -3.6297419667243958e-01</leafValues></_>
    <_>
      <internalNodes>
        0 -1 12661 1.6829509288072586e-02</internalNodes>
      <leafValues>
        -1.5471780300140381e-01 4.7870928049087524e-01</leafValues></_>
    <_>
      <internalNodes>
        0 -1 59763 -3.3096759580075741e-03</internalNodes>
      <leafValues>
        3.6448311805725098e-01 -1.8951658904552460e-01</leafValues></_>
    <_>
      <internalNodes>
        0 -1 20265 1.0872682323679328e-03</internalNodes>
      <leafValues>
        -1.8570367991924286e-01 3.6079648137092590e-01</leafValues></_>
    <_>
      <internalNodes>
        0 -1 86783 -3.7257306277751923e-02</internalNodes>
      <leafValues>
        -3.4070602059364319e-01 2.3059506714344025e-01</leafValues></_>
    <_>
      <internalNodes>
        0 -1 2 -1.8261190271005034e-03</internalNodes>
      <leafValues>
        1.2002822756767273e-01 -7.1708965301513672e-01</leafValues></_>
    <_>
      <internalNodes>
        0 -1 123517 4.8542686272412539e-04</internalNodes>
      <leafValues>
        -2.7059265971183777e-01 2.7407166361808777e-01</leafValues></_>
    <_>
      <internalNodes>
        0 -1 151812 -6.8949325941503048e-03</internalNodes>
      <leafValues>
        5.5213296413421631e-01 -1.3109685480594635e-01</leafValues></_>
    <_>
      <internalNodes>
        0 -1 144267 2.5206755846738815e-02</internalNodes>
      <leafValues>
        -7.4533537030220032e-02 6.9862163066864014e-01</leafValues></_>
    <_>
      <internalNodes>
        0 -1 59025 1.0297161061316729e-03</internalNodes>
      <leafValues>
        1.6949002444744110e-01 -4.2761760950088501e-01</leafValues></_>
    <_>
      <internalNodes>
        0 -1 121725 4.9028010107576847e-03</internalNodes>
      <leafValues>
        -3.2905218005180359e-01 2.2231887280941010e-01</leafValues></_></weakClassifiers></stage6>
</opencv_storage>
