<?xml version="1.0"?>
<opencv_storage>
<stage2>
  <maxWeakCount>15</maxWeakCount>
  <stageThreshold>-1.0436683893203735e+00</stageThreshold>
  <weakClassifiers>
    <_>
      <internalNodes>
        0 -1 81370 1.7167819663882256e-02</internalNodes>
      <leafValues>
        -5.5555558204650879e-01 4.1284403204917908e-01</leafValues></_>
    <_>
      <internalNodes>
        0 -1 161911 3.9838842349126935e-04</internalNodes>
      <leafValues>
        -2.4972243607044220e-01 5.3272080421447754e-01</leafValues></_>
    <_>
      <internalNodes>
        0 -1 158319 -1.5220182249322534e-03</internalNodes>
      <leafValues>
        5.4080533981323242e-01 -2.1449875831604004e-01</leafValues></_>
    <_>
      <internalNodes>
        0 -1 132260 -1.1928033083677292e-02</internalNodes>
      <leafValues>
        3.2041612267494202e-01 -2.8869050741195679e-01</leafValues></_>
    <_>
      <internalNodes>
        0 -1 162089 -2.1801705588586628e-04</internalNodes>
      <leafValues>
        4.7760671377182007e-01 -2.1881364285945892e-01</leafValues></_>
    <_>
      <internalNodes>
        0 -1 37204 -2.1204128861427307e-03</internalNodes>
      <leafValues>
        7.4610632658004761e-01 -1.2832938134670258e-01</leafValues></_>
    <_>
      <internalNodes>
        0 -1 77835 -1.7409326974302530e-03</internalNodes>
      <leafValues>
        -9.0645503997802734e-01 1.3511225581169128e-01</leafValues></_>
    <_>
      <internalNodes>
        0 -1 151888 5.8476679259911180e-04</internalNodes>
      <leafValues>
        -1.7009885609149933e-01 6.7745304107666016e-01</leafValues></_>
    <_>
      <internalNodes>
        0 -1 24606 -1.5415772795677185e-03</internalNodes>
      <leafValues>
        4.1693499684333801e-01 -2.4284559488296509e-01</leafValues></_>
    <_>
      <internalNodes>
        0 -1 160832 -3.1855362467467785e-03</internalNodes>
      <leafValues>
        9.1893756389617920e-01 -9.6474714577198029e-02</leafValues></_>
    <_>
      <internalNodes>
        0 -1 79641 4.1299471631646156e-03</internalNodes>
      <leafValues>
        -1.6747558116912842e-01 5.2960813045501709e-01</leafValues></_>
    <_>
      <internalNodes>
        0 -1 70243 -1.5702087432146072e-02</internalNodes>
      <leafValues>
        4.9772885441780090e-01 -2.1390756964683533e-01</leafValues></_>
    <_>
      <internalNodes>
        0 -1 81512 4.2298555490560830e-04</internalNodes>
      <leafValues>
        -1.8760864436626434e-01 5.3941375017166138e-01</leafValues></_>
    <_>
      <internalNodes>
        0 -1 144601 1.8061216920614243e-02</internalNodes>
      <leafValues>
        -1.0218924283981323e-01 8.0087679624557495e-01</leafValues></_>
    <_>
      <internalNodes>
        0 -1 30340 -6.9416203768923879e-04</internalNodes>
      <leafValues>
        7.4599415063858032e-01 -1.1328648775815964e-01</leafValues></_></weakClassifiers></stage2>
</opencv_storage>
