<?xml version="1.0"?>
<opencv_storage>
<stage9>
  <maxWeakCount>27</maxWeakCount>
  <stageThreshold>-7.6183140277862549e-01</stageThreshold>
  <weakClassifiers>
    <_>
      <internalNodes>
        0 -1 160845 8.0212084576487541e-03</internalNodes>
      <leafValues>
        -3.5611510276794434e-01 5.1063829660415649e-01</leafValues></_>
    <_>
      <internalNodes>
        0 -1 26208 9.1149006038904190e-03</internalNodes>
      <leafValues>
        -1.5193903446197510e-01 5.2801781892776489e-01</leafValues></_>
    <_>
      <internalNodes>
        0 -1 160982 7.6136877760291100e-04</internalNodes>
      <leafValues>
        -1.2184071540832520e-01 5.2712386846542358e-01</leafValues></_>
    <_>
      <internalNodes>
        0 -1 133749 -1.9387092906981707e-03</internalNodes>
      <leafValues>
        -1.0920403897762299e-01 6.7741191387176514e-01</leafValues></_>
    <_>
      <internalNodes>
        0 -1 131524 8.9882302563637495e-04</internalNodes>
      <leafValues>
        1.1933581531047821e-01 -6.3105034828186035e-01</leafValues></_>
    <_>
      <internalNodes>
        0 -1 23633 -3.2278816215693951e-03</internalNodes>
      <leafValues>
        5.2501791715621948e-01 -8.5726983845233917e-02</leafValues></_>
    <_>
      <internalNodes>
        0 -1 50689 -6.1288457363843918e-03</internalNodes>
      <leafValues>
        3.9244604110717773e-01 -1.6766528785228729e-01</leafValues></_>
    <_>
      <internalNodes>
        0 -1 90492 -2.7407552115619183e-03</internalNodes>
      <leafValues>
        3.8590440154075623e-01 -1.7499653995037079e-01</leafValues></_>
    <_>
      <internalNodes>
        0 -1 128131 8.1170760095119476e-03</internalNodes>
      <leafValues>
        -1.9726881384849548e-01 3.1292057037353516e-01</leafValues></_>
    <_>
      <internalNodes>
        0 -1 151831 3.4074980067089200e-04</internalNodes>
      <leafValues>
        -1.9251924753189087e-01 3.6527928709983826e-01</leafValues></_>
    <_>
      <internalNodes>
        0 -1 159492 3.7462660111486912e-04</internalNodes>
      <leafValues>
        -1.5116938948631287e-01 4.1923680901527405e-01</leafValues></_>
    <_>
      <internalNodes>
        0 -1 143358 -9.7720767371356487e-04</internalNodes>
      <leafValues>
        -6.1983758211135864e-01 1.4676411449909210e-01</leafValues></_>
    <_>
      <internalNodes>
        0 -1 156013 -7.9142292961478233e-03</internalNodes>
      <leafValues>
        4.2353749275207520e-01 -1.6720487177371979e-01</leafValues></_>
    <_>
      <internalNodes>
        0 -1 24745 2.2574146278202534e-03</internalNodes>
      <leafValues>
        -1.5819133818149567e-01 4.0879508852958679e-01</leafValues></_>
    <_>
      <internalNodes>
        0 -1 59794 8.0890633398666978e-04</internalNodes>
      <leafValues>
        1.8266955018043518e-01 -4.2681220173835754e-01</leafValues></_>
    <_>
      <internalNodes>
        0 -1 133678 4.8856518696993589e-04</internalNodes>
      <leafValues>
        -1.7679683864116669e-01 4.0234613418579102e-01</leafValues></_>
    <_>
      <internalNodes>
        0 -1 33252 -2.5006504729390144e-03</internalNodes>
      <leafValues>
        -8.8366168737411499e-01 7.6209545135498047e-02</leafValues></_>
    <_>
      <internalNodes>
        0 -1 51295 -1.4668463263660669e-03</internalNodes>
      <leafValues>
        5.0331073999404907e-01 -1.4858491718769073e-01</leafValues></_>
    <_>
      <internalNodes>
        0 -1 121197 -3.2064963597804308e-03</internalNodes>
      <leafValues>
        4.7412282228469849e-01 -1.3183492422103882e-01</leafValues></_>
    <_>
      <internalNodes>
        0 -1 98707 -4.5326584950089455e-03</internalNodes>
      <leafValues>
        -4.5568484067916870e-01 1.5389455854892731e-01</leafValues></_>
    <_>
      <internalNodes>
        0 -1 3156 -5.5123278871178627e-03</internalNodes>
      <leafValues>
        6.4508014917373657e-01 -9.9033020436763763e-02</leafValues></_>
    <_>
      <internalNodes>
        0 -1 154858 5.2994338329881430e-04</internalNodes>
      <leafValues>
        1.0924158990383148e-01 -5.8746421337127686e-01</leafValues></_>
    <_>
      <internalNodes>
        0 -1 139636 6.7194818984717131e-04</internalNodes>
      <leafValues>
        -1.4830183982849121e-01 4.6832418441772461e-01</leafValues></_>
    <_>
      <internalNodes>
        0 -1 157189 -4.1323597542941570e-04</internalNodes>
      <leafValues>
        -6.0967403650283813e-01 1.2092275917530060e-01</leafValues></_>
    <_>
      <internalNodes>
        0 -1 159131 -9.9829444661736488e-03</internalNodes>
      <leafValues>
        8.9907348155975342e-01 -8.3736024796962738e-02</leafValues></_>
    <_>
      <internalNodes>
        0 -1 131803 -4.2340812797192484e-05</internalNodes>
      <leafValues>
        2.2602403163909912e-01 -2.9091802239418030e-01</leafValues></_>
    <_>
      <internalNodes>
        0 -1 155128 1.6580765368416905e-03</internalNodes>
      <leafValues>
        -1.6916105151176453e-01 4.0541300177574158e-01</leafValues></_></weakClassifiers></stage9>
</opencv_storage>
