<?xml version="1.0"?>
<opencv_storage>
<stage7>
  <maxWeakCount>23</maxWeakCount>
  <stageThreshold>-1.3314158916473389e+00</stageThreshold>
  <weakClassifiers>
    <_>
      <internalNodes>
        0 -1 18065 1.8457598984241486e-02</internalNodes>
      <leafValues>
        -7.1532845497131348e-01 -1.5384615957736969e-01</leafValues></_>
    <_>
      <internalNodes>
        0 -1 158409 -3.1503122299909592e-03</internalNodes>
      <leafValues>
        2.3495566844940186e-01 -3.2164424657821655e-01</leafValues></_>
    <_>
      <internalNodes>
        0 -1 49640 3.1879586167633533e-03</internalNodes>
      <leafValues>
        -1.5811729431152344e-01 3.3730405569076538e-01</leafValues></_>
    <_>
      <internalNodes>
        0 -1 161912 2.4250063579529524e-03</internalNodes>
      <leafValues>
        -8.5981450974941254e-02 5.5416035652160645e-01</leafValues></_>
    <_>
      <internalNodes>
        0 -1 55607 2.0215124823153019e-03</internalNodes>
      <leafValues>
        1.2616126239299774e-01 -4.3849304318428040e-01</leafValues></_>
    <_>
      <internalNodes>
        0 -1 151128 1.2795793008990586e-04</internalNodes>
      <leafValues>
        1.6360808908939362e-01 -3.7367507815361023e-01</leafValues></_>
    <_>
      <internalNodes>
        0 -1 90336 -1.5712946653366089e-02</internalNodes>
      <leafValues>
        -5.6596642732620239e-01 9.4994723796844482e-02</leafValues></_>
    <_>
      <internalNodes>
        0 -1 13350 -2.4638953618705273e-03</internalNodes>
      <leafValues>
        2.6661470532417297e-01 -1.9871689379215240e-01</leafValues></_>
    <_>
      <internalNodes>
        0 -1 155142 -2.2941427305340767e-03</internalNodes>
      <leafValues>
        5.3272104263305664e-01 -1.0205722600221634e-01</leafValues></_>
    <_>
      <internalNodes>
        0 -1 37102 1.8082566559314728e-02</internalNodes>
      <leafValues>
        1.0149060934782028e-01 -6.3816374540328979e-01</leafValues></_>
    <_>
      <internalNodes>
        0 -1 139632 -1.0259943082928658e-03</internalNodes>
      <leafValues>
        4.3927800655364990e-01 -1.2656535208225250e-01</leafValues></_>
    <_>
      <internalNodes>
        0 -1 62 -1.1313708964735270e-03</internalNodes>
      <leafValues>
        3.1794428825378418e-01 -1.6493605077266693e-01</leafValues></_>
    <_>
      <internalNodes>
        0 -1 7413 3.7279038224369287e-03</internalNodes>
      <leafValues>
        -1.0002727806568146e-01 5.3928935527801514e-01</leafValues></_>
    <_>
      <internalNodes>
        0 -1 141047 1.4227705541998148e-03</internalNodes>
      <leafValues>
        1.2920287251472473e-01 -4.2493861913681030e-01</leafValues></_>
    <_>
      <internalNodes>
        0 -1 95861 6.0690599493682384e-03</internalNodes>
      <leafValues>
        -1.2355652451515198e-01 4.8194348812103271e-01</leafValues></_>
    <_>
      <internalNodes>
        0 -1 62511 -1.9346643239259720e-04</internalNodes>
      <leafValues>
        2.3960167169570923e-01 -2.4006932973861694e-01</leafValues></_>
    <_>
      <internalNodes>
        0 -1 23309 -1.5446266625076532e-03</internalNodes>
      <leafValues>
        2.1467885375022888e-01 -2.6109984517097473e-01</leafValues></_>
    <_>
      <internalNodes>
        0 -1 25291 8.1152850762009621e-03</internalNodes>
      <leafValues>
        -1.1022287607192993e-01 5.3433918952941895e-01</leafValues></_>
    <_>
      <internalNodes>
        0 -1 128815 -2.1470414102077484e-01</internalNodes>
      <leafValues>
        -3.9685371518135071e-01 1.5391154587268829e-01</leafValues></_>
    <_>
      <internalNodes>
        0 -1 128666 -5.8744130656123161e-03</internalNodes>
      <leafValues>
        6.2356191873550415e-01 -8.9799411594867706e-02</leafValues></_>
    <_>
      <internalNodes>
        0 -1 141911 -5.3176813526079059e-04</internalNodes>
      <leafValues>
        -3.9628216624259949e-01 1.4625534415245056e-01</leafValues></_>
    <_>
      <internalNodes>
        0 -1 160870 -3.2942928373813629e-03</internalNodes>
      <leafValues>
        3.1207525730133057e-01 -1.9806255400180817e-01</leafValues></_>
    <_>
      <internalNodes>
        0 -1 141327 -3.0187613447196782e-05</internalNodes>
      <leafValues>
        1.9254451990127563e-01 -2.7109542489051819e-01</leafValues></_></weakClassifiers></stage7>
</opencv_storage>
