<?xml version="1.0"?>
<opencv_storage>
<stage3>
  <maxWeakCount>25</maxWeakCount>
  <stageThreshold>-1.5657354593276978e+00</stageThreshold>
  <weakClassifiers>
    <_>
      <internalNodes>
        0 -1 99055 -7.6798493973910809e-03</internalNodes>
      <leafValues>
        -2.0512820780277252e-01 -7.9287600517272949e-01</leafValues></_>
    <_>
      <internalNodes>
        0 -1 6720 3.0426653102040291e-03</internalNodes>
      <leafValues>
        -4.4942820072174072e-01 1.5384279191493988e-01</leafValues></_>
    <_>
      <internalNodes>
        0 -1 161666 7.4934288859367371e-03</internalNodes>
      <leafValues>
        -1.6281478106975555e-01 5.1203042268753052e-01</leafValues></_>
    <_>
      <internalNodes>
        0 -1 10079 -1.0424955934286118e-01</internalNodes>
      <leafValues>
        -4.1323429346084595e-01 2.1083825826644897e-01</leafValues></_>
    <_>
      <internalNodes>
        0 -1 152812 -9.1306399554014206e-03</internalNodes>
      <leafValues>
        4.7711941599845886e-01 -1.4137925207614899e-01</leafValues></_>
    <_>
      <internalNodes>
        0 -1 138457 3.1084465445019305e-04</internalNodes>
      <leafValues>
        9.6813790500164032e-02 -6.4499133825302124e-01</leafValues></_>
    <_>
      <internalNodes>
        0 -1 25414 -2.0497322082519531e-02</internalNodes>
      <leafValues>
        4.8599272966384888e-01 -1.1815558373928070e-01</leafValues></_>
    <_>
      <internalNodes>
        0 -1 37248 1.2555905617773533e-02</internalNodes>
      <leafValues>
        -1.3071793317794800e-01 4.6696987748146057e-01</leafValues></_>
    <_>
      <internalNodes>
        0 -1 102818 -1.5098294243216515e-02</internalNodes>
      <leafValues>
        1.5147225558757782e-01 -5.8407396078109741e-01</leafValues></_>
    <_>
      <internalNodes>
        0 -1 46262 -8.6986713111400604e-02</internalNodes>
      <leafValues>
        -2.7856534719467163e-01 2.2973431646823883e-01</leafValues></_>
    <_>
      <internalNodes>
        0 -1 89785 -4.7316756099462509e-03</internalNodes>
      <leafValues>
        6.3137531280517578e-01 -9.3602977693080902e-02</leafValues></_>
    <_>
      <internalNodes>
        0 -1 77323 -1.1261623585596681e-03</internalNodes>
      <leafValues>
        -9.3822020292282104e-01 7.2403535246849060e-02</leafValues></_>
    <_>
      <internalNodes>
        0 -1 143778 1.1097350157797337e-02</internalNodes>
      <leafValues>
        -1.4725527167320251e-01 4.1489836573600769e-01</leafValues></_>
    <_>
      <internalNodes>
        0 -1 139136 -1.8075632397085428e-03</internalNodes>
      <leafValues>
        3.2630676031112671e-01 -1.9195163249969482e-01</leafValues></_>
    <_>
      <internalNodes>
        0 -1 68324 3.8208458572626114e-03</internalNodes>
      <leafValues>
        8.4109194576740265e-02 -7.8620606660842896e-01</leafValues></_>
    <_>
      <internalNodes>
        0 -1 138286 2.3608445189893246e-03</internalNodes>
      <leafValues>
        4.6590220183134079e-02 -8.2368338108062744e-01</leafValues></_>
    <_>
      <internalNodes>
        0 -1 133123 -7.8226288314908743e-04</internalNodes>
      <leafValues>
        -5.3522950410842896e-01 9.7239434719085693e-02</leafValues></_>
    <_>
      <internalNodes>
        0 -1 9440 2.9266049386933446e-04</internalNodes>
      <leafValues>
        -1.7232041060924530e-01 3.4679615497589111e-01</leafValues></_>
    <_>
      <internalNodes>
        0 -1 48995 -3.1818679999560118e-03</internalNodes>
      <leafValues>
        4.0832057595252991e-01 -1.2946689128875732e-01</leafValues></_>
    <_>
      <internalNodes>
        0 -1 47488 4.2831036262214184e-04</internalNodes>
      <leafValues>
        1.3280102610588074e-01 -4.5373937487602234e-01</leafValues></_>
    <_>
      <internalNodes>
        0 -1 85286 -1.8695940962061286e-03</internalNodes>
      <leafValues>
        2.2836713492870331e-01 -2.8287965059280396e-01</leafValues></_>
    <_>
      <internalNodes>
        0 -1 157365 -2.2233268246054649e-03</internalNodes>
      <leafValues>
        3.2691726088523865e-01 -1.7961558699607849e-01</leafValues></_>
    <_>
      <internalNodes>
        0 -1 152249 1.3274408876895905e-02</internalNodes>
      <leafValues>
        -7.5163401663303375e-02 7.0588552951812744e-01</leafValues></_>
    <_>
      <internalNodes>
        0 -1 11493 1.4796497998759151e-03</internalNodes>
      <leafValues>
        -1.1691476404666901e-01 4.5702084898948669e-01</leafValues></_>
    <_>
      <internalNodes>
        0 -1 94219 -4.6310084871947765e-04</internalNodes>
      <leafValues>
        -6.4243990182876587e-01 9.4735883176326752e-02</leafValues></_></weakClassifiers></stage3>
</opencv_storage>
