<?xml version="1.0"?>
<opencv_storage>
<stage7>
  <maxWeakCount>26</maxWeakCount>
  <stageThreshold>-7.6624208688735962e-01</stageThreshold>
  <weakClassifiers>
    <_>
      <internalNodes>
        0 -1 58743 -4.2382396757602692e-02</internalNodes>
      <leafValues>
        1.9819819927215576e-01 -4.5327103137969971e-01</leafValues></_>
    <_>
      <internalNodes>
        0 -1 9450 -3.1473091803491116e-03</internalNodes>
      <leafValues>
        4.5406317710876465e-01 -1.4066791534423828e-01</leafValues></_>
    <_>
      <internalNodes>
        0 -1 143031 8.7811180856078863e-04</internalNodes>
      <leafValues>
        7.4284218251705170e-02 -5.7952505350112915e-01</leafValues></_>
    <_>
      <internalNodes>
        0 -1 27748 2.0340096671134233e-03</internalNodes>
      <leafValues>
        -5.9090208262205124e-02 5.2719819545745850e-01</leafValues></_>
    <_>
      <internalNodes>
        0 -1 80734 7.4018612504005432e-03</internalNodes>
      <leafValues>
        -1.1945972591638565e-01 5.9060901403427124e-01</leafValues></_>
    <_>
      <internalNodes>
        0 -1 113076 4.1611661436036229e-04</internalNodes>
      <leafValues>
        1.0237689316272736e-01 -6.1873996257781982e-01</leafValues></_>
    <_>
      <internalNodes>
        0 -1 55629 -8.7679941207170486e-03</internalNodes>
      <leafValues>
        3.1831225752830505e-01 -2.0461927354335785e-01</leafValues></_>
    <_>
      <internalNodes>
        0 -1 160310 -4.3012155219912529e-03</internalNodes>
      <leafValues>
        4.9468591809272766e-01 -1.3623996078968048e-01</leafValues></_>
    <_>
      <internalNodes>
        0 -1 66684 8.0980942584574223e-05</internalNodes>
      <leafValues>
        2.0642496645450592e-01 -3.6489295959472656e-01</leafValues></_>
    <_>
      <internalNodes>
        0 -1 155863 -3.9676455780863762e-03</internalNodes>
      <leafValues>
        3.7858459353446960e-01 -1.8966224789619446e-01</leafValues></_>
    <_>
      <internalNodes>
        0 -1 23340 9.2367371544241905e-03</internalNodes>
      <leafValues>
        -1.3624894618988037e-01 4.6726867556571960e-01</leafValues></_>
    <_>
      <internalNodes>
        0 -1 120358 4.6916422434151173e-04</internalNodes>
      <leafValues>
        1.0111385583877563e-01 -6.2082570791244507e-01</leafValues></_>
    <_>
      <internalNodes>
        0 -1 94329 1.0850236285477877e-03</internalNodes>
      <leafValues>
        1.3821360468864441e-01 -4.4806721806526184e-01</leafValues></_>
    <_>
      <internalNodes>
        0 -1 19576 2.3789308033883572e-03</internalNodes>
      <leafValues>
        -1.2719675898551941e-01 5.6479871273040771e-01</leafValues></_>
    <_>
      <internalNodes>
        0 -1 151606 -3.8580475375056267e-03</internalNodes>
      <leafValues>
        5.4255211353302002e-01 -1.1442470550537109e-01</leafValues></_>
    <_>
      <internalNodes>
        0 -1 93213 -6.0104243457317352e-03</internalNodes>
      <leafValues>
        3.7391880154609680e-01 -1.8597182631492615e-01</leafValues></_>
    <_>
      <internalNodes>
        0 -1 92527 -1.1919910088181496e-02</internalNodes>
      <leafValues>
        1.1202462762594223e-01 -7.0193082094192505e-01</leafValues></_>
    <_>
      <internalNodes>
        0 -1 16081 -5.4676085710525513e-02</internalNodes>
      <leafValues>
        -1.3127177953720093e-01 6.1511629819869995e-01</leafValues></_>
    <_>
      <internalNodes>
        0 -1 145227 1.0343792848289013e-02</internalNodes>
      <leafValues>
        -1.2543891370296478e-01 5.8189874887466431e-01</leafValues></_>
    <_>
      <internalNodes>
        0 -1 148193 -1.9043114734813571e-03</internalNodes>
      <leafValues>
        4.9762544035911560e-01 -1.3280747830867767e-01</leafValues></_>
    <_>
      <internalNodes>
        0 -1 130544 -9.9779944866895676e-03</internalNodes>
      <leafValues>
        1.0278369486331940e-01 -8.6455577611923218e-01</leafValues></_>
    <_>
      <internalNodes>
        0 -1 47190 -2.7417493984103203e-03</internalNodes>
      <leafValues>
        -6.7814022302627563e-01 6.4905256032943726e-02</leafValues></_>
    <_>
      <internalNodes>
        0 -1 98523 -4.5121603761799634e-04</internalNodes>
      <leafValues>
        3.4731757640838623e-01 -2.0427665114402771e-01</leafValues></_>
    <_>
      <internalNodes>
        0 -1 37721 9.0971346944570541e-03</internalNodes>
      <leafValues>
        -1.7901057004928589e-01 3.7946507334709167e-01</leafValues></_>
    <_>
      <internalNodes>
        0 -1 24052 -1.7436208436265588e-03</internalNodes>
      <leafValues>
        4.5276120305061340e-01 -1.7678795754909515e-01</leafValues></_>
    <_>
      <internalNodes>
        0 -1 147824 2.5890686083585024e-04</internalNodes>
      <leafValues>
        1.6637939214706421e-01 -4.9322104454040527e-01</leafValues></_></weakClassifiers></stage7>
</opencv_storage>
