<?xml version="1.0"?>
<opencv_storage>
<stage2>
  <maxWeakCount>21</maxWeakCount>
  <stageThreshold>-1.7026849985122681e+00</stageThreshold>
  <weakClassifiers>
    <_>
      <internalNodes>
        0 -1 161810 -1.4095388352870941e-02</internalNodes>
      <leafValues>
        3.7704917788505554e-01 -8.0995887517929077e-01</leafValues></_>
    <_>
      <internalNodes>
        0 -1 60106 -2.2889582440257072e-02</internalNodes>
      <leafValues>
        3.0642017722129822e-01 -4.5557686686515808e-01</leafValues></_>
    <_>
      <internalNodes>
        0 -1 30303 -3.1801998615264893e-01</internalNodes>
      <leafValues>
        3.1756782531738281e-01 -2.8885877132415771e-01</leafValues></_>
    <_>
      <internalNodes>
        0 -1 78346 2.6474320329725742e-03</internalNodes>
      <leafValues>
        9.4885319471359253e-02 -9.0232485532760620e-01</leafValues></_>
    <_>
      <internalNodes>
        0 -1 38937 1.2543334160000086e-03</internalNodes>
      <leafValues>
        -1.6914413869380951e-01 4.2669892311096191e-01</leafValues></_>
    <_>
      <internalNodes>
        0 -1 104440 -1.0345201008021832e-03</internalNodes>
      <leafValues>
        -8.1560009717941284e-01 1.0250471532344818e-01</leafValues></_>
    <_>
      <internalNodes>
        0 -1 152812 -8.7825991213321686e-03</internalNodes>
      <leafValues>
        4.5786342024803162e-01 -1.5915398299694061e-01</leafValues></_>
    <_>
      <internalNodes>
        0 -1 23633 1.7910131718963385e-03</internalNodes>
      <leafValues>
        -1.5272012352943420e-01 4.0907818078994751e-01</leafValues></_>
    <_>
      <internalNodes>
        0 -1 21589 -5.6695444509387016e-03</internalNodes>
      <leafValues>
        4.5339083671569824e-01 -1.5419368445873260e-01</leafValues></_>
    <_>
      <internalNodes>
        0 -1 160469 -2.2321243304759264e-03</internalNodes>
      <leafValues>
        4.6237939596176147e-01 -1.4296405017375946e-01</leafValues></_>
    <_>
      <internalNodes>
        0 -1 159613 4.1612088680267334e-03</internalNodes>
      <leafValues>
        -1.4819519221782684e-01 5.0270652770996094e-01</leafValues></_>
    <_>
      <internalNodes>
        0 -1 104973 -2.1533686667680740e-03</internalNodes>
      <leafValues>
        -5.7185572385787964e-01 1.2248191237449646e-01</leafValues></_>
    <_>
      <internalNodes>
        0 -1 137896 8.2925509195774794e-04</internalNodes>
      <leafValues>
        1.4168301224708557e-01 -5.4059350490570068e-01</leafValues></_>
    <_>
      <internalNodes>
        0 -1 129828 -1.1458741500973701e-03</internalNodes>
      <leafValues>
        -3.8066720962524414e-01 1.5642830729484558e-01</leafValues></_>
    <_>
      <internalNodes>
        0 -1 160283 -3.1923367641866207e-03</internalNodes>
      <leafValues>
        4.4992730021476746e-01 -1.4534094929695129e-01</leafValues></_>
    <_>
      <internalNodes>
        0 -1 95242 -2.6334614958614111e-03</internalNodes>
      <leafValues>
        -6.9081038236618042e-01 1.1499170213937759e-01</leafValues></_>
    <_>
      <internalNodes>
        0 -1 118371 -1.1213102936744690e-01</internalNodes>
      <leafValues>
        -7.1498626470565796e-01 8.2290470600128174e-02</leafValues></_>
    <_>
      <internalNodes>
        0 -1 80340 4.0087280794978142e-03</internalNodes>
      <leafValues>
        -1.4545728266239166e-01 4.2320972681045532e-01</leafValues></_>
    <_>
      <internalNodes>
        0 -1 60288 -1.0196689981967211e-03</internalNodes>
      <leafValues>
        3.3294880390167236e-01 -1.9185134768486023e-01</leafValues></_>
    <_>
      <internalNodes>
        0 -1 97893 -7.5825781095772982e-04</internalNodes>
      <leafValues>
        -5.7428288459777832e-01 1.1077533662319183e-01</leafValues></_>
    <_>
      <internalNodes>
        0 -1 144718 -8.6138321785256267e-04</internalNodes>
      <leafValues>
        5.1992440223693848e-01 -1.2559826672077179e-01</leafValues></_></weakClassifiers></stage2>
</opencv_storage>
