<?xml version="1.0"?>
<opencv_storage>
<stage2>
  <maxWeakCount>6</maxWeakCount>
  <stageThreshold>-1.5633376836776733e+00</stageThreshold>
  <weakClassifiers>
    <_>
      <internalNodes>
        0 -1 1102 -69208081 -70090326 -804531894 -128528106 1388762107
        1940057082 -611063573 -203685905</internalNodes>
      <leafValues>
        -8.5402184724807739e-01 -1.2711864709854126e-01</leafValues></_>
    <_>
      <internalNodes>
        0 -1 4780 400951536 1937326559 269603741 -566960 -100451655
        -72775539 -1856294145 -1101524292</internalNodes>
      <leafValues>
        -7.0254492759704590e-01 2.1303671598434448e-01</leafValues></_>
    <_>
      <internalNodes>
        0 -1 7023 -1635779601 247108377 188842462 -6410275 2076699262
        1543346859 -70579212 -325280200</internalNodes>
      <leafValues>
        -8.0262470245361328e-01 2.4917139112949371e-01</leafValues></_>
    <_>
      <internalNodes>
        0 -1 8419 -1227243346 1608237919 -650041076 350015707 -473484508
        -1433731048 1150285678 -679545910</internalNodes>
      <leafValues>
        -6.3630497455596924e-01 3.5668843984603882e-01</leafValues></_>
    <_>
      <internalNodes>
        0 -1 6080 369691772 1012142418 1497974268 2067141978 -1979186467
        -23590878 -1442170305 933798564</internalNodes>
      <leafValues>
        -7.0940881967544556e-01 3.5978376865386963e-01</leafValues></_>
    <_>
      <internalNodes>
        0 -1 1964 -222625883 -203487394 -716448801 844154062 -232121592
        2055940457 323741931 -81612021</internalNodes>
      <leafValues>
        -5.7010978460311890e-01 4.4059118628501892e-01</leafValues></_></weakClassifiers></stage2>
</opencv_storage>
