<?xml version="1.0"?>
<opencv_storage>
<stage7>
  <maxWeakCount>9</maxWeakCount>
  <stageThreshold>-9.3000805377960205e-01</stageThreshold>
  <weakClassifiers>
    <_>
      <internalNodes>
        0 -1 43622 -3.9557015895843506e-01</internalNodes>
      <leafValues>
        5.6250000000000000e-01 -5.8847737312316895e-01</leafValues></_>
    <_>
      <internalNodes>
        0 -1 60106 -2.1334774792194366e-02</internalNodes>
      <leafValues>
        5.1100021600723267e-01 -3.5896107554435730e-01</leafValues></_>
    <_>
      <internalNodes>
        0 -1 49367 7.6212054118514061e-03</internalNodes>
      <leafValues>
        -1.9612891972064972e-01 9.2598074674606323e-01</leafValues></_>
    <_>
      <internalNodes>
        0 -1 31534 5.4158703424036503e-03</internalNodes>
      <leafValues>
        3.0343064665794373e-01 -6.4717680215835571e-01</leafValues></_>
    <_>
      <internalNodes>
        0 -1 150991 -5.6581059470772743e-04</internalNodes>
      <leafValues>
        2.7922832965850830e-01 -6.6210460662841797e-01</leafValues></_>
    <_>
      <internalNodes>
        0 -1 112268 -2.5548157282173634e-03</internalNodes>
      <leafValues>
        -4.7017046809196472e-01 3.2650154829025269e-01</leafValues></_>
    <_>
      <internalNodes>
        0 -1 47085 -4.1576242074370384e-04</internalNodes>
      <leafValues>
        -7.3602712154388428e-01 2.5625061988830566e-01</leafValues></_>
    <_>
      <internalNodes>
        0 -1 34 8.4362048655748367e-03</internalNodes>
      <leafValues>
        -2.3453855514526367e-01 8.2166147232055664e-01</leafValues></_>
    <_>
      <internalNodes>
        0 -1 134790 -9.9822953343391418e-02</internalNodes>
      <leafValues>
        -7.8123545646667480e-01 2.7871203422546387e-01</leafValues></_></weakClassifiers></stage7>
</opencv_storage>
