<?xml version="1.0"?>
<opencv_storage>
<stage7>
  <maxWeakCount>8</maxWeakCount>
  <stageThreshold>-1.4474189281463623e+00</stageThreshold>
  <weakClassifiers>
    <_>
      <internalNodes>
        0 -1 7358 -250216967 -615000879 -251529953 -294441 -1190417925
        -1075788923 -2017783589 -1049889</internalNodes>
      <leafValues>
        -8.2786494493484497e-01 -6.1224490404129028e-02</leafValues></_>
    <_>
      <internalNodes>
        0 -1 8181 -1226835411 -1092647970 1368449427 1769657495
        -1165276893 650611339 579312267 1414515195</internalNodes>
      <leafValues>
        -6.5106606483459473e-01 1.1621468514204025e-01</leafValues></_>
    <_>
      <internalNodes>
        0 -1 7076 -73993812 1717305752 1906137311 -1512353320 1124852150
        -1147436641 -1751127555 -1933943067</internalNodes>
      <leafValues>
        -5.3981840610504150e-01 3.2073161005973816e-01</leafValues></_>
    <_>
      <internalNodes>
        0 -1 5214 1935625377 1604113363 1931316087 714969374 -1078596772
        -1092990033 1939432733 649090160</internalNodes>
      <leafValues>
        -7.8629362583160400e-01 2.3575015366077423e-01</leafValues></_>
    <_>
      <internalNodes>
        0 -1 8394 -948980527 -209715276 -285310977 2105503157 -403177588
        -171966465 708796413 -114133506</internalNodes>
      <leafValues>
        -3.5522526502609253e-01 5.8198839426040649e-01</leafValues></_>
    <_>
      <internalNodes>
        0 -1 981 1165349309 -895807098 302094081 -83000828 1930666721
        136997468 583760579 1423948035</internalNodes>
      <leafValues>
        -5.4208964109420776e-01 4.0148830413818359e-01</leafValues></_>
    <_>
      <internalNodes>
        0 -1 4909 -47453019 752094623 -541386418 965899070 1370111973
        1602992770 -104268193 -929239244</internalNodes>
      <leafValues>
        -5.1543521881103516e-01 3.8511782884597778e-01</leafValues></_>
    <_>
      <internalNodes>
        0 -1 7820 -409956958 415258953 487627161 134742197 1786936553
        2067923051 847910936 1176189604</internalNodes>
      <leafValues>
        -6.4433854818344116e-01 3.3103930950164795e-01</leafValues></_></weakClassifiers></stage7>
</opencv_storage>
