<?xml version="1.0"?>
<opencv_storage>
<stage7>
  <maxWeakCount>34</maxWeakCount>
  <stageThreshold>-1.4703395366668701e+00</stageThreshold>
  <weakClassifiers>
    <_>
      <internalNodes>
        0 -1 61510 4.4000437483191490e-03</internalNodes>
      <leafValues>
        -7.7896851301193237e-01 -3.3852139115333557e-01</leafValues></_>
    <_>
      <internalNodes>
        0 -1 152417 1.6642592381685972e-03</internalNodes>
      <leafValues>
        -2.9990985989570618e-01 3.1809562444686890e-01</leafValues></_>
    <_>
      <internalNodes>
        0 -1 151379 -3.6698096664622426e-04</internalNodes>
      <leafValues>
        -6.0829722881317139e-01 7.9741507768630981e-02</leafValues></_>
    <_>
      <internalNodes>
        0 -1 103577 -8.3626843988895416e-03</internalNodes>
      <leafValues>
        -7.2581708431243896e-01 9.3725390732288361e-02</leafValues></_>
    <_>
      <internalNodes>
        0 -1 158323 -4.2336978949606419e-03</internalNodes>
      <leafValues>
        2.8263509273529053e-01 -1.6018061339855194e-01</leafValues></_>
    <_>
      <internalNodes>
        0 -1 29523 2.4135266430675983e-03</internalNodes>
      <leafValues>
        -6.3206583261489868e-02 5.1090568304061890e-01</leafValues></_>
    <_>
      <internalNodes>
        0 -1 160459 -7.7366863843053579e-04</internalNodes>
      <leafValues>
        4.4141796231269836e-01 -8.8504791259765625e-02</leafValues></_>
    <_>
      <internalNodes>
        0 -1 141197 -2.1472724154591560e-02</internalNodes>
      <leafValues>
        2.7082613110542297e-01 -1.6852790117263794e-01</leafValues></_>
    <_>
      <internalNodes>
        0 -1 122563 -9.5809726044535637e-03</internalNodes>
      <leafValues>
        5.4791134595870972e-01 -7.9838000237941742e-02</leafValues></_>
    <_>
      <internalNodes>
        0 -1 157406 -1.1193687096238136e-03</internalNodes>
      <leafValues>
        3.7043267488479614e-01 -1.2493122369050980e-01</leafValues></_>
    <_>
      <internalNodes>
        0 -1 126352 -2.9931758763268590e-04</internalNodes>
      <leafValues>
        -4.9755468964576721e-01 7.8939273953437805e-02</leafValues></_>
    <_>
      <internalNodes>
        0 -1 29528 -2.7589206583797932e-03</internalNodes>
      <leafValues>
        4.1357073187828064e-01 -9.4966977834701538e-02</leafValues></_>
    <_>
      <internalNodes>
        0 -1 8946 5.4213525727391243e-03</internalNodes>
      <leafValues>
        -1.4871741831302643e-01 2.6377272605895996e-01</leafValues></_>
    <_>
      <internalNodes>
        0 -1 91652 -1.9824344664812088e-02</internalNodes>
      <leafValues>
        4.1243186593055725e-01 -1.0228360444307327e-01</leafValues></_>
    <_>
      <internalNodes>
        0 -1 122433 -4.9716411158442497e-03</internalNodes>
      <leafValues>
        -8.0728703737258911e-01 4.8261847347021103e-02</leafValues></_>
    <_>
      <internalNodes>
        0 -1 157045 -1.6043614596128464e-03</internalNodes>
      <leafValues>
        -5.9789550304412842e-01 6.5457008779048920e-02</leafValues></_>
    <_>
      <internalNodes>
        0 -1 159613 3.2141397241503000e-03</internalNodes>
      <leafValues>
        -1.2242077291011810e-01 3.0948856472969055e-01</leafValues></_>
    <_>
      <internalNodes>
        0 -1 31974 9.7290077246725559e-04</internalNodes>
      <leafValues>
        1.0181518644094467e-01 -3.9431226253509521e-01</leafValues></_>
    <_>
      <internalNodes>
        0 -1 38096 4.9065604805946350e-02</internalNodes>
      <leafValues>
        5.9795789420604706e-02 -7.2195941209793091e-01</leafValues></_>
    <_>
      <internalNodes>
        0 -1 133393 -1.5460143913514912e-04</internalNodes>
      <leafValues>
        -3.5525879263877869e-01 1.1363825947046280e-01</leafValues></_>
    <_>
      <internalNodes>
        0 -1 70183 -3.9592131972312927e-02</internalNodes>
      <leafValues>
        5.0302863121032715e-01 -9.4155780971050262e-02</leafValues></_>
    <_>
      <internalNodes>
        0 -1 133725 -1.1696247383952141e-03</internalNodes>
      <leafValues>
        3.5493791103363037e-01 -1.0503903776407242e-01</leafValues></_>
    <_>
      <internalNodes>
        0 -1 140243 4.5285660773515701e-02</internalNodes>
      <leafValues>
        -6.7599080502986908e-02 5.7865363359451294e-01</leafValues></_>
    <_>
      <internalNodes>
        0 -1 155425 8.6378939449787140e-02</internalNodes>
      <leafValues>
        7.5914606451988220e-02 -6.3156735897064209e-01</leafValues></_>
    <_>
      <internalNodes>
        0 -1 115363 6.6928073763847351e-02</internalNodes>
      <leafValues>
        -1.4670331776142120e-01 3.9127776026725769e-01</leafValues></_>
    <_>
      <internalNodes>
        0 -1 152150 1.1147962510585785e-01</internalNodes>
      <leafValues>
        4.4950358569622040e-02 -8.9378434419631958e-01</leafValues></_>
    <_>
      <internalNodes>
        0 -1 124215 1.4310793485492468e-03</internalNodes>
      <leafValues>
        -1.9141991436481476e-01 2.2111013531684875e-01</leafValues></_>
    <_>
      <internalNodes>
        0 -1 146935 -3.0653160065412521e-03</internalNodes>
      <leafValues>
        -9.0250653028488159e-01 4.0459632873535156e-02</leafValues></_>
    <_>
      <internalNodes>
        0 -1 115422 -1.9046834111213684e-01</internalNodes>
      <leafValues>
        2.9029655456542969e-01 -1.3596639037132263e-01</leafValues></_>
    <_>
      <internalNodes>
        0 -1 89637 -4.5700385235249996e-03</internalNodes>
      <leafValues>
        4.0998056530952454e-01 -1.0750488191843033e-01</leafValues></_>
    <_>
      <internalNodes>
        0 -1 89793 -1.9449315965175629e-02</internalNodes>
      <leafValues>
        -5.8067339658737183e-01 6.7209124565124512e-02</leafValues></_>
    <_>
      <internalNodes>
        0 -1 85946 4.0952377021312714e-03</internalNodes>
      <leafValues>
        -9.4356030225753784e-02 4.1624364256858826e-01</leafValues></_>
    <_>
      <internalNodes>
        0 -1 107447 3.7218523211777210e-03</internalNodes>
      <leafValues>
        6.2849976122379303e-02 -6.7333245277404785e-01</leafValues></_>
    <_>
      <internalNodes>
        0 -1 134212 1.0182845871895552e-03</internalNodes>
      <leafValues>
        -9.3654267489910126e-02 4.7904348373413086e-01</leafValues></_></weakClassifiers></stage7>
</opencv_storage>
