<?xml version="1.0"?>
<opencv_storage>
<stage1>
  <maxWeakCount>12</maxWeakCount>
  <stageThreshold>-1.6601824760437012e+00</stageThreshold>
  <weakClassifiers>
    <_>
      <internalNodes>
        0 -1 35345 -1.4846986532211304e-01</internalNodes>
      <leafValues>
        1.7647059261798859e-01 -7.8557503223419189e-01</leafValues></_>
    <_>
      <internalNodes>
        0 -1 145518 -7.4311234056949615e-03</internalNodes>
      <leafValues>
        2.9242554306983948e-01 -4.9541559815406799e-01</leafValues></_>
    <_>
      <internalNodes>
        0 -1 159369 -1.9000545144081116e-02</internalNodes>
      <leafValues>
        -5.5702024698257446e-01 2.2079895436763763e-01</leafValues></_>
    <_>
      <internalNodes>
        0 -1 70631 -7.1155792102217674e-03</internalNodes>
      <leafValues>
        6.8715113401412964e-01 -2.1353518962860107e-01</leafValues></_>
    <_>
      <internalNodes>
        0 -1 37889 6.7501426674425602e-03</internalNodes>
      <leafValues>
        -1.5477554500102997e-01 6.4431977272033691e-01</leafValues></_>
    <_>
      <internalNodes>
        0 -1 23637 -2.4529639631509781e-03</internalNodes>
      <leafValues>
        4.7790548205375671e-01 -2.3158898949623108e-01</leafValues></_>
    <_>
      <internalNodes>
        0 -1 107044 -3.1176945194602013e-03</internalNodes>
      <leafValues>
        5.6246525049209595e-01 -1.5972773730754852e-01</leafValues></_>
    <_>
      <internalNodes>
        0 -1 157577 5.2729183807969093e-03</internalNodes>
      <leafValues>
        -1.3569661974906921e-01 6.4389461278915405e-01</leafValues></_>
    <_>
      <internalNodes>
        0 -1 105349 -2.9175858944654465e-03</internalNodes>
      <leafValues>
        3.7004595994949341e-01 -2.7093765139579773e-01</leafValues></_>
    <_>
      <internalNodes>
        0 -1 70332 -9.8646506667137146e-03</internalNodes>
      <leafValues>
        5.9413617849349976e-01 -1.5600840747356415e-01</leafValues></_>
    <_>
      <internalNodes>
        0 -1 136845 -4.2020910768769681e-04</internalNodes>
      <leafValues>
        -5.3944760560989380e-01 1.7821909487247467e-01</leafValues></_>
    <_>
      <internalNodes>
        0 -1 160992 -1.6047763638198376e-03</internalNodes>
      <leafValues>
        5.4221057891845703e-01 -1.9596488773822784e-01</leafValues></_></weakClassifiers></stage1>
</opencv_storage>
