<?xml version="1.0"?>
<opencv_storage>
<stage1>
  <maxWeakCount>16</maxWeakCount>
  <stageThreshold>-1.9586350917816162e+00</stageThreshold>
  <weakClassifiers>
    <_>
      <internalNodes>
        0 -1 61146 3.8290187716484070e-02</internalNodes>
      <leafValues>
        -8.2249999046325684e-01 4.3999999761581421e-01</leafValues></_>
    <_>
      <internalNodes>
        0 -1 119309 -1.5298167709261179e-03</internalNodes>
      <leafValues>
        1.4455188810825348e-01 -6.2289935350418091e-01</leafValues></_>
    <_>
      <internalNodes>
        0 -1 161750 -2.9950067400932312e-03</internalNodes>
      <leafValues>
        7.0326912403106689e-01 -2.2432771325111389e-01</leafValues></_>
    <_>
      <internalNodes>
        0 -1 151831 3.5221362486481667e-04</internalNodes>
      <leafValues>
        -1.7162349820137024e-01 5.6963121891021729e-01</leafValues></_>
    <_>
      <internalNodes>
        0 -1 128051 2.3008589632809162e-03</internalNodes>
      <leafValues>
        -2.4833469092845917e-01 4.2554801702499390e-01</leafValues></_>
    <_>
      <internalNodes>
        0 -1 38810 -2.9087308794260025e-02</internalNodes>
      <leafValues>
        6.5789115428924561e-01 -1.8183095753192902e-01</leafValues></_>
    <_>
      <internalNodes>
        0 -1 18814 3.8689021021127701e-03</internalNodes>
      <leafValues>
        -1.4537195861339569e-01 6.2036257982254028e-01</leafValues></_>
    <_>
      <internalNodes>
        0 -1 127971 -2.7706017717719078e-03</internalNodes>
      <leafValues>
        5.5498576164245605e-01 -1.8302710354328156e-01</leafValues></_>
    <_>
      <internalNodes>
        0 -1 159443 1.7308972310274839e-03</internalNodes>
      <leafValues>
        -1.9760669767856598e-01 5.5013680458068848e-01</leafValues></_>
    <_>
      <internalNodes>
        0 -1 5911 4.8639615997672081e-03</internalNodes>
      <leafValues>
        -2.0860503613948822e-01 4.5184069871902466e-01</leafValues></_>
    <_>
      <internalNodes>
        0 -1 121128 -7.4683502316474915e-02</internalNodes>
      <leafValues>
        -8.2454365491867065e-01 1.6116942465305328e-01</leafValues></_>
    <_>
      <internalNodes>
        0 -1 11932 -3.1314957886934280e-03</internalNodes>
      <leafValues>
        4.9575558304786682e-01 -2.0977719128131866e-01</leafValues></_>
    <_>
      <internalNodes>
        0 -1 145244 -4.6346373856067657e-02</internalNodes>
      <leafValues>
        5.5180186033248901e-01 -2.0482723414897919e-01</leafValues></_>
    <_>
      <internalNodes>
        0 -1 120368 1.6292494256049395e-03</internalNodes>
      <leafValues>
        1.4688201248645782e-01 -8.3023476600646973e-01</leafValues></_>
    <_>
      <internalNodes>
        0 -1 155959 -6.0629704967141151e-04</internalNodes>
      <leafValues>
        6.1077654361724854e-01 -2.0738595724105835e-01</leafValues></_>
    <_>
      <internalNodes>
        0 -1 24741 1.5811574412509799e-03</internalNodes>
      <leafValues>
        -1.8382400274276733e-01 5.6735825538635254e-01</leafValues></_></weakClassifiers></stage1>
</opencv_storage>
