<?xml version="1.0"?>
<opencv_storage>
<stage5>
  <maxWeakCount>18</maxWeakCount>
  <stageThreshold>-1.2989491224288940e+00</stageThreshold>
  <weakClassifiers>
    <_>
      <internalNodes>
        0 -1 121585 7.7596269547939301e-03</internalNodes>
      <leafValues>
        -7.3540145158767700e-01 5.7692307978868484e-02</leafValues></_>
    <_>
      <internalNodes>
        0 -1 36939 -2.0556207746267319e-03</internalNodes>
      <leafValues>
        3.0826991796493530e-01 -3.7733551859855652e-01</leafValues></_>
    <_>
      <internalNodes>
        0 -1 52065 8.6288322927430272e-04</internalNodes>
      <leafValues>
        -3.6949667334556580e-01 2.4878448247909546e-01</leafValues></_>
    <_>
      <internalNodes>
        0 -1 37450 7.5676559936255217e-04</internalNodes>
      <leafValues>
        -1.4425341784954071e-01 7.1856743097305298e-01</leafValues></_>
    <_>
      <internalNodes>
        0 -1 159573 5.9553794562816620e-04</internalNodes>
      <leafValues>
        -2.3304465413093567e-01 3.9351657032966614e-01</leafValues></_>
    <_>
      <internalNodes>
        0 -1 23295 -6.5647140145301819e-02</internalNodes>
      <leafValues>
        -8.5313808917999268e-01 9.9974796175956726e-02</leafValues></_>
    <_>
      <internalNodes>
        0 -1 127844 -4.7277112025767565e-04</internalNodes>
      <leafValues>
        -6.6827636957168579e-01 9.5435507595539093e-02</leafValues></_>
    <_>
      <internalNodes>
        0 -1 89449 -1.7894573975354433e-03</internalNodes>
      <leafValues>
        2.7036130428314209e-01 -2.5534760951995850e-01</leafValues></_>
    <_>
      <internalNodes>
        0 -1 89592 2.9574185609817505e-03</internalNodes>
      <leafValues>
        -2.0769536495208740e-01 4.8741450905799866e-01</leafValues></_>
    <_>
      <internalNodes>
        0 -1 148253 3.0327965505421162e-03</internalNodes>
      <leafValues>
        -1.0794996470212936e-01 5.0885027647018433e-01</leafValues></_>
    <_>
      <internalNodes>
        0 -1 119388 -8.6923246271908283e-04</internalNodes>
      <leafValues>
        2.2422195971012115e-01 -3.1382998824119568e-01</leafValues></_>
    <_>
      <internalNodes>
        0 -1 60134 1.6469566617161036e-03</internalNodes>
      <leafValues>
        -2.1991521120071411e-01 3.4616553783416748e-01</leafValues></_>
    <_>
      <internalNodes>
        0 -1 120573 8.6278037633746862e-04</internalNodes>
      <leafValues>
        1.1982639878988266e-01 -6.5752297639846802e-01</leafValues></_>
    <_>
      <internalNodes>
        0 -1 38028 -5.5117076262831688e-03</internalNodes>
      <leafValues>
        6.8074262142181396e-01 -1.0226285457611084e-01</leafValues></_>
    <_>
      <internalNodes>
        0 -1 24414 -3.3197724260389805e-03</internalNodes>
      <leafValues>
        6.9381076097488403e-01 -8.6109369993209839e-02</leafValues></_>
    <_>
      <internalNodes>
        0 -1 105673 5.1042763516306877e-04</internalNodes>
      <leafValues>
        1.2944751977920532e-01 -5.8947920799255371e-01</leafValues></_>
    <_>
      <internalNodes>
        0 -1 10057 -3.8731982931494713e-03</internalNodes>
      <leafValues>
        5.0006943941116333e-01 -1.3986565172672272e-01</leafValues></_>
    <_>
      <internalNodes>
        0 -1 18036 -1.1072041466832161e-02</internalNodes>
      <leafValues>
        -1.4090436697006226e-01 4.7348630428314209e-01</leafValues></_></weakClassifiers></stage5>
</opencv_storage>
