<?xml version="1.0"?>
<opencv_storage>
<stage3>
  <maxWeakCount>7</maxWeakCount>
  <stageThreshold>-1.7691991329193115e+00</stageThreshold>
  <weakClassifiers>
    <_>
      <internalNodes>
        0 -1 8150 -606076929 -749039185 -532549428 -203710051
        -1148520453 -336950505 807096828 -3151617</internalNodes>
      <leafValues>
        -8.7243014574050903e-01 -2.6912182569503784e-01</leafValues></_>
    <_>
      <internalNodes>
        0 -1 7101 -44837610 2135726175 -805185447 -178891697 -1134847330
        -338636769 -615776258 -76861653</internalNodes>
      <leafValues>
        -6.3769078254699707e-01 2.2828574478626251e-01</leafValues></_>
    <_>
      <internalNodes>
        0 -1 1415 653053856 2069579060 130071389 1872294095 2124463096
        -1253604773 1602997230 1577017062</internalNodes>
      <leafValues>
        -7.5726550817489624e-01 2.5039273500442505e-01</leafValues></_>
    <_>
      <internalNodes>
        0 -1 6069 740460715 -1105558540 1561647583 928862719 1372316637
        -1492088646 994274027 145170880</internalNodes>
      <leafValues>
        -6.0596060752868652e-01 3.5435831546783447e-01</leafValues></_>
    <_>
      <internalNodes>
        0 -1 533 1506714879 2061451471 -1073032890 1620602312
        -1191907751 1453047819 64194820 -1076118733</internalNodes>
      <leafValues>
        -6.1332702636718750e-01 3.8535606861114502e-01</leafValues></_>
    <_>
      <internalNodes>
        0 -1 645 -1717628844 -661241503 486590490 -1690152622 1392999679
        -641527805 -2110138027 656883869</internalNodes>
      <leafValues>
        -7.0240539312362671e-01 3.2453626394271851e-01</leafValues></_>
    <_>
      <internalNodes>
        0 -1 761 -833559948 -237055616 471331803 -586526436 441037306
        799572456 -1828697093 1471881962</internalNodes>
      <leafValues>
        -5.7503843307495117e-01 3.8987544178962708e-01</leafValues></_></weakClassifiers></stage3>
</opencv_storage>
