<?xml version="1.0"?>
<opencv_storage>
<stage0>
  <maxWeakCount>9</maxWeakCount>
  <stageThreshold>-1.5435554981231689e+00</stageThreshold>
  <weakClassifiers>
    <_>
      <internalNodes>
        0 -1 89585 -4.6359941363334656e-02</internalNodes>
      <leafValues>
        -9.1501832008361816e-01 -2.5974025484174490e-03</leafValues></_>
    <_>
      <internalNodes>
        0 -1 121537 -1.6816595196723938e-01</internalNodes>
      <leafValues>
        -8.6686301231384277e-01 1.0418999940156937e-01</leafValues></_>
    <_>
      <internalNodes>
        0 -1 158720 -3.2092079054564238e-03</internalNodes>
      <leafValues>
        5.3842610120773315e-01 -4.5213532447814941e-01</leafValues></_>
    <_>
      <internalNodes>
        0 -1 155586 -3.0881848931312561e-01</internalNodes>
      <leafValues>
        -1. 1.9743208587169647e-01</leafValues></_>
    <_>
      <internalNodes>
        0 -1 14688 2.8373457491397858e-02</internalNodes>
      <leafValues>
        -3.9012226462364197e-01 5.1897072792053223e-01</leafValues></_>
    <_>
      <internalNodes>
        0 -1 127725 1.5762459486722946e-02</internalNodes>
      <leafValues>
        -2.7052405476570129e-01 6.9914293289184570e-01</leafValues></_>
    <_>
      <internalNodes>
        0 -1 18063 4.6262973919510841e-03</internalNodes>
      <leafValues>
        -2.7641877532005310e-01 6.4617019891738892e-01</leafValues></_>
    <_>
      <internalNodes>
        0 -1 121585 2.5924872606992722e-03</internalNodes>
      <leafValues>
        -2.0971819758415222e-01 7.1933758258819580e-01</leafValues></_>
    <_>
      <internalNodes>
        0 -1 128281 -2.6993323117494583e-03</internalNodes>
      <leafValues>
        7.3071938753128052e-01 -1.9293044507503510e-01</leafValues></_></weakClassifiers></stage0>
</opencv_storage>
