<?xml version="1.0"?>
<opencv_storage>
<stage1>
  <maxWeakCount>13</maxWeakCount>
  <stageThreshold>-8.9387172460556030e-01</stageThreshold>
  <weakClassifiers>
    <_>
      <internalNodes>
        0 -1 158720 -3.1400281004607677e-03</internalNodes>
      <leafValues>
        4.0092167258262634e-01 -5.4734408855438232e-01</leafValues></_>
    <_>
      <internalNodes>
        0 -1 105581 -1.7694830894470215e-01</internalNodes>
      <leafValues>
        -6.7752790451049805e-01 2.9393333196640015e-01</leafValues></_>
    <_>
      <internalNodes>
        0 -1 18849 7.4184322729706764e-03</internalNodes>
      <leafValues>
        -2.9080280661582947e-01 7.3966169357299805e-01</leafValues></_>
    <_>
      <internalNodes>
        0 -1 83878 3.1568162143230438e-02</internalNodes>
      <leafValues>
        1.8699941039085388e-01 -8.0812835693359375e-01</leafValues></_>
    <_>
      <internalNodes>
        0 -1 11522 2.9598413966596127e-03</internalNodes>
      <leafValues>
        -2.4278563261032104e-01 6.0903435945510864e-01</leafValues></_>
    <_>
      <internalNodes>
        0 -1 51271 1.8705367110669613e-03</internalNodes>
      <leafValues>
        -2.5658276677131653e-01 4.7110033035278320e-01</leafValues></_>
    <_>
      <internalNodes>
        0 -1 7251 2.9780334234237671e-01</internalNodes>
      <leafValues>
        1.7664189636707306e-01 -7.2041827440261841e-01</leafValues></_>
    <_>
      <internalNodes>
        0 -1 15149 -6.5036243759095669e-03</internalNodes>
      <leafValues>
        8.2271933555603027e-01 -1.7168784141540527e-01</leafValues></_>
    <_>
      <internalNodes>
        0 -1 11036 -5.4521556012332439e-04</internalNodes>
      <leafValues>
        6.9284826517105103e-01 -1.5958063304424286e-01</leafValues></_>
    <_>
      <internalNodes>
        0 -1 159157 -8.1197367981076241e-03</internalNodes>
      <leafValues>
        6.5932548046112061e-01 -1.8555918335914612e-01</leafValues></_>
    <_>
      <internalNodes>
        0 -1 98550 -1.7951503396034241e-03</internalNodes>
      <leafValues>
        5.3762388229370117e-01 -2.1381609141826630e-01</leafValues></_>
    <_>
      <internalNodes>
        0 -1 80661 4.2830822058022022e-03</internalNodes>
      <leafValues>
        -1.9390091300010681e-01 5.8947551250457764e-01</leafValues></_>
    <_>
      <internalNodes>
        0 -1 31917 -2.6069149374961853e-02</internalNodes>
      <leafValues>
        -1. 1.2855075299739838e-01</leafValues></_></weakClassifiers></stage1>
</opencv_storage>
