<?xml version="1.0"?>
<opencv_storage>
<stage14>
  <maxWeakCount>31</maxWeakCount>
  <stageThreshold>-8.4676283597946167e-01</stageThreshold>
  <weakClassifiers>
    <_>
      <internalNodes>
        0 -1 144960 -1.9605740904808044e-01</internalNodes>
      <leafValues>
        -8.7179487943649292e-01 -1.4335663616657257e-01</leafValues></_>
    <_>
      <internalNodes>
        0 -1 88870 -2.3095741868019104e-02</internalNodes>
      <leafValues>
        5.1452755928039551e-01 -1.0692934691905975e-01</leafValues></_>
    <_>
      <internalNodes>
        0 -1 5050 4.7205351293087006e-03</internalNodes>
      <leafValues>
        -8.3413317799568176e-02 8.2063060998916626e-01</leafValues></_>
    <_>
      <internalNodes>
        0 -1 6831 5.3141699172556400e-03</internalNodes>
      <leafValues>
        1.1967996507883072e-01 -4.2002558708190918e-01</leafValues></_>
    <_>
      <internalNodes>
        0 -1 87153 3.9500897401012480e-04</internalNodes>
      <leafValues>
        1.1587605625391006e-01 -5.8386731147766113e-01</leafValues></_>
    <_>
      <internalNodes>
        0 -1 50526 -3.0311755836009979e-02</internalNodes>
      <leafValues>
        8.2333743572235107e-01 -7.6180472970008850e-02</leafValues></_>
    <_>
      <internalNodes>
        0 -1 74558 1.1325017549097538e-02</internalNodes>
      <leafValues>
        -1.2232336401939392e-01 4.3344840407371521e-01</leafValues></_>
    <_>
      <internalNodes>
        0 -1 55810 -1.0307283140718937e-02</internalNodes>
      <leafValues>
        5.9900784492492676e-01 -9.4147063791751862e-02</leafValues></_>
    <_>
      <internalNodes>
        0 -1 101824 6.1140325851738453e-03</internalNodes>
      <leafValues>
        -1.4226378500461578e-01 3.7178564071655273e-01</leafValues></_>
    <_>
      <internalNodes>
        0 -1 18033 4.3354947119951248e-03</internalNodes>
      <leafValues>
        -1.6268086433410645e-01 3.8516223430633545e-01</leafValues></_>
    <_>
      <internalNodes>
        0 -1 30337 -2.9318517772480845e-04</internalNodes>
      <leafValues>
        3.3688393235206604e-01 -1.6595762968063354e-01</leafValues></_>
    <_>
      <internalNodes>
        0 -1 414 2.9650388285517693e-02</internalNodes>
      <leafValues>
        -1.3565035164356232e-01 4.0346616506576538e-01</leafValues></_>
    <_>
      <internalNodes>
        0 -1 87389 -1.2493479298427701e-03</internalNodes>
      <leafValues>
        2.4202801287174225e-01 -2.5235334038734436e-01</leafValues></_>
    <_>
      <internalNodes>
        0 -1 31814 -2.9699247330427170e-02</internalNodes>
      <leafValues>
        -1.2275278568267822e-01 5.6848210096359253e-01</leafValues></_>
    <_>
      <internalNodes>
        0 -1 120855 -1.7937244847416878e-02</internalNodes>
      <leafValues>
        -7.4709826707839966e-01 9.7635947167873383e-02</leafValues></_>
    <_>
      <internalNodes>
        0 -1 136422 -5.1202746108174324e-03</internalNodes>
      <leafValues>
        -7.9013490676879883e-01 4.6739522367715836e-02</leafValues></_>
    <_>
      <internalNodes>
        0 -1 69875 -2.8548686532303691e-04</internalNodes>
      <leafValues>
        -2.8017953038215637e-01 1.7913223803043365e-01</leafValues></_>
    <_>
      <internalNodes>
        0 -1 70148 2.2128969430923462e-02</internalNodes>
      <leafValues>
        9.2216752469539642e-02 -5.3630131483078003e-01</leafValues></_>
    <_>
      <internalNodes>
        0 -1 80471 7.5233291136100888e-04</internalNodes>
      <leafValues>
        -1.4179009199142456e-01 4.2999133467674255e-01</leafValues></_>
    <_>
      <internalNodes>
        0 -1 35943 -6.0459831729531288e-03</internalNodes>
      <leafValues>
        4.8041924834251404e-01 -1.2003020197153091e-01</leafValues></_>
    <_>
      <internalNodes>
        0 -1 159712 5.4661300964653492e-04</internalNodes>
      <leafValues>
        -2.6311871409416199e-01 2.0411825180053711e-01</leafValues></_>
    <_>
      <internalNodes>
        0 -1 9236 1.2738017365336418e-02</internalNodes>
      <leafValues>
        -2.6302832365036011e-01 2.5231584906578064e-01</leafValues></_>
    <_>
      <internalNodes>
        0 -1 20984 -1.1938523675780743e-04</internalNodes>
      <leafValues>
        3.6187005043029785e-01 -1.8862469494342804e-01</leafValues></_>
    <_>
      <internalNodes>
        0 -1 17374 2.2044405341148376e-03</internalNodes>
      <leafValues>
        -1.2859173119068146e-01 4.8667913675308228e-01</leafValues></_>
    <_>
      <internalNodes>
        0 -1 140573 -1.6374174505472183e-02</internalNodes>
      <leafValues>
        6.5255790948867798e-01 -8.6295239627361298e-02</leafValues></_>
    <_>
      <internalNodes>
        0 -1 107432 -2.4094106629490852e-04</internalNodes>
      <leafValues>
        3.6569228768348694e-01 -1.5849485993385315e-01</leafValues></_>
    <_>
      <internalNodes>
        0 -1 125890 3.0713498126715422e-03</internalNodes>
      <leafValues>
        8.3170466125011444e-02 -7.5982224941253662e-01</leafValues></_>
    <_>
      <internalNodes>
        0 -1 70851 -1.5875753015279770e-02</internalNodes>
      <leafValues>
        3.9573821425437927e-01 -1.6229459643363953e-01</leafValues></_>
    <_>
      <internalNodes>
        0 -1 47455 -2.4154702259693295e-04</internalNodes>
      <leafValues>
        -4.4032025337219238e-01 1.3462792336940765e-01</leafValues></_>
    <_>
      <internalNodes>
        0 -1 53180 -3.4806121140718460e-02</internalNodes>
      <leafValues>
        6.1268270015716553e-01 -1.0382144898176193e-01</leafValues></_>
    <_>
      <internalNodes>
        0 -1 12863 -1.2085416913032532e-01</internalNodes>
      <leafValues>
        -3.3072945475578308e-01 1.9587013125419617e-01</leafValues></_></weakClassifiers></stage14>
</opencv_storage>
