<?xml version="1.0"?>
<opencv_storage>
<stage4>
  <maxWeakCount>16</maxWeakCount>
  <stageThreshold>-5.7250130176544189e-01</stageThreshold>
  <weakClassifiers>
    <_>
      <internalNodes>
        0 -1 61146 3.4253410995006561e-02</internalNodes>
      <leafValues>
        -1.6981132328510284e-01 7.8787881135940552e-01</leafValues></_>
    <_>
      <internalNodes>
        0 -1 114450 -7.2438418865203857e-02</internalNodes>
      <leafValues>
        -7.9006332159042358e-01 2.3519113659858704e-01</leafValues></_>
    <_>
      <internalNodes>
        0 -1 20974 6.0980534180998802e-03</internalNodes>
      <leafValues>
        -2.2841045260429382e-01 6.6150522232055664e-01</leafValues></_>
    <_>
      <internalNodes>
        0 -1 80576 1.1811049655079842e-02</internalNodes>
      <leafValues>
        -2.4185231328010559e-01 6.5767657756805420e-01</leafValues></_>
    <_>
      <internalNodes>
        0 -1 25590 -7.2456011548638344e-03</internalNodes>
      <leafValues>
        7.4968111515045166e-01 -1.7866897583007813e-01</leafValues></_>
    <_>
      <internalNodes>
        0 -1 131268 -7.2398554766550660e-04</internalNodes>
      <leafValues>
        3.7520885467529297e-01 -4.2581832408905029e-01</leafValues></_>
    <_>
      <internalNodes>
        0 -1 11059 -4.2918054386973381e-03</internalNodes>
      <leafValues>
        7.8267097473144531e-01 -2.0871727168560028e-01</leafValues></_>
    <_>
      <internalNodes>
        0 -1 161282 -4.3674055486917496e-02</internalNodes>
      <leafValues>
        -4.7485584020614624e-01 2.9888308048248291e-01</leafValues></_>
    <_>
      <internalNodes>
        0 -1 161700 -4.1624857112765312e-03</internalNodes>
      <leafValues>
        8.9782404899597168e-01 -1.5520595014095306e-01</leafValues></_>
    <_>
      <internalNodes>
        0 -1 11036 -7.7255559153854847e-04</internalNodes>
      <leafValues>
        8.1681829690933228e-01 -1.1713665723800659e-01</leafValues></_>
    <_>
      <internalNodes>
        0 -1 114793 -1.2762885540723801e-02</internalNodes>
      <leafValues>
        8.6521077156066895e-01 -1.4147818088531494e-01</leafValues></_>
    <_>
      <internalNodes>
        0 -1 13876 8.4867188706994057e-03</internalNodes>
      <leafValues>
        -1.5159052610397339e-01 7.9818463325500488e-01</leafValues></_>
    <_>
      <internalNodes>
        0 -1 27773 -6.1533288098871708e-03</internalNodes>
      <leafValues>
        8.8169395923614502e-01 -1.0477191209793091e-01</leafValues></_>
    <_>
      <internalNodes>
        0 -1 69640 1.1583775281906128e-02</internalNodes>
      <leafValues>
        1.7698031663894653e-01 -8.7263321876525879e-01</leafValues></_>
    <_>
      <internalNodes>
        0 -1 160892 2.6619140990078449e-03</internalNodes>
      <leafValues>
        -1.8976740539073944e-01 7.9441910982131958e-01</leafValues></_>
    <_>
      <internalNodes>
        0 -1 112928 2.2238655015826225e-02</internalNodes>
      <leafValues>
        2.2864624857902527e-01 -7.1821618080139160e-01</leafValues></_></weakClassifiers></stage4>
</opencv_storage>
