<?xml version="1.0"?>
<opencv_storage>
<stage2>
  <maxWeakCount>20</maxWeakCount>
  <stageThreshold>-1.3134019374847412e+00</stageThreshold>
  <weakClassifiers>
    <_>
      <internalNodes>
        0 -1 107177 6.3874195329844952e-03</internalNodes>
      <leafValues>
        -7.2451788187026978e-01 2.4223601818084717e-01</leafValues></_>
    <_>
      <internalNodes>
        0 -1 67150 -2.1004003286361694e-01</internalNodes>
      <leafValues>
        4.2563992738723755e-01 -3.5757207870483398e-01</leafValues></_>
    <_>
      <internalNodes>
        0 -1 28106 -3.3663883805274963e-02</internalNodes>
      <leafValues>
        -3.1064665317535400e-01 3.4940135478973389e-01</leafValues></_>
    <_>
      <internalNodes>
        0 -1 13335 -8.0324197188019753e-03</internalNodes>
      <leafValues>
        6.7489391565322876e-01 -1.2408906966447830e-01</leafValues></_>
    <_>
      <internalNodes>
        0 -1 13335 4.8097288236021996e-03</internalNodes>
      <leafValues>
        -1.6531957685947418e-01 5.6623214483261108e-01</leafValues></_>
    <_>
      <internalNodes>
        0 -1 120930 -5.3748499602079391e-02</internalNodes>
      <leafValues>
        -8.8370126485824585e-01 1.2256059795618057e-01</leafValues></_>
    <_>
      <internalNodes>
        0 -1 128598 5.3235562518239021e-03</internalNodes>
      <leafValues>
        -2.3510214686393738e-01 4.2859542369842529e-01</leafValues></_>
    <_>
      <internalNodes>
        0 -1 61126 -3.6986552178859711e-02</internalNodes>
      <leafValues>
        7.7338486909866333e-01 -1.2983551621437073e-01</leafValues></_>
    <_>
      <internalNodes>
        0 -1 6720 3.2996644731611013e-03</internalNodes>
      <leafValues>
        -2.1205171942710876e-01 4.3901959061622620e-01</leafValues></_>
    <_>
      <internalNodes>
        0 -1 18037 4.3213716708123684e-03</internalNodes>
      <leafValues>
        -1.6631884872913361e-01 5.9286892414093018e-01</leafValues></_>
    <_>
      <internalNodes>
        0 -1 104440 -1.0372218675911427e-03</internalNodes>
      <leafValues>
        -8.2024753093719482e-01 1.6771312057971954e-01</leafValues></_>
    <_>
      <internalNodes>
        0 -1 124949 -2.5980880483984947e-02</internalNodes>
      <leafValues>
        2.8531405329704285e-01 -3.0840161442756653e-01</leafValues></_>
    <_>
      <internalNodes>
        0 -1 47225 -2.6524793356657028e-03</internalNodes>
      <leafValues>
        -6.2582743167877197e-01 1.5762168169021606e-01</leafValues></_>
    <_>
      <internalNodes>
        0 -1 29584 -6.8343721795827150e-04</internalNodes>
      <leafValues>
        3.7405312061309814e-01 -2.3212155699729919e-01</leafValues></_>
    <_>
      <internalNodes>
        0 -1 155163 2.7027120813727379e-03</internalNodes>
      <leafValues>
        -1.2339617311954498e-01 5.6196016073226929e-01</leafValues></_>
    <_>
      <internalNodes>
        0 -1 145228 -1.7810136079788208e-02</internalNodes>
      <leafValues>
        4.0913078188896179e-01 -1.7013627290725708e-01</leafValues></_>
    <_>
      <internalNodes>
        0 -1 148089 1.1869297362864017e-02</internalNodes>
      <leafValues>
        -1.6094915568828583e-01 5.2236789464950562e-01</leafValues></_>
    <_>
      <internalNodes>
        0 -1 128982 -6.1571456491947174e-02</internalNodes>
      <leafValues>
        -7.0681017637252808e-01 1.1997831612825394e-01</leafValues></_>
    <_>
      <internalNodes>
        0 -1 119160 -1.8656241009011865e-03</internalNodes>
      <leafValues>
        -6.8143558502197266e-01 1.1353022605180740e-01</leafValues></_>
    <_>
      <internalNodes>
        0 -1 9501 1.9961597397923470e-02</internalNodes>
      <leafValues>
        -1.2863928079605103e-01 6.7800468206405640e-01</leafValues></_></weakClassifiers></stage2>
</opencv_storage>
