<?xml version="1.0"?>
<opencv_storage>
<stage10>
  <maxWeakCount>39</maxWeakCount>
  <stageThreshold>-1.3002345561981201e+00</stageThreshold>
  <weakClassifiers>
    <_>
      <internalNodes>
        0 -1 37757 1.8690768629312515e-02</internalNodes>
      <leafValues>
        -6.8202245235443115e-01 6.9999998807907104e-01</leafValues></_>
    <_>
      <internalNodes>
        0 -1 49438 1.2227341532707214e-02</internalNodes>
      <leafValues>
        -2.0771460235118866e-01 5.5018502473831177e-01</leafValues></_>
    <_>
      <internalNodes>
        0 -1 35890 -9.0038198977708817e-03</internalNodes>
      <leafValues>
        3.0158197879791260e-01 -1.1452579498291016e-01</leafValues></_>
    <_>
      <internalNodes>
        0 -1 104205 -1.2280752882361412e-02</internalNodes>
      <leafValues>
        -6.9818037748336792e-01 5.2243575453758240e-02</leafValues></_>
    <_>
      <internalNodes>
        0 -1 160820 -2.7230805717408657e-03</internalNodes>
      <leafValues>
        1.2203764170408249e-01 -3.7301236391067505e-01</leafValues></_>
    <_>
      <internalNodes>
        0 -1 144029 2.8902990743517876e-04</internalNodes>
      <leafValues>
        1.1599121242761612e-01 -2.9827827215194702e-01</leafValues></_>
    <_>
      <internalNodes>
        0 -1 130909 -4.2905481532216072e-03</internalNodes>
      <leafValues>
        5.6184828281402588e-01 -5.4897252470254898e-02</leafValues></_>
    <_>
      <internalNodes>
        0 -1 144028 4.9824011512100697e-04</internalNodes>
      <leafValues>
        -1.9788692891597748e-01 1.7237620055675507e-01</leafValues></_>
    <_>
      <internalNodes>
        0 -1 131271 -6.2990272417664528e-03</internalNodes>
      <leafValues>
        -5.8602565526962280e-01 7.7247336506843567e-02</leafValues></_>
    <_>
      <internalNodes>
        0 -1 99962 1.4744370710104704e-03</internalNodes>
      <leafValues>
        -1.3775785267353058e-01 3.2410606741905212e-01</leafValues></_>
    <_>
      <internalNodes>
        0 -1 90658 3.5981975495815277e-02</internalNodes>
      <leafValues>
        5.7154931128025055e-02 -9.7201913595199585e-01</leafValues></_>
    <_>
      <internalNodes>
        0 -1 154528 4.2412849143147469e-04</internalNodes>
      <leafValues>
        -1.5230698883533478e-01 2.9235363006591797e-01</leafValues></_>
    <_>
      <internalNodes>
        0 -1 136171 -2.1489026024937630e-02</internalNodes>
      <leafValues>
        -7.4056550860404968e-02 4.7990232706069946e-01</leafValues></_>
    <_>
      <internalNodes>
        0 -1 74314 1.5981046482920647e-02</internalNodes>
      <leafValues>
        -1.1696396768093109e-01 3.2082539796829224e-01</leafValues></_>
    <_>
      <internalNodes>
        0 -1 128043 -2.7778395451605320e-03</internalNodes>
      <leafValues>
        8.7720267474651337e-02 -6.3174027204513550e-01</leafValues></_>
    <_>
      <internalNodes>
        0 -1 44327 -1.2680382467806339e-02</internalNodes>
      <leafValues>
        6.2246632575988770e-01 -8.6829461157321930e-02</leafValues></_>
    <_>
      <internalNodes>
        0 -1 135927 -3.7375286221504211e-02</internalNodes>
      <leafValues>
        -2.2470688819885254e-01 1.7841765284538269e-01</leafValues></_>
    <_>
      <internalNodes>
        0 -1 93105 -4.2515301704406738e-01</internalNodes>
      <leafValues>
        1.3152511417865753e-01 -3.1640639901161194e-01</leafValues></_>
    <_>
      <internalNodes>
        0 -1 90101 -1.1002603918313980e-01</internalNodes>
      <leafValues>
        -5.4704755544662476e-02 8.4198826551437378e-01</leafValues></_>
    <_>
      <internalNodes>
        0 -1 34379 -5.1339916884899139e-02</internalNodes>
      <leafValues>
        1.7874071002006531e-01 -2.1594557166099548e-01</leafValues></_>
    <_>
      <internalNodes>
        0 -1 13186 -1.8224874511361122e-03</internalNodes>
      <leafValues>
        6.1910349130630493e-01 -7.2978563606739044e-02</leafValues></_>
    <_>
      <internalNodes>
        0 -1 137366 -6.5773469395935535e-04</internalNodes>
      <leafValues>
        2.7194419503211975e-01 -1.4655885100364685e-01</leafValues></_>
    <_>
      <internalNodes>
        0 -1 96548 -3.6273961886763573e-03</internalNodes>
      <leafValues>
        -2.2354590892791748e-01 1.9342601299285889e-01</leafValues></_>
    <_>
      <internalNodes>
        0 -1 39082 1.7353101866319776e-03</internalNodes>
      <leafValues>
        -1.2562313675880432e-01 3.2654315233230591e-01</leafValues></_>
    <_>
      <internalNodes>
        0 -1 46908 7.2704735212028027e-03</internalNodes>
      <leafValues>
        -1.0737005621194839e-01 3.7533977627754211e-01</leafValues></_>
    <_>
      <internalNodes>
        0 -1 147076 2.4638897739350796e-03</internalNodes>
      <leafValues>
        1.0419940948486328e-01 -4.5512014627456665e-01</leafValues></_>
    <_>
      <internalNodes>
        0 -1 78081 -8.7391131091862917e-04</internalNodes>
      <leafValues>
        -2.4596913158893585e-01 1.6761597990989685e-01</leafValues></_>
    <_>
      <internalNodes>
        0 -1 92031 3.6050556227564812e-03</internalNodes>
      <leafValues>
        -5.9240955859422684e-02 7.3480755090713501e-01</leafValues></_>
    <_>
      <internalNodes>
        0 -1 69297 -2.9754061251878738e-03</internalNodes>
      <leafValues>
        3.6522483825683594e-01 -1.0923697054386139e-01</leafValues></_>
    <_>
      <internalNodes>
        0 -1 156451 1.2155096046626568e-03</internalNodes>
      <leafValues>
        1.2209421396255493e-01 -3.7893337011337280e-01</leafValues></_>
    <_>
      <internalNodes>
        0 -1 25448 1.1598452692851424e-04</internalNodes>
      <leafValues>
        -2.3236143589019775e-01 1.9310173392295837e-01</leafValues></_>
    <_>
      <internalNodes>
        0 -1 46127 1.2369079049676657e-03</internalNodes>
      <leafValues>
        -1.0445576161146164e-01 4.2772006988525391e-01</leafValues></_>
    <_>
      <internalNodes>
        0 -1 48981 5.5148825049400330e-04</internalNodes>
      <leafValues>
        1.5897411108016968e-01 -2.6229128241539001e-01</leafValues></_>
    <_>
      <internalNodes>
        0 -1 58535 -1.5464466996490955e-03</internalNodes>
      <leafValues>
        -3.1301200389862061e-01 1.4299154281616211e-01</leafValues></_>
    <_>
      <internalNodes>
        0 -1 45586 -8.6322631686925888e-03</internalNodes>
      <leafValues>
        5.6620341539382935e-01 -8.0312721431255341e-02</leafValues></_>
    <_>
      <internalNodes>
        0 -1 159062 -1.0589178651571274e-02</internalNodes>
      <leafValues>
        3.2918739318847656e-01 -1.2655700743198395e-01</leafValues></_>
    <_>
      <internalNodes>
        0 -1 139022 6.3181184232234955e-03</internalNodes>
      <leafValues>
        -9.2502810060977936e-02 4.9277749657630920e-01</leafValues></_>
    <_>
      <internalNodes>
        0 -1 113585 4.2716605821624398e-04</internalNodes>
      <leafValues>
        1.6971813142299652e-01 -2.5129991769790649e-01</leafValues></_>
    <_>
      <internalNodes>
        0 -1 59101 -9.8739992827177048e-03</internalNodes>
      <leafValues>
        2.7133655548095703e-01 -1.5976291894912720e-01</leafValues></_></weakClassifiers></stage10>
</opencv_storage>
