<?xml version="1.0"?>
<opencv_storage>
<stage2>
  <maxWeakCount>24</maxWeakCount>
  <stageThreshold>-1.5584906339645386e+00</stageThreshold>
  <weakClassifiers>
    <_>
      <internalNodes>
        0 -1 128841 4.5617488212883472e-03</internalNodes>
      <leafValues>
        -7.4642634391784668e-01 5.2356021478772163e-03</leafValues></_>
    <_>
      <internalNodes>
        0 -1 150915 -3.9083324372768402e-03</internalNodes>
      <leafValues>
        2.2208677232265472e-01 -4.1680485010147095e-01</leafValues></_>
    <_>
      <internalNodes>
        0 -1 60415 4.1878009214997292e-03</internalNodes>
      <leafValues>
        -2.3864781856536865e-01 4.0463215112686157e-01</leafValues></_>
    <_>
      <internalNodes>
        0 -1 2073 2.0098757743835449e-01</internalNodes>
      <leafValues>
        1.0435323417186737e-01 -8.0952036380767822e-01</leafValues></_>
    <_>
      <internalNodes>
        0 -1 2695 -7.4855285882949829e-01</internalNodes>
      <leafValues>
        -5.0885301828384399e-01 1.7013758420944214e-01</leafValues></_>
    <_>
      <internalNodes>
        0 -1 76276 9.0241676662117243e-04</internalNodes>
      <leafValues>
        -1.6066041588783264e-01 6.1317223310470581e-01</leafValues></_>
    <_>
      <internalNodes>
        0 -1 160546 1.7374933231621981e-03</internalNodes>
      <leafValues>
        -8.3807215094566345e-02 6.4660733938217163e-01</leafValues></_>
    <_>
      <internalNodes>
        0 -1 17189 -2.7804444544017315e-03</internalNodes>
      <leafValues>
        6.0638576745986938e-01 -1.1892208456993103e-01</leafValues></_>
    <_>
      <internalNodes>
        0 -1 5055 3.7031499668955803e-03</internalNodes>
      <leafValues>
        -1.5318678319454193e-01 4.9887564778327942e-01</leafValues></_>
    <_>
      <internalNodes>
        0 -1 147631 -1.7798809334635735e-02</internalNodes>
      <leafValues>
        5.4431903362274170e-01 -1.4378234744071960e-01</leafValues></_>
    <_>
      <internalNodes>
        0 -1 101139 -5.8810529299080372e-04</internalNodes>
      <leafValues>
        4.8722624778747559e-01 -1.4419387280941010e-01</leafValues></_>
    <_>
      <internalNodes>
        0 -1 125416 6.8170030135661364e-04</internalNodes>
      <leafValues>
        -1.2724027037620544e-01 4.8571887612342834e-01</leafValues></_>
    <_>
      <internalNodes>
        0 -1 56441 1.6134858131408691e-02</internalNodes>
      <leafValues>
        1.2840119004249573e-01 -5.4961317777633667e-01</leafValues></_>
    <_>
      <internalNodes>
        0 -1 141628 4.4169288594275713e-04</internalNodes>
      <leafValues>
        -1.6948364675045013e-01 4.3346074223518372e-01</leafValues></_>
    <_>
      <internalNodes>
        0 -1 98353 2.6093428023159504e-03</internalNodes>
      <leafValues>
        -1.7489190399646759e-01 3.5390016436576843e-01</leafValues></_>
    <_>
      <internalNodes>
        0 -1 53119 -3.5912208259105682e-02</internalNodes>
      <leafValues>
        2.0580345392227173e-01 -3.1390371918678284e-01</leafValues></_>
    <_>
      <internalNodes>
        0 -1 127795 -3.4950957633554935e-03</internalNodes>
      <leafValues>
        6.3039839267730713e-01 -1.0543813556432724e-01</leafValues></_>
    <_>
      <internalNodes>
        0 -1 16152 -8.6476057767868042e-03</internalNodes>
      <leafValues>
        5.5990314483642578e-01 -1.0193599015474319e-01</leafValues></_>
    <_>
      <internalNodes>
        0 -1 14719 -3.6146908998489380e-02</internalNodes>
      <leafValues>
        -3.9460846781730652e-01 1.6809517145156860e-01</leafValues></_>
    <_>
      <internalNodes>
        0 -1 160911 3.9062290452420712e-03</internalNodes>
      <leafValues>
        -1.6382627189159393e-01 4.1100984811782837e-01</leafValues></_>
    <_>
      <internalNodes>
        0 -1 160784 -3.8050166331231594e-03</internalNodes>
      <leafValues>
        5.3020107746124268e-01 -1.2646444141864777e-01</leafValues></_>
    <_>
      <internalNodes>
        0 -1 117436 2.2635096684098244e-04</internalNodes>
      <leafValues>
        -1.7990721762180328e-01 3.1689074635505676e-01</leafValues></_>
    <_>
      <internalNodes>
        0 -1 12577 -2.8613712638616562e-03</internalNodes>
      <leafValues>
        3.6519041657447815e-01 -1.6364324092864990e-01</leafValues></_>
    <_>
      <internalNodes>
        0 -1 65238 -5.3285911679267883e-02</internalNodes>
      <leafValues>
        -8.4655237197875977e-01 7.4224546551704407e-02</leafValues></_></weakClassifiers></stage2>
</opencv_storage>
