<?xml version="1.0"?>
<opencv_storage>
<stage0>
  <maxWeakCount>10</maxWeakCount>
  <stageThreshold>-9.0926605463027954e-01</stageThreshold>
  <weakClassifiers>
    <_>
      <internalNodes>
        0 -1 149270 -2.8051286935806274e-01</internalNodes>
      <leafValues>
        -9.8165136575698853e-01 -1.2765957415103912e-01</leafValues></_>
    <_>
      <internalNodes>
        0 -1 48588 -2.5432032346725464e-01</internalNodes>
      <leafValues>
        -9.7273075580596924e-01 1.8630413338541985e-02</leafValues></_>
    <_>
      <internalNodes>
        0 -1 73243 -3.4948992542922497e-03</internalNodes>
      <leafValues>
        2.8095337748527527e-01 -6.2955319881439209e-01</leafValues></_>
    <_>
      <internalNodes>
        0 -1 114789 1.5738012734800577e-03</internalNodes>
      <leafValues>
        -2.8722229599952698e-01 5.7104128599166870e-01</leafValues></_>
    <_>
      <internalNodes>
        0 -1 160775 1.9622892141342163e-03</internalNodes>
      <leafValues>
        -2.4523994326591492e-01 5.7981395721435547e-01</leafValues></_>
    <_>
      <internalNodes>
        0 -1 121320 1.8481588922441006e-03</internalNodes>
      <leafValues>
        -2.0458126068115234e-01 6.2873286008834839e-01</leafValues></_>
    <_>
      <internalNodes>
        0 -1 158539 -1.1946824379265308e-03</internalNodes>
      <leafValues>
        5.6047129631042480e-01 -2.2995662689208984e-01</leafValues></_>
    <_>
      <internalNodes>
        0 -1 31314 -8.4360435605049133e-02</internalNodes>
      <leafValues>
        2.2023008763790131e-01 -6.6487306356430054e-01</leafValues></_>
    <_>
      <internalNodes>
        0 -1 39175 -1.8490335345268250e-01</internalNodes>
      <leafValues>
        -9.5470738410949707e-01 1.2365596741437912e-01</leafValues></_>
    <_>
      <internalNodes>
        0 -1 89564 -5.7337433099746704e-04</internalNodes>
      <leafValues>
        7.3966479301452637e-01 -2.0476672053337097e-01</leafValues></_></weakClassifiers></stage0>
</opencv_storage>
