<?xml version="1.0"?>
<opencv_storage>
<stage8>
  <maxWeakCount>38</maxWeakCount>
  <stageThreshold>-1.1987117528915405e+00</stageThreshold>
  <weakClassifiers>
    <_>
      <internalNodes>
        0 -1 41089 5.9549072757363319e-03</internalNodes>
      <leafValues>
        -7.4590802192687988e-01 -4.7001934051513672e-01</leafValues></_>
    <_>
      <internalNodes>
        0 -1 647 3.3480651676654816e-02</internalNodes>
      <leafValues>
        -2.1766060590744019e-01 2.6991158723831177e-01</leafValues></_>
    <_>
      <internalNodes>
        0 -1 99782 -1.5143321454524994e-01</internalNodes>
      <leafValues>
        -4.5894819498062134e-01 6.6746339201927185e-02</leafValues></_>
    <_>
      <internalNodes>
        0 -1 50745 1.6491124033927917e-01</internalNodes>
      <leafValues>
        7.8104630112648010e-02 -7.1394199132919312e-01</leafValues></_>
    <_>
      <internalNodes>
        0 -1 18429 1.0346007347106934e-01</internalNodes>
      <leafValues>
        -1.5186661481857300e-01 2.6393267512321472e-01</leafValues></_>
    <_>
      <internalNodes>
        0 -1 153999 3.4588627517223358e-02</internalNodes>
      <leafValues>
        6.6559955477714539e-02 -8.5042077302932739e-01</leafValues></_>
    <_>
      <internalNodes>
        0 -1 158591 -1.0621618479490280e-02</internalNodes>
      <leafValues>
        -1.8987381458282471e-01 1.7025250196456909e-01</leafValues></_>
    <_>
      <internalNodes>
        0 -1 110344 -5.0073847174644470e-02</internalNodes>
      <leafValues>
        -4.2721441388130188e-01 5.3267978131771088e-02</leafValues></_>
    <_>
      <internalNodes>
        0 -1 25607 -9.2621450312435627e-04</internalNodes>
      <leafValues>
        4.5482434332370758e-02 -8.8684618473052979e-01</leafValues></_>
    <_>
      <internalNodes>
        0 -1 143359 8.0109725240617990e-04</internalNodes>
      <leafValues>
        6.4056783914566040e-02 -3.6648926138877869e-01</leafValues></_>
    <_>
      <internalNodes>
        0 -1 159056 -1.5134143177419901e-03</internalNodes>
      <leafValues>
        2.6164108514785767e-01 -1.1373317241668701e-01</leafValues></_>
    <_>
      <internalNodes>
        0 -1 95480 -3.8334470242261887e-02</internalNodes>
      <leafValues>
        3.3819407224655151e-01 -1.0199342668056488e-01</leafValues></_>
    <_>
      <internalNodes>
        0 -1 144434 -1.8051178194582462e-03</internalNodes>
      <leafValues>
        2.3662912845611572e-01 -1.3217596709728241e-01</leafValues></_>
    <_>
      <internalNodes>
        0 -1 56980 1.1606486514210701e-02</internalNodes>
      <leafValues>
        -1.4204648137092590e-01 2.1341781318187714e-01</leafValues></_>
    <_>
      <internalNodes>
        0 -1 96222 4.8932950012385845e-03</internalNodes>
      <leafValues>
        1.0401781648397446e-01 -3.4454512596130371e-01</leafValues></_>
    <_>
      <internalNodes>
        0 -1 140631 -2.7110190130770206e-03</internalNodes>
      <leafValues>
        3.1791153550148010e-01 -8.9121170341968536e-02</leafValues></_>
    <_>
      <internalNodes>
        0 -1 134543 1.5847368165850639e-02</internalNodes>
      <leafValues>
        -1.2576754391193390e-01 2.3157452046871185e-01</leafValues></_>
    <_>
      <internalNodes>
        0 -1 60610 -4.0781721472740173e-03</internalNodes>
      <leafValues>
        2.3833717405796051e-01 -1.2259892374277115e-01</leafValues></_>
    <_>
      <internalNodes>
        0 -1 87930 1.1681943200528622e-02</internalNodes>
      <leafValues>
        -5.0831314176321030e-02 5.4494231939315796e-01</leafValues></_>
    <_>
      <internalNodes>
        0 -1 95635 4.0830689249560237e-04</internalNodes>
      <leafValues>
        -1.0703711956739426e-01 2.5999972224235535e-01</leafValues></_>
    <_>
      <internalNodes>
        0 -1 78276 3.9599873125553131e-03</internalNodes>
      <leafValues>
        6.7597456276416779e-02 -4.3145447969436646e-01</leafValues></_>
    <_>
      <internalNodes>
        0 -1 106804 -2.2625203710049391e-03</internalNodes>
      <leafValues>
        -8.9832055568695068e-01 2.7350720018148422e-02</leafValues></_>
    <_>
      <internalNodes>
        0 -1 138949 -7.0936888456344604e-02</internalNodes>
      <leafValues>
        -7.5712448358535767e-01 2.6234993711113930e-02</leafValues></_>
    <_>
      <internalNodes>
        0 -1 127570 2.9692150652408600e-02</internalNodes>
      <leafValues>
        2.8054624795913696e-02 -7.2806078195571899e-01</leafValues></_>
    <_>
      <internalNodes>
        0 -1 154820 6.8171233870089054e-03</internalNodes>
      <leafValues>
        -9.1839246451854706e-02 3.4164452552795410e-01</leafValues></_>
    <_>
      <internalNodes>
        0 -1 114294 7.1497366297990084e-04</internalNodes>
      <leafValues>
        7.3677293956279755e-02 -4.0886071324348450e-01</leafValues></_>
    <_>
      <internalNodes>
        0 -1 127285 -4.8812525346875191e-04</internalNodes>
      <leafValues>
        2.4199077486991882e-01 -1.1481703817844391e-01</leafValues></_>
    <_>
      <internalNodes>
        0 -1 115135 -1.2448877096176147e-03</internalNodes>
      <leafValues>
        2.8946915268898010e-01 -9.6305660903453827e-02</leafValues></_>
    <_>
      <internalNodes>
        0 -1 99630 5.8466643095016479e-03</internalNodes>
      <leafValues>
        -1.2213516980409622e-01 2.4610766768455505e-01</leafValues></_>
    <_>
      <internalNodes>
        0 -1 121888 1.8342018127441406e-01</internalNodes>
      <leafValues>
        3.4094225615262985e-02 -8.6962854862213135e-01</leafValues></_>
    <_>
      <internalNodes>
        0 -1 41908 -7.3757588863372803e-02</internalNodes>
      <leafValues>
        -7.0462375879287720e-01 3.2925590872764587e-02</leafValues></_>
    <_>
      <internalNodes>
        0 -1 73924 1.4754768460988998e-02</internalNodes>
      <leafValues>
        -6.8683601915836334e-02 4.3464016914367676e-01</leafValues></_>
    <_>
      <internalNodes>
        0 -1 119601 -1.0519577190279961e-02</internalNodes>
      <leafValues>
        -1.5354481339454651e-01 2.1356858313083649e-01</leafValues></_>
    <_>
      <internalNodes>
        0 -1 13448 1.0065458714962006e-02</internalNodes>
      <leafValues>
        -8.5194446146488190e-02 4.1031453013420105e-01</leafValues></_>
    <_>
      <internalNodes>
        0 -1 158179 -6.7826332524418831e-03</internalNodes>
      <leafValues>
        3.1663951277732849e-01 -1.0722242295742035e-01</leafValues></_>
    <_>
      <internalNodes>
        0 -1 40046 8.7950564920902252e-04</internalNodes>
      <leafValues>
        -2.5390288233757019e-01 1.2683144211769104e-01</leafValues></_>
    <_>
      <internalNodes>
        0 -1 153280 -2.0213037729263306e-02</internalNodes>
      <leafValues>
        3.4485223889350891e-01 -9.0971216559410095e-02</leafValues></_>
    <_>
      <internalNodes>
        0 -1 121309 -2.2154259495437145e-03</internalNodes>
      <leafValues>
        3.3813968300819397e-02 -9.6942615509033203e-01</leafValues></_></weakClassifiers></stage8>
</opencv_storage>
