<?xml version="1.0"?>
<opencv_storage>
<stage0>
  <maxWeakCount>11</maxWeakCount>
  <stageThreshold>-1.1460919380187988e+00</stageThreshold>
  <weakClassifiers>
    <_>
      <internalNodes>
        0 -1 47646 -3.8634204864501953e-01</internalNodes>
      <leafValues>
        -9.3004113435745239e-01 -9.3385212123394012e-02</leafValues></_>
    <_>
      <internalNodes>
        0 -1 3647 -4.6104985475540161e-01</internalNodes>
      <leafValues>
        -9.6307969093322754e-01 5.2974078804254532e-02</leafValues></_>
    <_>
      <internalNodes>
        0 -1 102169 -7.7293947339057922e-02</internalNodes>
      <leafValues>
        3.5146018862724304e-01 -5.0334966182708740e-01</leafValues></_>
    <_>
      <internalNodes>
        0 -1 114394 2.3244936019182205e-03</internalNodes>
      <leafValues>
        -2.2682765126228333e-01 6.0488927364349365e-01</leafValues></_>
    <_>
      <internalNodes>
        0 -1 156361 -1.6604389995336533e-02</internalNodes>
      <leafValues>
        6.2266051769256592e-01 -2.0746326446533203e-01</leafValues></_>
    <_>
      <internalNodes>
        0 -1 144377 -3.2449531555175781e-01</internalNodes>
      <leafValues>
        -8.6844545602798462e-01 1.6201917827129364e-01</leafValues></_>
    <_>
      <internalNodes>
        0 -1 54260 8.5508404299616814e-04</internalNodes>
      <leafValues>
        -2.8501772880554199e-01 4.8230236768722534e-01</leafValues></_>
    <_>
      <internalNodes>
        0 -1 160086 -1.7834722530096769e-03</internalNodes>
      <leafValues>
        6.2949478626251221e-01 -2.1559691429138184e-01</leafValues></_>
    <_>
      <internalNodes>
        0 -1 89553 -1.6635153442621231e-02</internalNodes>
      <leafValues>
        6.7251193523406982e-01 -1.8021823465824127e-01</leafValues></_>
    <_>
      <internalNodes>
        0 -1 60344 4.0350481867790222e-03</internalNodes>
      <leafValues>
        -2.4531146883964539e-01 6.4686459302902222e-01</leafValues></_>
    <_>
      <internalNodes>
        0 -1 1230 1.8547184765338898e-02</internalNodes>
      <leafValues>
        -1.7123511433601379e-01 6.8949097394943237e-01</leafValues></_></weakClassifiers></stage0>
</opencv_storage>
