<?xml version="1.0"?>
<opencv_storage>
<stage3>
  <maxWeakCount>30</maxWeakCount>
  <stageThreshold>-1.1741713285446167e+00</stageThreshold>
  <weakClassifiers>
    <_>
      <internalNodes>
        0 -1 109585 -2.0725500583648682e-01</internalNodes>
      <leafValues>
        -4.1493778117001057e-03 -6.5744400024414063e-01</leafValues></_>
    <_>
      <internalNodes>
        0 -1 53628 1.5417289687320590e-03</internalNodes>
      <leafValues>
        -3.3550980687141418e-01 1.6456706821918488e-01</leafValues></_>
    <_>
      <internalNodes>
        0 -1 101823 -1.5954546630382538e-02</internalNodes>
      <leafValues>
        -1. 4.5677732676267624e-02</leafValues></_>
    <_>
      <internalNodes>
        0 -1 23209 2.2359048016369343e-03</internalNodes>
      <leafValues>
        -1.5157027542591095e-01 3.4207123517990112e-01</leafValues></_>
    <_>
      <internalNodes>
        0 -1 111270 -1.1317729018628597e-02</internalNodes>
      <leafValues>
        2.6868832111358643e-01 -1.8710216879844666e-01</leafValues></_>
    <_>
      <internalNodes>
        0 -1 8136 -1.1097439564764500e-03</internalNodes>
      <leafValues>
        4.3793633580207825e-01 -1.2263300269842148e-01</leafValues></_>
    <_>
      <internalNodes>
        0 -1 79397 -1.1846664361655712e-02</internalNodes>
      <leafValues>
        -7.4365550279617310e-01 6.4197711646556854e-02</leafValues></_>
    <_>
      <internalNodes>
        0 -1 119654 -1.1357345618307590e-02</internalNodes>
      <leafValues>
        -1. 5.1419202238321304e-02</leafValues></_>
    <_>
      <internalNodes>
        0 -1 69257 2.4179620959330350e-04</internalNodes>
      <leafValues>
        -1.6467256844043732e-01 3.1751841306686401e-01</leafValues></_>
    <_>
      <internalNodes>
        0 -1 125163 7.5752111151814461e-03</internalNodes>
      <leafValues>
        5.6013643741607666e-02 -6.8896031379699707e-01</leafValues></_>
    <_>
      <internalNodes>
        0 -1 129784 2.0129003678448498e-04</internalNodes>
      <leafValues>
        -1.8562297523021698e-01 2.6899817585945129e-01</leafValues></_>
    <_>
      <internalNodes>
        0 -1 94219 4.4643512228503823e-04</internalNodes>
      <leafValues>
        -1.5494409203529358e-01 3.3603438735008240e-01</leafValues></_>
    <_>
      <internalNodes>
        0 -1 91968 -1.0248132050037384e-02</internalNodes>
      <leafValues>
        -9.0664380788803101e-01 7.5192660093307495e-02</leafValues></_>
    <_>
      <internalNodes>
        0 -1 159379 5.4587135091423988e-03</internalNodes>
      <leafValues>
        -1.3282985985279083e-01 4.6688887476921082e-01</leafValues></_>
    <_>
      <internalNodes>
        0 -1 155845 -5.6756906211376190e-02</internalNodes>
      <leafValues>
        -8.3696149289608002e-02 5.3561103343963623e-01</leafValues></_>
    <_>
      <internalNodes>
        0 -1 132074 1.9774120301008224e-04</internalNodes>
      <leafValues>
        -1.8442164361476898e-01 3.1956377625465393e-01</leafValues></_>
    <_>
      <internalNodes>
        0 -1 160756 -7.2679144795984030e-04</internalNodes>
      <leafValues>
        3.8813337683677673e-01 -1.3358749449253082e-01</leafValues></_>
    <_>
      <internalNodes>
        0 -1 154489 1.6577778384089470e-02</internalNodes>
      <leafValues>
        -1.4100848138332367e-01 3.9010259509086609e-01</leafValues></_>
    <_>
      <internalNodes>
        0 -1 58767 3.9776690304279327e-02</internalNodes>
      <leafValues>
        -1.3938671350479126e-01 3.8506999611854553e-01</leafValues></_>
    <_>
      <internalNodes>
        0 -1 147960 -2.2304069716483355e-03</internalNodes>
      <leafValues>
        3.2073563337326050e-01 -1.7321434617042542e-01</leafValues></_>
    <_>
      <internalNodes>
        0 -1 121731 4.3111715465784073e-02</internalNodes>
      <leafValues>
        -7.6518371701240540e-02 6.7939221858978271e-01</leafValues></_>
    <_>
      <internalNodes>
        0 -1 142667 3.5686593037098646e-03</internalNodes>
      <leafValues>
        8.1437684595584869e-02 -7.3114913702011108e-01</leafValues></_>
    <_>
      <internalNodes>
        0 -1 4150 -2.1498997230082750e-03</internalNodes>
      <leafValues>
        4.4389849901199341e-01 -1.2487082928419113e-01</leafValues></_>
    <_>
      <internalNodes>
        0 -1 57335 7.3625827208161354e-03</internalNodes>
      <leafValues>
        9.7347266972064972e-02 -5.6016433238983154e-01</leafValues></_>
    <_>
      <internalNodes>
        0 -1 47653 1.7845106776803732e-03</internalNodes>
      <leafValues>
        -1.5757779777050018e-01 3.1948596239089966e-01</leafValues></_>
    <_>
      <internalNodes>
        0 -1 59258 7.4717709794640541e-03</internalNodes>
      <leafValues>
        -9.2620700597763062e-02 5.3423523902893066e-01</leafValues></_>
    <_>
      <internalNodes>
        0 -1 154441 -2.5718826800584793e-03</internalNodes>
      <leafValues>
        2.4614828824996948e-01 -1.8561577796936035e-01</leafValues></_>
    <_>
      <internalNodes>
        0 -1 82085 -6.0676831752061844e-02</internalNodes>
      <leafValues>
        3.1437999010086060e-01 -1.7043419182300568e-01</leafValues></_>
    <_>
      <internalNodes>
        0 -1 6795 6.6406410187482834e-03</internalNodes>
      <leafValues>
        -2.2245009243488312e-01 2.3270453512668610e-01</leafValues></_>
    <_>
      <internalNodes>
        0 -1 2343 -2.2218670696020126e-02</internalNodes>
      <leafValues>
        3.5118362307548523e-01 -1.7607523500919342e-01</leafValues></_></weakClassifiers></stage3>
</opencv_storage>
