<?xml version="1.0"?>
<opencv_storage>
<stage8>
  <maxWeakCount>38</maxWeakCount>
  <stageThreshold>-9.6477186679840088e-01</stageThreshold>
  <weakClassifiers>
    <_>
      <internalNodes>
        0 -1 125464 -2.1705500781536102e-02</internalNodes>
      <leafValues>
        7.3333334922790527e-01 -5.1878172159194946e-01</leafValues></_>
    <_>
      <internalNodes>
        0 -1 152698 -2.3482337594032288e-02</internalNodes>
      <leafValues>
        -9.0869539976119995e-01 -2.1970408037304878e-02</leafValues></_>
    <_>
      <internalNodes>
        0 -1 63336 -1.1037020385265350e-01</internalNodes>
      <leafValues>
        5.5936801433563232e-01 -5.4644729942083359e-02</leafValues></_>
    <_>
      <internalNodes>
        0 -1 160457 -9.8737794905900955e-03</internalNodes>
      <leafValues>
        -9.3174630403518677e-01 4.0870908647775650e-02</leafValues></_>
    <_>
      <internalNodes>
        0 -1 117616 -1.6463380306959152e-03</internalNodes>
      <leafValues>
        2.9152038693428040e-01 -9.7075812518596649e-02</leafValues></_>
    <_>
      <internalNodes>
        0 -1 144467 -1.4657205902040005e-03</internalNodes>
      <leafValues>
        2.5674447417259216e-01 -1.1339883506298065e-01</leafValues></_>
    <_>
      <internalNodes>
        0 -1 651 -4.7204904258251190e-02</internalNodes>
      <leafValues>
        5.0859558582305908e-01 -6.0353547334671021e-02</leafValues></_>
    <_>
      <internalNodes>
        0 -1 19819 -3.8114175200462341e-02</internalNodes>
      <leafValues>
        2.3525370657444000e-01 -1.3790914416313171e-01</leafValues></_>
    <_>
      <internalNodes>
        0 -1 67279 -1.0364488698542118e-02</internalNodes>
      <leafValues>
        -5.0828039646148682e-01 6.7333988845348358e-02</leafValues></_>
    <_>
      <internalNodes>
        0 -1 162329 -8.2242046482861042e-04</internalNodes>
      <leafValues>
        -2.7741554379463196e-01 1.2584543228149414e-01</leafValues></_>
    <_>
      <internalNodes>
        0 -1 120128 -2.6546372100710869e-04</internalNodes>
      <leafValues>
        2.3228906095027924e-01 -1.4909499883651733e-01</leafValues></_>
    <_>
      <internalNodes>
        0 -1 47630 9.7824428230524063e-03</internalNodes>
      <leafValues>
        -8.9719243347644806e-02 3.2468917965888977e-01</leafValues></_>
    <_>
      <internalNodes>
        0 -1 158019 4.5254458673298359e-03</internalNodes>
      <leafValues>
        -8.2954816520214081e-02 4.1768765449523926e-01</leafValues></_>
    <_>
      <internalNodes>
        0 -1 157004 2.1483679302036762e-03</internalNodes>
      <leafValues>
        3.0246842652559280e-02 -1.</leafValues></_>
    <_>
      <internalNodes>
        0 -1 18821 -1.1005112901329994e-02</internalNodes>
      <leafValues>
        2.5122888386249542e-02 -8.6418992280960083e-01</leafValues></_>
    <_>
      <internalNodes>
        0 -1 95189 3.2474834006279707e-04</internalNodes>
      <leafValues>
        -1.2349307537078857e-01 3.0288311839103699e-01</leafValues></_>
    <_>
      <internalNodes>
        0 -1 67972 -7.5960397720336914e-02</internalNodes>
      <leafValues>
        -7.2590619325637817e-02 4.7071567177772522e-01</leafValues></_>
    <_>
      <internalNodes>
        0 -1 25884 2.7388187590986490e-03</internalNodes>
      <leafValues>
        -9.8544500768184662e-02 3.5948488116264343e-01</leafValues></_>
    <_>
      <internalNodes>
        0 -1 157699 -1.2967741116881371e-02</internalNodes>
      <leafValues>
        3.0399736762046814e-01 -1.1270195245742798e-01</leafValues></_>
    <_>
      <internalNodes>
        0 -1 117566 -1.4592334628105164e-02</internalNodes>
      <leafValues>
        -7.0835894346237183e-01 4.4839017093181610e-02</leafValues></_>
    <_>
      <internalNodes>
        0 -1 110135 3.9291987195611000e-03</internalNodes>
      <leafValues>
        -7.2294302284717560e-02 4.9911510944366455e-01</leafValues></_>
    <_>
      <internalNodes>
        0 -1 69945 -8.6101047694683075e-02</internalNodes>
      <leafValues>
        5.1122039556503296e-01 -7.1419283747673035e-02</leafValues></_>
    <_>
      <internalNodes>
        0 -1 131857 -6.8731606006622314e-03</internalNodes>
      <leafValues>
        -9.3202280998229980e-01 4.6998903155326843e-02</leafValues></_>
    <_>
      <internalNodes>
        0 -1 160479 -3.6445255391299725e-03</internalNodes>
      <leafValues>
        3.4825226664543152e-01 -1.0440808534622192e-01</leafValues></_>
    <_>
      <internalNodes>
        0 -1 56728 6.4119561575353146e-03</internalNodes>
      <leafValues>
        7.9772368073463440e-02 -4.5610201358795166e-01</leafValues></_>
    <_>
      <internalNodes>
        0 -1 44434 2.6156015694141388e-02</internalNodes>
      <leafValues>
        -7.5978919863700867e-02 5.2436870336532593e-01</leafValues></_>
    <_>
      <internalNodes>
        0 -1 58894 -4.7443211078643799e-03</internalNodes>
      <leafValues>
        -5.4137033224105835e-01 7.7880226075649261e-02</leafValues></_>
    <_>
      <internalNodes>
        0 -1 80760 1.7400213982909918e-03</internalNodes>
      <leafValues>
        3.0831549316644669e-02 -8.0609947443008423e-01</leafValues></_>
    <_>
      <internalNodes>
        0 -1 5358 -1.3040186837315559e-02</internalNodes>
      <leafValues>
        3.8344282656908035e-02 -7.3253679275512695e-01</leafValues></_>
    <_>
      <internalNodes>
        0 -1 149920 6.0235476121306419e-03</internalNodes>
      <leafValues>
        5.9169150888919830e-02 -4.9487426877021790e-01</leafValues></_>
    <_>
      <internalNodes>
        0 -1 51314 -4.5807637274265289e-02</internalNodes>
      <leafValues>
        -1.5349172055721283e-01 2.3696796596050262e-01</leafValues></_>
    <_>
      <internalNodes>
        0 -1 76822 -9.3936489429324865e-04</internalNodes>
      <leafValues>
        4.0154588222503662e-01 -1.0075899213552475e-01</leafValues></_>
    <_>
      <internalNodes>
        0 -1 16846 -9.5361791551113129e-02</internalNodes>
      <leafValues>
        -7.2138214111328125e-01 5.2332960069179535e-02</leafValues></_>
    <_>
      <internalNodes>
        0 -1 13002 -8.1951712490990758e-04</internalNodes>
      <leafValues>
        2.7766153216362000e-02 -9.2547446489334106e-01</leafValues></_>
    <_>
      <internalNodes>
        0 -1 160960 -1.9387906650081277e-04</internalNodes>
      <leafValues>
        -2.3358161747455597e-01 1.3784569501876831e-01</leafValues></_>
    <_>
      <internalNodes>
        0 -1 16647 -1.8765583634376526e-02</internalNodes>
      <leafValues>
        7.0376747846603394e-01 -4.9975045025348663e-02</leafValues></_>
    <_>
      <internalNodes>
        0 -1 152667 -2.8042646590620279e-03</internalNodes>
      <leafValues>
        -8.4710192680358887e-01 5.0098869949579239e-02</leafValues></_>
    <_>
      <internalNodes>
        0 -1 105369 4.7590775648131967e-04</internalNodes>
      <leafValues>
        -1.3502928614616394e-01 2.5839477777481079e-01</leafValues></_></weakClassifiers></stage8>
</opencv_storage>
