<?xml version="1.0"?>
<opencv_storage>
<stage2>
  <maxWeakCount>21</maxWeakCount>
  <stageThreshold>-1.5970281362533569e+00</stageThreshold>
  <weakClassifiers>
    <_>
      <internalNodes>
        0 -1 148791 -6.0916498303413391e-02</internalNodes>
      <leafValues>
        2.2535210847854614e-01 -6.2004661560058594e-01</leafValues></_>
    <_>
      <internalNodes>
        0 -1 47843 -6.0565036255866289e-04</internalNodes>
      <leafValues>
        5.5894994735717773e-01 -2.3409065604209900e-01</leafValues></_>
    <_>
      <internalNodes>
        0 -1 138795 -5.1502073183655739e-03</internalNodes>
      <leafValues>
        4.7400349378585815e-01 -1.9159480929374695e-01</leafValues></_>
    <_>
      <internalNodes>
        0 -1 137195 -1.1940151453018188e-03</internalNodes>
      <leafValues>
        2.1752113103866577e-01 -4.5680391788482666e-01</leafValues></_>
    <_>
      <internalNodes>
        0 -1 8165 -3.0616419389843941e-03</internalNodes>
      <leafValues>
        5.1228713989257813e-01 -1.7502483725547791e-01</leafValues></_>
    <_>
      <internalNodes>
        0 -1 10582 -3.7008197978138924e-03</internalNodes>
      <leafValues>
        5.7160514593124390e-01 -1.4934034645557404e-01</leafValues></_>
    <_>
      <internalNodes>
        0 -1 141331 6.7305896664038301e-04</internalNodes>
      <leafValues>
        -1.4108572900295258e-01 5.6339383125305176e-01</leafValues></_>
    <_>
      <internalNodes>
        0 -1 99512 -3.0642209574580193e-02</internalNodes>
      <leafValues>
        -9.4699883460998535e-01 1.4822766184806824e-01</leafValues></_>
    <_>
      <internalNodes>
        0 -1 159794 3.3881170675158501e-03</internalNodes>
      <leafValues>
        -2.2079208493232727e-01 4.8461195826530457e-01</leafValues></_>
    <_>
      <internalNodes>
        0 -1 7633 -1.0959330201148987e-01</internalNodes>
      <leafValues>
        -5.9212750196456909e-01 1.8717904388904572e-01</leafValues></_>
    <_>
      <internalNodes>
        0 -1 148050 -1.0969468858093023e-03</internalNodes>
      <leafValues>
        5.9243816137313843e-01 -1.8036431074142456e-01</leafValues></_>
    <_>
      <internalNodes>
        0 -1 128028 5.0851763226091862e-03</internalNodes>
      <leafValues>
        -1.5890829265117645e-01 5.5322659015655518e-01</leafValues></_>
    <_>
      <internalNodes>
        0 -1 90283 5.2096750587224960e-03</internalNodes>
      <leafValues>
        -1.4500802755355835e-01 6.5626257658004761e-01</leafValues></_>
    <_>
      <internalNodes>
        0 -1 143282 -2.1756332367658615e-02</internalNodes>
      <leafValues>
        6.2219750881195068e-01 -1.4201793074607849e-01</leafValues></_>
    <_>
      <internalNodes>
        0 -1 144467 -1.2286489363759756e-03</internalNodes>
      <leafValues>
        5.2223515510559082e-01 -1.6942062973976135e-01</leafValues></_>
    <_>
      <internalNodes>
        0 -1 142398 -4.3876864947378635e-04</internalNodes>
      <leafValues>
        5.2361017465591431e-01 -1.6824321448802948e-01</leafValues></_>
    <_>
      <internalNodes>
        0 -1 142398 4.0505314245820045e-04</internalNodes>
      <leafValues>
        -1.9240711629390717e-01 4.8616495728492737e-01</leafValues></_>
    <_>
      <internalNodes>
        0 -1 89310 1.3141175732016563e-03</internalNodes>
      <leafValues>
        -2.4751959741115570e-01 3.7252265214920044e-01</leafValues></_>
    <_>
      <internalNodes>
        0 -1 106592 -2.8093266300857067e-03</internalNodes>
      <leafValues>
        6.5581434965133667e-01 -1.4553269743919373e-01</leafValues></_>
    <_>
      <internalNodes>
        0 -1 85274 -6.0577853582799435e-04</internalNodes>
      <leafValues>
        5.8381867408752441e-01 -1.2765869498252869e-01</leafValues></_>
    <_>
      <internalNodes>
        0 -1 151599 -8.0028306692838669e-03</internalNodes>
      <leafValues>
        -2.4701134860515594e-01 3.4065997600555420e-01</leafValues></_></weakClassifiers></stage2>
</opencv_storage>
