<?xml version="1.0"?>
<opencv_storage>
<stage9>
  <maxWeakCount>50</maxWeakCount>
  <stageThreshold>-1.1286888122558594e+00</stageThreshold>
  <weakClassifiers>
    <_>
      <internalNodes>
        0 -1 77012 1.1102605611085892e-01</internalNodes>
      <leafValues>
        -6.7673379182815552e-01 8.3333331346511841e-01</leafValues></_>
    <_>
      <internalNodes>
        0 -1 50200 1.1190837249159813e-02</internalNodes>
      <leafValues>
        -2.1832974255084991e-01 2.8340545296669006e-01</leafValues></_>
    <_>
      <internalNodes>
        0 -1 45871 1.0424006730318069e-02</internalNodes>
      <leafValues>
        6.7876733839511871e-02 -4.7028255462646484e-01</leafValues></_>
    <_>
      <internalNodes>
        0 -1 85581 -5.6271556764841080e-02</internalNodes>
      <leafValues>
        2.6964718103408813e-01 -1.2391757220029831e-01</leafValues></_>
    <_>
      <internalNodes>
        0 -1 111809 -9.3289808137342334e-04</internalNodes>
      <leafValues>
        3.9940020442008972e-01 -4.7792419791221619e-02</leafValues></_>
    <_>
      <internalNodes>
        0 -1 67895 3.6788815632462502e-03</internalNodes>
      <leafValues>
        -5.6390099227428436e-02 4.9841850996017456e-01</leafValues></_>
    <_>
      <internalNodes>
        0 -1 4095 -6.8886368535459042e-04</internalNodes>
      <leafValues>
        1.9223710894584656e-01 -1.6543440520763397e-01</leafValues></_>
    <_>
      <internalNodes>
        0 -1 32037 -3.2916579395532608e-02</internalNodes>
      <leafValues>
        3.7344872951507568e-02 -7.2724473476409912e-01</leafValues></_>
    <_>
      <internalNodes>
        0 -1 91027 2.1020862460136414e-01</internalNodes>
      <leafValues>
        -3.2467845827341080e-02 7.2678160667419434e-01</leafValues></_>
    <_>
      <internalNodes>
        0 -1 50024 1.0023479908704758e-01</internalNodes>
      <leafValues>
        3.8240484893321991e-02 -8.9762485027313232e-01</leafValues></_>
    <_>
      <internalNodes>
        0 -1 129258 -4.0638662874698639e-02</internalNodes>
      <leafValues>
        -3.6435839533805847e-01 7.7201113104820251e-02</leafValues></_>
    <_>
      <internalNodes>
        0 -1 49064 -6.7350249737501144e-03</internalNodes>
      <leafValues>
        -5.4271418601274490e-02 6.5387582778930664e-01</leafValues></_>
    <_>
      <internalNodes>
        0 -1 158731 1.0403559543192387e-02</internalNodes>
      <leafValues>
        -7.6472625136375427e-02 3.5150459408760071e-01</leafValues></_>
    <_>
      <internalNodes>
        0 -1 158593 2.7699864003807306e-03</internalNodes>
      <leafValues>
        -9.6898093819618225e-02 3.2133653759956360e-01</leafValues></_>
    <_>
      <internalNodes>
        0 -1 156745 -8.9159701019525528e-03</internalNodes>
      <leafValues>
        2.1977916359901428e-01 -1.4389382302761078e-01</leafValues></_>
    <_>
      <internalNodes>
        0 -1 133191 -6.6292257979512215e-03</internalNodes>
      <leafValues>
        -3.8435137271881104e-01 7.7549740672111511e-02</leafValues></_>
    <_>
      <internalNodes>
        0 -1 48709 -1.0006681084632874e-01</internalNodes>
      <leafValues>
        6.1772656440734863e-01 -5.3589127957820892e-02</leafValues></_>
    <_>
      <internalNodes>
        0 -1 127889 2.1856087259948254e-03</internalNodes>
      <leafValues>
        -1.3177923858165741e-01 2.0995342731475830e-01</leafValues></_>
    <_>
      <internalNodes>
        0 -1 25798 1.1829723604023457e-02</internalNodes>
      <leafValues>
        6.7288272082805634e-02 -4.0251412987709045e-01</leafValues></_>
    <_>
      <internalNodes>
        0 -1 157401 -1.3212696649134159e-03</internalNodes>
      <leafValues>
        -6.0363560914993286e-01 4.4386804103851318e-02</leafValues></_>
    <_>
      <internalNodes>
        0 -1 121727 1.6097722575068474e-02</internalNodes>
      <leafValues>
        -7.4568405747413635e-02 4.0692034363746643e-01</leafValues></_>
    <_>
      <internalNodes>
        0 -1 162104 -2.4701049551367760e-03</internalNodes>
      <leafValues>
        2.4498026072978973e-01 -1.3257250189781189e-01</leafValues></_>
    <_>
      <internalNodes>
        0 -1 13025 -7.6548308134078979e-02</internalNodes>
      <leafValues>
        -7.1758377552032471e-01 4.3987270444631577e-02</leafValues></_>
    <_>
      <internalNodes>
        0 -1 72396 9.1344641987234354e-04</internalNodes>
      <leafValues>
        -1.8018475174903870e-01 1.7175190150737762e-01</leafValues></_>
    <_>
      <internalNodes>
        0 -1 18679 -1.0878743603825569e-02</internalNodes>
      <leafValues>
        5.7432383298873901e-01 -5.6126024574041367e-02</leafValues></_>
    <_>
      <internalNodes>
        0 -1 10536 8.8930778205394745e-02</internalNodes>
      <leafValues>
        -4.4611316174268723e-02 6.9355797767639160e-01</leafValues></_>
    <_>
      <internalNodes>
        0 -1 14571 -4.4758683070540428e-03</internalNodes>
      <leafValues>
        -3.3189815282821655e-01 8.9568361639976501e-02</leafValues></_>
    <_>
      <internalNodes>
        0 -1 52948 -2.6326600927859545e-03</internalNodes>
      <leafValues>
        3.8450810313224792e-01 -7.8616984188556671e-02</leafValues></_>
    <_>
      <internalNodes>
        0 -1 112875 -2.4824035353958607e-03</internalNodes>
      <leafValues>
        4.4519007205963135e-01 -6.5324537456035614e-02</leafValues></_>
    <_>
      <internalNodes>
        0 -1 11098 7.4896276928484440e-03</internalNodes>
      <leafValues>
        -7.3508031666278839e-02 4.1701996326446533e-01</leafValues></_>
    <_>
      <internalNodes>
        0 -1 34948 -1.3985470286570489e-04</internalNodes>
      <leafValues>
        1.7422662675380707e-01 -1.7280313372612000e-01</leafValues></_>
    <_>
      <internalNodes>
        0 -1 78236 -3.0794658232480288e-03</internalNodes>
      <leafValues>
        -6.3425618410110474e-01 4.4529475271701813e-02</leafValues></_>
    <_>
      <internalNodes>
        0 -1 153932 -7.3571112006902695e-03</internalNodes>
      <leafValues>
        9.0514630079269409e-01 -3.7732016295194626e-02</leafValues></_>
    <_>
      <internalNodes>
        0 -1 25716 5.9864287322852761e-05</internalNodes>
      <leafValues>
        1.3649111986160278e-01 -2.0831167697906494e-01</leafValues></_>
    <_>
      <internalNodes>
        0 -1 138706 -6.6164685413241386e-03</internalNodes>
      <leafValues>
        2.9500558972358704e-01 -1.0256068408489227e-01</leafValues></_>
    <_>
      <internalNodes>
        0 -1 143115 -1.8633808940649033e-02</internalNodes>
      <leafValues>
        2.9914018511772156e-01 -1.0546851903200150e-01</leafValues></_>
    <_>
      <internalNodes>
        0 -1 137195 -1.3519219355657697e-03</internalNodes>
      <leafValues>
        1.1859854310750961e-01 -2.9178732633590698e-01</leafValues></_>
    <_>
      <internalNodes>
        0 -1 33890 1.4534121379256248e-02</internalNodes>
      <leafValues>
        -8.1286303699016571e-02 4.2603674530982971e-01</leafValues></_>
    <_>
      <internalNodes>
        0 -1 106376 3.4781284630298615e-03</internalNodes>
      <leafValues>
        5.1882512867450714e-02 -5.7239276170730591e-01</leafValues></_>
    <_>
      <internalNodes>
        0 -1 126897 2.8390232473611832e-03</internalNodes>
      <leafValues>
        -5.5799059569835663e-02 5.9397512674331665e-01</leafValues></_>
    <_>
      <internalNodes>
        0 -1 18364 6.6124804317951202e-02</internalNodes>
      <leafValues>
        -6.2156528234481812e-02 4.6212956309318542e-01</leafValues></_>
    <_>
      <internalNodes>
        0 -1 31527 2.3687675595283508e-02</internalNodes>
      <leafValues>
        -4.1774243116378784e-02 7.0514482259750366e-01</leafValues></_>
    <_>
      <internalNodes>
        0 -1 92366 -4.5440707355737686e-02</internalNodes>
      <leafValues>
        -3.1882804632186890e-01 9.6818156540393829e-02</leafValues></_>
    <_>
      <internalNodes>
        0 -1 121168 -2.9745986685156822e-03</internalNodes>
      <leafValues>
        3.5395318269729614e-01 -8.6996190249919891e-02</leafValues></_>
    <_>
      <internalNodes>
        0 -1 131898 -3.1579607166349888e-03</internalNodes>
      <leafValues>
        5.8049470186233521e-01 -4.7764878720045090e-02</leafValues></_>
    <_>
      <internalNodes>
        0 -1 128516 -2.5870308745652437e-03</internalNodes>
      <leafValues>
        -9.7453367710113525e-01 3.0738148838281631e-02</leafValues></_>
    <_>
      <internalNodes>
        0 -1 69747 1.6207443177700043e-01</internalNodes>
      <leafValues>
        -4.3061718344688416e-02 8.2126671075820923e-01</leafValues></_>
    <_>
      <internalNodes>
        0 -1 20753 3.7033807486295700e-02</internalNodes>
      <leafValues>
        5.4478779435157776e-02 -6.2261295318603516e-01</leafValues></_>
    <_>
      <internalNodes>
        0 -1 157703 2.1196473389863968e-02</internalNodes>
      <leafValues>
        -5.7920061051845551e-02 5.3476780652999878e-01</leafValues></_>
    <_>
      <internalNodes>
        0 -1 79603 -1.5149228274822235e-01</internalNodes>
      <leafValues>
        -8.4641858935356140e-02 3.5330533981323242e-01</leafValues></_></weakClassifiers></stage9>
</opencv_storage>
