<?xml version="1.0"?>
<opencv_storage>
<stage9>
  <maxWeakCount>38</maxWeakCount>
  <stageThreshold>-9.1589319705963135e-01</stageThreshold>
  <weakClassifiers>
    <_>
      <internalNodes>
        0 -1 51074 1.2057494372129440e-02</internalNodes>
      <leafValues>
        -5.6462585926055908e-01 -1.6949152573943138e-02</leafValues></_>
    <_>
      <internalNodes>
        0 -1 139142 -3.0818169470876455e-03</internalNodes>
      <leafValues>
        2.4521790444850922e-01 -1.7151638865470886e-01</leafValues></_>
    <_>
      <internalNodes>
        0 -1 146207 -1.0918616317212582e-02</internalNodes>
      <leafValues>
        -6.9802016019821167e-01 4.7818422317504883e-02</leafValues></_>
    <_>
      <internalNodes>
        0 -1 146437 -9.1424211859703064e-03</internalNodes>
      <leafValues>
        8.4177535772323608e-01 -1.7503095790743828e-02</leafValues></_>
    <_>
      <internalNodes>
        0 -1 132853 -4.7491225413978100e-03</internalNodes>
      <leafValues>
        -6.8497997522354126e-01 1.6922784969210625e-02</leafValues></_>
    <_>
      <internalNodes>
        0 -1 102874 -1.5570437535643578e-03</internalNodes>
      <leafValues>
        3.1205418705940247e-01 -9.0087950229644775e-02</leafValues></_>
    <_>
      <internalNodes>
        0 -1 8200 -8.6083374917507172e-03</internalNodes>
      <leafValues>
        3.8859373331069946e-01 -8.3298519253730774e-02</leafValues></_>
    <_>
      <internalNodes>
        0 -1 94775 7.8245606273412704e-03</internalNodes>
      <leafValues>
        3.6268495023250580e-02 -8.0318856239318848e-01</leafValues></_>
    <_>
      <internalNodes>
        0 -1 46692 -3.0207782983779907e-03</internalNodes>
      <leafValues>
        4.2491301894187927e-01 -6.7125663161277771e-02</leafValues></_>
    <_>
      <internalNodes>
        0 -1 51326 5.6558107025921345e-03</internalNodes>
      <leafValues>
        -2.3910380899906158e-01 1.8323242664337158e-01</leafValues></_>
    <_>
      <internalNodes>
        0 -1 146205 -9.9499290809035301e-03</internalNodes>
      <leafValues>
        -7.3552817106246948e-01 3.2627873122692108e-02</leafValues></_>
    <_>
      <internalNodes>
        0 -1 100994 -2.6800322532653809e-01</internalNodes>
      <leafValues>
        7.3862427473068237e-01 -4.0351614356040955e-02</leafValues></_>
    <_>
      <internalNodes>
        0 -1 125101 4.3926076614297926e-04</internalNodes>
      <leafValues>
        -1.4991566538810730e-01 2.2835031151771545e-01</leafValues></_>
    <_>
      <internalNodes>
        0 -1 148599 -9.3590067699551582e-03</internalNodes>
      <leafValues>
        5.5814701318740845e-01 -7.5216867029666901e-02</leafValues></_>
    <_>
      <internalNodes>
        0 -1 109106 -2.0011045038700104e-01</internalNodes>
      <leafValues>
        -3.6226552724838257e-01 1.5991094708442688e-01</leafValues></_>
    <_>
      <internalNodes>
        0 -1 99576 -1.8253588676452637e-01</internalNodes>
      <leafValues>
        3.9192995429039001e-01 -1.1116483807563782e-01</leafValues></_>
    <_>
      <internalNodes>
        0 -1 135867 1.8215747550129890e-03</internalNodes>
      <leafValues>
        -1.3547818362712860e-01 2.5509151816368103e-01</leafValues></_>
    <_>
      <internalNodes>
        0 -1 6777 -2.4405626580119133e-02</internalNodes>
      <leafValues>
        -9.6764922142028809e-02 3.2875394821166992e-01</leafValues></_>
    <_>
      <internalNodes>
        0 -1 45603 1.2562227435410023e-02</internalNodes>
      <leafValues>
        5.5773109197616577e-02 -6.1261230707168579e-01</leafValues></_>
    <_>
      <internalNodes>
        0 -1 28809 1.7075404524803162e-02</internalNodes>
      <leafValues>
        -9.3735121190547943e-02 4.5451146364212036e-01</leafValues></_>
    <_>
      <internalNodes>
        0 -1 159317 -1.0181695688515902e-03</internalNodes>
      <leafValues>
        2.4189200997352600e-01 -1.6673639416694641e-01</leafValues></_>
    <_>
      <internalNodes>
        0 -1 134325 2.2479481995105743e-02</internalNodes>
      <leafValues>
        5.5716715753078461e-02 -6.2262237071990967e-01</leafValues></_>
    <_>
      <internalNodes>
        0 -1 157957 -1.6973271965980530e-02</internalNodes>
      <leafValues>
        -1.5681014955043793e-01 2.2913008928298950e-01</leafValues></_>
    <_>
      <internalNodes>
        0 -1 61840 -7.3834881186485291e-02</internalNodes>
      <leafValues>
        4.1808319091796875e-01 -8.9894838631153107e-02</leafValues></_>
    <_>
      <internalNodes>
        0 -1 58156 1.9530691206455231e-03</internalNodes>
      <leafValues>
        5.2069686353206635e-02 -6.8437188863754272e-01</leafValues></_>
    <_>
      <internalNodes>
        0 -1 100797 -2.4731078743934631e-01</internalNodes>
      <leafValues>
        -7.0095765590667725e-01 3.9115127176046371e-02</leafValues></_>
    <_>
      <internalNodes>
        0 -1 147087 -1.6354452818632126e-02</internalNodes>
      <leafValues>
        4.5808333158493042e-01 -8.8949456810951233e-02</leafValues></_>
    <_>
      <internalNodes>
        0 -1 98821 -3.9803488180041313e-03</internalNodes>
      <leafValues>
        3.1057593226432800e-01 -1.2345766276121140e-01</leafValues></_>
    <_>
      <internalNodes>
        0 -1 81994 1.7360538244247437e-02</internalNodes>
      <leafValues>
        -9.2701375484466553e-02 3.5378548502922058e-01</leafValues></_>
    <_>
      <internalNodes>
        0 -1 128210 -2.1164495497941971e-02</internalNodes>
      <leafValues>
        -7.3448008298873901e-01 5.5470582097768784e-02</leafValues></_>
    <_>
      <internalNodes>
        0 -1 9 3.8050492294132710e-03</internalNodes>
      <leafValues>
        3.3775899559259415e-02 -7.1121430397033691e-01</leafValues></_>
    <_>
      <internalNodes>
        0 -1 161054 -2.4673115462064743e-02</internalNodes>
      <leafValues>
        5.8739346265792847e-01 -6.4937092363834381e-02</leafValues></_>
    <_>
      <internalNodes>
        0 -1 138450 4.3023116886615753e-03</internalNodes>
      <leafValues>
        9.8040871322154999e-02 -3.5745263099670410e-01</leafValues></_>
    <_>
      <internalNodes>
        0 -1 112800 -9.4299457967281342e-02</internalNodes>
      <leafValues>
        -6.1584502458572388e-01 5.5751755833625793e-02</leafValues></_>
    <_>
      <internalNodes>
        0 -1 128059 -4.0501132607460022e-03</internalNodes>
      <leafValues>
        -5.7794356346130371e-01 5.7172439992427826e-02</leafValues></_>
    <_>
      <internalNodes>
        0 -1 151276 8.3581788931041956e-04</internalNodes>
      <leafValues>
        -1.8889570236206055e-01 1.8711827695369720e-01</leafValues></_>
    <_>
      <internalNodes>
        0 -1 161972 -1.4048349112272263e-04</internalNodes>
      <leafValues>
        -2.2719116508960724e-01 1.5167789161205292e-01</leafValues></_>
    <_>
      <internalNodes>
        0 -1 11368 6.6619212739169598e-03</internalNodes>
      <leafValues>
        -8.6140289902687073e-02 4.2311769723892212e-01</leafValues></_></weakClassifiers></stage9>
</opencv_storage>
