<?xml version="1.0"?>
<opencv_storage>
<stage9>
  <maxWeakCount>37</maxWeakCount>
  <stageThreshold>-9.4985222816467285e-01</stageThreshold>
  <weakClassifiers>
    <_>
      <internalNodes>
        0 -1 414 2.2644151002168655e-02</internalNodes>
      <leafValues>
        -5.8302122354507446e-01 -1.6582915186882019e-01</leafValues></_>
    <_>
      <internalNodes>
        0 -1 160784 -3.6744675599038601e-03</internalNodes>
      <leafValues>
        2.8908696770668030e-01 -1.7145572602748871e-01</leafValues></_>
    <_>
      <internalNodes>
        0 -1 86917 8.2911122590303421e-03</internalNodes>
      <leafValues>
        6.8956829607486725e-02 -5.1879459619522095e-01</leafValues></_>
    <_>
      <internalNodes>
        0 -1 86917 8.2222633063793182e-03</internalNodes>
      <leafValues>
        -6.4551141113042831e-03 8.6553770303726196e-01</leafValues></_>
    <_>
      <internalNodes>
        0 -1 86917 7.6244734227657318e-03</internalNodes>
      <leafValues>
        8.6941905319690704e-03 -6.9857329130172729e-01</leafValues></_>
    <_>
      <internalNodes>
        0 -1 116835 -2.3099010810256004e-02</internalNodes>
      <leafValues>
        -7.5771546363830566e-01 6.9869898259639740e-02</leafValues></_>
    <_>
      <internalNodes>
        0 -1 152698 -2.4940004572272301e-02</internalNodes>
      <leafValues>
        -1. 2.0704446360468864e-03</leafValues></_>
    <_>
      <internalNodes>
        0 -1 17245 2.0600091665983200e-03</internalNodes>
      <leafValues>
        -8.8178105652332306e-02 3.8844910264015198e-01</leafValues></_>
    <_>
      <internalNodes>
        0 -1 69977 -5.5253505706787109e-03</internalNodes>
      <leafValues>
        4.2558336257934570e-01 -7.8815318644046783e-02</leafValues></_>
    <_>
      <internalNodes>
        0 -1 7034 -4.1258168220520020e-01</internalNodes>
      <leafValues>
        -1.6398093104362488e-01 2.3204427957534790e-01</leafValues></_>
    <_>
      <internalNodes>
        0 -1 158323 -6.6459528170526028e-03</internalNodes>
      <leafValues>
        4.7062644362449646e-01 -8.5917472839355469e-02</leafValues></_>
    <_>
      <internalNodes>
        0 -1 58573 1.8285919213667512e-03</internalNodes>
      <leafValues>
        6.9257676601409912e-02 -5.7973408699035645e-01</leafValues></_>
    <_>
      <internalNodes>
        0 -1 84909 4.1120972484350204e-02</internalNodes>
      <leafValues>
        3.4670550376176834e-02 -9.0308970212936401e-01</leafValues></_>
    <_>
      <internalNodes>
        0 -1 23344 -7.1486838161945343e-02</internalNodes>
      <leafValues>
        -7.0066481828689575e-01 4.5530606061220169e-02</leafValues></_>
    <_>
      <internalNodes>
        0 -1 106316 2.5450871326029301e-03</internalNodes>
      <leafValues>
        4.1357621550559998e-02 -7.2361844778060913e-01</leafValues></_>
    <_>
      <internalNodes>
        0 -1 97660 9.3480595387518406e-04</internalNodes>
      <leafValues>
        -9.2956662178039551e-02 4.6943518519401550e-01</leafValues></_>
    <_>
      <internalNodes>
        0 -1 123451 3.4908723318949342e-04</internalNodes>
      <leafValues>
        -1.5248809754848480e-01 2.2655595839023590e-01</leafValues></_>
    <_>
      <internalNodes>
        0 -1 160074 -1.5787380980327725e-03</internalNodes>
      <leafValues>
        4.8341426998376846e-02 -7.6679068803787231e-01</leafValues></_>
    <_>
      <internalNodes>
        0 -1 155565 -1.1478900705697015e-04</internalNodes>
      <leafValues>
        -2.0381204783916473e-01 1.9183367490768433e-01</leafValues></_>
    <_>
      <internalNodes>
        0 -1 24277 -1.1570066213607788e-01</internalNodes>
      <leafValues>
        5.4653126001358032e-01 -8.3811387419700623e-02</leafValues></_>
    <_>
      <internalNodes>
        0 -1 37084 -4.3037231080234051e-03</internalNodes>
      <leafValues>
        -2.6032441854476929e-01 1.7843081057071686e-01</leafValues></_>
    <_>
      <internalNodes>
        0 -1 29465 -7.7902483753859997e-03</internalNodes>
      <leafValues>
        2.7282086014747620e-01 -1.6485476493835449e-01</leafValues></_>
    <_>
      <internalNodes>
        0 -1 150733 1.9536679610610008e-03</internalNodes>
      <leafValues>
        1.2202832847833633e-01 -3.4707278013229370e-01</leafValues></_>
    <_>
      <internalNodes>
        0 -1 121348 3.0782731482759118e-04</internalNodes>
      <leafValues>
        1.2567937374114990e-01 -2.8914809226989746e-01</leafValues></_>
    <_>
      <internalNodes>
        0 -1 142827 -2.9871701262891293e-03</internalNodes>
      <leafValues>
        -8.7898373603820801e-02 4.3034639954566956e-01</leafValues></_>
    <_>
      <internalNodes>
        0 -1 41347 1.4040144160389900e-03</internalNodes>
      <leafValues>
        -1.9063206017017365e-01 2.1234396100044250e-01</leafValues></_>
    <_>
      <internalNodes>
        0 -1 90013 7.9977083951234818e-03</internalNodes>
      <leafValues>
        1.3199225068092346e-01 -3.1162363290786743e-01</leafValues></_>
    <_>
      <internalNodes>
        0 -1 107655 -3.2783191651105881e-02</internalNodes>
      <leafValues>
        4.1632467508316040e-01 -9.6773006021976471e-02</leafValues></_>
    <_>
      <internalNodes>
        0 -1 24735 1.5219403430819511e-03</internalNodes>
      <leafValues>
        5.9542410075664520e-02 -6.9153100252151489e-01</leafValues></_>
    <_>
      <internalNodes>
        0 -1 49154 -1.0292991064488888e-03</internalNodes>
      <leafValues>
        3.1886583566665649e-01 -1.2361535429954529e-01</leafValues></_>
    <_>
      <internalNodes>
        0 -1 122754 5.3898994810879230e-03</internalNodes>
      <leafValues>
        -9.9988199770450592e-02 3.9312583208084106e-01</leafValues></_>
    <_>
      <internalNodes>
        0 -1 62850 2.3395461030304432e-03</internalNodes>
      <leafValues>
        -8.3494469523429871e-02 4.3342623114585876e-01</leafValues></_>
    <_>
      <internalNodes>
        0 -1 146227 6.5682167187333107e-03</internalNodes>
      <leafValues>
        7.3693878948688507e-02 -5.3758358955383301e-01</leafValues></_>
    <_>
      <internalNodes>
        0 -1 25795 -9.7302366048097610e-03</internalNodes>
      <leafValues>
        -7.6076194643974304e-02 5.2960634231567383e-01</leafValues></_>
    <_>
      <internalNodes>
        0 -1 148273 1.9183941185474396e-03</internalNodes>
      <leafValues>
        5.2159454673528671e-02 -7.9758679866790771e-01</leafValues></_>
    <_>
      <internalNodes>
        0 -1 94056 4.7025857493281364e-03</internalNodes>
      <leafValues>
        -1.1688304692506790e-01 3.5430988669395447e-01</leafValues></_>
    <_>
      <internalNodes>
        0 -1 8150 1.5798625536262989e-03</internalNodes>
      <leafValues>
        -1.3200677931308746e-01 2.9599258303642273e-01</leafValues></_></weakClassifiers></stage9>
</opencv_storage>
