<?xml version="1.0"?>
<opencv_storage>
<stage7>
  <maxWeakCount>36</maxWeakCount>
  <stageThreshold>-1.1185710430145264e+00</stageThreshold>
  <weakClassifiers>
    <_>
      <internalNodes>
        0 -1 2471 1.2894369661808014e-01</internalNodes>
      <leafValues>
        -5.7755774259567261e-01 2.7472528815269470e-01</leafValues></_>
    <_>
      <internalNodes>
        0 -1 134005 1.1272570118308067e-02</internalNodes>
      <leafValues>
        -2.1813891828060150e-01 2.3555696010589600e-01</leafValues></_>
    <_>
      <internalNodes>
        0 -1 79032 2.0842843223363161e-03</internalNodes>
      <leafValues>
        1.1358705908060074e-01 -3.7174195051193237e-01</leafValues></_>
    <_>
      <internalNodes>
        0 -1 155979 -4.7280509024858475e-03</internalNodes>
      <leafValues>
        -5.7117855548858643e-01 6.7995570600032806e-02</leafValues></_>
    <_>
      <internalNodes>
        0 -1 137080 -3.2864981889724731e-01</internalNodes>
      <leafValues>
        -8.6876326799392700e-01 7.6059266924858093e-02</leafValues></_>
    <_>
      <internalNodes>
        0 -1 140 3.4493379294872284e-02</internalNodes>
      <leafValues>
        -9.3435928225517273e-02 4.5816704630851746e-01</leafValues></_>
    <_>
      <internalNodes>
        0 -1 137195 -1.3118868228048086e-03</internalNodes>
      <leafValues>
        1.2685525417327881e-01 -3.1280884146690369e-01</leafValues></_>
    <_>
      <internalNodes>
        0 -1 98266 -3.5150293115293607e-05</internalNodes>
      <leafValues>
        1.7146745324134827e-01 -2.4947407841682434e-01</leafValues></_>
    <_>
      <internalNodes>
        0 -1 62786 1.1032977700233459e-01</internalNodes>
      <leafValues>
        -7.4249908328056335e-02 6.3301771879196167e-01</leafValues></_>
    <_>
      <internalNodes>
        0 -1 126736 -1.5429722145199776e-02</internalNodes>
      <leafValues>
        7.1607686579227448e-02 -7.4403774738311768e-01</leafValues></_>
    <_>
      <internalNodes>
        0 -1 25889 6.4244270324707031e-03</internalNodes>
      <leafValues>
        -1.0503934323787689e-01 4.2737358808517456e-01</leafValues></_>
    <_>
      <internalNodes>
        0 -1 161246 -1.9581723958253860e-02</internalNodes>
      <leafValues>
        6.5506029129028320e-01 -5.9729911386966705e-02</leafValues></_>
    <_>
      <internalNodes>
        0 -1 99409 -8.9965797960758209e-03</internalNodes>
      <leafValues>
        -8.3275747299194336e-01 5.2063371986150742e-02</leafValues></_>
    <_>
      <internalNodes>
        0 -1 5912 -1.8432512879371643e-02</internalNodes>
      <leafValues>
        6.3222366571426392e-01 -8.2468159496784210e-02</leafValues></_>
    <_>
      <internalNodes>
        0 -1 159712 2.5516541209071875e-03</internalNodes>
      <leafValues>
        -1.4414063096046448e-01 2.8509497642517090e-01</leafValues></_>
    <_>
      <internalNodes>
        0 -1 30694 9.2835560441017151e-02</internalNodes>
      <leafValues>
        -1.2284428626298904e-01 3.4690174460411072e-01</leafValues></_>
    <_>
      <internalNodes>
        0 -1 70905 2.2610146552324295e-02</internalNodes>
      <leafValues>
        8.7809279561042786e-02 -5.6972855329513550e-01</leafValues></_>
    <_>
      <internalNodes>
        0 -1 70919 -4.1637957096099854e-02</internalNodes>
      <leafValues>
        -7.8327798843383789e-01 4.0776520967483521e-02</leafValues></_>
    <_>
      <internalNodes>
        0 -1 119990 -9.9327331408858299e-03</internalNodes>
      <leafValues>
        -5.3801995515823364e-01 6.5372116863727570e-02</leafValues></_>
    <_>
      <internalNodes>
        0 -1 8936 4.5582301914691925e-02</internalNodes>
      <leafValues>
        -8.5918553173542023e-02 5.3374814987182617e-01</leafValues></_>
    <_>
      <internalNodes>
        0 -1 132358 -2.7243726071901619e-04</internalNodes>
      <leafValues>
        2.6740035414695740e-01 -1.8607339262962341e-01</leafValues></_>
    <_>
      <internalNodes>
        0 -1 112263 -2.1372507326304913e-03</internalNodes>
      <leafValues>
        -2.9390767216682434e-01 1.5735234320163727e-01</leafValues></_>
    <_>
      <internalNodes>
        0 -1 90633 -4.2396727949380875e-03</internalNodes>
      <leafValues>
        3.8684985041618347e-01 -1.1394244432449341e-01</leafValues></_>
    <_>
      <internalNodes>
        0 -1 106967 -6.0253061354160309e-02</internalNodes>
      <leafValues>
        -8.3271437883377075e-01 5.6642312556505203e-02</leafValues></_>
    <_>
      <internalNodes>
        0 -1 99053 8.9411269873380661e-03</internalNodes>
      <leafValues>
        -8.0562740564346313e-02 6.2582737207412720e-01</leafValues></_>
    <_>
      <internalNodes>
        0 -1 114416 -1.4240446034818888e-03</internalNodes>
      <leafValues>
        -6.8324506282806396e-01 6.8370565772056580e-02</leafValues></_>
    <_>
      <internalNodes>
        0 -1 155230 -2.1582715213298798e-02</internalNodes>
      <leafValues>
        -8.2378482818603516e-01 3.9743006229400635e-02</leafValues></_>
    <_>
      <internalNodes>
        0 -1 152380 -3.7034149281680584e-03</internalNodes>
      <leafValues>
        4.4581776857376099e-01 -1.0469254851341248e-01</leafValues></_>
    <_>
      <internalNodes>
        0 -1 106770 1.4798654010519385e-03</internalNodes>
      <leafValues>
        -2.0612518489360809e-01 2.2334077954292297e-01</leafValues></_>
    <_>
      <internalNodes>
        0 -1 98267 -1.1145255994051695e-03</internalNodes>
      <leafValues>
        5.3208511322736740e-02 -8.8651245832443237e-01</leafValues></_>
    <_>
      <internalNodes>
        0 -1 919 -3.2095885276794434e-01</internalNodes>
      <leafValues>
        -8.3149708807468414e-02 6.4084619283676147e-01</leafValues></_>
    <_>
      <internalNodes>
        0 -1 141222 -6.8878557067364454e-04</internalNodes>
      <leafValues>
        1.6008740663528442e-01 -2.9769650101661682e-01</leafValues></_>
    <_>
      <internalNodes>
        0 -1 8836 8.3485320210456848e-03</internalNodes>
      <leafValues>
        -7.2150498628616333e-02 6.3751512765884399e-01</leafValues></_>
    <_>
      <internalNodes>
        0 -1 116039 2.5590918958187103e-03</internalNodes>
      <leafValues>
        5.9671118855476379e-02 -8.1816869974136353e-01</leafValues></_>
    <_>
      <internalNodes>
        0 -1 57813 6.4441654831171036e-03</internalNodes>
      <leafValues>
        -1.5469753742218018e-01 2.7860102057456970e-01</leafValues></_>
    <_>
      <internalNodes>
        0 -1 113760 -3.0992174288257957e-04</internalNodes>
      <leafValues>
        1.8323680758476257e-01 -2.3980864882469177e-01</leafValues></_></weakClassifiers></stage7>
</opencv_storage>
