<?xml version="1.0"?>
<opencv_storage>
<stage4>
  <maxWeakCount>41</maxWeakCount>
  <stageThreshold>-1.3980978727340698e+00</stageThreshold>
  <weakClassifiers>
    <_>
      <internalNodes>
        0 -1 22168 5.2868397906422615e-03</internalNodes>
      <leafValues>
        -7.2440439462661743e-01 -3.0364373326301575e-01</leafValues></_>
    <_>
      <internalNodes>
        0 -1 129784 1.9582081586122513e-04</internalNodes>
      <leafValues>
        -3.1426024436950684e-01 6.7530766129493713e-02</leafValues></_>
    <_>
      <internalNodes>
        0 -1 47843 -6.0591794317588210e-04</internalNodes>
      <leafValues>
        3.4183418750762939e-01 -1.1261704564094543e-01</leafValues></_>
    <_>
      <internalNodes>
        0 -1 68165 4.0055590216070414e-04</internalNodes>
      <leafValues>
        -2.0899282395839691e-01 1.8463824689388275e-01</leafValues></_>
    <_>
      <internalNodes>
        0 -1 139786 -3.1568720005452633e-03</internalNodes>
      <leafValues>
        3.3464586734771729e-01 -1.0511620342731476e-01</leafValues></_>
    <_>
      <internalNodes>
        0 -1 135742 2.8439890593290329e-02</internalNodes>
      <leafValues>
        7.5361207127571106e-02 -4.5330220460891724e-01</leafValues></_>
    <_>
      <internalNodes>
        0 -1 141901 9.3230861239135265e-04</internalNodes>
      <leafValues>
        -9.4792135059833527e-02 3.3668857812881470e-01</leafValues></_>
    <_>
      <internalNodes>
        0 -1 141331 4.0024420013651252e-04</internalNodes>
      <leafValues>
        -1.2465272843837738e-01 2.6008191704750061e-01</leafValues></_>
    <_>
      <internalNodes>
        0 -1 108117 -1.5583123080432415e-02</internalNodes>
      <leafValues>
        -7.5624477863311768e-01 7.6723150908946991e-02</leafValues></_>
    <_>
      <internalNodes>
        0 -1 77372 7.7246024738997221e-04</internalNodes>
      <leafValues>
        -1.5494817495346069e-01 2.5536099076271057e-01</leafValues></_>
    <_>
      <internalNodes>
        0 -1 23217 2.5759045965969563e-03</internalNodes>
      <leafValues>
        -8.0882877111434937e-02 3.6870890855789185e-01</leafValues></_>
    <_>
      <internalNodes>
        0 -1 86947 -3.0284821987152100e-01</internalNodes>
      <leafValues>
        -2.7384474873542786e-01 1.4992845058441162e-01</leafValues></_>
    <_>
      <internalNodes>
        0 -1 139397 1.9718469120562077e-03</internalNodes>
      <leafValues>
        -1.3748757541179657e-01 3.1919786334037781e-01</leafValues></_>
    <_>
      <internalNodes>
        0 -1 89250 -1.7935939831659198e-03</internalNodes>
      <leafValues>
        4.2166298627853394e-01 -7.6313801109790802e-02</leafValues></_>
    <_>
      <internalNodes>
        0 -1 148099 -2.4923619348555803e-03</internalNodes>
      <leafValues>
        3.0709218978881836e-01 -1.0597608238458633e-01</leafValues></_>
    <_>
      <internalNodes>
        0 -1 120527 3.5439413040876389e-02</internalNodes>
      <leafValues>
        -8.1145234405994415e-02 4.4567650556564331e-01</leafValues></_>
    <_>
      <internalNodes>
        0 -1 69524 -1.2996632140129805e-03</internalNodes>
      <leafValues>
        1.2853126227855682e-01 -3.2490056753158569e-01</leafValues></_>
    <_>
      <internalNodes>
        0 -1 67310 1.8668370321393013e-02</internalNodes>
      <leafValues>
        4.1088405996561050e-02 -7.9678452014923096e-01</leafValues></_>
    <_>
      <internalNodes>
        0 -1 104452 -1.8992327153682709e-02</internalNodes>
      <leafValues>
        -7.3234844207763672e-01 3.6247894167900085e-02</leafValues></_>
    <_>
      <internalNodes>
        0 -1 128011 4.6343766734935343e-04</internalNodes>
      <leafValues>
        -1.9344383478164673e-01 1.7866055667400360e-01</leafValues></_>
    <_>
      <internalNodes>
        0 -1 90007 -2.4237155914306641e-02</internalNodes>
      <leafValues>
        3.6391396075487137e-02 -9.5788896083831787e-01</leafValues></_>
    <_>
      <internalNodes>
        0 -1 10009 8.0590293509885669e-04</internalNodes>
      <leafValues>
        -9.6667759120464325e-02 4.0839305520057678e-01</leafValues></_>
    <_>
      <internalNodes>
        0 -1 131565 -1.4489931054413319e-03</internalNodes>
      <leafValues>
        3.9533120393753052e-01 -8.9340955018997192e-02</leafValues></_>
    <_>
      <internalNodes>
        0 -1 150520 -1.1006878921762109e-03</internalNodes>
      <leafValues>
        1.8193893134593964e-01 -1.8731217086315155e-01</leafValues></_>
    <_>
      <internalNodes>
        0 -1 137139 -2.9691722011193633e-04</internalNodes>
      <leafValues>
        2.2871074080467224e-01 -1.6934108734130859e-01</leafValues></_>
    <_>
      <internalNodes>
        0 -1 70418 -2.1438091062009335e-03</internalNodes>
      <leafValues>
        -9.0011216700077057e-02 4.2201611399650574e-01</leafValues></_>
    <_>
      <internalNodes>
        0 -1 161754 1.6684532165527344e-03</internalNodes>
      <leafValues>
        -1.1327768117189407e-01 3.0739408731460571e-01</leafValues></_>
    <_>
      <internalNodes>
        0 -1 62634 -2.2497769445180893e-02</internalNodes>
      <leafValues>
        1.6647191345691681e-01 -2.2268627583980560e-01</leafValues></_>
    <_>
      <internalNodes>
        0 -1 136353 2.4055527523159981e-02</internalNodes>
      <leafValues>
        -9.8984293639659882e-02 4.3870675563812256e-01</leafValues></_>
    <_>
      <internalNodes>
        0 -1 36251 1.2657224433496594e-03</internalNodes>
      <leafValues>
        -1.0104279965162277e-01 3.3371934294700623e-01</leafValues></_>
    <_>
      <internalNodes>
        0 -1 128434 -2.1087829023599625e-02</internalNodes>
      <leafValues>
        5.1927137374877930e-01 -6.0436848551034927e-02</leafValues></_>
    <_>
      <internalNodes>
        0 -1 2020 4.2369877919554710e-03</internalNodes>
      <leafValues>
        -1.6162492334842682e-01 2.3310492932796478e-01</leafValues></_>
    <_>
      <internalNodes>
        0 -1 45069 -2.2108561825007200e-04</internalNodes>
      <leafValues>
        1.3996207714080811e-01 -2.4198789894580841e-01</leafValues></_>
    <_>
      <internalNodes>
        0 -1 57246 -9.6772471442818642e-04</internalNodes>
      <leafValues>
        3.2494133710861206e-01 -1.2746560573577881e-01</leafValues></_>
    <_>
      <internalNodes>
        0 -1 143012 3.0090990476310253e-03</internalNodes>
      <leafValues>
        6.9900006055831909e-02 -5.1099592447280884e-01</leafValues></_>
    <_>
      <internalNodes>
        0 -1 41505 -2.8222868219017982e-02</internalNodes>
      <leafValues>
        -1.8275669217109680e-01 2.0455887913703918e-01</leafValues></_>
    <_>
      <internalNodes>
        0 -1 126401 -4.9778059124946594e-02</internalNodes>
      <leafValues>
        5.2586042881011963e-01 -7.1757718920707703e-02</leafValues></_>
    <_>
      <internalNodes>
        0 -1 148808 6.1495833098888397e-02</internalNodes>
      <leafValues>
        4.7862969338893890e-02 -7.9708713293075562e-01</leafValues></_>
    <_>
      <internalNodes>
        0 -1 155360 -3.1002065166831017e-02</internalNodes>
      <leafValues>
        3.2638645172119141e-01 -1.0628913342952728e-01</leafValues></_>
    <_>
      <internalNodes>
        0 -1 34928 -4.6874792315065861e-03</internalNodes>
      <leafValues>
        4.9829486012458801e-01 -8.1901311874389648e-02</leafValues></_>
    <_>
      <internalNodes>
        0 -1 120124 -1.7020797531586140e-04</internalNodes>
      <leafValues>
        2.3331286013126373e-01 -1.5242350101470947e-01</leafValues></_></weakClassifiers></stage4>
</opencv_storage>
