<?xml version="1.0"?>
<opencv_storage>
<stage5>
  <maxWeakCount>43</maxWeakCount>
  <stageThreshold>-1.0387639999389648e+00</stageThreshold>
  <weakClassifiers>
    <_>
      <internalNodes>
        0 -1 10183 3.3184066414833069e-02</internalNodes>
      <leafValues>
        -5.8197748661041260e-01 -1.7412935197353363e-01</leafValues></_>
    <_>
      <internalNodes>
        0 -1 128029 4.5360373333096504e-03</internalNodes>
      <leafValues>
        -1.9706490635871887e-01 2.4892947077751160e-01</leafValues></_>
    <_>
      <internalNodes>
        0 -1 2539 -5.1657907664775848e-02</internalNodes>
      <leafValues>
        2.0546376705169678e-01 -1.8376441299915314e-01</leafValues></_>
    <_>
      <internalNodes>
        0 -1 32336 4.9884177744388580e-02</internalNodes>
      <leafValues>
        6.6198602318763733e-02 -5.4828774929046631e-01</leafValues></_>
    <_>
      <internalNodes>
        0 -1 56578 -5.4601230658590794e-03</internalNodes>
      <leafValues>
        3.7588262557983398e-01 -8.5041262209415436e-02</leafValues></_>
    <_>
      <internalNodes>
        0 -1 26889 1.4744121581315994e-03</internalNodes>
      <leafValues>
        -1.5554492175579071e-01 2.4455505609512329e-01</leafValues></_>
    <_>
      <internalNodes>
        0 -1 89091 -7.3498981073498726e-03</internalNodes>
      <leafValues>
        3.9595392346382141e-01 -9.7489625215530396e-02</leafValues></_>
    <_>
      <internalNodes>
        0 -1 114021 1.3783826492726803e-02</internalNodes>
      <leafValues>
        -7.2146631777286530e-02 5.7153731584548950e-01</leafValues></_>
    <_>
      <internalNodes>
        0 -1 135039 2.6451651938259602e-03</internalNodes>
      <leafValues>
        4.0984094142913818e-02 -1.</leafValues></_>
    <_>
      <internalNodes>
        0 -1 141328 -7.8570796176791191e-04</internalNodes>
      <leafValues>
        3.9386394619941711e-01 -9.9713638424873352e-02</leafValues></_>
    <_>
      <internalNodes>
        0 -1 105412 -6.3984552398324013e-03</internalNodes>
      <leafValues>
        -6.3386279344558716e-01 5.3775876760482788e-02</leafValues></_>
    <_>
      <internalNodes>
        0 -1 123388 4.3614895548671484e-04</internalNodes>
      <leafValues>
        -1.2609775364398956e-01 2.7296391129493713e-01</leafValues></_>
    <_>
      <internalNodes>
        0 -1 128070 3.6917510442435741e-03</internalNodes>
      <leafValues>
        9.1513551771640778e-02 -4.7850349545478821e-01</leafValues></_>
    <_>
      <internalNodes>
        0 -1 33025 1.1301966384053230e-02</internalNodes>
      <leafValues>
        2.8402967378497124e-02 -7.7177792787551880e-01</leafValues></_>
    <_>
      <internalNodes>
        0 -1 53261 -2.7771408203989267e-03</internalNodes>
      <leafValues>
        2.8893402218818665e-01 -1.2444480508565903e-01</leafValues></_>
    <_>
      <internalNodes>
        0 -1 101202 4.0121413767337799e-03</internalNodes>
      <leafValues>
        2.3531535640358925e-02 -9.5606571435928345e-01</leafValues></_>
    <_>
      <internalNodes>
        0 -1 53621 -1.5251303091645241e-02</internalNodes>
      <leafValues>
        -3.4762227535247803e-01 1.0145076364278793e-01</leafValues></_>
    <_>
      <internalNodes>
        0 -1 41084 1.6818830044940114e-04</internalNodes>
      <leafValues>
        -2.0446738600730896e-01 1.9121684134006500e-01</leafValues></_>
    <_>
      <internalNodes>
        0 -1 27959 -2.7487017214298248e-03</internalNodes>
      <leafValues>
        4.2840555310249329e-01 -9.4828933477401733e-02</leafValues></_>
    <_>
      <internalNodes>
        0 -1 151863 -4.7551060561090708e-04</internalNodes>
      <leafValues>
        -2.9450792074203491e-01 1.3473062217235565e-01</leafValues></_>
    <_>
      <internalNodes>
        0 -1 157302 -7.1299336850643158e-03</internalNodes>
      <leafValues>
        3.8755038380622864e-01 -1.0212708264589310e-01</leafValues></_>
    <_>
      <internalNodes>
        0 -1 68748 -7.2663165628910065e-02</internalNodes>
      <leafValues>
        5.4871064424514771e-01 -7.4290789663791656e-02</leafValues></_>
    <_>
      <internalNodes>
        0 -1 80836 1.1209379881620407e-02</internalNodes>
      <leafValues>
        6.2760926783084869e-02 -6.5045785903930664e-01</leafValues></_>
    <_>
      <internalNodes>
        0 -1 150663 -3.9043612196110189e-04</internalNodes>
      <leafValues>
        2.8414025902748108e-01 -1.3798856735229492e-01</leafValues></_>
    <_>
      <internalNodes>
        0 -1 131004 7.8025441616773605e-03</internalNodes>
      <leafValues>
        4.7439321875572205e-02 -7.6885652542114258e-01</leafValues></_>
    <_>
      <internalNodes>
        0 -1 141327 -9.3808252131566405e-04</internalNodes>
      <leafValues>
        4.0391910076141357e-01 -1.0190968215465546e-01</leafValues></_>
    <_>
      <internalNodes>
        0 -1 146889 -1.1479225941002369e-03</internalNodes>
      <leafValues>
        3.4263044595718384e-01 -1.0915105044841766e-01</leafValues></_>
    <_>
      <internalNodes>
        0 -1 22906 8.6335495114326477e-02</internalNodes>
      <leafValues>
        -1.0119044035673141e-01 4.1093283891677856e-01</leafValues></_>
    <_>
      <internalNodes>
        0 -1 105081 -5.9188734740018845e-03</internalNodes>
      <leafValues>
        -2.6486051082611084e-01 1.8236128985881805e-01</leafValues></_>
    <_>
      <internalNodes>
        0 -1 63906 -1.0002897679805756e-01</internalNodes>
      <leafValues>
        5.3331387042999268e-01 -7.7981024980545044e-02</leafValues></_>
    <_>
      <internalNodes>
        0 -1 57757 3.5868515260517597e-03</internalNodes>
      <leafValues>
        8.9253231883049011e-02 -4.7130176424980164e-01</leafValues></_>
    <_>
      <internalNodes>
        0 -1 148134 7.7538989717140794e-04</internalNodes>
      <leafValues>
        1.2921112775802612e-01 -2.8668707609176636e-01</leafValues></_>
    <_>
      <internalNodes>
        0 -1 144233 3.0994620174169540e-02</internalNodes>
      <leafValues>
        -1.1651051789522171e-01 3.3328810334205627e-01</leafValues></_>
    <_>
      <internalNodes>
        0 -1 143532 -7.3201581835746765e-03</internalNodes>
      <leafValues>
        2.8858277201652527e-01 -1.3884416222572327e-01</leafValues></_>
    <_>
      <internalNodes>
        0 -1 88920 4.2117638513445854e-03</internalNodes>
      <leafValues>
        -1.6414353251457214e-01 2.6840716600418091e-01</leafValues></_>
    <_>
      <internalNodes>
        0 -1 46586 -4.0882689063437283e-04</internalNodes>
      <leafValues>
        1.8606948852539063e-01 -2.0207901298999786e-01</leafValues></_>
    <_>
      <internalNodes>
        0 -1 75715 6.0704501811414957e-04</internalNodes>
      <leafValues>
        -1.1699970066547394e-01 3.4544122219085693e-01</leafValues></_>
    <_>
      <internalNodes>
        0 -1 127711 5.2569280378520489e-03</internalNodes>
      <leafValues>
        -1.4138993620872498e-01 2.7650532126426697e-01</leafValues></_>
    <_>
      <internalNodes>
        0 -1 114362 2.2784489556215703e-04</internalNodes>
      <leafValues>
        1.4929503202438354e-01 -2.8979784250259399e-01</leafValues></_>
    <_>
      <internalNodes>
        0 -1 10865 1.9251463236287236e-03</internalNodes>
      <leafValues>
        8.8613532483577728e-02 -4.3998721241950989e-01</leafValues></_>
    <_>
      <internalNodes>
        0 -1 19623 -6.0818722704425454e-04</internalNodes>
      <leafValues>
        2.3457953333854675e-01 -1.6113069653511047e-01</leafValues></_>
    <_>
      <internalNodes>
        0 -1 24101 6.8722367286682129e-03</internalNodes>
      <leafValues>
        -1.1147764325141907e-01 3.4851306676864624e-01</leafValues></_>
    <_>
      <internalNodes>
        0 -1 23657 -2.3823897354304790e-03</internalNodes>
      <leafValues>
        3.5013517737388611e-01 -1.1281124502420425e-01</leafValues></_></weakClassifiers></stage5>
</opencv_storage>
