<?xml version="1.0"?>
<opencv_storage>
<stage7>
  <maxWeakCount>51</maxWeakCount>
  <stageThreshold>-1.2684811353683472e+00</stageThreshold>
  <weakClassifiers>
    <_>
      <internalNodes>
        0 -1 51092 1.1580420657992363e-02</internalNodes>
      <leafValues>
        -7.1092218160629272e-01 -4.1697415709495544e-01</leafValues></_>
    <_>
      <internalNodes>
        0 -1 33377 -2.0343083888292313e-02</internalNodes>
      <leafValues>
        7.5175084173679352e-02 -2.6370212435722351e-01</leafValues></_>
    <_>
      <internalNodes>
        0 -1 122775 -8.8551724329590797e-03</internalNodes>
      <leafValues>
        1.0495983064174652e-01 -2.4573738873004913e-01</leafValues></_>
    <_>
      <internalNodes>
        0 -1 146688 -8.5818227380514145e-03</internalNodes>
      <leafValues>
        -3.9866665005683899e-01 6.4447425305843353e-02</leafValues></_>
    <_>
      <internalNodes>
        0 -1 10153 8.9416697621345520e-02</internalNodes>
      <leafValues>
        7.8141421079635620e-02 -7.2857934236526489e-01</leafValues></_>
    <_>
      <internalNodes>
        0 -1 151886 -1.4053629711270332e-03</internalNodes>
      <leafValues>
        1.9889747723937035e-02 -8.0387067794799805e-01</leafValues></_>
    <_>
      <internalNodes>
        0 -1 62509 -6.3184145838022232e-03</internalNodes>
      <leafValues>
        4.6831962466239929e-01 -6.1152312904596329e-02</leafValues></_>
    <_>
      <internalNodes>
        0 -1 92041 -1.6673166304826736e-02</internalNodes>
      <leafValues>
        -6.4635854959487915e-01 4.6519510447978973e-02</leafValues></_>
    <_>
      <internalNodes>
        0 -1 51220 -6.8259593099355698e-03</internalNodes>
      <leafValues>
        -2.4633495509624481e-01 1.3695329427719116e-01</leafValues></_>
    <_>
      <internalNodes>
        0 -1 118982 -9.7452756017446518e-04</internalNodes>
      <leafValues>
        2.6500335335731506e-01 -1.0733117908239365e-01</leafValues></_>
    <_>
      <internalNodes>
        0 -1 142208 1.1207999195903540e-03</internalNodes>
      <leafValues>
        7.2658851742744446e-02 -3.7696251273155212e-01</leafValues></_>
    <_>
      <internalNodes>
        0 -1 111575 -8.3743399009108543e-03</internalNodes>
      <leafValues>
        3.6204278469085693e-02 -8.9470100402832031e-01</leafValues></_>
    <_>
      <internalNodes>
        0 -1 85906 -2.8242930769920349e-02</internalNodes>
      <leafValues>
        -9.2334645986557007e-01 1.6891846433281898e-02</leafValues></_>
    <_>
      <internalNodes>
        0 -1 76385 -3.5819731652736664e-02</internalNodes>
      <leafValues>
        -1.5024656057357788e-01 1.8873953819274902e-01</leafValues></_>
    <_>
      <internalNodes>
        0 -1 147489 -1.4904096722602844e-02</internalNodes>
      <leafValues>
        2.1572622656822205e-01 -1.4293368160724640e-01</leafValues></_>
    <_>
      <internalNodes>
        0 -1 12827 -2.9801861383020878e-03</internalNodes>
      <leafValues>
        2.8423207998275757e-01 -1.0631872713565826e-01</leafValues></_>
    <_>
      <internalNodes>
        0 -1 159858 -1.9471629057079554e-03</internalNodes>
      <leafValues>
        2.9865100979804993e-01 -1.0596473515033722e-01</leafValues></_>
    <_>
      <internalNodes>
        0 -1 116205 -5.7998642325401306e-02</internalNodes>
      <leafValues>
        4.6535044908523560e-02 -5.6348013877868652e-01</leafValues></_>
    <_>
      <internalNodes>
        0 -1 10610 1.8876735121011734e-02</internalNodes>
      <leafValues>
        -6.0016240924596786e-02 5.0099122524261475e-01</leafValues></_>
    <_>
      <internalNodes>
        0 -1 28727 -4.5833867043256760e-03</internalNodes>
      <leafValues>
        4.0524095296859741e-01 -7.6301194727420807e-02</leafValues></_>
    <_>
      <internalNodes>
        0 -1 17445 -8.8137818966060877e-04</internalNodes>
      <leafValues>
        -2.0752589404582977e-01 1.5920367836952209e-01</leafValues></_>
    <_>
      <internalNodes>
        0 -1 18925 -3.0631916597485542e-03</internalNodes>
      <leafValues>
        2.3262384533882141e-01 -1.2548601627349854e-01</leafValues></_>
    <_>
      <internalNodes>
        0 -1 12106 -2.4509010836482048e-02</internalNodes>
      <leafValues>
        5.5530422925949097e-01 -4.7698352485895157e-02</leafValues></_>
    <_>
      <internalNodes>
        0 -1 404 4.4016409665346146e-03</internalNodes>
      <leafValues>
        -1.0288037359714508e-01 2.6353314518928528e-01</leafValues></_>
    <_>
      <internalNodes>
        0 -1 137622 1.5800718683749437e-03</internalNodes>
      <leafValues>
        -5.5740691721439362e-02 5.4596745967864990e-01</leafValues></_>
    <_>
      <internalNodes>
        0 -1 105646 1.0280552087351680e-03</internalNodes>
      <leafValues>
        6.8020492792129517e-02 -4.2841166257858276e-01</leafValues></_>
    <_>
      <internalNodes>
        0 -1 78266 -1.4159504789859056e-03</internalNodes>
      <leafValues>
        2.8936484456062317e-01 -8.9122071862220764e-02</leafValues></_>
    <_>
      <internalNodes>
        0 -1 77737 1.6281308233737946e-01</internalNodes>
      <leafValues>
        -4.0941718965768814e-02 6.2670928239822388e-01</leafValues></_>
    <_>
      <internalNodes>
        0 -1 78268 2.5020805187523365e-03</internalNodes>
      <leafValues>
        6.0840573161840439e-02 -4.8321470618247986e-01</leafValues></_>
    <_>
      <internalNodes>
        0 -1 89428 9.8220398649573326e-04</internalNodes>
      <leafValues>
        -6.2513075768947601e-02 4.3647897243499756e-01</leafValues></_>
    <_>
      <internalNodes>
        0 -1 39853 -1.1228389106690884e-02</internalNodes>
      <leafValues>
        -4.8923525214195251e-01 6.1880711466073990e-02</leafValues></_>
    <_>
      <internalNodes>
        0 -1 8910 -1.3136595487594604e-02</internalNodes>
      <leafValues>
        4.2793694138526917e-01 -8.0697841942310333e-02</leafValues></_>
    <_>
      <internalNodes>
        0 -1 139616 -3.7363934097811580e-04</internalNodes>
      <leafValues>
        -2.2383150458335876e-01 1.5504419803619385e-01</leafValues></_>
    <_>
      <internalNodes>
        0 -1 135047 -6.5562978852540255e-04</internalNodes>
      <leafValues>
        2.1494038403034210e-01 -1.3362611830234528e-01</leafValues></_>
    <_>
      <internalNodes>
        0 -1 114984 -1.1350030545145273e-03</internalNodes>
      <leafValues>
        -5.4622870683670044e-01 5.4733872413635254e-02</leafValues></_>
    <_>
      <internalNodes>
        0 -1 60371 2.3955520009621978e-04</internalNodes>
      <leafValues>
        -1.7842154204845428e-01 1.5657815337181091e-01</leafValues></_>
    <_>
      <internalNodes>
        0 -1 135103 -3.4389533102512360e-03</internalNodes>
      <leafValues>
        2.2935721278190613e-01 -1.3590465486049652e-01</leafValues></_>
    <_>
      <internalNodes>
        0 -1 133748 -2.0481932733673602e-04</internalNodes>
      <leafValues>
        -2.4944347143173218e-01 1.1075705289840698e-01</leafValues></_>
    <_>
      <internalNodes>
        0 -1 128793 -4.0989384055137634e-02</internalNodes>
      <leafValues>
        6.4009964466094971e-01 -4.5696359127759933e-02</leafValues></_>
    <_>
      <internalNodes>
        0 -1 151629 1.5281039290130138e-02</internalNodes>
      <leafValues>
        -7.0712052285671234e-02 3.6035960912704468e-01</leafValues></_>
    <_>
      <internalNodes>
        0 -1 130315 -9.1281071305274963e-02</internalNodes>
      <leafValues>
        -1.7134858667850494e-01 1.6266891360282898e-01</leafValues></_>
    <_>
      <internalNodes>
        0 -1 132591 -1.7813494196161628e-04</internalNodes>
      <leafValues>
        1.1390758305788040e-01 -2.6246306300163269e-01</leafValues></_>
    <_>
      <internalNodes>
        0 -1 161009 -3.4002214670181274e-03</internalNodes>
      <leafValues>
        3.0663084983825684e-01 -9.4429805874824524e-02</leafValues></_>
    <_>
      <internalNodes>
        0 -1 146969 3.1790577340871096e-03</internalNodes>
      <leafValues>
        6.4692519605159760e-02 -4.8331367969512939e-01</leafValues></_>
    <_>
      <internalNodes>
        0 -1 126628 -3.3256347524002194e-04</internalNodes>
      <leafValues>
        2.3476515710353851e-01 -1.1044673621654510e-01</leafValues></_>
    <_>
      <internalNodes>
        0 -1 126076 1.4488350134342909e-03</internalNodes>
      <leafValues>
        -1.0093175619840622e-01 3.1475976109504700e-01</leafValues></_>
    <_>
      <internalNodes>
        0 -1 31126 -8.3173783496022224e-03</internalNodes>
      <leafValues>
        -7.2457951307296753e-01 3.6598961800336838e-02</leafValues></_>
    <_>
      <internalNodes>
        0 -1 159730 -1.5599445905536413e-03</internalNodes>
      <leafValues>
        3.7292953580617905e-02 -5.7273179292678833e-01</leafValues></_>
    <_>
      <internalNodes>
        0 -1 86416 8.4478994831442833e-03</internalNodes>
      <leafValues>
        2.8027201071381569e-02 -7.5384539365768433e-01</leafValues></_>
    <_>
      <internalNodes>
        0 -1 84351 2.3935928940773010e-02</internalNodes>
      <leafValues>
        -8.3400502800941467e-02 3.6868348717689514e-01</leafValues></_>
    <_>
      <internalNodes>
        0 -1 71864 7.0915874093770981e-03</internalNodes>
      <leafValues>
        1.3890552520751953e-01 -2.1557348966598511e-01</leafValues></_></weakClassifiers></stage7>
</opencv_storage>
