<?xml version="1.0"?>
<opencv_storage>
<stage0>
  <maxWeakCount>7</maxWeakCount>
  <stageThreshold>-1.1481934785842896e+00</stageThreshold>
  <weakClassifiers>
    <_>
      <internalNodes>
        0 -1 149272 -2.9507547616958618e-01</internalNodes>
      <leafValues>
        -9.8958331346511841e-01 -2.9761904478073120e-01</leafValues></_>
    <_>
      <internalNodes>
        0 -1 147743 -8.3572857081890106e-02</internalNodes>
      <leafValues>
        -9.9226421117782593e-01 -4.2972755618393421e-03</leafValues></_>
    <_>
      <internalNodes>
        0 -1 94355 -5.7372003793716431e-03</internalNodes>
      <leafValues>
        2.1946807205677032e-01 -6.5895867347717285e-01</leafValues></_>
    <_>
      <internalNodes>
        0 -1 90412 3.0896544922143221e-03</internalNodes>
      <leafValues>
        -2.6534149050712585e-01 6.2350565195083618e-01</leafValues></_>
    <_>
      <internalNodes>
        0 -1 4418 -1.1697460711002350e-01</internalNodes>
      <leafValues>
        -1. 1.6541458666324615e-01</leafValues></_>
    <_>
      <internalNodes>
        0 -1 27562 -1.0374988615512848e-01</internalNodes>
      <leafValues>
        2.2014637291431427e-01 -7.0935148000717163e-01</leafValues></_>
    <_>
      <internalNodes>
        0 -1 127876 5.2013350650668144e-03</internalNodes>
      <leafValues>
        -2.5646692514419556e-01 7.4152457714080811e-01</leafValues></_></weakClassifiers></stage0>
</opencv_storage>
