<?xml version="1.0"?>
<opencv_storage>
<stage1>
  <maxWeakCount>18</maxWeakCount>
  <stageThreshold>-1.3784667253494263e+00</stageThreshold>
  <weakClassifiers>
    <_>
      <internalNodes>
        0 -1 90532 6.3047790899872780e-03</internalNodes>
      <leafValues>
        -6.3201910257339478e-01 1.7791411280632019e-01</leafValues></_>
    <_>
      <internalNodes>
        0 -1 10155 -1.5849933028221130e-02</internalNodes>
      <leafValues>
        3.0897921323776245e-01 -3.4480199217796326e-01</leafValues></_>
    <_>
      <internalNodes>
        0 -1 150965 -1.4561089873313904e-01</internalNodes>
      <leafValues>
        -8.9124226570129395e-01 1.0639257729053497e-01</leafValues></_>
    <_>
      <internalNodes>
        0 -1 160491 5.8192838914692402e-03</internalNodes>
      <leafValues>
        -1.9317440688610077e-01 5.7950246334075928e-01</leafValues></_>
    <_>
      <internalNodes>
        0 -1 106607 4.7133443877100945e-03</internalNodes>
      <leafValues>
        -2.1081317961215973e-01 4.6451982855796814e-01</leafValues></_>
    <_>
      <internalNodes>
        0 -1 1043 2.6228708028793335e-01</internalNodes>
      <leafValues>
        1.2507958710193634e-01 -8.5343366861343384e-01</leafValues></_>
    <_>
      <internalNodes>
        0 -1 70463 -4.1874614544212818e-03</internalNodes>
      <leafValues>
        4.2788794636726379e-01 -2.3094184696674347e-01</leafValues></_>
    <_>
      <internalNodes>
        0 -1 162139 -7.7506769448518753e-03</internalNodes>
      <leafValues>
        -5.5318617820739746e-01 1.6961829364299774e-01</leafValues></_>
    <_>
      <internalNodes>
        0 -1 80599 -3.9106316398829222e-04</internalNodes>
      <leafValues>
        3.9825856685638428e-01 -2.1822677552700043e-01</leafValues></_>
    <_>
      <internalNodes>
        0 -1 90235 2.0196089521050453e-02</internalNodes>
      <leafValues>
        -1.3093322515487671e-01 5.2921396493911743e-01</leafValues></_>
    <_>
      <internalNodes>
        0 -1 28404 3.6507579497992992e-03</internalNodes>
      <leafValues>
        -1.7253509163856506e-01 5.1198118925094604e-01</leafValues></_>
    <_>
      <internalNodes>
        0 -1 8165 -2.9148391913622618e-03</internalNodes>
      <leafValues>
        5.3374284505844116e-01 -1.5443913638591766e-01</leafValues></_>
    <_>
      <internalNodes>
        0 -1 108684 -1.6403187066316605e-02</internalNodes>
      <leafValues>
        -9.6909481287002563e-01 8.6575329303741455e-02</leafValues></_>
    <_>
      <internalNodes>
        0 -1 155171 9.3392254784703255e-03</internalNodes>
      <leafValues>
        -1.4526295661926270e-01 6.2787288427352905e-01</leafValues></_>
    <_>
      <internalNodes>
        0 -1 31116 8.6172902956604958e-04</internalNodes>
      <leafValues>
        -1.8269501626491547e-01 4.0496200323104858e-01</leafValues></_>
    <_>
      <internalNodes>
        0 -1 78434 -8.7869144976139069e-02</internalNodes>
      <leafValues>
        -2.5893032550811768e-01 3.1931194663047791e-01</leafValues></_>
    <_>
      <internalNodes>
        0 -1 18080 2.3926873691380024e-03</internalNodes>
      <leafValues>
        -2.2994904220104218e-01 4.0617468953132629e-01</leafValues></_>
    <_>
      <internalNodes>
        0 -1 159238 4.9672508612275124e-03</internalNodes>
      <leafValues>
        -1.2174428254365921e-01 6.9226795434951782e-01</leafValues></_></weakClassifiers></stage1>
</opencv_storage>
