<?xml version="1.0"?>
<opencv_storage>
<stage6>
  <maxWeakCount>29</maxWeakCount>
  <stageThreshold>-9.5871943235397339e-01</stageThreshold>
  <weakClassifiers>
    <_>
      <internalNodes>
        0 -1 18061 1.0338926687836647e-02</internalNodes>
      <leafValues>
        -5.7283681631088257e-01 2.6436781883239746e-01</leafValues></_>
    <_>
      <internalNodes>
        0 -1 27167 1.1223940551280975e-01</internalNodes>
      <leafValues>
        -1.8455265462398529e-01 4.2724108695983887e-01</leafValues></_>
    <_>
      <internalNodes>
        0 -1 116336 -9.8179578781127930e-02</internalNodes>
      <leafValues>
        6.6063612699508667e-02 -7.5779348611831665e-01</leafValues></_>
    <_>
      <internalNodes>
        0 -1 35008 -1.5477459877729416e-02</internalNodes>
      <leafValues>
        4.4717219471931458e-01 -1.0253049433231354e-01</leafValues></_>
    <_>
      <internalNodes>
        0 -1 61908 9.3216057866811752e-03</internalNodes>
      <leafValues>
        -7.7621825039386749e-02 5.1899456977844238e-01</leafValues></_>
    <_>
      <internalNodes>
        0 -1 140105 -1.2249860167503357e-01</internalNodes>
      <leafValues>
        -8.0515944957733154e-01 6.4412266016006470e-02</leafValues></_>
    <_>
      <internalNodes>
        0 -1 49562 -3.1799888238310814e-03</internalNodes>
      <leafValues>
        4.0450397133827209e-01 -1.2734512984752655e-01</leafValues></_>
    <_>
      <internalNodes>
        0 -1 18225 3.8387279957532883e-02</internalNodes>
      <leafValues>
        6.9614849984645844e-02 -7.1672391891479492e-01</leafValues></_>
    <_>
      <internalNodes>
        0 -1 19819 -3.8159530609846115e-02</internalNodes>
      <leafValues>
        2.7840372920036316e-01 -1.6839103400707245e-01</leafValues></_>
    <_>
      <internalNodes>
        0 -1 61029 4.6225204132497311e-03</internalNodes>
      <leafValues>
        -1.2052862346172333e-01 3.6548724770545959e-01</leafValues></_>
    <_>
      <internalNodes>
        0 -1 145054 -1.0309668723493814e-03</internalNodes>
      <leafValues>
        -3.0127370357513428e-01 1.7222224175930023e-01</leafValues></_>
    <_>
      <internalNodes>
        0 -1 13025 -7.6484516263008118e-02</internalNodes>
      <leafValues>
        -8.6701905727386475e-01 3.5688873380422592e-02</leafValues></_>
    <_>
      <internalNodes>
        0 -1 119654 -9.5302723348140717e-03</internalNodes>
      <leafValues>
        -8.8851255178451538e-01 3.9132945239543915e-02</leafValues></_>
    <_>
      <internalNodes>
        0 -1 125053 -1.9966363906860352e-03</internalNodes>
      <leafValues>
        5.4184466600418091e-01 -7.7819772064685822e-02</leafValues></_>
    <_>
      <internalNodes>
        0 -1 7409 1.3717666734009981e-03</internalNodes>
      <leafValues>
        -7.2332464158535004e-02 5.7347017526626587e-01</leafValues></_>
    <_>
      <internalNodes>
        0 -1 13186 8.8837358634918928e-04</internalNodes>
      <leafValues>
        -1.3475379347801208e-01 3.1352326273918152e-01</leafValues></_>
    <_>
      <internalNodes>
        0 -1 121752 -2.7810288593173027e-02</internalNodes>
      <leafValues>
        1.9369070231914520e-01 -2.3556204140186310e-01</leafValues></_>
    <_>
      <internalNodes>
        0 -1 67818 -2.9208395630121231e-02</internalNodes>
      <leafValues>
        -1. 3.4912150353193283e-02</leafValues></_>
    <_>
      <internalNodes>
        0 -1 10615 -1.0960355866700411e-03</internalNodes>
      <leafValues>
        -2.5740951299667358e-01 1.7232830822467804e-01</leafValues></_>
    <_>
      <internalNodes>
        0 -1 131565 -1.2654189486056566e-03</internalNodes>
      <leafValues>
        3.5979148745536804e-01 -1.2275864928960800e-01</leafValues></_>
    <_>
      <internalNodes>
        0 -1 123981 -3.7550695240497589e-02</internalNodes>
      <leafValues>
        -7.8026264905929565e-01 6.2679663300514221e-02</leafValues></_>
    <_>
      <internalNodes>
        0 -1 12370 -1.5475613996386528e-02</internalNodes>
      <leafValues>
        5.4094433784484863e-01 -9.3216225504875183e-02</leafValues></_>
    <_>
      <internalNodes>
        0 -1 100588 2.0087896846234798e-03</internalNodes>
      <leafValues>
        -1.2274308502674103e-01 3.0907034873962402e-01</leafValues></_>
    <_>
      <internalNodes>
        0 -1 44621 8.0162286758422852e-04</internalNodes>
      <leafValues>
        1.1428264528512955e-01 -3.2718974351882935e-01</leafValues></_>
    <_>
      <internalNodes>
        0 -1 1348 -2.9754988849163055e-02</internalNodes>
      <leafValues>
        5.3282624483108521e-01 -7.7063292264938354e-02</leafValues></_>
    <_>
      <internalNodes>
        0 -1 34600 -9.0685011819005013e-03</internalNodes>
      <leafValues>
        -4.0564370155334473e-01 9.8828233778476715e-02</leafValues></_>
    <_>
      <internalNodes>
        0 -1 62154 4.6357343671843410e-04</internalNodes>
      <leafValues>
        -2.0541903376579285e-01 2.0577791333198547e-01</leafValues></_>
    <_>
      <internalNodes>
        0 -1 49896 2.3266296833753586e-02</internalNodes>
      <leafValues>
        1.3538545370101929e-01 -2.9643854498863220e-01</leafValues></_>
    <_>
      <internalNodes>
        0 -1 90332 1.8212038278579712e-01</internalNodes>
      <leafValues>
        -7.7701859176158905e-02 5.6330090761184692e-01</leafValues></_></weakClassifiers></stage6>
</opencv_storage>
